tree
version=v4
num_class=4
num_tree_per_iteration=4
label_index=0
max_feature_idx=11
objective=multiclass num_class:4
feature_names=Column_0 Column_1 Column_2 Column_3 Column_4 Column_5 Column_6 Column_7 Column_8 Column_9 Column_10 Column_11
feature_infos=[-110.434906:31.706589000000001] [-46.700020000000002:33.718905999999997] [-31.518077999999999:31.397649999999999] [-81.966674999999995:63.607627999999998] [-53.811996000000001:25.906393000000001] [-35.176600000000001:34.278995999999999] [-29.181941999999999:18.313531999999999] [-12.233808:7.6067600000000004] [-2.1507714:4.1220970000000001] [-88.371229999999997:69.564329999999998] [-39.433906999999998:79.828220000000002] [-47.316299999999998:62.719161999999997]
tree_sizes=569 566 567 568 575 575 576 578 577 573 580 569 575 577 577 580 578 578 579 570 578 574 577 569 579 578 579 579 578 576 577 578 577 579 579 570 578 575 580 576 575 575 575 574 579 578 578 569 577 578 578 577 578 576 579 576 579 578 577 575 576 578 579 568 576 576 579 580 578 577 579 576 579 578 577 579 578 574 580 580 577 576 577 579 575 574 577 574 579 578 579 579 578 576 575 578 580 578 579 577 581 576 580 578 580 577 576 581 580 574 578 579 579 576 580 579 581 574 581 582 580 579 579 578 579 579 581 579 577 577 579 581 579 578 574 573 579 579 579 580 578 577 580 580 580 576 579 577 581 578 578 578 576 576 579 580 581 576 582 580 580 573 579 574 577 575 579 579 581 577 581 578 576 576 573 579 579 572 579 580 583 577 576 578 579 576 579 581 577 578 578 577 576 572 576 577 582 578 574 581 578 578 579 581 582 578 577 572 580 578 579 577 581 577 579 581 580 577 580 579 581 579 579 571 579 574 578 575 582 569 580 579 582 575 582 579 579 575 578 578 580 574 580 577 581 574 580 575 581 573 580 580 581 572 581 581 583 572 579 579 579 575 579 579 581 576 582 581 581 575 581 576 582 576 579 571 581 575 580 572 583 577 580 579 580 576 580 581 582 572 578 580 582 575 577 577 579 575 579 575 582 576 576 577 581 576 578 577 580 576 579 576 580 575 579 578 580 575 581 580 581 575 577 578 579 576 471 572 580 577 574 582 578 574 581 577 580 574 581 579 582 573 578 576 580 577 580 581 581 576 580 582 583 577 577 582 582 574 581 579 584 573 578 576 582 572 582 579 582 577 580 577 584 577 580 580 585 577 583 582 583 573 580 579 581 573 581 579 584 577 582 575 582 577 579 579 579 574 579 572 582 576 581 576 584 576 581 578 584 578 579 572 582 574 580 579 583 577 582 579 585 574 581 572 584 578 583 581 580 574 580 579 583 575 582 581 582 576 581 579 577 574 580 578 582 575 579 581 579 572 580 575 579 570 470 579 576 574 580 580 581 571 470 579 584 574 582 579 580 571 576 581 584 578 581 579 583 573 583 580 579 572 575 576 583 576 581 575 582 574 582 579 580 574 580 579 581 574 581 581 584 576 581 578 580 570 581 578 581 573 576 570 580 574 471 581 579 573 577 576 584 575 580 580 578 573 579 581 581 573 577 577 585 573 581 577 580 573 471 580 584 577 583 578 585 575 582 581 576 574 578 580 580 571 578 580 583 576 580 578 580 573 578 577 583 576 580 577 582 573 581 581 583 575 579 576 578 571 581 578 583 576 581 580 583 578 581 579 585 578 582 582 579 573 577 579 581 574 579 580 584 576 583 577 583 575 579 579 577 572 578 579 583 577 582 582 575 571 577 577 581 577 582 580 582 574 580 581 585 577 581 580 584 577 580 580 582 574 581 577 576 571 578 577 584 578 582 582 580 571 470 577 579 571 578 578 579 572 578 578 582 573 471 581 579 573 579 575 577 571 471 579 581 570 580 578 580 576 584 576 579 573 575 577 580 577 582 576 579 573 471 579 578 572 580 578 579 573 579 579 583 576 580 580 584 576 581 579 578 572 576 572 576 572 577 580 582 576 582 581 578 569 580 577 575 570 470 575 578 571 578 579 580 570 466 580 585 574 581 580 579 572 578 576 575 571 579 575 579 573 576 578 584 577 582 579 584 576 578 580 578 573 581 578 578 571 470 577 578 572 576 576 582 577 581 580 582 576 581 579 571 566 569 570 585 577 580 581 584 576 583 581 574 565 573 572 583 577 582 580

Tree=0
num_leaves=4
num_cat=0
split_feature=8 4 9
split_gain=9.06858 7.58332 4.62293
threshold=0.23643548000000003 -5.4130569999999993 -5.2311591999999996
decision_type=2 2 2
left_child=1 -1 -2
right_child=2 -3 -4
leaf_value=-0.58375230381727161 -0.58316440657771484 -0.58449290988896452 -0.58375705507126185
leaf_weight=394.20709657669067 285.00107657909393 248.66248804330826 295.84557682275772
leaf_count=2072 1498 1307 1555
internal_value=-0.583767 -0.584039 -0.583466
internal_weight=0 642.87 580.847
internal_count=6432 3379 3053
is_linear=0
shrinkage=0.332096


Tree=1
num_leaves=4
num_cat=0
split_feature=0 3 0
split_gain=7.01854 4.94086 3.84478
threshold=4.4859600000000013 4.7447906500000014 -0.5531927499999999
decision_type=2 2 2
left_child=1 2 -1
right_child=-2 -3 -4
leaf_value=-0.36744420038624948 -0.36736668362050745 -0.36810552576458055 -0.3678894797522767
leaf_weight=459.08545744419098 656.17355871200562 382.0794777572155 400.37208595871925
leaf_count=1556 2224 1295 1357
internal_value=-0.367644 -0.367791 -0.367652
internal_weight=0 1241.54 859.458
internal_count=6432 4208 2913
is_linear=0
shrinkage=0.332096


Tree=2
num_leaves=4
num_cat=0
split_feature=8 0 11
split_gain=6.41926 4.5692 5.64886
threshold=0.019656688500000002 3.8331252500000006 4.1906105000000009
decision_type=2 2 2
left_child=-1 2 -2
right_child=1 -3 -4
leaf_value=-0.48311688774721701 -0.48372675064593912 -0.4838675551590077 -0.48312382589728498
leaf_weight=411.05341136455536 351.6843281686306 436.56542703509331 334.27893429994583
leaf_count=1724 1475 1831 1402
internal_value=-0.483472 -0.483602 -0.483433
internal_weight=0 1122.53 685.963
internal_count=6432 4708 2877
is_linear=0
shrinkage=0.332096


Tree=3
num_leaves=4
num_cat=0
split_feature=5 8 8
split_gain=7.26515 4.36049 7.52339
threshold=6.3446202000000005 0.24177268500000001 0.030361822500000003
decision_type=2 2 2
left_child=1 2 -1
right_child=-2 -3 -4
leaf_value=-0.44275831161440671 -0.44209448259240136 -0.44283291181008888 -0.44207647479294615
leaf_weight=384.56959784030914 388.19516980648041 559.8918993473053 333.03468203544617
leaf_count=1485 1499 2162 1286
internal_value=-0.442492 -0.442613 -0.442442
internal_weight=0 1277.5 717.604
internal_count=6432 4933 2771
is_linear=0
shrinkage=0.332096


Tree=4
num_leaves=4
num_cat=0
split_feature=8 4 9
split_gain=8.90015 7.4846 4.5431
threshold=0.23643548000000003 -5.4130569999999993 -6.1372157499999993
decision_type=2 2 2
left_child=1 -1 -2
right_child=2 -3 -4
leaf_value=1.2097266906034081e-05 0.00049222531023332601 -0.00057837546892659526 1.9962183799999044e-05
leaf_weight=394.16991905868053 269.38760453462601 248.27247381210327 311.88612906634808
leaf_count=2072 1414 1307 1639
internal_value=0 -0.000216091 0.00023883
internal_weight=0 642.442 581.274
internal_count=6432 3379 3053
is_linear=0
shrinkage=0.00266382


Tree=5
num_leaves=4
num_cat=0
split_feature=0 3 0
split_gain=6.88613 4.87128 3.78942
threshold=4.4859600000000013 4.7447906500000014 -0.5531927499999999
decision_type=2 2 2
left_child=1 2 -1
right_child=-2 -3 -4
leaf_value=0.00015970079510202386 0.00022066374808110388 -0.00036702206508185613 -0.00019490125982722658
leaf_weight=459.15792119503021 656.40636157989502 381.8867372572422 400.2588717341423
leaf_count=1556 2224 1295 1357
internal_value=0 -0.000116687 -5.44913e-06
internal_weight=0 1241.3 859.417
internal_count=6432 4208 2913
is_linear=0
shrinkage=0.00266382


Tree=6
num_leaves=4
num_cat=0
split_feature=8 0 11
split_gain=6.2886 4.4832 5.56347
threshold=0.019656688500000002 3.8331252500000006 4.1906105000000009
decision_type=2 2 2
left_child=-1 2 -2
right_child=1 -3 -4
leaf_value=0.00028174225715975288 -0.00020301106096118151 -0.00031442562702844968 0.00027691407058441446
leaf_weight=411.36564959585667 351.54801060259342 436.19605866074562 334.47193437814713
leaf_count=1724 1475 1831 1402
internal_value=0 -0.000103277 3.09785e-05
internal_weight=0 1122.22 686.02
internal_count=6432 4708 2877
is_linear=0
shrinkage=0.00266382


Tree=7
num_leaves=4
num_cat=0
split_feature=5 8 8
split_gain=7.15461 4.28806 7.38298
threshold=6.3446202000000005 0.24177268500000001 0.030361822500000003
decision_type=2 2 2
left_child=1 2 -1
right_child=-2 -3 -4
leaf_value=-0.00021155926108039022 0.00031658931195746289 -0.00027106522784675765 0.00033017720018540061
leaf_weight=384.40000489354134 388.41303128004074 559.59420591592789 333.2835239470005
leaf_count=1485 1499 2162 1286
internal_value=0 -9.62729e-05 4.00166e-05
internal_weight=0 1277.28 717.684
internal_count=6432 4933 2771
is_linear=0
shrinkage=0.00266382


Tree=8
num_leaves=4
num_cat=0
split_feature=8 4 9
split_gain=8.73486 7.38706 4.46319
threshold=0.23643548000000003 -5.4130569999999993 -5.2311591999999996
decision_type=2 2 2
left_child=1 -1 -2
right_child=2 -3 -4
leaf_value=2.1422925188640956e-05 0.00082000051396468817 -0.00099414837745946346 1.2359450733676348e-05
leaf_weight=394.13343316316605 285.76822410523891 247.8853225260973 295.92827698588371
leaf_count=2072 1498 1307 1555
internal_value=0 -0.000370692 0.000409127
internal_weight=0 642.019 581.697
internal_count=6432 3379 3053
is_linear=0
shrinkage=0.00460943


Tree=9
num_leaves=4
num_cat=0
split_feature=3 3 7
split_gain=6.7947 8.84856 3.96118
threshold=6.1061812500000006 -12.505395499999997 -1.1837768999999998
decision_type=2 2 2
left_child=1 -1 -3
right_child=-2 2 -4
leaf_value=-0.00040388669335231274 -0.00045374509249069579 0.00011658309225699904 0.00070304792089379746
leaf_weight=406.63692191243172 512.0081122815609 497.50165909528732 481.56139841675758
leaf_count=1378 1736 1686 1632
internal_value=0 0.00016766 0.000405041
internal_weight=0 1385.7 979.063
internal_count=6432 4696 3318
is_linear=0
shrinkage=0.00460943


Tree=10
num_leaves=4
num_cat=0
split_feature=5 8 10
split_gain=6.20955 7.19237 3.66178
threshold=3.4823387500000003 0.094842570000000015 13.613089500000003
decision_type=2 2 2
left_child=1 -1 -2
right_child=2 -3 -4
leaf_value=0.00083105636619488761 -0.00068686976507958703 -6.4608822003516241e-05 -2.5988025140486876e-05
leaf_weight=308.90735952556133 311.25428532063961 496.93019430339336 416.4884370714426
leaf_count=1294 1306 2085 1747
internal_value=0 0.000278733 -0.000308646
internal_weight=0 805.838 727.743
internal_count=6432 3379 3053
is_linear=0
shrinkage=0.00460943


Tree=11
num_leaves=4
num_cat=0
split_feature=5 6 8
split_gain=7.04588 4.22138 4.40624
threshold=6.3446202000000005 -1.1360428999999999 0.17246279
decision_type=2 2 2
left_child=1 -1 -3
right_child=-2 2 -4
leaf_value=-0.00046226647370798866 0.00054344663678377269 0.00044370300461997572 -0.00028241010599245752
leaf_weight=566.32162791490555 388.62881895899773 346.10702326893806 364.6316374540329
leaf_count=2188 1499 1336 1409
internal_value=0 -0.000165379 7.11838e-05
internal_weight=0 1277.06 710.739
internal_count=6432 4933 2745
is_linear=0
shrinkage=0.00460943


Tree=12
num_leaves=4
num_cat=0
split_feature=8 4 9
split_gain=8.57468 7.2926 4.38953
threshold=0.23643548000000003 -5.4130569999999993 -6.1372157499999993
decision_type=2 2 2
left_child=1 -1 -2
right_child=2 -3 -4
leaf_value=1.6621131906285803e-05 0.00063341826589686568 -0.00074896035193085264 2.4756876894145311e-05
leaf_weight=394.09659525752068 270.1124159693718 247.50740398466587 311.99739994108677
leaf_count=2072 1414 1307 1639
internal_value=0 -0.000278712 0.00030719
internal_weight=0 641.604 582.11
internal_count=6432 3379 3053
is_linear=0
shrinkage=0.00349552


Tree=13
num_leaves=4
num_cat=0
split_feature=0 3 0
split_gain=6.75648 4.74766 3.73497
threshold=4.4859600000000013 4.7447906500000014 -0.5531927499999999
decision_type=2 2 2
left_child=1 2 -1
right_child=-2 -3 -4
leaf_value=0.00020744717855685055 0.0002867467451828128 -0.00047617285445359416 -0.00025450644716981294
leaf_weight=459.27988252043724 656.63578075170517 381.59924644231796 400.19182169437408
leaf_count=1556 2224 1295 1357
internal_value=0 -0.00015171 -7.65014e-06
internal_weight=0 1241.07 859.472
internal_count=6432 4208 2913
is_linear=0
shrinkage=0.00349552


Tree=14
num_leaves=4
num_cat=0
split_feature=10 10 6
split_gain=6.23156 10.8146 5.19658
threshold=18.926242500000004 12.578863750000002 0.34199491000000004
decision_type=2 2 2
left_child=1 -1 -3
right_child=-2 2 -4
leaf_value=-0.00026389274011319274 -0.0004388576313474941 0.00069718958224959844 9.1145457629238021e-05
leaf_weight=527.45112189650536 314.31597532331944 353.2313432097435 338.58056093752384
leaf_count=2213 1318 1481 1420
internal_value=0 0.000113133 0.000400585
internal_weight=0 1219.26 691.812
internal_count=6432 5114 2901
is_linear=0
shrinkage=0.00349552


Tree=15
num_leaves=4
num_cat=0
split_feature=5 8 8
split_gain=6.92136 4.17349 7.21098
threshold=6.3446202000000005 0.24177268500000001 0.030361822500000003
decision_type=2 2 2
left_child=1 2 -1
right_child=-2 -3 -4
leaf_value=-0.00027445663257633714 0.00040828886751830576 -0.00035079210137737844 0.00042802667163216565
leaf_weight=384.16951003670692 388.87789952754974 559.06510090827942 333.57488325238228
leaf_count=1485 1499 2162 1286
internal_value=0 -0.000124353 5.20256e-05
internal_weight=0 1276.81 717.744
internal_count=6432 4933 2771
is_linear=0
shrinkage=0.00349552


Tree=16
num_leaves=4
num_cat=0
split_feature=8 4 6
split_gain=8.42887 7.1984 4.32668
threshold=0.23643548000000003 -5.4130569999999993 0.17552645000000003
decision_type=2 2 2
left_child=1 -1 -2
right_child=2 -3 -4
leaf_value=1.5526579128676672e-05 0.00057242103658402209 -0.00068814684778528809 1.4736081927012423e-05
leaf_weight=394.07989767193794 278.58472727239132 247.14259399473667 303.90433470904827
leaf_count=2072 1460 1307 1593
internal_value=0 -0.000255686 0.000281458
internal_weight=0 641.222 582.489
internal_count=6432 3379 3053
is_linear=0
shrinkage=0.00323232


Tree=17
num_leaves=4
num_cat=0
split_feature=0 3 0
split_gain=6.65284 4.68057 3.67793
threshold=4.4859600000000013 4.7447906500000014 -0.5531927499999999
decision_type=2 2 2
left_child=1 2 -1
right_child=-2 -3 -4
leaf_value=0.00019034567056030346 0.00026305909469205693 -0.0004372296001007585 -0.00023355988703335849
leaf_weight=459.37224784493446 656.82070675492287 381.42252430319786 400.08834099769592
leaf_count=1556 2224 1295 1357
internal_value=0 -0.000139235 -6.98702e-06
internal_weight=0 1240.88 859.461
internal_count=6432 4208 2913
is_linear=0
shrinkage=0.00323232


Tree=18
num_leaves=4
num_cat=0
split_feature=10 10 6
split_gain=6.14081 10.6446 5.10888
threshold=18.926242500000004 12.578863750000002 0.34199491000000004
decision_type=2 2 2
left_child=1 -1 -3
right_child=-2 2 -4
leaf_value=-0.00024223179796492697 -0.00040301965196980389 0.00063909196518181408 8.3597296926729087e-05
leaf_weight=527.23102381825447 314.10366232693195 353.61263611912727 338.63051021099091
leaf_count=2213 1318 1481 1420
internal_value=0 0.000103805 0.000367356
internal_weight=0 1219.47 692.243
internal_count=6432 5114 2901
is_linear=0
shrinkage=0.00323232


Tree=19
num_leaves=4
num_cat=0
split_feature=5 6 8
split_gain=6.81637 4.12055 4.28139
threshold=6.3446202000000005 -1.1360428999999999 0.17246279
decision_type=2 2 2
left_child=1 -1 -3
right_child=-2 2 -4
leaf_value=-0.00031997473246509514 0.00037453870273370082 0.00030700727840277499 -0.00019488792678615843
leaf_weight=565.82738998532295 389.08947047591209 346.36919206380844 364.39815527200699
leaf_count=2188 1499 1336 1409
internal_value=0 -0.000114155 4.96943e-05
internal_weight=0 1276.59 710.767
internal_count=6432 4933 2745
is_linear=0
shrinkage=0.00323232


Tree=20
num_leaves=4
num_cat=0
split_feature=8 4 9
split_gain=8.29188 7.10448 4.30476
threshold=0.23643548000000003 -5.4130569999999993 -6.1372157499999993
decision_type=2 2 2
left_child=1 -1 -2
right_child=2 -3 -4
leaf_value=1.9194304395415567e-05 0.00071176756861645566 -0.00084300793350213226 2.510364998706654e-05
leaf_weight=394.07525590062141 270.63927733898163 246.78531667590141 312.20924280583858
leaf_count=2072 1414 1307 1639
internal_value=0 -0.000312826 0.000343948
internal_weight=0 640.861 582.849
internal_count=6432 3379 3053
is_linear=0
shrinkage=0.00398484


Tree=21
num_leaves=4
num_cat=0
split_feature=3 3 7
split_gain=6.58356 8.73273 3.90124
threshold=6.1061812500000006 -12.505395499999997 -1.1837768999999998
decision_type=2 2 2
left_child=1 -1 -3
right_child=-2 2 -4
leaf_value=-0.00034830911876125126 -0.00038630102602932461 9.8919840079868401e-05 0.00060196146470467386
leaf_weight=406.595269292593 511.64301314949989 497.60445323586464 481.857366502285
leaf_count=1378 1736 1686 1632
internal_value=0 0.000142607 0.000346397
internal_weight=0 1386.06 979.462
internal_count=6432 4696 3318
is_linear=0
shrinkage=0.00398484


Tree=22
num_leaves=4
num_cat=0
split_feature=5 8 10
split_gain=6.05318 7.0232 3.5489
threshold=3.4823387500000003 0.094842570000000015 13.613089500000003
decision_type=2 2 2
left_child=1 -1 -2
right_child=2 -3 -4
leaf_value=0.00070912073243312775 -0.00058586283822165109 -5.5675395852375277e-05 -2.3167747959744339e-05
leaf_weight=309.36219727993011 310.76055885851383 496.91337771713734 416.53965303301811
leaf_count=1294 1306 2085 1747
internal_value=0 0.000237771 -0.000263596
internal_weight=0 806.276 727.3
internal_count=6432 3379 3053
is_linear=0
shrinkage=0.00398484


Tree=23
num_leaves=4
num_cat=0
split_feature=5 6 8
split_gain=6.71269 4.03703 4.20649
threshold=6.3446202000000005 -1.1360428999999999 0.17246279
decision_type=2 2 2
left_child=1 -1 -3
right_child=-2 2 -4
leaf_value=-0.00039097520812432773 0.00045804686225332125 0.00037444319264234784 -0.00023880325560786747
leaf_weight=565.4931500852108 389.29988127946854 346.57725304365158 364.31064558029175
leaf_count=2188 1499 1336 1409
internal_value=0 -0.000139707 6.01711e-05
internal_weight=0 1276.38 710.888
internal_count=6432 4933 2745
is_linear=0
shrinkage=0.00398484


Tree=24
num_leaves=4
num_cat=0
split_feature=8 4 6
split_gain=8.13956 7.01341 4.25194
threshold=0.23643548000000003 -5.4130569999999993 0.17552645000000003
decision_type=2 2 2
left_child=1 -1 -2
right_child=2 -3 -4
leaf_value=1.6644650935753692e-05 0.00059051544191794647 -0.00071083478599432055 1.2403852533891255e-05
leaf_weight=394.03946514427662 279.11193759739399 246.41508407890797 304.13935604691505
leaf_count=2072 1460 1307 1593
internal_value=0 -0.000263253 0.000289056
internal_weight=0 640.455 583.251
internal_count=6432 3379 3053
is_linear=0
shrinkage=0.00338233


Tree=25
num_leaves=4
num_cat=0
split_feature=0 3 0
split_gain=6.55141 4.55957 3.62268
threshold=4.4859600000000013 4.7447906500000014 -0.5531927499999999
decision_type=2 2 2
left_child=1 2 -1
right_child=-2 -3 -4
leaf_value=0.00019680787613551674 0.00027310610754502438 -0.00045252530752794702 -0.00024341084877213664
leaf_weight=459.51305541396141 657.00199890136719 381.14891049265862 400.03307482600212
leaf_count=1556 2224 1295 1357
internal_value=0 -0.000144609 -8.07008e-06
internal_weight=0 1240.7 859.546
internal_count=6432 4208 2913
is_linear=0
shrinkage=0.00338233


Tree=26
num_leaves=4
num_cat=0
split_feature=10 10 6
split_gain=6.07632 10.4221 5.00347
threshold=18.926242500000004 12.578863750000002 0.34199491000000004
decision_type=2 2 2
left_child=1 -1 -3
right_child=-2 2 -4
leaf_value=-0.00025049899445610724 -0.00041963076560451484 0.00066183353184181182 8.6787231136621623e-05
leaf_weight=526.88093040883541 313.95133721828461 354.06252552568913 338.67825050652027
leaf_count=2213 1318 1481 1420
internal_value=0 0.000108017 0.000380696
internal_weight=0 1219.62 692.741
internal_count=6432 5114 2901
is_linear=0
shrinkage=0.00338233


Tree=27
num_leaves=4
num_cat=0
split_feature=5 8 8
split_gain=6.59401 3.99355 7.04728
threshold=6.3446202000000005 0.24177268500000001 0.030361822500000003
decision_type=2 2 2
left_child=1 2 -1
right_child=-2 -3 -4
leaf_value=-0.00026321924770388765 0.00038518012779825505 -0.0003321434219640238 0.00040865828213450901
leaf_weight=383.99106815457344 389.54263564944267 558.25244867801666 333.89079120755196
leaf_count=1485 1499 2162 1286
internal_value=0 -0.000117579 4.92747e-05
internal_weight=0 1276.13 717.882
internal_count=6432 4933 2771
is_linear=0
shrinkage=0.00338233


Tree=28
num_leaves=4
num_cat=0
split_feature=8 4 9
split_gain=8.31165 7.10828 4.37541
threshold=0.23643548000000003 -5.4130569999999993 -6.1372157499999993
decision_type=2 2 2
left_child=1 -1 -2
right_child=2 -3 -4
leaf_value=7.1965452150827363e-06 0.00027174554285810444 -0.00032036002723545863 8.780259230096196e-06
leaf_weight=394.09649397432804 270.45083133876324 246.81448596715927 312.34432947635651
leaf_count=2072 1414 1307 1639
internal_value=0 -0.000118945 0.000130811
internal_weight=0 640.911 582.795
internal_count=6432 3379 3053
is_linear=0
shrinkage=0.00151353


Tree=29
num_leaves=4
num_cat=0
split_feature=3 3 7
split_gain=6.58856 8.73467 3.90436
threshold=6.1061812500000006 -12.505395499999997 -1.1837768999999998
decision_type=2 2 2
left_child=1 -1 -3
right_child=-2 2 -4
leaf_value=-0.0001322967792280736 -0.00014678180815913948 3.7563804901284708e-05 0.0002287078530695023
leaf_weight=406.59534156322479 511.65206691622734 497.60565716028214 481.84810376167297
leaf_count=1378 1736 1686 1632
internal_value=0 5.41851e-05 0.000131598
internal_weight=0 1386.05 979.454
internal_count=6432 4696 3318
is_linear=0
shrinkage=0.00151353


Tree=30
num_leaves=4
num_cat=0
split_feature=8 0 11
split_gain=6.08149 4.4158 5.57025
threshold=0.019656688500000002 3.8331252500000006 4.1906105000000009
decision_type=2 2 2
left_child=-1 2 -2
right_child=1 -3 -4
leaf_value=0.00015728913811700657 -0.00011509782533026798 -0.00017689347482466918 0.00015777518417226327
leaf_weight=411.86581799387932 351.50305800139904 435.80091927945614 334.40694536268711
leaf_count=1724 1475 1831 1402
internal_value=0 -5.77568e-05 1.7938e-05
internal_weight=0 1121.71 685.91
internal_count=6432 4708 2877
is_linear=0
shrinkage=0.00151353


Tree=31
num_leaves=4
num_cat=0
split_feature=5 8 8
split_gain=6.71672 4.02657 7.10363
threshold=6.3446202000000005 0.24177268500000001 0.030361822500000003
decision_type=2 2 2
left_child=1 2 -1
right_child=-2 -3 -4
leaf_value=-0.00011845687860452861 0.00017403154351380645 -0.00014946458825848682 0.00018339167083881292
leaf_weight=384.10462883114815 389.29159760475159 558.4606853723526 333.82379645109177
leaf_count=1485 1499 2162 1286
internal_value=0 -5.3079e-05 2.18973e-05
internal_weight=0 1276.39 717.928
internal_count=6432 4933 2771
is_linear=0
shrinkage=0.00151353


Tree=32
num_leaves=4
num_cat=0
split_feature=8 4 9
split_gain=8.05251 6.95409 4.24889
threshold=0.23643548000000003 -5.4130569999999993 -5.2311591999999996
decision_type=2 2 2
left_child=1 -1 -2
right_child=2 -3 -4
leaf_value=1.739972935694327e-05 0.00060512603235325657 -0.00073776097228924896 3.4517803740618045e-06
leaf_weight=394.03420893847942 287.11559779942036 246.18550825119019 296.36718741059303
leaf_count=2072 1498 1307 1555
internal_value=0 -0.000272984 0.000299519
internal_weight=0 640.22 583.483
internal_count=6432 3379 3053
is_linear=0
shrinkage=0.00352495


Tree=33
num_leaves=4
num_cat=0
split_feature=0 3 0
split_gain=6.48526 4.52041 3.58667
threshold=4.4859600000000013 4.7447906500000014 -0.5531927499999999
decision_type=2 2 2
left_child=1 2 -1
right_child=-2 -3 -4
leaf_value=0.00020413036405622534 0.00028314207685249437 -0.00046954301230422621 -0.00025237326753662661
leaf_weight=459.56870660185814 657.12148520350456 381.04031008481979 399.96367081999779
leaf_count=1556 2224 1295 1357
internal_value=0 -0.000149965 -8.29313e-06
internal_weight=0 1240.57 859.532
internal_count=6432 4208 2913
is_linear=0
shrinkage=0.00352495


Tree=34
num_leaves=4
num_cat=0
split_feature=10 10 6
split_gain=5.98136 10.2774 4.93414
threshold=18.926242500000004 12.578863750000002 0.34199491000000004
decision_type=2 2 2
left_child=1 -1 -3
right_child=-2 2 -4
leaf_value=-0.00025952774296347439 -0.00043409216328232783 0.00068444593349517569 8.9482792467630561e-05
leaf_weight=526.70840266346931 313.72630031406879 354.39378073811531 338.74285098910332
leaf_count=2213 1318 1481 1420
internal_value=0 0.000111637 0.000393681
internal_weight=0 1219.85 693.137
internal_count=6432 5114 2901
is_linear=0
shrinkage=0.00352495


Tree=35
num_leaves=4
num_cat=0
split_feature=5 6 8
split_gain=6.53394 3.95428 4.11566
threshold=6.3446202000000005 -1.1360428999999999 0.17246279
decision_type=2 2 2
left_child=1 -1 -3
right_child=-2 2 -4
leaf_value=-0.00034210019184335546 0.00039950627426719944 0.00032777909954331933 -0.00020878524223784888
leaf_weight=565.08621293306351 389.66619247198105 346.77752080559731 364.14328226447105
leaf_count=2188 1499 1336 1409
internal_value=0 -0.000122004 5.29436e-05
internal_weight=0 1276.01 710.921
internal_count=6432 4933 2745
is_linear=0
shrinkage=0.00352495


Tree=36
num_leaves=4
num_cat=0
split_feature=8 4 6
split_gain=7.92163 6.86315 4.19211
threshold=0.23643548000000003 -5.4130569999999993 0.17552645000000003
decision_type=2 2 2
left_child=1 -1 -2
right_child=2 -3 -4
leaf_value=1.9882185158058204e-05 0.00069376626183358179 -0.00083574200159810901 1.2122951645552208e-05
leaf_weight=394.03013011813164 279.52233707904816 245.83472202718258 304.31082762777805
leaf_count=2072 1460 1307 1593
internal_value=0 -0.000308847 0.000338474
internal_weight=0 639.865 583.833
internal_count=6432 3379 3053
is_linear=0
shrinkage=0.0040185


Tree=37
num_leaves=4
num_cat=0
split_feature=3 3 7
split_gain=6.39877 8.61608 3.8431
threshold=6.1061812500000006 -12.505395499999997 -1.1837768999999998
decision_type=2 2 2
left_child=1 -1 -3
right_child=-2 2 -4
leaf_value=-0.00035009401325088939 -0.00038422104091579042 9.807742806909443e-05 0.00060147750943567605
leaf_weight=406.53879708051682 511.31696137785912 497.69542244076729 482.13729953765869
leaf_count=1378 1736 1686 1632
internal_value=0 0.000141723 0.000345781
internal_weight=0 1386.37 979.833
internal_count=6432 4696 3318
is_linear=0
shrinkage=0.0040185


Tree=38
num_leaves=4
num_cat=0
split_feature=5 8 10
split_gain=5.93795 6.89897 3.45644
threshold=3.4823387500000003 0.094842570000000015 13.613089500000003
decision_type=2 2 2
left_child=1 -1 -2
right_child=2 -3 -4
leaf_value=0.00070813381713972785 -0.00058442576836820995 -5.6018850340662858e-05 -2.4232312488635938e-05
leaf_weight=309.69912734627724 310.36623528599739 496.90028512477875 416.60160720348358
leaf_count=1294 1306 2085 1747
internal_value=0 0.000237383 -0.000263397
internal_weight=0 806.599 726.968
internal_count=6432 3379 3053
is_linear=0
shrinkage=0.0040185


Tree=39
num_leaves=4
num_cat=0
split_feature=5 9 2
split_gain=6.43481 3.92487 7.06006
threshold=6.3446202000000005 -8.1113079999999975 0.7849617000000001
decision_type=2 2 2
left_child=1 -1 -3
right_child=-2 2 -4
leaf_value=-0.00039242590020704005 0.00045181877478248133 -0.00033156011192804957 0.00046357691623949177
leaf_weight=554.15261098742485 389.87125185132027 368.77945950627327 352.86451336741447
leaf_count=2143 1499 1426 1364
internal_value=0 -0.000138076 5.72405e-05
internal_weight=0 1275.8 721.644
internal_count=6432 4933 2790
is_linear=0
shrinkage=0.0040185


Tree=40
num_leaves=4
num_cat=0
split_feature=8 4 9
split_gain=7.78893 6.77643 4.16326
threshold=0.23643548000000003 -5.4130569999999993 -6.1372157499999993
decision_type=2 2 2
left_child=1 -1 -2
right_child=2 -3 -4
leaf_value=1.83959624730843e-05 0.00064064310485251251 -0.00076072588848036867 1.7627430673310791e-05
leaf_weight=394.01291224360466 271.57335156202316 245.48905692994595 312.6184317022562
leaf_count=2072 1414 1307 1639
internal_value=0 -0.00028069 0.000307249
internal_weight=0 639.502 584.192
internal_count=6432 3379 3053
is_linear=0
shrinkage=0.00368091


Tree=41
num_leaves=4
num_cat=0
split_feature=0 9 9
split_gain=6.38517 4.4663 3.99407
threshold=4.4859600000000013 1.0217830000000003 -9.9790734999999984
decision_type=2 2 2
left_child=1 2 -1
right_child=-2 -3 -4
leaf_value=-0.00023722573077085925 0.00029332189204248408 -0.00046738776761360369 0.00027594726165380395
leaf_weight=442.72662016749382 657.30185788869858 414.16157749295235 383.4942966401577
leaf_count=1502 2224 1405 1301
internal_value=0 -0.000155417 9.6591e-07
internal_weight=0 1240.38 826.221
internal_count=6432 4208 2803
is_linear=0
shrinkage=0.00368091


Tree=42
num_leaves=4
num_cat=0
split_feature=10 10 6
split_gain=5.91973 10.063 4.8416
threshold=18.926242500000004 12.578863750000002 0.34199491000000004
decision_type=2 2 2
left_child=1 -1 -3
right_child=-2 2 -4
leaf_value=-0.00026782163076493145 -0.00045109124545669916 0.00070767389335832831 9.2448408021201644e-05
leaf_weight=526.3631402105093 313.57848674058914 354.81595228612423 338.80602538585663
leaf_count=2213 1318 1481 1420
internal_value=0 0.00011594 0.000407161
internal_weight=0 1219.99 693.622
internal_count=6432 5114 2901
is_linear=0
shrinkage=0.00368091


Tree=43
num_leaves=4
num_cat=0
split_feature=5 8 8
split_gain=6.3206 3.8729 6.91086
threshold=6.3446202000000005 0.24177268500000001 0.030361822500000003
decision_type=2 2 2
left_child=1 2 -1
right_child=-2 -3 -4
leaf_value=-0.00028360933350355332 0.00041000782320426462 -0.00035553484887641714 0.00044042390474083694
leaf_weight=383.7924767434597 390.10948181152344 557.64434963464737 334.1176769733429
leaf_count=1485 1499 2162 1286
internal_value=0 -0.000125401 5.3358e-05
internal_weight=0 1275.55 717.91
internal_count=6432 4933 2771
is_linear=0
shrinkage=0.00368091


Tree=44
num_leaves=4
num_cat=0
split_feature=8 4 6
split_gain=7.92157 6.86828 4.18744
threshold=0.23643548000000003 -5.4130569999999993 0.17552645000000003
decision_type=2 2 2
left_child=1 -1 -2
right_child=2 -3 -4
leaf_value=9.7688724257251534e-06 0.00033833521761247301 -0.00040777738562376774 5.9990641377822905e-06
leaf_weight=394.01797519624233 279.53319062292576 245.84592436254025 304.29932664334774
leaf_count=2072 1460 1307 1593
internal_value=0 -0.000150659 0.000165118
internal_weight=0 639.864 583.833
internal_count=6432 3379 3053
is_linear=0
shrinkage=0.00196032


Tree=45
num_leaves=4
num_cat=0
split_feature=0 3 0
split_gain=6.48547 4.47227 3.5897
threshold=4.4859600000000013 4.7447906500000014 -0.5531927499999999
decision_type=2 2 2
left_child=1 2 -1
right_child=-2 -3 -4
leaf_value=0.00011313222448475141 0.00015746452113833472 -0.00026020793821208575 -0.00014083593887407532
leaf_weight=459.60821849107742 657.12030476331711 380.95328196883202 400.00948420166969
leaf_count=1556 2224 1295 1357
internal_value=0 -8.34021e-05 -5.04784e-06
internal_weight=0 1240.57 859.618
internal_count=6432 4208 2913
is_linear=0
shrinkage=0.00196032


Tree=46
num_leaves=4
num_cat=0
split_feature=10 10 6
split_gain=6.00834 10.2267 4.92701
threshold=18.926242500000004 12.578863750000002 0.34199491000000004
decision_type=2 2 2
left_child=1 -1 -3
right_child=-2 2 -4
leaf_value=-0.00014371124282757918 -0.00024192287764685628 0.0003802478493036644 4.9626304997903922e-05
leaf_weight=526.58181467652321 313.78991350531578 354.43710027635098 338.75896008312702
leaf_count=2213 1318 1481 1420
internal_value=0 6.22323e-05 0.000218676
internal_weight=0 1219.78 693.196
internal_count=6432 5114 2901
is_linear=0
shrinkage=0.00196032


Tree=47
num_leaves=4
num_cat=0
split_feature=5 6 8
split_gain=6.42115 3.93866 4.11495
threshold=6.3446202000000005 -1.1360428999999999 0.17246279
decision_type=2 2 2
left_child=1 -1 -3
right_child=-2 2 -4
leaf_value=-0.00018946892063650291 0.0002201626789802791 0.00018265144480955351 -0.00011573812945935393
leaf_weight=564.93380162119865 389.89980220794678 346.73893508315086 364.09747597575188
leaf_count=2188 1499 1336 1409
internal_value=0 -6.72888e-05 2.98133e-05
internal_weight=0 1275.77 710.836
internal_count=6432 4933 2745
is_linear=0
shrinkage=0.00196032


Tree=48
num_leaves=4
num_cat=0
split_feature=8 4 6
split_gain=7.7004 6.71877 4.12439
threshold=0.23643548000000003 -5.4130569999999993 0.17552645000000003
decision_type=2 2 2
left_child=1 -1 -2
right_child=2 -3 -4
leaf_value=1.2057807123377507e-05 0.00040850692304472984 -0.00049286109360278918 5.7684177545854899e-06
leaf_weight=394.00015588104725 279.96080335974693 245.25735192000866 304.4712323397398
leaf_count=2072 1460 1307 1593
internal_value=0 -0.000181659 0.000198692
internal_weight=0 639.258 584.432
internal_count=6432 3379 3053
is_linear=0
shrinkage=0.00239496


Tree=49
num_leaves=4
num_cat=0
split_feature=0 9 9
split_gain=6.32023 4.42834 3.95261
threshold=4.4859600000000013 1.0217830000000003 -9.9790734999999984
decision_type=2 2 2
left_child=1 2 -1
right_child=-2 -3 -4
leaf_value=-0.00015350863940643146 0.00018984867498608279 -0.00030277199934327547 0.00017864433890705313
leaf_weight=442.65373954176903 657.42033806443214 414.05064830183983 383.55723279714584
leaf_count=1502 2224 1405 1301
internal_value=0 -0.000100619 6.88874e-07
internal_weight=0 1240.26 826.211
internal_count=6432 4208 2803
is_linear=0
shrinkage=0.00239496


Tree=50
num_leaves=4
num_cat=0
split_feature=10 10 6
split_gain=5.86393 9.95982 4.78703
threshold=18.926242500000004 12.578863750000002 0.34199491000000004
decision_type=2 2 2
left_child=1 -1 -3
right_child=-2 2 -4
leaf_value=-0.00017341707539740537 -0.00029219149910679921 0.00045781911858306794 5.9864368699580701e-05
leaf_weight=526.2240114659071 313.44446958601475 355.05780072510242 338.83413973450661
leaf_count=2213 1318 1481 1420
internal_value=0 7.50585e-05 0.000263494
internal_weight=0 1220.12 693.892
internal_count=6432 5114 2901
is_linear=0
shrinkage=0.00239496


Tree=51
num_leaves=4
num_cat=0
split_feature=5 9 2
split_gain=6.25669 3.86803 6.94931
threshold=6.3446202000000005 -8.1113079999999975 0.7849617000000001
decision_type=2 2 2
left_child=1 -1 -3
right_child=-2 2 -4
leaf_value=-0.00023174666705796029 0.00026535611559083233 -0.0001956651346286535 0.00027450186226882434
leaf_weight=553.81849825382233 390.24363845586777 368.57950600981712 353.01800069212914
leaf_count=2143 1499 1426 1364
internal_value=0 -8.11968e-05 3.43487e-05
internal_weight=0 1275.42 721.598
internal_count=6432 4933 2790
is_linear=0
shrinkage=0.00239496


Tree=52
num_leaves=4
num_cat=0
split_feature=8 4 9
split_gain=7.58611 6.63276 4.1072
threshold=0.23643548000000003 -5.4130569999999993 -5.2311591999999996
decision_type=2 2 2
left_child=1 -1 -2
right_child=2 -3 -4
leaf_value=1.9103787215433942e-05 0.00063858429745392649 -0.00078049543810470971 -1.0576686546519539e-06
leaf_weight=394.00960738956928 288.05321678519249 244.92990407347679 296.69137740135193
leaf_count=2072 1498 1307 1555
internal_value=0 -0.000287413 0.000314039
internal_weight=0 638.94 584.745
internal_count=6432 3379 3053
is_linear=0
shrinkage=0.00381566


Tree=53
num_leaves=4
num_cat=0
split_feature=3 3 7
split_gain=6.32303 8.4601 3.79894
threshold=6.1061812500000006 -12.505395499999997 -1.1837768999999998
decision_type=2 2 2
left_child=1 -1 -3
right_child=-2 2 -4
leaf_value=-0.00032913664539076102 -0.00036272248455588793 9.1825611125782421e-05 0.00056699003687481371
leaf_weight=406.37239024043083 511.18017047643661 497.76951450109482 482.35529035329819
leaf_count=1378 1736 1686 1632
internal_value=0 0.000133752 0.000325671
internal_weight=0 1386.5 980.125
internal_count=6432 4696 3318
is_linear=0
shrinkage=0.00381566


Tree=54
num_leaves=4
num_cat=0
split_feature=5 8 10
split_gain=5.79391 6.73659 3.35998
threshold=3.4823387500000003 0.094842570000000015 13.613089500000003
decision_type=2 2 2
left_child=1 -1 -2
right_child=2 -3 -4
leaf_value=0.00066378933179464148 -0.0005480411421890151 -5.2898259901735869e-05 -2.3388883791241058e-05
leaf_weight=310.13721626996994 309.91879577934742 496.87081900238991 416.6283788383007
leaf_count=1294 1306 2085 1747
internal_value=0 0.000222528 -0.000247187
internal_weight=0 807.008 726.547
internal_count=6432 3379 3053
is_linear=0
shrinkage=0.00381566


Tree=55
num_leaves=4
num_cat=0
split_feature=5 9 2
split_gain=6.1602 3.81403 6.83984
threshold=6.3446202000000005 -8.1113079999999975 0.7849617000000001
decision_type=2 2 2
left_child=1 -1 -3
right_child=-2 2 -4
leaf_value=-0.00036666457843755019 0.00041934938477201082 -0.00030936762649056749 0.00043375246153593526
leaf_weight=553.56803324818611 390.44735449552536 368.42669641971588 353.21265906095505
leaf_count=2143 1499 1426 1364
internal_value=0 -0.000128408 5.4359e-05
internal_weight=0 1275.21 721.639
internal_count=6432 4933 2790
is_linear=0
shrinkage=0.00381566


Tree=56
num_leaves=4
num_cat=0
split_feature=8 4 6
split_gain=7.45888 6.54878 4.05679
threshold=0.23643548000000003 -5.4130569999999993 0.17552645000000003
decision_type=2 2 2
left_child=1 -1 -2
right_child=2 -3 -4
leaf_value=9.2728173743759845e-06 0.00030879629078087796 -0.00037282577353479375 3.0712117259653435e-06
leaf_weight=393.99276353418827 280.43021860718727 244.59027756750584 304.66478982567787
leaf_count=2072 1460 1307 1593
internal_value=0 -0.000137079 0.000149602
internal_weight=0 638.583 585.095
internal_count=6432 3379 3053
is_linear=0
shrinkage=0.00183422


Tree=57
num_leaves=4
num_cat=0
split_feature=3 3 7
split_gain=6.23045 8.33164 3.74132
threshold=6.1061812500000006 -12.505395499999997 -1.1837768999999998
decision_type=2 2 2
left_child=1 -1 -3
right_child=-2 2 -4
leaf_value=-0.00015705929075933924 -0.00017311879752037718 4.3770680198509093e-05 0.00027041367109123228
leaf_weight=406.25109675526619 511.01471787691116 497.81406196951866 482.59197306632996
leaf_count=1378 1736 1686 1632
internal_value=0 6.38107e-05 0.000155333
internal_weight=0 1386.66 980.406
internal_count=6432 4696 3318
is_linear=0
shrinkage=0.00183422


Tree=58
num_leaves=4
num_cat=0
split_feature=10 10 6
split_gain=5.80664 9.75474 4.70513
threshold=18.926242500000004 12.578863750000002 0.34199491000000004
decision_type=2 2 2
left_child=1 -1 -3
right_child=-2 2 -4
leaf_value=-0.00013125653373538012 -0.00022274603603615497 0.00034734037805638971 4.5277733447996653e-05
leaf_weight=525.88516783714294 313.30541023612022 355.45288588106632 338.9068144261837
leaf_count=2213 1318 1481 1420
internal_value=0 5.71871e-05 0.000199908
internal_weight=0 1220.24 694.36
internal_count=6432 5114 2901
is_linear=0
shrinkage=0.00183422


Tree=59
num_leaves=4
num_cat=0
split_feature=5 8 8
split_gain=6.05097 3.8051 6.81535
threshold=6.3446202000000005 0.24177268500000001 0.030361822500000003
decision_type=2 2 2
left_child=1 2 -1
right_child=-2 -3 -4
leaf_value=-0.00013975116432876023 0.000199710379092121 -0.00017493326556477856 0.0002185566432730201
leaf_weight=383.57223597168922 390.67980524897575 557.18397629261017 334.21296426653862
leaf_count=1485 1499 2162 1286
internal_value=0 -6.12016e-05 2.7083e-05
internal_weight=0 1274.97 717.785
internal_count=6432 4933 2771
is_linear=0
shrinkage=0.00183422


Tree=60
num_leaves=4
num_cat=0
split_feature=8 4 9
split_gain=7.33054 6.46547 4.02579
threshold=0.23643548000000003 -5.4130569999999993 -6.1372157499999993
decision_type=2 2 2
left_child=1 -1 -2
right_child=2 -3 -4
leaf_value=1.1387123304070626e-05 0.00037760637416984989 -0.00044943404500059501 7.6522655588218221e-06
leaf_weight=393.9714690297842 272.46748511493206 244.24843257665634 312.98431034386158
leaf_count=2072 1414 1307 1639
internal_value=0 -0.00016497 0.000179828
internal_weight=0 638.22 585.452
internal_count=6432 3379 3053
is_linear=0
shrinkage=0.00222533


Tree=61
num_leaves=4
num_cat=0
split_feature=0 9 9
split_gain=6.22105 4.33644 3.91287
threshold=4.4859600000000013 1.0217830000000003 -9.9790734999999984
decision_type=2 2 2
left_child=1 2 -1
right_child=-2 -3 -4
leaf_value=-0.00014221570241243492 0.00017498129718939085 -0.00027872023173152279 0.00016484601715793215
leaf_weight=442.61112162470818 657.59845566749573 413.81403213739395 383.64120957255363
leaf_count=1502 2224 1405 1301
internal_value=0 -9.27715e-05 3.57607e-07
internal_weight=0 1240.07 826.252
internal_count=6432 4208 2803
is_linear=0
shrinkage=0.00222533


Tree=62
num_leaves=4
num_cat=0
split_feature=10 10 6
split_gain=5.72588 9.60369 4.63637
threshold=18.926242500000004 12.578863750000002 0.34199491000000004
decision_type=2 2 2
left_child=1 -1 -3
right_child=-2 2 -4
leaf_value=-0.00015807186830772444 -0.00026846307920100256 0.00041802173800585134 5.4337477736867378e-05
leaf_weight=525.67578022181988 313.10911068320274 355.78898839652538 338.96977788209915
leaf_count=2213 1318 1481 1420
internal_value=0 6.88703e-05 0.000240582
internal_weight=0 1220.43 694.759
internal_count=6432 5114 2901
is_linear=0
shrinkage=0.00222533


Tree=63
num_leaves=4
num_cat=0
split_feature=5 6 8
split_gain=5.95906 3.75757 3.95855
threshold=6.3446202000000005 -1.1360428999999999 0.17246279
decision_type=2 2 2
left_child=1 -1 -3
right_child=-2 2 -4
leaf_value=-0.0002093536851182868 0.00024036792139961347 0.00020392231254307493 -0.00012830449819660242
leaf_weight=563.94786524772644 390.87675333023071 347.05206057429314 363.76381435990334
leaf_count=2188 1499 1336 1409
internal_value=0 -7.3712e-05 3.39035e-05
internal_weight=0 1274.76 710.816
internal_count=6432 4933 2745
is_linear=0
shrinkage=0.00222533


Tree=64
num_leaves=4
num_cat=0
split_feature=8 4 6
split_gain=7.20929 6.38112 3.999
threshold=0.23643548000000003 -5.4130569999999993 0.17552645000000003
decision_type=2 2 2
left_child=1 -1 -2
right_child=2 -3 -4
leaf_value=1.697151687534655e-05 0.00054870821782215579 -0.00066262034345405019 2.6053350665357333e-06
leaf_weight=393.96349380910397 280.89253944158554 243.90984164178371 304.89853750169277
leaf_count=2072 1460 1307 1593
internal_value=0 -0.000242891 0.000264467
internal_weight=0 637.873 585.791
internal_count=6432 3379 3053
is_linear=0
shrinkage=0.00330199


Tree=65
num_leaves=4
num_cat=0
split_feature=3 3 10
split_gain=6.14526 8.19537 3.69815
threshold=6.1061812500000006 -12.505395499999997 14.310101000000001
decision_type=2 2 2
left_child=1 -1 -3
right_child=-2 2 -4
leaf_value=-0.00028038494601523886 -0.00030957251197811299 0.00049102638671016637 8.493719659786344e-05
leaf_weight=406.11264154314995 510.85906076431274 464.82385402917862 515.86313593387604
leaf_count=1378 1736 1572 1746
internal_value=0 0.000114068 0.000277414
internal_weight=0 1386.8 980.687
internal_count=6432 4696 3318
is_linear=0
shrinkage=0.00330199


Tree=66
num_leaves=4
num_cat=0
split_feature=5 8 10
split_gain=5.64919 6.57576 3.25695
threshold=3.4823387500000003 0.094842570000000015 13.613089500000003
decision_type=2 2 2
left_child=1 -1 -2
right_child=2 -3 -4
leaf_value=0.00056694322246193547 -0.00046795611593364496 -4.555321521078088e-05 -2.0762410637625949e-05
leaf_weight=310.57724550366402 309.44510048627853 496.84322734177113 416.67095313966274
leaf_count=1294 1306 2085 1747
internal_value=0 0.000190046 -0.000211341
internal_weight=0 807.42 726.116
internal_count=6432 3379 3053
is_linear=0
shrinkage=0.00330199


Tree=67
num_leaves=4
num_cat=0
split_feature=6 9 7
split_gain=5.86943 4.87907 2.09807
threshold=1.2515901500000002 -1.4077627999999998 -1.1470648999999997
decision_type=2 2 2
left_child=1 2 -1
right_child=-2 -3 -4
leaf_value=-0.00050776968665197067 0.00024611305768081743 0.00015866518538370765 -0.00013753810067186915
leaf_weight=332.47192633152008 646.42701897025108 351.64399969577789 335.08944994211197
leaf_count=1288 2488 1359 1297
internal_value=0 -0.000156115 -0.000321928
internal_weight=0 1019.21 667.561
internal_count=6432 3944 2585
is_linear=0
shrinkage=0.00330199


Tree=68
num_leaves=4
num_cat=0
split_feature=8 4 9
split_gain=7.08182 6.29967 3.94523
threshold=0.23643548000000003 -5.4130569999999993 -6.1372157499999993
decision_type=2 2 2
left_child=1 -1 -2
right_child=2 -3 -4
leaf_value=2.1661650223109562e-05 0.00069453196573445667 -0.00082812755792501663 1.1376490761383076e-05
leaf_weight=393.93762345612049 272.97729934751987 243.56855563819408 313.17412865161896
leaf_count=2072 1414 1307 1639
internal_value=0 -0.000303013 0.00032953
internal_weight=0 637.506 586.151
internal_count=6432 3379 3053
is_linear=0
shrinkage=0.00415369


Tree=69
num_leaves=4
num_cat=0
split_feature=0 1 4
split_gain=6.12546 4.30502 1.62635
threshold=4.4859600000000013 1.6445288500000002 -7.4437789999999984
decision_type=2 2 2
left_child=1 -1 -3
right_child=-2 2 -4
leaf_value=-0.00052091700362806863 0.00032403344105680961 -0.00018690032477053082 0.00018061049984728465
leaf_weight=408.6694563627243 657.77273777127266 409.02924129366875 422.18077850341797
leaf_count=1387 2224 1389 1432
internal_value=0 -0.000171856 -2.37505e-07
internal_weight=0 1239.88 831.21
internal_count=6432 4208 2821
is_linear=0
shrinkage=0.00415369


Tree=70
num_leaves=4
num_cat=0
split_feature=10 10 6
split_gain=5.67585 9.38974 4.53576
threshold=18.926242500000004 12.578863750000002 0.34199491000000004
decision_type=2 2 2
left_child=1 -1 -3
right_child=-2 2 -4
leaf_value=-0.00029117303173488646 -0.00049902934365561851 0.00077192450971757978 0.00010071967780763994
leaf_weight=525.30361470580101 312.98599348962307 356.23200523853302 339.00896388292313
leaf_count=2213 1318 1481 1420
internal_value=0 0.000127955 0.000444636
internal_weight=0 1220.54 695.241
internal_count=6432 5114 2901
is_linear=0
shrinkage=0.00415369


Tree=71
num_leaves=4
num_cat=0
split_feature=5 9 2
split_gain=5.83378 3.71397 6.72665
threshold=6.3446202000000005 -8.1113079999999975 0.7849617000000001
decision_type=2 2 2
left_child=1 -1 -3
right_child=-2 2 -4
leaf_value=-0.00039233686088280034 0.00044371152042761898 -0.00033279773199047119 0.00046948660757567952
leaf_weight=552.94880113005638 391.14726248383522 368.18747439980507 353.34362208843231
leaf_count=2143 1499 1426 1364
internal_value=0 -0.0001362 6.00919e-05
internal_weight=0 1274.48 721.531
internal_count=6432 4933 2790
is_linear=0
shrinkage=0.00415369


Tree=72
num_leaves=4
num_cat=0
split_feature=8 4 6
split_gain=6.97807 6.21277 3.92639
threshold=0.23643548000000003 -5.4130569999999993 0.17552645000000003
decision_type=2 2 2
left_child=1 -1 -2
right_child=2 -3 -4
leaf_value=1.7614316511116152e-05 0.00056193474621750482 -0.00067918632242306776 4.4717058205778384e-07
leaf_weight=393.96381935477257 281.37375451624393 243.23960188031197 305.07224060595036
leaf_count=2072 1460 1307 1593
internal_value=0 -0.000248375 0.000269846
internal_weight=0 637.203 586.446
internal_count=6432 3379 3053
is_linear=0
shrinkage=0.00342825


Tree=73
num_leaves=4
num_cat=0
split_feature=3 3 7
split_gain=6.05918 8.07154 3.70245
threshold=6.1061812500000006 -12.505395499999997 -1.1837768999999998
decision_type=2 2 2
left_child=1 -1 -3
right_child=-2 2 -4
leaf_value=-0.00028894625768820855 -0.00031921222946950626 7.8430201847061614e-05 0.00049971326964504104
leaf_weight=405.99035447835922 510.70070558786392 498.02922615408897 482.92572212219238
leaf_count=1378 1736 1686 1632
internal_value=0 0.000117579 0.000285829
internal_weight=0 1386.95 980.955
internal_count=6432 4696 3318
is_linear=0
shrinkage=0.00342825


Tree=74
num_leaves=4
num_cat=0
split_feature=10 10 6
split_gain=5.59364 9.24648 4.45777
threshold=18.926242500000004 12.578863750000002 0.34199491000000004
decision_type=2 2 2
left_child=1 -1 -3
right_child=-2 2 -4
leaf_value=-0.00023861482178284539 -0.00040904667719085866 0.00063162732950456421 8.2580823527010324e-05
leaf_weight=525.10627102851868 312.7838044911623 356.5860899835825 339.04651510715485
leaf_count=2213 1318 1481 1420
internal_value=0 0.000104797 0.000364026
internal_weight=0 1220.74 695.633
internal_count=6432 5114 2901
is_linear=0
shrinkage=0.00342825


Tree=75
num_leaves=4
num_cat=0
split_feature=5 8 8
split_gain=5.74382 3.65562 6.65102
threshold=6.3446202000000005 0.24177268500000001 0.030361822500000003
decision_type=2 2 2
left_child=1 2 -1
right_child=-2 -3 -4
leaf_value=-0.00025817079650590599 0.00036326176037267469 -0.00032014090148894172 0.00040334216128196874
leaf_weight=383.34270507097244 391.34337440133095 556.43091401457787 334.50270265340805
leaf_count=1485 1499 2162 1286
internal_value=0 -0.000111581 5.0082e-05
internal_weight=0 1274.28 717.845
internal_count=6432 4933 2771
is_linear=0
shrinkage=0.00342825


Tree=76
num_leaves=4
num_cat=0
split_feature=8 4 6
split_gain=6.85784 6.13347 3.87097
threshold=0.23643548000000003 -5.4130569999999993 0.17552645000000003
decision_type=2 2 2
left_child=1 -1 -2
right_child=2 -3 -4
leaf_value=1.9687266747721798e-05 0.0006156697083711611 -0.00074568614067078705 -1.9296638757558108e-07
leaf_weight=393.94336494803429 281.67073781788349 242.90695741772652 305.12009711563587
leaf_count=2072 1460 1307 1593
internal_value=0 -0.000272241 0.000295433
internal_weight=0 636.85 586.791
internal_count=6432 3379 3053
is_linear=0
shrinkage=0.00378825


Tree=77
num_leaves=4
num_cat=0
split_feature=0 1 4
split_gain=6.03 4.24463 1.5885
threshold=4.4859600000000013 1.6445288500000002 -7.4437789999999984
decision_type=2 2 2
left_child=1 -1 -3
right_child=-2 2 -4
leaf_value=-0.0004717365576124767 0.00029315895179169419 -0.00016842828653631037 0.00016282992141347809
leaf_weight=408.49272140860558 657.94700264930725 408.92523565888405 422.27193531394005
leaf_count=1387 2224 1389 1432
internal_value=0 -0.000155536 -1.39643e-07
internal_weight=0 1239.69 831.197
internal_count=6432 4208 2821
is_linear=0
shrinkage=0.00378825


Tree=78
num_leaves=4
num_cat=0
split_feature=5 8 10
split_gain=5.52131 6.41132 3.14996
threshold=3.4823387500000003 0.094842570000000015 13.613089500000003
decision_type=2 2 2
left_child=1 -1 -2
right_child=2 -3 -4
leaf_value=0.00064198214282213057 -0.00052968022436033124 -5.1591889326355926e-05 -2.492962419976166e-05
leaf_weight=311.01011361181736 308.97460620105267 496.77595283091068 416.75283254683018
leaf_count=1294 1306 2085 1747
internal_value=0 0.000215445 -0.000239825
internal_weight=0 807.786 725.727
internal_count=6432 3379 3053
is_linear=0
shrinkage=0.00378825


Tree=79
num_leaves=4
num_cat=0
split_feature=6 9 7
split_gain=5.66002 4.76795 2.06737
threshold=1.2515901500000002 -1.4077627999999998 -1.1470648999999997
decision_type=2 2 2
left_child=1 2 -1
right_child=-2 -3 -4
leaf_value=-0.00057602049130451335 0.00027707930366269097 0.00018089134348258517 -0.00015419120375583691
leaf_weight=332.06619313359261 646.95954996347427 351.70510247349739 334.87825587391853
leaf_count=1288 2488 1359 1297
internal_value=0 -0.000176009 -0.000364217
internal_weight=0 1018.65 666.944
internal_count=6432 3944 2585
is_linear=0
shrinkage=0.00378825


Tree=80
num_leaves=4
num_cat=0
split_feature=8 4 6
split_gain=6.94052 6.19183 3.91274
threshold=0.23643548000000003 -5.4130569999999993 0.17552645000000003
decision_type=2 2 2
left_child=1 -1 -2
right_child=2 -3 -4
leaf_value=7.5195537521123978e-06 0.00023710647448089951 -0.0002867309700347497 6.2787075304054585e-08
leaf_weight=393.94727458059788 281.45637130737305 243.14424769580364 305.09524671733379
leaf_count=2072 1460 1307 1593
internal_value=0 -0.00010478 0.000113808
internal_weight=0 637.092 586.552
internal_count=6432 3379 3053
is_linear=0
shrinkage=0.00144997


Tree=81
num_leaves=4
num_cat=0
split_feature=0 3 0
split_gain=6.09486 4.2743 3.579
threshold=4.4859600000000013 4.7447906500000014 -0.5531927499999999
decision_type=2 2 2
left_child=1 2 -1
right_child=-2 -3 -4
leaf_value=8.4074672861802525e-05 0.00011282062608070672 -0.00018782429320018381 -0.00010351230617289947
leaf_weight=459.54584154486656 657.82742890715599 380.35445779561996 399.91775169968605
leaf_count=1556 2224 1295 1357
internal_value=0 -5.98475e-05 -3.21159e-06
internal_weight=0 1239.82 859.464
internal_count=6432 4208 2913
is_linear=0
shrinkage=0.00144997


Tree=82
num_leaves=4
num_cat=0
split_feature=10 10 6
split_gain=5.57291 9.207 4.44688
threshold=18.926242500000004 12.578863750000002 0.34199491000000004
decision_type=2 2 2
left_child=1 -1 -3
right_child=-2 2 -4
leaf_value=-0.00010071211112381922 -0.00017270018424208317 0.00026665511176103145 3.4738833704905878e-05
leaf_weight=525.04888166487217 312.73222564160824 356.66081665456295 339.07709397375584
leaf_count=2213 1318 1481 1420
internal_value=0 4.42385e-05 0.000153628
internal_weight=0 1220.79 695.738
internal_count=6432 5114 2901
is_linear=0
shrinkage=0.00144997


Tree=83
num_leaves=4
num_cat=0
split_feature=6 9 7
split_gain=5.7232 4.76876 2.06914
threshold=1.2515901500000002 -1.4077627999999998 -1.1470648999999997
decision_type=2 2 2
left_child=1 2 -1
right_child=-2 -3 -4
leaf_value=-0.00022086060226899365 0.00010666507723249587 6.8877393043479543e-05 -5.9348715876905174e-05
leaf_weight=332.12965506315231 646.79796874523163 351.75969848036766 334.92935144901276
leaf_count=1288 2488 1359 1297
internal_value=0 -6.77291e-05 -0.000139766
internal_weight=0 1018.82 667.059
internal_count=6432 3944 2585
is_linear=0
shrinkage=0.00144997


Tree=84
num_leaves=4
num_cat=0
split_feature=8 4 9
split_gain=6.76994 6.06789 3.85238
threshold=0.23643548000000003 -5.4130569999999993 -5.2311591999999996
decision_type=2 2 2
left_child=1 -1 -2
right_child=2 -3 -4
leaf_value=1.5358348017149496e-05 0.0004720169403146532 -0.0005795288530219487 -7.4771317130652318e-06
leaf_weight=393.94570928812027 289.77222900092602 242.64381873607635 297.27215294539928
leaf_count=2072 1498 1307 1555
internal_value=0 -0.00021139 0.000229207
internal_weight=0 636.59 587.044
internal_count=6432 3379 3053
is_linear=0
shrinkage=0.0029593


Tree=85
num_leaves=4
num_cat=0
split_feature=3 3 7
split_gain=5.97111 7.95001 3.65821
threshold=6.1061812500000006 -12.505395499999997 -1.1837768999999998
decision_type=2 2 2
left_child=1 -1 -3
right_child=-2 2 -4
leaf_value=-0.00024760802257546257 -0.00027359383896620205 6.6866970973046574e-05 0.00042829290470311184
leaf_weight=405.8713458776474 510.53774416446686 498.0901834666729 483.13391843438148
leaf_count=1378 1736 1686 1632
internal_value=0 0.000100737 0.000244825
internal_weight=0 1387.1 981.224
internal_count=6432 4696 3318
is_linear=0
shrinkage=0.0029593


Tree=86
num_leaves=4
num_cat=0
split_feature=10 10 6
split_gain=5.52109 9.05845 4.37439
threshold=18.926242500000004 12.578863750000002 0.34199491000000004
decision_type=2 2 2
left_child=1 -1 -3
right_child=-2 2 -4
leaf_value=-0.00020372766655626776 -0.00035092133112536147 0.00053981183134763446 7.0475268461843717e-05
leaf_weight=524.80341583490372 312.60317608714104 356.99088698625565 339.11037071049213
leaf_count=2213 1318 1481 1420
internal_value=0 8.98431e-05 0.000311171
internal_weight=0 1220.9 696.101
internal_count=6432 5114 2901
is_linear=0
shrinkage=0.0029593


Tree=87
num_leaves=4
num_cat=0
split_feature=5 9 2
split_gain=5.6507 3.62603 6.61322
threshold=6.3446202000000005 -8.1113079999999975 0.7849617000000001
decision_type=2 2 2
left_child=1 -1 -3
right_child=-2 2 -4
leaf_value=-0.00027598985510860966 0.00031090842515971617 -0.00023510518927941524 0.00033162505376151688
leaf_weight=552.49777579307556 391.54735597968102 368.01866769790649 353.5416354238987
leaf_count=2143 1499 1426 1364
internal_value=0 -9.55715e-05 4.25746e-05
internal_weight=0 1274.06 721.56
internal_count=6432 4933 2790
is_linear=0
shrinkage=0.0029593


Tree=88
num_leaves=4
num_cat=0
split_feature=8 4 6
split_gain=6.67012 5.99097 3.81866
threshold=0.23643548000000003 -5.4130569999999993 0.17552645000000003
decision_type=2 2 2
left_child=1 -1 -2
right_child=2 -3 -4
leaf_value=1.6937934748208437e-05 0.00052698724267794222 -0.00063821673971355673 -2.1677379671104444e-06
leaf_weight=393.95355188846588 282.0524909645319 242.33707420527935 305.28097523748875
leaf_count=2072 1460 1307 1593
internal_value=0 -0.000232584 0.000251946
internal_weight=0 636.291 587.333
internal_count=6432 3379 3053
is_linear=0
shrinkage=0.00327869


Tree=89
num_leaves=4
num_cat=0
split_feature=0 9 9
split_gain=5.95876 4.21816 3.87373
threshold=4.4859600000000013 1.0217830000000003 -9.9790734999999984
decision_type=2 2 2
left_child=1 2 -1
right_child=-2 -3 -4
leaf_value=-0.00020759171274713526 0.00025218590624476113 -0.00040420865575247985 0.00024257561571761028
leaf_weight=442.48027423024178 658.07744243741035 413.41481778025627 383.65063005685806
leaf_count=1502 2224 1405 1301
internal_value=0 -0.000133837 1.46351e-06
internal_weight=0 1239.55 826.131
internal_count=6432 4208 2803
is_linear=0
shrinkage=0.00327869


Tree=90
num_leaves=4
num_cat=0
split_feature=5 8 10
split_gain=5.44845 6.30952 3.09229
threshold=3.4823387500000003 0.094842570000000015 13.613089500000003
decision_type=2 2 2
left_child=1 -1 -2
right_child=2 -3 -4
leaf_value=0.00055117774197197889 -0.00045496507008183139 -4.4175613839754657e-05 -2.2029596059665708e-05
leaf_weight=311.27363972365856 308.71246123313904 496.72134962677956 416.79052191972733
leaf_count=1294 1306 2085 1747
internal_value=0 0.00018518 -0.00020625
internal_weight=0 807.995 725.503
internal_count=6432 3379 3053
is_linear=0
shrinkage=0.00327869


Tree=91
num_leaves=4
num_cat=0
split_feature=5 8 8
split_gain=5.56516 3.56947 6.51298
threshold=6.3446202000000005 0.24177268500000001 0.030361822500000003
decision_type=2 2 2
left_child=1 2 -1
right_child=-2 -3 -4
leaf_value=-0.00024428530449251238 0.00034173568138053958 -0.00030233023996687272 0.00038172933875341034
leaf_weight=383.13566067814827 391.73641216754913 555.9851892888546 334.73894447088242
leaf_count=1485 1499 2162 1286
internal_value=0 -0.000105118 4.76201e-05
internal_weight=0 1273.86 717.875
internal_count=6432 4933 2771
is_linear=0
shrinkage=0.00327869


Tree=92
num_leaves=4
num_cat=0
split_feature=8 4 9
split_gain=6.54054 5.91282 3.77816
threshold=0.23643548000000003 -5.4130569999999993 -6.1372157499999993
decision_type=2 2 2
left_child=1 -1 -2
right_child=2 -3 -4
leaf_value=1.8853908658437681e-05 0.00057698613777336437 -0.00068934495767534174 3.8833861913029298e-06
leaf_weight=393.91183434426785 274.09250265359879 241.98943571746349 313.6215510815382
leaf_count=2072 1414 1307 1639
internal_value=0 -0.000250648 0.000271162
internal_weight=0 635.901 587.714
internal_count=6432 3379 3053
is_linear=0
shrinkage=0.00356583


Tree=93
num_leaves=4
num_cat=0
split_feature=3 3 7
split_gain=5.89303 7.81596 3.60998
threshold=6.1061812500000006 -12.505395499999997 -1.1837768999999998
decision_type=2 2 2
left_child=1 -1 -3
right_child=-2 2 -4
leaf_value=-0.00029572625867554513 -0.0003275624048543556 7.964057941884506e-05 0.00051220213078596551
leaf_weight=405.72758623957634 510.39076939225197 498.14591443538666 483.35147634148598
leaf_count=1378 1736 1686 1632
internal_value=0 0.000120573 0.000292661
internal_weight=0 1387.22 981.497
internal_count=6432 4696 3318
is_linear=0
shrinkage=0.00356583


Tree=94
num_leaves=4
num_cat=0
split_feature=10 10 6
split_gain=5.4664 8.8707 4.29964
threshold=18.926242500000004 12.578863750000002 0.34199491000000004
decision_type=2 2 2
left_child=1 -1 -3
right_child=-2 2 -4
leaf_value=-0.00024256935491192541 -0.00042086296736287582 0.00064435770658019466 8.3853042011641709e-05
leaf_weight=524.47624263167381 312.46552804112434 357.3684749007225 339.17971113324165
leaf_count=2213 1318 1481 1420
internal_value=0 0.00010769 0.000371424
internal_weight=0 1221.02 696.548
internal_count=6432 5114 2901
is_linear=0
shrinkage=0.00356583


Tree=95
num_leaves=4
num_cat=0
split_feature=6 8 9
split_gain=5.49606 5.2248 2.71539
threshold=-1.1360428999999999 0.23229212500000004 -6.4007859999999992
decision_type=2 2 2
left_child=2 -2 -1
right_child=1 -3 -4
leaf_value=-0.00045842160196195601 0.00042063495236265388 -0.00010245172735501442 -1.1315946199968982e-05
leaf_weight=358.55328971147537 512.08297300338745 461.71106776595116 333.2375702559948
leaf_count=1393 1965 1784 1290
internal_value=0 0.000172621 -0.00024305
internal_weight=0 973.794 691.791
internal_count=6432 3749 2683
is_linear=0
shrinkage=0.00356583


Tree=96
num_leaves=4
num_cat=0
split_feature=8 4 6
split_gain=6.42385 5.83658 3.75671
threshold=0.23643548000000003 -5.4130569999999993 0.17552645000000003
decision_type=2 2 2
left_child=1 -1 -2
right_child=2 -3 -4
leaf_value=1.9678778617165148e-05 0.00058175522412836169 -0.00070519695327307685 -5.6713109565457829e-06
leaf_weight=393.88694240152836 282.54434810578823 241.65943248569965 305.51463297009468
leaf_count=2072 1460 1307 1593
internal_value=0 -0.000255947 0.000276569
internal_weight=0 635.546 588.059
internal_count=6432 3379 3053
is_linear=0
shrinkage=0.00367197


Tree=97
num_leaves=4
num_cat=0
split_feature=0 1 4
split_gain=5.86879 4.20485 1.55364
threshold=4.4859600000000013 1.6445288500000002 -7.4437789999999984
decision_type=2 2 2
left_child=1 -1 -3
right_child=-2 2 -4
leaf_value=-0.00045391257324296454 0.00028025099015442862 -0.00016022955334137778 0.00015734563962922727
leaf_weight=408.30750149488449 658.24303698539734 408.76337891817093 422.29132413864136
leaf_count=1387 2224 1389 1432
internal_value=0 -0.000148775 1.14279e-06
internal_weight=0 1239.36 831.055
internal_count=6432 4208 2821
is_linear=0
shrinkage=0.00367197


Tree=98
num_leaves=4
num_cat=0
split_feature=10 10 6
split_gain=5.38816 8.73456 4.21989
threshold=18.926242500000004 12.578863750000002 0.34199491000000004
decision_type=2 2 2
left_child=1 -1 -3
right_child=-2 2 -4
leaf_value=-0.00024798543325861702 -0.00043044469836137989 0.00065763919072786906 8.5978129151989744e-05
leaf_weight=524.28157730400562 312.26911310851574 357.72513131797314 339.20337516069412
leaf_count=2213 1318 1481 1420
internal_value=0 0.000110058 0.000379405
internal_weight=0 1221.21 696.929
internal_count=6432 5114 2901
is_linear=0
shrinkage=0.00367197


Tree=99
num_leaves=4
num_cat=0
split_feature=5 9 2
split_gain=5.46162 3.53873 6.50407
threshold=6.3446202000000005 -8.1113079999999975 0.7849617000000001
decision_type=2 2 2
left_child=1 -1 -3
right_child=-2 2 -4
leaf_value=-0.00033796952582967774 0.0003789980853860432 -0.00028924493217720887 0.00040812466873874038
leaf_weight=552.03317978978157 391.96630987524986 367.84841883182526 353.72785699367523
leaf_count=2143 1499 1426 1364
internal_value=0 -0.000116679 5.26164e-05
internal_weight=0 1273.61 721.576
internal_count=6432 4933 2790
is_linear=0
shrinkage=0.00367197


Tree=100
num_leaves=4
num_cat=0
split_feature=8 4 6
split_gain=6.32984 5.75562 3.70008
threshold=0.23643548000000003 -5.4130569999999993 0.17552645000000003
decision_type=2 2 2
left_child=1 -1 -2
right_child=2 -3 -4
leaf_value=2.0560958472275295e-05 0.00061176456886933618 -0.00074284468519664095 -6.1065409760616236e-06
leaf_weight=393.91313078999519 282.81785871088505 241.34328235685825 305.52079458534718
leaf_count=2072 1460 1307 1593
internal_value=0 -0.000269468 0.000290908
internal_weight=0 635.256 588.339
internal_count=6432 3379 3053
is_linear=0
shrinkage=0.00389271


Tree=101
num_leaves=4
num_cat=0
split_feature=3 3 10
split_gain=5.81044 7.70195 3.57558
threshold=6.1061812500000006 -12.505395499999997 14.310101000000001
decision_type=2 2 2
left_child=1 -1 -3
right_child=-2 2 -4
leaf_value=-0.00032055303887868093 -0.00035514260440112704 0.00056448927900834165 9.4016473614525828e-05
leaf_weight=405.61250621080399 510.23418191075325 465.5371467769146 516.21302092075348
leaf_count=1378 1736 1572 1746
internal_value=0 0.000130682 0.00031711
internal_weight=0 1387.36 981.75
internal_count=6432 4696 3318
is_linear=0
shrinkage=0.00389271


Tree=102
num_leaves=4
num_cat=0
split_feature=7 5 11
split_gain=5.3353 8.14773 2.23762
threshold=-1.4921988499999996 1.3252977000000004 3.9640146500000006
decision_type=2 2 2
left_child=-1 -2 -3
right_child=1 2 -4
leaf_value=0.00031627567803319836 0.00031358435526488294 -0.00065283000392440406 -0.00019777795912489049
leaf_weight=529.25311775505543 349.14605113863945 323.76521195471287 331.30377393960953
leaf_count=2217 1461 1362 1392
internal_value=0 -0.000166699 -0.000422686
internal_weight=0 1004.22 655.069
internal_count=6432 4215 2754
is_linear=0
shrinkage=0.00389271


Tree=103
num_leaves=4
num_cat=0
split_feature=5 9 2
split_gain=5.37717 3.48873 6.40047
threshold=6.3446202000000005 -8.1113079999999975 0.7849617000000001
decision_type=2 2 2
left_child=1 -1 -3
right_child=-2 2 -4
leaf_value=-0.0003557823393765952 0.00039853472491765133 -0.00030428039721823539 0.00042907432975633562
leaf_weight=551.79197752475739 392.15602001547813 367.69923904538155 353.91852933168411
leaf_count=2143 1499 1426 1364
internal_value=0 -0.000122776 5.53945e-05
internal_weight=0 1273.41 721.618
internal_count=6432 4933 2790
is_linear=0
shrinkage=0.00389271


Tree=104
num_leaves=4
num_cat=0
split_feature=8 4 9
split_gain=6.23152 5.68338 3.68472
threshold=0.23643548000000003 -5.4130569999999993 -5.2311591999999996
decision_type=2 2 2
left_child=1 -1 -2
right_child=2 -3 -4
leaf_value=1.8289497611625679e-05 0.00053287609466178324 -0.00065567464144875151 -1.4197672479099339e-05
leaf_weight=393.91001762449741 290.95286513864994 241.0411801636219 297.68027958273888
leaf_count=2072 1498 1307 1555
internal_value=0 -0.000237562 0.000256213
internal_weight=0 634.951 588.633
internal_count=6432 3379 3053
is_linear=0
shrinkage=0.00345706


Tree=105
num_leaves=4
num_cat=0
split_feature=0 1 4
split_gain=5.77539 4.14422 1.5195
threshold=4.4859600000000013 1.6445288500000002 -7.4437789999999984
decision_type=2 2 2
left_child=1 -1 -3
right_child=-2 2 -4
leaf_value=-0.00042425722195334404 0.00026169297325536931 -0.00014915284760586364 0.00014653572383958367
leaf_weight=408.12808662652969 658.41611459851265 408.66724964976311 422.37514466047287
leaf_count=1387 2224 1389 1432
internal_value=0 -0.000138974 1.1301e-06
internal_weight=0 1239.17 831.042
internal_count=6432 4208 2821
is_linear=0
shrinkage=0.00345706


Tree=106
num_leaves=4
num_cat=0
split_feature=10 10 6
split_gain=5.32394 8.58305 4.16724
threshold=18.926242500000004 12.578863750000002 0.34199491000000004
decision_type=2 2 2
left_child=1 -1 -3
right_child=-2 2 -4
leaf_value=-0.00023134164014315092 -0.00040296381852476153 0.00061435234304422798 7.9662655942370662e-05
leaf_weight=524.03494867682457 312.10595703125 358.0323751270771 339.29013738036156
leaf_count=2213 1318 1481 1420
internal_value=0 0.000102964 0.000354193
internal_weight=0 1221.36 697.323
internal_count=6432 5114 2901
is_linear=0
shrinkage=0.00345706


Tree=107
num_leaves=4
num_cat=0
split_feature=6 9 7
split_gain=5.32733 4.55257 2.03609
threshold=1.2515901500000002 -1.4077627999999998 -1.1470648999999997
decision_type=2 2 2
left_child=1 2 -1
right_child=-2 -3 -4
leaf_value=-0.00051614524194653851 0.00024502742224019901 0.00016203581291557916 -0.00013380270536407873
leaf_weight=331.41489577293396 647.82078921794891 351.88622784614563 334.43354272842407
leaf_count=1288 2488 1359 1297
internal_value=0 -0.000156021 -0.000324107
internal_weight=0 1017.73 665.848
internal_count=6432 3944 2585
is_linear=0
shrinkage=0.00345706


Tree=108
num_leaves=4
num_cat=0
split_feature=8 4 6
split_gain=6.38012 5.78779 3.76483
threshold=0.23643548000000003 -5.4130569999999993 0.17552645000000003
decision_type=2 2 2
left_child=1 -1 -2
right_child=2 -3 -4
leaf_value=7.175048536820463e-06 0.00021624861630134895 -0.00026150480184839993 -2.5685896802039703e-06
leaf_weight=393.92412500083447 282.58210419118404 241.48381763696671 305.60294286906719
leaf_count=2072 1460 1307 1593
internal_value=0 -9.49355e-05 0.000102558
internal_weight=0 635.408 588.185
internal_count=6432 3379 3053
is_linear=0
shrinkage=0.00136648


Tree=109
num_leaves=4
num_cat=0
split_feature=3 3 7
split_gain=5.82287 7.70142 3.59883
threshold=6.1061812500000006 -12.505395499999997 -1.1837768999999998
decision_type=2 2 2
left_child=1 -1 -3
right_child=-2 2 -4
leaf_value=-0.00011247608387330964 -0.00012480190821441008 2.9860473178167e-05 0.00019534779804534645
leaf_weight=405.60683438181877 510.25989526510239 498.25104174017906 483.4883179962635
leaf_count=1378 1736 1686 1632
internal_value=0 4.59188e-05 0.00011136
internal_weight=0 1387.35 981.739
internal_count=6432 4696 3318
is_linear=0
shrinkage=0.00136648


Tree=110
num_leaves=4
num_cat=0
split_feature=10 10 6
split_gain=5.42776 8.77346 4.24093
threshold=18.926242500000004 12.578863750000002 0.34199491000000004
decision_type=2 2 2
left_child=1 -1 -3
right_child=-2 2 -4
leaf_value=-9.2410358433070826e-05 -0.00016074002730088585 0.00024541213836311142 3.212568745631689e-05
leaf_weight=524.31641557812691 312.36795754730701 357.61404743790627 339.18044961988926
leaf_count=2213 1318 1481 1420
internal_value=0 4.11158e-05 0.00014159
internal_weight=0 1221.11 696.794
internal_count=6432 5114 2901
is_linear=0
shrinkage=0.00136648


Tree=111
num_leaves=4
num_cat=0
split_feature=5 8 8
split_gain=5.43974 3.50566 6.46014
threshold=6.3446202000000005 0.24177268500000001 0.030361822500000003
decision_type=2 2 2
left_child=1 2 -1
right_child=-2 -3 -4
leaf_value=-0.00010145669353526782 0.00014074362420621455 -0.00012482954122008336 0.00015838158145279138
leaf_weight=383.06502318382263 392.01555350422859 555.6572842001915 334.83786690235138
leaf_count=1485 1499 2162 1286
internal_value=0 -4.3339e-05 1.97348e-05
internal_weight=0 1273.56 717.903
internal_count=6432 4933 2771
is_linear=0
shrinkage=0.00136648


Tree=112
num_leaves=4
num_cat=0
split_feature=8 4 6
split_gain=6.16898 5.63056 3.65307
threshold=0.23643548000000003 -5.4130569999999993 0.17552645000000003
decision_type=2 2 2
left_child=1 -1 -2
right_child=2 -3 -4
leaf_value=1.9720420619364863e-05 0.00058446344003844049 -0.000709561145068393 -7.8661831508078478e-06
leaf_weight=393.92424984276295 283.16159857809544 240.83058089017868 305.65917538106441
leaf_count=2072 1460 1307 1593
internal_value=0 -0.000256974 0.000276983
internal_weight=0 634.755 588.821
internal_count=6432 3379 3053
is_linear=0
shrinkage=0.00375732


Tree=113
num_leaves=4
num_cat=0
split_feature=3 3 7
split_gain=5.73372 7.58408 3.55365
threshold=6.1061812500000006 -12.505395499999997 -1.1837768999999998
decision_type=2 2 2
left_child=1 -1 -3
right_child=-2 2 -4
leaf_value=-0.00030701681597985765 -0.0003405837900610224 8.1095595981072567e-05 0.00053319841722154597
leaf_weight=405.4887820482254 510.08872929215431 498.30762103199959 483.69715622067451
leaf_count=1378 1736 1686 1632
internal_value=0 0.00012528 0.000303784
internal_weight=0 1387.49 982.005
internal_count=6432 4696 3318
is_linear=0
shrinkage=0.00375732


Tree=114
num_leaves=4
num_cat=0
split_feature=10 10 6
split_gain=5.27228 8.49813 4.10943
threshold=18.926242500000004 12.578863750000002 0.34199491000000004
decision_type=2 2 2
left_child=1 -1 -3
right_child=-2 2 -4
leaf_value=-0.00025029182945522464 -0.00043594672640343251 0.00066357884418364287 8.6590008199073849e-05
leaf_weight=523.91457226872444 311.97465907037258 358.27708055078983 339.28950408101082
leaf_count=2213 1318 1481 1420
internal_value=0 0.000111334 0.000382937
internal_weight=0 1221.48 697.567
internal_count=6432 5114 2901
is_linear=0
shrinkage=0.00375732


Tree=115
num_leaves=4
num_cat=0
split_feature=5 8 8
split_gain=5.28729 3.42032 6.34712
threshold=6.3446202000000005 0.24177268500000001 0.030361822500000003
decision_type=2 2 2
left_child=1 2 -1
right_child=-2 -3 -4
leaf_value=-0.00027676138487564382 0.0003813098853634698 -0.0003390094448776062 0.00043136922975276615
leaf_weight=382.91239041090012 392.35903173685074 555.23006865382195 335.04955711960793
leaf_count=1485 1499 2162 1286
internal_value=0 -0.000117558 5.37002e-05
internal_weight=0 1273.19 717.962
internal_count=6432 4933 2771
is_linear=0
shrinkage=0.00375732


Tree=116
num_leaves=4
num_cat=0
split_feature=8 4 9
split_gain=6.06237 5.55827 3.61413
threshold=0.23643548000000003 -5.4130569999999993 -6.1372157499999993
decision_type=2 2 2
left_child=1 -1 -2
right_child=2 -3 -4
leaf_value=1.4593392892404382e-05 0.00043120704284111447 -0.00051627578144578933 -7.7168556726774003e-07
leaf_weight=393.90505754947662 275.15182389318943 240.51440843939781 313.99289195239544
leaf_count=2072 1414 1307 1639
internal_value=0 -0.000186664 0.000200978
internal_weight=0 634.419 589.145
internal_count=6432 3379 3053
is_linear=0
shrinkage=0.00275167


Tree=117
num_leaves=4
num_cat=0
split_feature=0 9 9
split_gain=5.71743 4.10925 3.83866
threshold=4.4859600000000013 1.0217830000000003 -9.9790734999999984
decision_type=2 2 2
left_child=1 2 -1
right_child=-2 -3 -4
leaf_value=-0.00017270984641135694 0.0002072245329852007 -0.00033416670338372377 0.00020340662020649781
leaf_weight=442.35574898123741 658.522486358881 413.03732386231422 383.6538607776165
leaf_count=1502 2224 1405 1301
internal_value=0 -0.000110072 1.98368e-06
internal_weight=0 1239.05 826.01
internal_count=6432 4208 2803
is_linear=0
shrinkage=0.00275167


Tree=118
num_leaves=4
num_cat=0
split_feature=5 8 10
split_gain=5.23678 6.10608 2.94739
threshold=3.4823387500000003 0.094842570000000015 13.613089500000003
decision_type=2 2 2
left_child=1 -1 -2
right_child=2 -3 -4
leaf_value=0.00045401236847831671 -0.00037397205532744274 -3.7228267543559813e-05 -1.9014977135961948e-05
leaf_weight=311.87519185245037 308.0031174570322 496.73080721497536 416.83378922939301
leaf_count=1294 1306 2085 1747
internal_value=0 0.000152241 -0.000169846
internal_weight=0 808.606 724.837
internal_count=6432 3379 3053
is_linear=0
shrinkage=0.00275167


Tree=119
num_leaves=4
num_cat=0
split_feature=6 8 9
split_gain=5.21725 5.03599 2.60471
threshold=-1.1360428999999999 0.23229212500000004 -6.4007859999999992
decision_type=2 2 2
left_child=2 -2 -1
right_child=1 -3 -4
leaf_value=-0.00034593674325127219 0.00031732727040665947 -7.8831179094495559e-05 -7.8382398505583634e-06
leaf_weight=357.83895698189735 512.85984140634537 461.67614269256592 333.16214123368263
leaf_count=1393 1965 1784 1290
internal_value=0 0.000129651 -0.000182925
internal_weight=0 974.536 691.001
internal_count=6432 3749 2683
is_linear=0
shrinkage=0.00275167


Tree=120
num_leaves=4
num_cat=0
split_feature=8 4 9
split_gain=6.05002 5.56348 3.61227
threshold=0.23643548000000003 -5.4130569999999993 -6.1372157499999993
decision_type=2 2 2
left_child=1 -1 -2
right_child=2 -3 -4
leaf_value=1.1880254572117199e-05 0.00034383891533553714 -0.00041190801077763942 -7.3745595366430753e-07
leaf_weight=393.86835861206055 275.17292577028275 240.51113379001617 314.00823698937893
leaf_count=2072 1414 1307 1639
internal_value=0 -0.00014879 0.000160195
internal_weight=0 634.379 589.181
internal_count=6432 3379 3053
is_linear=0
shrinkage=0.00219556


Tree=121
num_leaves=4
num_cat=0
split_feature=0 9 9
split_gain=5.72276 4.10398 3.84192
threshold=4.4859600000000013 1.0217830000000003 -9.9790734999999984
decision_type=2 2 2
left_child=1 2 -1
right_child=-2 -3 -4
leaf_value=-0.00013796603579544061 0.00016541749182454849 -0.00026656508959432531 0.00016226193270816913
leaf_weight=442.37178540229797 658.51391327381134 413.03169614076614 383.65706124901772
leaf_count=1502 2224 1405 1301
internal_value=0 -8.78724e-05 1.47774e-06
internal_weight=0 1239.06 826.029
internal_count=6432 4208 2803
is_linear=0
shrinkage=0.00219556


Tree=122
num_leaves=4
num_cat=0
split_feature=10 10 6
split_gain=5.2973 8.46123 4.11054
threshold=18.926242500000004 12.578863750000002 0.34199491000000004
decision_type=2 2 2
left_child=1 -1 -3
right_child=-2 2 -4
leaf_value=-0.00014566381047345111 -0.00025530929204833853 0.00038758049330813544 5.0386205877175518e-05
leaf_weight=523.80461704730988 312.03663489222527 358.29326066374779 339.31123042106628
leaf_count=2213 1318 1481 1420
internal_value=0 6.52236e-05 0.000223571
internal_weight=0 1221.41 697.604
internal_count=6432 5114 2901
is_linear=0
shrinkage=0.00219556


Tree=123
num_leaves=4
num_cat=0
split_feature=5 9 2
split_gain=5.27491 3.39768 6.32101
threshold=6.3446202000000005 -8.1113079999999975 0.7849617000000001
decision_type=2 2 2
left_child=1 -1 -3
right_child=-2 2 -4
leaf_value=-0.00019838644898764434 0.00022253918384147124 -0.00017113727680340672 0.00023986857820652873
leaf_weight=551.39631775021553 392.38629230856895 367.64155256748199 354.11734884977341
leaf_count=2143 1499 1426 1364
internal_value=0 -6.86209e-05 3.0515e-05
internal_weight=0 1273.16 721.759
internal_count=6432 4933 2790
is_linear=0
shrinkage=0.00219556


Tree=124
num_leaves=4
num_cat=0
split_feature=8 4 6
split_gain=5.95028 5.4882 3.59517
threshold=0.23643548000000003 -5.4130569999999993 0.17552645000000003
decision_type=2 2 2
left_child=1 -1 -2
right_child=2 -3 -4
leaf_value=1.463032957092873e-05 0.00041502806517788475 -0.00050419284631895956 -7.7937377109357379e-06
leaf_weight=393.86898116767406 283.61998507380486 240.19434759020805 305.86751180887222
leaf_count=2072 1460 1307 1593
internal_value=0 -0.000181909 0.000195638
internal_weight=0 634.063 589.487
internal_count=6432 3379 3053
is_linear=0
shrinkage=0.00270518


Tree=125
num_leaves=4
num_cat=0
split_feature=3 3 7
split_gain=5.65521 7.45812 3.50193
threshold=6.1061812500000006 -12.505395499999997 -1.1837768999999998
decision_type=2 2 2
left_child=1 -1 -3
right_child=-2 2 -4
leaf_value=-0.00021916142241995784 -0.00024357248824636045 5.7800265552865215e-05 0.00038088008540780962
leaf_weight=405.35266473889351 509.93760046362877 498.35314279794693 483.91932392120361
leaf_count=1378 1736 1686 1632
internal_value=0 8.95649e-05 0.000216966
internal_weight=0 1387.63 982.272
internal_count=6432 4696 3318
is_linear=0
shrinkage=0.00270518


Tree=126
num_leaves=4
num_cat=0
split_feature=7 5 11
split_gain=5.22461 7.96259 2.20723
threshold=-1.4921988499999996 1.3252977000000004 4.1717641500000004
decision_type=2 2 2
left_child=-1 -2 -3
right_child=1 2 -4
leaf_value=0.00021740411987267004 0.00021505769641979119 -0.00044047673580236639 -0.00012592256733733812
leaf_weight=529.55652956664562 349.38853292167187 342.88676714897156 311.60163353383541
leaf_count=2217 1461 1444 1310
internal_value=0 -0.000114688 -0.000290718
internal_weight=0 1003.88 654.488
internal_count=6432 4215 2754
is_linear=0
shrinkage=0.00270518


Tree=127
num_leaves=4
num_cat=0
split_feature=5 9 2
split_gain=5.19139 3.36696 6.26931
threshold=6.3446202000000005 -8.1113079999999975 0.7849617000000001
decision_type=2 2 2
left_child=1 -1 -3
right_child=-2 2 -4
leaf_value=-0.00024310463869348651 0.00027192671939282555 -0.00020982434899757065 0.00029451050717051798
leaf_weight=551.21014106273651 392.57673048973083 367.54599940776825 354.19549319148064
leaf_count=2143 1499 1426 1364
internal_value=0 -8.39054e-05 3.76786e-05
internal_weight=0 1272.95 721.741
internal_count=6432 4933 2790
is_linear=0
shrinkage=0.00270518


Tree=128
num_leaves=4
num_cat=0
split_feature=8 4 9
split_gain=5.85868 5.4181 3.5386
threshold=0.23643548000000003 -5.4130569999999993 -5.2311591999999996
decision_type=2 2 2
left_child=1 -1 -2
right_child=2 -3 -4
leaf_value=2.1289467712681202e-05 0.00059100322072509314 -0.00072989774610192533 -1.948385445231724e-05
leaf_weight=393.87060323357582 291.87327080965042 239.89832825958729 297.89661020040512
leaf_count=2072 1498 1307 1555
internal_value=0 -0.000263055 0.000282642
internal_weight=0 633.769 589.77
internal_count=6432 3379 3053
is_linear=0
shrinkage=0.00394048


Tree=129
num_leaves=4
num_cat=0
split_feature=0 1 4
split_gain=5.63166 4.09897 1.48586
threshold=4.4859600000000013 1.6445288500000002 -7.4437789999999984
decision_type=2 2 2
left_child=1 -1 -3
right_child=-2 2 -4
leaf_value=-0.0004799566571147982 0.00029446603539070047 -0.00016709363964219017 0.00016621533865983818
leaf_weight=407.93949770927429 658.68313473463058 408.5205345749855 422.40719020366669
leaf_count=1387 2224 1389 1432
internal_value=0 -0.000156469 2.34602e-06
internal_weight=0 1238.87 830.928
internal_count=6432 4208 2821
is_linear=0
shrinkage=0.00394048


Tree=130
num_leaves=4
num_cat=0
split_feature=10 10 6
split_gain=5.22569 8.32336 4.04941
threshold=18.926242500000004 12.578863750000002 0.34199491000000004
decision_type=2 2 2
left_child=1 -1 -3
right_child=-2 2 -4
leaf_value=-0.00025932699704713739 -0.00045528090178846505 0.00068991323304033671 8.940718103107062e-05
leaf_weight=523.59002560377121 311.85283069312572 358.61348298192024 339.37122966349125
leaf_count=2213 1318 1481 1420
internal_value=0 0.000116222 0.000397938
internal_weight=0 1221.57 697.985
internal_count=6432 5114 2901
is_linear=0
shrinkage=0.00394048


Tree=131
num_leaves=4
num_cat=0
split_feature=10 2 7
split_gain=5.18728 4.28558 3.28269
threshold=9.9159565000000018 2.2327129500000003 -1.3499562999999999
decision_type=2 2 2
left_child=-1 2 -2
right_child=1 -3 -4
leaf_value=0.00043361271441327647 -0.00054084531180652361 0.00025707918986898242 -6.7992988393924021e-05
leaf_weight=340.67864468693733 367.86983045935631 357.51637148857117 599.45168197154999
leaf_count=1313 1423 1378 2318
internal_value=0 -0.000111568 -0.000247817
internal_weight=0 1324.84 967.322
internal_count=6432 5119 3741
is_linear=0
shrinkage=0.00394048


Tree=132
num_leaves=4
num_cat=0
split_feature=8 4 6
split_gain=5.77372 5.3417 3.53735
threshold=0.23643548000000003 -5.4130569999999993 0.17552645000000003
decision_type=2 2 2
left_child=1 -1 -2
right_child=2 -3 -4
leaf_value=1.6898245693353991e-05 0.00048171406308889154 -0.00058500888663929424 -1.0871011015983806e-05
leaf_weight=393.9000365883112 284.02368795871735 239.59271523356438 306.00965809822083
leaf_count=2072 1460 1307 1593
internal_value=0 -0.000210749 0.000226244
internal_weight=0 633.493 590.033
internal_count=6432 3379 3053
is_linear=0
shrinkage=0.00317869


Tree=133
num_leaves=4
num_cat=0
split_feature=3 3 10
split_gain=5.58383 7.34156 3.49988
threshold=6.1061812500000006 -12.505395499999997 14.310101000000001
decision_type=2 2 2
left_child=1 -1 -3
right_child=-2 2 -4
leaf_value=-0.0002554430137071172 -0.00028444229652733148 0.00045276578818044403 7.2831804425139748e-05
leaf_weight=405.22420358657837 509.79851558804512 466.03135117888451 516.48754394054413
leaf_count=1378 1736 1572 1746
internal_value=0 0.000104564 0.000253043
internal_weight=0 1387.74 982.519
internal_count=6432 4696 3318
is_linear=0
shrinkage=0.00317869


Tree=134
num_leaves=4
num_cat=0
split_feature=10 10 6
split_gain=5.15582 8.17462 3.983
threshold=18.926242500000004 12.578863750000002 0.34199491000000004
decision_type=2 2 2
left_child=1 -1 -3
right_child=-2 2 -4
leaf_value=-0.0002072736715447836 -0.00036493487670518119 0.00055160097113213702 7.1310111699948749e-05
leaf_weight=523.35115210711956 311.673500046134 358.95919798314571 339.43144847452641
leaf_count=2213 1318 1481 1420
internal_value=0 9.30886e-05 0.00031817
internal_weight=0 1221.74 698.391
internal_count=6432 5114 2901
is_linear=0
shrinkage=0.00317869


Tree=135
num_leaves=4
num_cat=0
split_feature=6 8 9
split_gain=5.10627 4.99047 2.52618
threshold=-1.1360428999999999 0.17246279 -6.4007859999999992
decision_type=2 2 2
left_child=2 -2 -1
right_child=1 -3 -4
leaf_value=-0.00039475408662498093 0.00039155216538396047 -6.4368148770766896e-05 -1.0037904825947819e-05
leaf_weight=357.45398589968681 454.30323940515518 520.53015720844269 333.22355070710182
leaf_count=1393 1740 2009 1290
internal_value=0 0.000148105 -0.000209144
internal_weight=0 974.833 690.678
internal_count=6432 3749 2683
is_linear=0
shrinkage=0.00317869


Tree=136
num_leaves=4
num_cat=0
split_feature=8 4 9
split_gain=5.99029 5.51604 3.59282
threshold=0.23643548000000003 -5.4130569999999993 -5.2311591999999996
decision_type=2 2 2
left_child=1 -1 -2
right_child=2 -3 -4
leaf_value=5.2168273574728873e-06 0.00014628075441024718 -0.00018039920480815102 -4.498799419002501e-06
leaf_weight=393.87096555531025 291.5361572355032 240.31326059997082 297.82344077527523
leaf_count=2072 1498 1307 1555
internal_value=0 -6.51192e-05 7.00867e-05
internal_weight=0 634.184 589.36
internal_count=6432 3379 3053
is_linear=0
shrinkage=0.000965517


Tree=137
num_leaves=4
num_cat=0
split_feature=3 3 10
split_gain=5.66269 7.47216 3.52115
threshold=6.1061812500000006 -12.505395499999997 14.310101000000001
decision_type=2 2 2
left_child=1 -1 -3
right_child=-2 2 -4
leaf_value=-7.8306003373655459e-05 -8.6995822523561038e-05 0.00013836103034162937 2.2590766499014391e-05
leaf_weight=405.37059909105301 509.95438385009766 465.86659896373749 516.38133656978607
leaf_count=1378 1736 1572 1746
internal_value=0 3.19831e-05 7.7499e-05
internal_weight=0 1387.62 982.248
internal_count=6432 4696 3318
is_linear=0
shrinkage=0.000965517


Tree=138
num_leaves=4
num_cat=0
split_feature=10 10 6
split_gain=5.22908 8.39036 4.07577
threshold=18.926242500000004 12.578863750000002 0.34199491000000004
decision_type=2 2 2
left_child=1 -1 -3
right_child=-2 2 -4
leaf_value=-6.3879542000063892e-05 -0.00011158908904379757 0.0001696000157791006 2.1968705472084901e-05
leaf_weight=523.73340015113354 311.86337192356586 358.48793932795525 339.3578714877367
leaf_count=2213 1318 1481 1420
internal_value=0 2.84869e-05 9.78079e-05
internal_weight=0 1221.58 697.846
internal_count=6432 5114 2901
is_linear=0
shrinkage=0.000965517


Tree=139
num_leaves=4
num_cat=0
split_feature=5 9 2
split_gain=5.29877 3.44188 6.36682
threshold=6.3446202000000005 -8.1113079999999975 0.7849617000000001
decision_type=2 2 2
left_child=1 -1 -3
right_child=-2 2 -4
leaf_value=-8.7666543406313312e-05 9.8091291228796253e-05 -7.5344885989151066e-05 0.00010606670689501997
leaf_weight=551.55650153756142 392.33182209730148 367.66172221302986 353.99082615971565
leaf_count=2143 1499 1426 1364
internal_value=0 -3.02447e-05 1.36426e-05
internal_weight=0 1273.21 721.653
internal_count=6432 4933 2790
is_linear=0
shrinkage=0.000965517


Tree=140
num_leaves=4
num_cat=0
split_feature=8 4 9
split_gain=6.254 5.68085 3.69239
threshold=0.23643548000000003 -5.4130569999999993 -5.2311591999999996
decision_type=2 2 2
left_child=1 -1 -2
right_child=2 -3 -4
leaf_value=8.6404116666731405e-06 0.00025734891289991508 -0.00031619691581942256 -6.6909857300444985e-06
leaf_weight=393.94627851247787 290.89338709414005 241.05552192032337 297.65632937848568
leaf_count=2072 1498 1307 1555
internal_value=0 -0.000114672 0.000123812
internal_weight=0 635.002 588.55
internal_count=6432 3379 3053
is_linear=0
shrinkage=0.00166667


Tree=141
num_leaves=4
num_cat=0
split_feature=0 3 0
split_gain=5.83793 4.127 3.59879
threshold=4.4859600000000013 4.7447906500000014 -0.5531927499999999
decision_type=2 2 2
left_child=1 2 -1
right_child=-2 -3 -4
leaf_value=9.7188974263143541e-05 0.00012683350270721412 -0.00021203340365118711 -0.00011903755284445565
leaf_weight=459.46846058964729 658.29951339960098 379.91647392511368 399.91405311226845
leaf_count=1556 2224 1295 1357
internal_value=0 -6.73804e-05 -3.43214e-06
internal_weight=0 1239.3 859.383
internal_count=6432 4208 2913
is_linear=0
shrinkage=0.00166667


Tree=142
num_leaves=4
num_cat=0
split_feature=5 8 10
split_gain=5.39201 6.35377 3.04731
threshold=3.4823387500000003 0.094842570000000015 13.613089500000003
decision_type=2 2 2
left_child=1 -1 -2
right_child=2 -3 -4
leaf_value=0.00028035258324095059 -0.00022989021609398188 -2.3332202266986329e-05 -1.1380512658660465e-05
leaf_weight=311.2461801469326 308.5032207518816 496.90015847980976 416.81162114441395
leaf_count=1294 1306 2085 1747
internal_value=0 9.36277e-05 -0.000104321
internal_weight=0 808.146 725.315
internal_count=6432 3379 3053
is_linear=0
shrinkage=0.00166667


Tree=143
num_leaves=4
num_cat=0
split_feature=5 8 8
split_gain=5.43766 3.42089 6.47628
threshold=6.3446202000000005 0.24177268500000001 0.030361822500000003
decision_type=2 2 2
left_child=1 2 -1
right_child=-2 -3 -4
leaf_value=-0.00012485770825184508 0.00017161858587540373 -0.0001510848308675544 0.00019240351494733722
leaf_weight=383.23068907856941 392.01910409331322 555.38961732387543 334.92493343353271
leaf_count=1485 1499 2162 1286
internal_value=0 -5.28599e-05 2.31028e-05
internal_weight=0 1273.55 718.156
internal_count=6432 4933 2771
is_linear=0
shrinkage=0.00166667


Tree=144
num_leaves=4
num_cat=0
split_feature=8 4 6
split_gain=5.7852 5.35699 3.52379
threshold=0.23643548000000003 -5.4130569999999993 0.17552645000000003
decision_type=2 2 2
left_child=1 -1 -2
right_child=2 -3 -4
leaf_value=2.3029075148057813e-05 0.00064944842762406046 -0.00079000331566556113 -1.3748982509769309e-05
leaf_weight=393.88127838075161 284.04118396341801 239.64525996148586 305.95337505638599
leaf_count=2072 1460 1307 1593
internal_value=0 -0.000284518 0.000305534
internal_weight=0 633.527 589.995
internal_count=6432 3379 3053
is_linear=0
shrinkage=0.00428778


Tree=145
num_leaves=4
num_cat=0
split_feature=0 1 4
split_gain=5.595 4.06031 1.46767
threshold=4.4859600000000013 1.6445288500000002 -7.4437789999999984
decision_type=2 2 2
left_child=1 -1 -3
right_child=-2 2 -4
leaf_value=-0.00052012271583380058 0.00031933648839961722 -0.00018101311661068213 0.00017944067885088008
leaf_weight=407.83984935283661 658.75278499722481 408.48356571793556 422.46815600991249
leaf_count=1387 2224 1389 1432
internal_value=0 -0.00016973 2.24693e-06
internal_weight=0 1238.79 830.952
internal_count=6432 4208 2821
is_linear=0
shrinkage=0.00428778


Tree=146
num_leaves=4
num_cat=0
split_feature=7 5 11
split_gain=5.13201 7.87582 2.17999
threshold=-1.4921988499999996 1.3252977000000004 3.9640146500000006
decision_type=2 2 2
left_child=-1 -2 -3
right_child=1 2 -4
leaf_value=0.00034139376525500238 0.00033943931751293069 -0.00070841725580335422 -0.00021332293789639198
leaf_weight=529.81697422266006 349.4636547267437 323.10011523962021 331.03439827263355
leaf_count=2217 1461 1362 1392
internal_value=0 -0.000180237 -0.000457867
internal_weight=0 1003.6 654.135
internal_count=6432 4215 2754
is_linear=0
shrinkage=0.00428778


Tree=147
num_leaves=4
num_cat=0
split_feature=5 9 2
split_gain=5.14758 3.32163 6.18935
threshold=6.3446202000000005 -8.1113079999999975 0.7849617000000001
decision_type=2 2 2
left_child=1 -1 -3
right_child=-2 2 -4
leaf_value=-0.0003831655336490306 0.00042910422833258497 -0.00033100051190725456 0.00046322020945524246
leaf_weight=551.01694211363792 392.67609289288521 367.4533399939537 354.36739230155945
leaf_count=2143 1499 1426 1364
internal_value=0 -0.000132466 5.89106e-05
internal_weight=0 1272.84 721.821
internal_count=6432 4933 2790
is_linear=0
shrinkage=0.00428778


Tree=148
num_leaves=4
num_cat=0
split_feature=8 4 9
split_gain=5.69675 5.28217 3.49263
threshold=0.23643548000000003 -5.4130569999999993 -6.1372157499999993
decision_type=2 2 2
left_child=1 -1 -2
right_child=2 -3 -4
leaf_value=1.7759604529186483e-05 0.00051046262896061866 -0.00061163953322098817 -4.6860400505438942e-06
leaf_weight=393.90023000538349 275.97364908456802 239.33762082457542 314.29756189882755
leaf_count=2072 1414 1307 1639
internal_value=0 -0.000220127 0.000236165
internal_weight=0 633.238 590.271
internal_count=6432 3379 3053
is_linear=0
shrinkage=0.00334145


Tree=149
num_leaves=4
num_cat=0
split_feature=3 3 10
split_gain=5.54971 7.29136 3.45508
threshold=6.1061812500000006 -12.505395499999997 14.310101000000001
decision_type=2 2 2
left_child=1 -1 -3
right_child=-2 2 -4
leaf_value=-0.00026761979826232546 -0.00029812708602975886 0.00047364218074368578 7.6845231562037639e-05
leaf_weight=405.17111420631409 509.73275506496429 466.16442388296127 516.46673735976219
leaf_count=1378 1736 1572 1746
internal_value=0 0.000109563 0.000265087
internal_weight=0 1387.8 982.631
internal_count=6432 4696 3318
is_linear=0
shrinkage=0.00334145


Tree=150
num_leaves=4
num_cat=0
split_feature=10 10 6
split_gain=5.12446 8.13928 3.9681
threshold=18.926242500000004 12.578863750000002 0.34199491000000004
decision_type=2 2 2
left_child=1 -1 -3
right_child=-2 2 -4
leaf_value=-0.00021754344628163616 -0.00038251202344255183 0.00057848355596127774 7.4586737092180037e-05
leaf_weight=523.3098236322403 311.59207819402218 359.04950134456158 339.45767703652382
leaf_count=2213 1318 1481 1420
internal_value=0 9.75438e-05 0.000333602
internal_weight=0 1221.82 698.507
internal_count=6432 5114 2901
is_linear=0
shrinkage=0.00334145


Tree=151
num_leaves=4
num_cat=0
split_feature=10 2 7
split_gain=5.11602 4.20735 3.23929
threshold=9.9159565000000018 2.2327129500000003 -1.3499562999999999
decision_type=2 2 2
left_child=-1 2 -2
right_child=1 -3 -4
leaf_value=0.0003650459412648145 -0.00045546128391899394 0.00021565157074130472 -5.705943907850497e-05
leaf_weight=340.83476305007935 367.62455892562866 357.66443273425102 599.37823104858398
leaf_count=1313 1423 1378 2318
internal_value=0 -9.39919e-05 -0.00020852
internal_weight=0 1324.67 967.003
internal_count=6432 5119 3741
is_linear=0
shrinkage=0.00334145


Tree=152
num_leaves=4
num_cat=0
split_feature=8 4 6
split_gain=5.61272 5.21485 3.46658
threshold=0.23643548000000003 -5.4130569999999993 0.17552645000000003
decision_type=2 2 2
left_child=1 -1 -2
right_child=2 -3 -4
leaf_value=2.1408593837558319e-05 0.0006052057044405565 -0.00073598820399388464 -1.5102958848213257e-05
leaf_weight=393.90773613750935 284.44248171150684 239.0525793582201 306.0923318862915
leaf_count=2072 1460 1307 1593
internal_value=0 -0.00026464 0.000283681
internal_weight=0 632.96 590.535
internal_count=6432 3379 3053
is_linear=0
shrinkage=0.00404537


Tree=153
num_leaves=4
num_cat=0
split_feature=0 9 9
split_gain=5.50511 4.02875 3.81842
threshold=4.4859600000000013 1.0217830000000003 -9.9790734999999984
decision_type=2 2 2
left_child=1 2 -1
right_child=-2 -3 -4
leaf_value=-0.00025195986958979688 0.00029880128827926706 -0.00048523136198717263 0.00029957251437010273
leaf_weight=442.24577170610428 658.9220934510231 412.72972708940506 383.62438255548477
leaf_count=1502 2224 1405 1301
internal_value=0 -0.000158868 4.23206e-06
internal_weight=0 1238.6 825.87
internal_count=6432 4208 2803
is_linear=0
shrinkage=0.00404537


Tree=154
num_leaves=4
num_cat=0
split_feature=10 10 6
split_gain=5.06861 8.25444 3.39358
threshold=18.596973000000002 12.578863750000002 0.34199491000000004
decision_type=2 2 2
left_child=1 -1 -3
right_child=-2 2 -4
leaf_value=-0.00026051688686054558 -0.00044457706317749062 0.00069220946705473424 0.00012073814632885453
leaf_weight=523.03050996363163 329.50674869120121 350.89711178839207 329.96115820109844
leaf_count=2213 1393 1446 1380
internal_value=0 0.000121668 0.00041526
internal_weight=0 1203.89 680.858
internal_count=6432 5039 2826
is_linear=0
shrinkage=0.00404537


Tree=155
num_leaves=4
num_cat=0
split_feature=5 8 8
split_gain=5.04363 3.27327 6.21125
threshold=6.3446202000000005 0.24177268500000001 0.030361822500000003
decision_type=2 2 2
left_child=1 2 -1
right_child=-2 -3 -4
leaf_value=-0.00029563469618038257 0.00040056912260022379 -0.00035724367613960571 0.00045848357467752023
leaf_weight=382.75384998321533 392.91574808955193 554.49623644351959 335.3292381465435
leaf_count=1485 1499 2162 1286
internal_value=0 -0.000123766 5.65222e-05
internal_weight=0 1272.58 718.083
internal_count=6432 4933 2771
is_linear=0
shrinkage=0.00404537


Tree=156
num_leaves=4
num_cat=0
split_feature=8 4 9
split_gain=5.55739 5.17269 3.45611
threshold=0.23643548000000003 -5.4130569999999993 -5.2311591999999996
decision_type=2 2 2
left_child=1 -1 -2
right_child=2 -3 -4
leaf_value=1.3496926673954347e-05 0.00037449003061867811 -0.00046169765894802473 -1.5291468069345229e-05
leaf_weight=393.90562501549721 292.53811836242676 238.86862707138062 298.16997238993645
leaf_count=2072 1498 1307 1555
internal_value=0 -0.000165886 0.000177741
internal_weight=0 632.774 590.708
internal_count=6432 3379 3053
is_linear=0
shrinkage=0.00254779


Tree=157
num_leaves=4
num_cat=0
split_feature=3 3 7
split_gain=5.50752 7.21087 3.48627
threshold=6.1061812500000006 -12.505395499999997 -1.1837768999999998
decision_type=2 2 2
left_child=1 -1 -3
right_child=-2 2 -4
leaf_value=-0.00020283903697290761 -0.00022647502127347903 5.1577778653113312e-05 0.00035510017581208761
leaf_weight=405.07625868916512 509.64838334918022 498.5938780605793 484.1984443962574
leaf_count=1378 1736 1686 1632
internal_value=0 8.3214e-05 0.000201116
internal_weight=0 1387.87 982.792
internal_count=6432 4696 3318
is_linear=0
shrinkage=0.00254779


Tree=158
num_leaves=4
num_cat=0
split_feature=5 8 10
split_gain=5.04711 5.99152 2.81978
threshold=3.4823387500000003 0.094842570000000015 13.613089500000003
decision_type=2 2 2
left_child=1 -1 -2
right_child=2 -3 -4
leaf_value=0.00041481377776468023 -0.00033965901207861168 -3.5534425661379024e-05 -1.8006023145447198e-05
leaf_weight=312.29345807433128 307.35883519053459 496.86787754297256 416.86543035507202
leaf_count=1294 1306 2085 1747
internal_value=0 0.000138276 -0.000154515
internal_weight=0 809.161 724.224
internal_count=6432 3379 3053
is_linear=0
shrinkage=0.00254779


Tree=159
num_leaves=4
num_cat=0
split_feature=10 2 7
split_gain=5.01867 4.13992 3.1903
threshold=9.9159565000000018 2.2327129500000003 -1.3499562999999999
decision_type=2 2 2
left_child=-1 2 -2
right_child=1 -3 -4
leaf_value=0.00027556363304269085 -0.00034462510704605723 0.00016312535780637681 -4.3081866737954659e-05
leaf_weight=341.05035489797592 367.35493394732475 357.77141091227531 599.30905601382256
leaf_count=1313 1423 1378 2318
internal_value=0 -7.10171e-05 -0.000157675
internal_weight=0 1324.44 966.664
internal_count=6432 5119 3741
is_linear=0
shrinkage=0.00254779


Tree=160
num_leaves=4
num_cat=0
split_feature=8 4 9
split_gain=5.94724 5.45437 3.5697
threshold=0.23643548000000003 -5.4130569999999993 -6.1372157499999993
decision_type=2 2 2
left_child=1 -1 -2
right_child=2 -3 -4
leaf_value=7.4432841054408254e-06 0.00022204331711743247 -0.00026572074673099924 -7.7348271266677063e-07
leaf_weight=393.93683534860611 275.41796368360519 240.09759467840195 314.06391450762749
leaf_count=2072 1414 1307 1639
internal_value=0 -9.59991e-05 0.000103331
internal_weight=0 634.034 589.482
internal_count=6432 3379 3053
is_linear=0
shrinkage=0.00142857


Tree=161
num_leaves=4
num_cat=0
split_feature=3 3 7
split_gain=5.77095 7.56046 3.598
threshold=6.1061812500000006 -12.505395499999997 -1.1837768999999998
decision_type=2 2 2
left_child=1 -1 -3
right_child=-2 2 -4
leaf_value=-0.00011634998551224048 -0.00012992134233571665 3.035024053726844e-05 0.00020331550831364993
leaf_weight=405.43337604403496 510.1562006175518 498.377526730299 483.60952308773994
leaf_count=1378 1736 1686 1632
internal_value=0 4.77714e-05 0.000115532
internal_weight=0 1387.42 981.987
internal_count=6432 4696 3318
is_linear=0
shrinkage=0.00142857


Tree=162
num_leaves=4
num_cat=0
split_feature=10 10 6
split_gain=5.18864 8.27223 4.03366
threshold=18.926242500000004 12.578863750000002 0.34199491000000004
decision_type=2 2 2
left_child=1 -1 -3
right_child=-2 2 -4
leaf_value=-9.3772438547010199e-05 -0.00016450056489768531 0.00024939787321849529 3.2140511727116289e-05
leaf_weight=523.52703884243965 311.75944682955742 358.7279836088419 339.41793881356716
leaf_count=2213 1318 1481 1420
internal_value=0 4.19774e-05 0.000143774
internal_weight=0 1221.67 698.146
internal_count=6432 5114 2901
is_linear=0
shrinkage=0.00142857


Tree=163
num_leaves=4
num_cat=0
split_feature=5 8 8
split_gain=5.29572 3.3756 6.26968
threshold=6.3446202000000005 0.24177268500000001 0.030361822500000003
decision_type=2 2 2
left_child=1 2 -1
right_child=-2 -3 -4
leaf_value=-0.0001049766183348327 0.000145087382807241 -0.0001284059353499362 0.00016258090392558928
leaf_weight=382.8639312684536 392.33871161937714 555.09593170881271 335.24240076541901
leaf_count=1485 1499 2162 1286
internal_value=0 -4.47418e-05 1.99305e-05
internal_weight=0 1273.2 718.106
internal_count=6432 4933 2771
is_linear=0
shrinkage=0.00142857


Tree=164
num_leaves=4
num_cat=0
split_feature=8 4 6
split_gain=5.5394 5.1625 3.43435
threshold=0.23643548000000003 -5.4130569999999993 0.17552645000000003
decision_type=2 2 2
left_child=1 -1 -2
right_child=2 -3 -4
leaf_value=1.9695772825776549e-05 0.00055012108249138578 -0.00066960798201302592 -1.433968674485058e-05
leaf_weight=393.8964209407568 284.63479045033455 238.81813225150108 306.13025602698326
leaf_count=2072 1460 1307 1593
internal_value=0 -0.000240482 0.000257622
internal_weight=0 632.715 590.765
internal_count=6432 3379 3053
is_linear=0
shrinkage=0.00369914


Tree=165
num_leaves=4
num_cat=0
split_feature=3 3 7
split_gain=5.48607 7.18009 3.46692
threshold=6.1061812500000006 -12.505395499999997 -1.1837768999999998
decision_type=2 2 2
left_child=1 -1 -3
right_child=-2 2 -4
leaf_value=-0.00029388368934286897 -0.0003281976255027193 7.485760573272844e-05 0.0005143005765416614
leaf_weight=405.0443996489048 509.60765805840492 498.59598672389984 484.26804274320602
leaf_count=1378 1736 1686 1632
internal_value=0 0.000120575 0.000291376
internal_weight=0 1387.91 982.864
internal_count=6432 4696 3318
is_linear=0
shrinkage=0.00369914


Tree=166
num_leaves=4
num_cat=0
split_feature=7 5 11
split_gain=5.03441 7.74443 2.1575
threshold=-1.4921988499999996 1.3252977000000004 4.1717641500000004
decision_type=2 2 2
left_child=-1 -2 -3
right_child=1 2 -4
