tree
version=v4
num_class=4
num_tree_per_iteration=4
label_index=0
max_feature_idx=11
objective=multiclass num_class:4
feature_names=Column_0 Column_1 Column_2 Column_3 Column_4 Column_5 Column_6 Column_7 Column_8 Column_9 Column_10 Column_11
feature_infos=[-36.135066999999999:34.178265000000003] [-19.451706000000001:18.761023999999999] [-15.831973:13.199909999999999] [-74.378799999999998:76.833489999999998] [-45.86862:40.129196] [-32.257713000000003:27.612888000000002] [-17.945896000000001:14.213497] [-2.7432531999999998:2.2395208000000002] [-0.88125500000000001:2.5189976999999999] [-109.15806600000001:74.819389999999999] [-35.793320000000001:71.932329999999993] [-31.478106:24.871704000000001]
tree_sizes=554 555 555 555 568 569 570 571 564 571 570 573 461 574 569 572 568 571 572 572 461 574 568 572 566 570 570 571 462 574 570 570 565 570 567 572 565 573 570 573 459 569 570 572 568 573 571 571 460 572 570 571 568 573 571 571 462 570 568 573 566 570 569 573 462 576 570 571 568 571 572 572 460 574 569 570 566 573 571 569

Tree=0
num_leaves=4
num_cat=0
split_feature=0 3 1
split_gain=8.63001 8.15222 8.00449
threshold=6.1008470000000008 -3.8473584999999995 -0.5414031199999999
decision_type=2 2 2
left_child=1 -1 -3
right_child=-2 2 -4
leaf_value=-1.7585071473366856 -1.7592004287075678 -1.7553169576155954 -1.757746719258505
leaf_weight=348.35578852891922 332.94518291950226 267.87818145751953 274.53708511590958
leaf_count=1831 1750 1408 1443
internal_value=-1.75783 -1.75731 -1.75655
internal_weight=0 890.771 542.415
internal_count=6432 4682 2851
is_linear=0
shrinkage=1


Tree=1
num_leaves=4
num_cat=0
split_feature=4 10 11
split_gain=4.36799 3.48247 2.12783
threshold=-1.7450788999999998 5.5505683500000016 0.96913206500000015
decision_type=2 2 2
left_child=-1 2 -2
right_child=1 -3 -4
leaf_value=-1.1061547516930326 -1.1072739861854601 -1.1065966625010868 -1.1082250895632324
leaf_weight=428.40108239650726 614.2775850892067 473.83756083250046 381.19435155391693
leaf_count=1452 2082 1606 1292
internal_value=-1.10704 -1.1073 -1.10764
internal_weight=0 1469.31 995.472
internal_count=6432 4980 3374
is_linear=0
shrinkage=1


Tree=2
num_leaves=4
num_cat=0
split_feature=2 10 5
split_gain=8.89079 7.66816 3.67173
threshold=-4.8752796499999986 5.6556406500000014 -2.3866468499999995
decision_type=2 2 2
left_child=-1 2 -2
right_child=1 -3 -4
leaf_value=-1.4546963653020251 -1.4550295351564615 -1.4576476646158558 -1.456442791815822
leaf_weight=482.34399721026421 346.20043694972992 313.05865958333015 391.97900712490082
leaf_count=2023 1452 1313 1644
internal_value=-1.45582 -1.45634 -1.45578
internal_weight=0 1051.24 738.179
internal_count=6432 4409 3096
is_linear=0
shrinkage=1


Tree=3
num_leaves=4
num_cat=0
split_feature=8 6 5
split_gain=7.4181 5.84163 6.50159
threshold=-0.11233646999999998 -2.0028127499999995 -2.1897921999999999
decision_type=2 2 2
left_child=-1 -2 -3
right_child=1 2 -4
leaf_value=-1.3312290346816735 -1.3338415026386168 -1.3332433312283971 -1.3315356687520257
leaf_weight=396.22322201728821 376.28257620334625 429.11233913898468 464.07321166992188
leaf_count=1530 1453 1657 1792
internal_value=-1.33242 -1.3328 -1.33236
internal_weight=0 1269.47 893.186
internal_count=6432 4902 3449
is_linear=0
shrinkage=1


Tree=4
num_leaves=4
num_cat=0
split_feature=0 3 1
split_gain=8.50838 8.02562 7.86469
threshold=6.1008470000000008 -3.8473584999999995 -0.5414031199999999
decision_type=2 2 2
left_child=1 -1 -3
right_child=-2 2 -4
leaf_value=-0.00067551990196206241 -0.0013647206977670178 0.0024870771993625428 7.9646710052046283e-05
leaf_weight=348.20039355754852 332.65169045329094 268.31606148183346 274.54796932637691
leaf_count=1831 1750 1408 1443
internal_value=0 0.000509473 0.00126954
internal_weight=0 891.064 542.864
internal_count=6432 4682 2851
is_linear=0
shrinkage=0.01


Tree=5
num_leaves=4
num_cat=0
split_feature=2 5 5
split_gain=4.31808 6.48584 5.83102
threshold=-2.6838957999999997 -1.5113109499999997 -2.3866468499999995
decision_type=2 2 2
left_child=2 -2 -1
right_child=1 -3 -4
leaf_value=0.00037498182779618087 -0.00025344787717108855 0.0014893068064328048 -0.0011321816215701347
leaf_weight=476.77769017219543 480.35722061991692 384.46439978480339 556.11064481735229
leaf_count=1616 1628 1303 1885
internal_value=0 0.00052131 -0.00043648
internal_weight=0 864.822 1032.89
internal_count=6432 2931 3501
is_linear=0
shrinkage=0.01


Tree=6
num_leaves=4
num_cat=0
split_feature=2 10 5
split_gain=8.75409 7.54178 3.60294
threshold=-4.8752796499999986 5.6556406500000014 -2.3866468499999995
decision_type=2 2 2
left_child=-1 2 -2
right_child=1 -3 -4
leaf_value=0.0011148904570064436 0.00078234693713940596 -0.0018135929689883964 -0.00061751312476642103
leaf_weight=482.63534930348396 346.39963790774345 312.70935669541359 391.83733251690865
leaf_count=2023 1452 1313 1644
internal_value=0 -0.000512003 3.9337e-05
internal_weight=0 1050.95 738.237
internal_count=6432 4409 3096
is_linear=0
shrinkage=0.01


Tree=7
num_leaves=4
num_cat=0
split_feature=8 6 5
split_gain=7.30396 5.76269 6.39087
threshold=-0.11233646999999998 -2.0028127499999995 -2.1897921999999999
decision_type=2 2 2
left_child=-1 -2 -3
right_child=1 2 -4
leaf_value=0.0011848451634497313 -0.0014085692525182172 -0.00081294272932807697 0.0008801285958437554
leaf_weight=396.44753390550613 376.03827708959579 428.91732162237167 464.28765279054642
leaf_count=1530 1453 1657 1792
internal_value=0 -0.000370085 6.71152e-05
internal_weight=0 1269.24 893.205
internal_count=6432 4902 3449
is_linear=0
shrinkage=0.01


Tree=8
num_leaves=4
num_cat=0
split_feature=0 3 1
split_gain=8.38607 7.9024 7.72692
threshold=6.1008470000000008 -3.8473584999999995 -0.5414031199999999
decision_type=2 2 2
left_child=1 -1 -3
right_child=-2 2 -4
leaf_value=-0.0006709127816572994 -0.0013557088310469317 0.0024644764545268586 7.9223301675393471e-05
leaf_weight=348.05143395066261 332.35431496798992 268.75135378539562 274.5580361187458
leaf_count=1831 1750 1408 1443
internal_value=0 0.000505486 0.0012591
internal_weight=0 891.361 543.309
internal_count=6432 4682 2851
is_linear=0
shrinkage=0.01


Tree=9
num_leaves=4
num_cat=0
split_feature=4 10 11
split_gain=4.30673 3.39592 2.09656
threshold=-1.7450788999999998 5.5505683500000016 0.96913206500000015
decision_type=2 2 2
left_child=-1 2 -2
right_child=1 -3 -4
leaf_value=0.00088209281504870703 -0.00022756243249290884 0.00043936873559551076 -0.0011718170949610216
leaf_weight=428.52003848552704 614.18821853399277 473.98869660496712 381.01168173551559
leaf_count=1452 2082 1606 1292
internal_value=0 -0.000257276 -0.00058907
internal_weight=0 1469.19 995.2
internal_count=6432 4980 3374
is_linear=0
shrinkage=0.01


Tree=10
num_leaves=4
num_cat=0
split_feature=2 10 5
split_gain=8.59816 7.43478 3.5292
threshold=-4.8752796499999986 5.6556406500000014 -2.3866468499999995
decision_type=2 2 2
left_child=-1 2 -2
right_child=1 -3 -4
leaf_value=0.0011043547079521592 0.00077453775102928797 -0.0018008754786746715 -0.0006108905322882482
leaf_weight=482.97034145891666 346.58181966841221 312.38402281701565 391.64410229027271
leaf_count=2023 1452 1313 1644
internal_value=0 -0.000507682 3.95394e-05
internal_weight=0 1050.61 738.226
internal_count=6432 4409 3096
is_linear=0
shrinkage=0.01


Tree=11
num_leaves=4
num_cat=0
split_feature=8 6 5
split_gain=7.18972 5.68427 6.27749
threshold=-0.11233646999999998 -2.0028127499999995 -2.1897921999999999
decision_type=2 2 2
left_child=-1 -2 -3
right_child=1 2 -4
leaf_value=0.0011751043637371467 -0.0013991495409285525 -0.00080582923529037246 0.00087217207546690231
leaf_weight=396.67361092567444 375.79314592480659 428.71458533406258 464.50788447260857
leaf_count=1530 1453 1657 1792
internal_value=0 -0.000367317 6.67919e-05
internal_weight=0 1269.02 893.222
internal_count=6432 4902 3449
is_linear=0
shrinkage=0.01


Tree=12
num_leaves=3
num_cat=0
split_feature=0 9
split_gain=8.26785 7.80116
threshold=6.1008470000000008 -0.30024072499999993
decision_type=2 2
left_child=1 -1
right_child=-2 -3
leaf_value=0.0013653192250154998 -0.0013469253353045549 -0.00051136282783443741
leaf_weight=481.28354424238205 332.06477102637291 410.36506064236164
leaf_count=2527 1750 2155
internal_value=0 0.00050161
internal_weight=0 891.649
internal_count=6432 4682
is_linear=0
shrinkage=0.01


Tree=13
num_leaves=4
num_cat=0
split_feature=4 10 11
split_gain=4.24254 3.32873 2.06655
threshold=-1.7450788999999998 5.5505683500000016 0.96913206500000015
decision_type=2 2 2
left_child=-1 2 -2
right_child=1 -3 -4
leaf_value=0.00087533117191732057 -0.00022508908631175151 0.00043419030118974327 -0.0011627065566959804
leaf_weight=428.64558246731758 614.11855113506317 474.09700825810432 380.8454821407795
leaf_count=1452 2082 1606 1292
internal_value=0 -0.000255398 -0.000583984
internal_weight=0 1469.06 994.964
internal_count=6432 4980 3374
is_linear=0
shrinkage=0.01


Tree=14
num_leaves=4
num_cat=0
split_feature=2 10 5
split_gain=8.46603 7.31209 3.46306
threshold=-4.8752796499999986 5.6556406500000014 -2.3866468499999995
decision_type=2 2 2
left_child=-1 2 -2
right_child=1 -3 -4
leaf_value=0.0010953595488610781 0.00076617047752670139 -0.0017873993299503102 -0.0006061236697334579
leaf_weight=483.25643074512482 346.7770624756813 312.03947553038597 391.50499640405178
leaf_count=2023 1452 1313 1644
internal_value=0 -0.000503988 3.8454e-05
internal_weight=0 1050.32 738.282
internal_count=6432 4409 3096
is_linear=0
shrinkage=0.01


Tree=15
num_leaves=4
num_cat=0
split_feature=8 6 5
split_gain=7.07916 5.60739 6.17064
threshold=-0.11233646999999998 -2.0028127499999995 -2.1897921999999999
decision_type=2 2 2
left_child=-1 -2 -3
right_child=1 2 -4
leaf_value=0.0011656098654368335 -0.0013898754235102937 -0.00079909924000318405 0.00086457260076798145
leaf_weight=396.89398285746574 375.55177780985832 428.52275004982948 464.7182115316391
leaf_count=1530 1453 1657 1792
internal_value=0 -0.000364614 6.64439e-05
internal_weight=0 1268.79 893.241
internal_count=6432 4902 3449
is_linear=0
shrinkage=0.01


Tree=16
num_leaves=4
num_cat=0
split_feature=0 3 1
split_gain=8.15129 7.77557 7.58782
threshold=6.1008470000000008 -3.8473584999999995 -0.5414031199999999
decision_type=2 2 2
left_child=1 -1 -3
right_child=-2 2 -4
leaf_value=-0.00066951787980748805 -0.0013381911609060841 0.0024374467873428114 7.5126109451530344e-05
leaf_weight=348.00616593658924 331.77714462578297 269.27321596443653 274.65552553534508
leaf_count=1831 1750 1408 1443
internal_value=0 0.000497768 0.0012446
internal_weight=0 891.935 543.929
internal_count=6432 4682 2851
is_linear=0
shrinkage=0.01


Tree=17
num_leaves=4
num_cat=0
split_feature=2 5 5
split_gain=4.18567 6.38511 5.71487
threshold=-2.6838957999999997 -1.5113109499999997 -2.3866468499999995
decision_type=2 2 2
left_child=2 -2 -1
right_child=1 -3 -4
leaf_value=0.00037330573484315219 -0.00025571332417793235 0.0014730880843000027 -0.0011189600635870781
leaf_weight=476.81218886375427 480.40563464164734 384.72747936844826 555.75873595476151
leaf_count=1616 1628 1303 1885
internal_value=0 0.00051309 -0.000429874
internal_weight=0 865.133 1032.57
internal_count=6432 2931 3501
is_linear=0
shrinkage=0.01


Tree=18
num_leaves=4
num_cat=0
split_feature=2 10 5
split_gain=8.33746 7.19022 3.39764
threshold=-4.8752796499999986 5.6556406500000014 -2.3866468499999995
decision_type=2 2 2
left_child=-1 2 -2
right_child=1 -3 -4
leaf_value=0.0010865457617807088 0.00075774473753505102 -0.0017739595478632713 -0.00060143430374271433
leaf_weight=483.53686068952084 346.97375051677227 311.69607731699944 391.36817118525505
leaf_count=2023 1452 1313 1644
internal_value=0 -0.000500364 3.72934e-05
internal_weight=0 1050.04 738.342
internal_count=6432 4409 3096
is_linear=0
shrinkage=0.01


Tree=19
num_leaves=4
num_cat=0
split_feature=8 6 5
split_gain=6.97082 5.5263 6.06661
threshold=-0.11233646999999998 -2.0028127499999995 -2.1897921999999999
decision_type=2 2 2
left_child=-1 -2 -3
right_child=1 2 -4
leaf_value=0.0011562396867794602 -0.0013802117799480795 -0.00079270790089502419 0.00085688220098417657
leaf_weight=397.11149942874908 375.30027908086777 428.34056806564331 464.93108427524567
leaf_count=1530 1453 1657 1792
internal_value=0 -0.000361944 6.58727e-05
internal_weight=0 1268.57 893.272
internal_count=6432 4902 3449
is_linear=0
shrinkage=0.01


Tree=20
num_leaves=3
num_cat=0
split_feature=0 9
split_gain=8.03404 7.66763
threshold=6.1008470000000008 -0.30024072499999993
decision_type=2 2
left_child=1 -1
right_child=-2 -3
leaf_value=0.0013493295753073296 -0.0013293310851673096 -0.00051071921721331664
leaf_weight=481.88337448239326 331.48568174242973 410.34001113474369
leaf_count=2527 1750 2155
internal_value=0 0.00049388
internal_weight=0 892.223
internal_count=6432 4682
is_linear=0
shrinkage=0.01


Tree=21
num_leaves=4
num_cat=0
split_feature=4 10 11
split_gain=4.18268 3.24707 2.0393
threshold=-1.7450788999999998 5.5505683500000016 0.96913206500000015
decision_type=2 2 2
left_child=-1 2 -2
right_child=1 -3 -4
leaf_value=0.00086898358611300615 -0.00022175195207748143 0.00042727964027820901 -0.0011533261426207864
leaf_weight=428.76268917322159 614.02365493774414 474.24058651924133 380.67366507649422
leaf_count=1452 2082 1606 1292
internal_value=0 -0.000253631 -0.000578268
internal_weight=0 1468.94 994.697
internal_count=6432 4980 3374
is_linear=0
shrinkage=0.01


Tree=22
num_leaves=4
num_cat=0
split_feature=2 10 5
split_gain=8.1889 7.088 3.32793
threshold=-4.8752796499999986 5.6556406500000014 -2.3866468499999995
decision_type=2 2 2
left_child=-1 2 -2
right_child=1 -3 -4
leaf_value=0.0010762850945950201 0.00075017451571713983 -0.0017614835837999577 -0.00059495938975664628
leaf_weight=483.86352077126503 347.15052403509617 311.37739825248718 391.17927570641041
leaf_count=2023 1452 1313 1644
internal_value=0 -0.000496137 3.75004e-05
internal_weight=0 1049.71 738.33
internal_count=6432 4409 3096
is_linear=0
shrinkage=0.01


Tree=23
num_leaves=4
num_cat=0
split_feature=8 6 5
split_gain=6.86189 5.45104 5.95907
threshold=-0.11233646999999998 -2.0028127499999995 -2.1897921999999999
decision_type=2 2 2
left_child=-1 -2 -3
right_child=1 2 -4
leaf_value=0.0011467544694770803 -0.0013709680031352984 -0.00078576513695417425 0.00084915412250101538
leaf_weight=397.33169388771057 375.05968889594078 428.14264285564423 465.1450080871582
leaf_count=1530 1453 1657 1792
internal_value=0 -0.000359235 6.55559e-05
internal_weight=0 1268.35 893.288
internal_count=6432 4902 3449
is_linear=0
shrinkage=0.01


Tree=24
num_leaves=4
num_cat=0
split_feature=0 3 1
split_gain=7.92074 7.65223 7.45095
threshold=6.1008470000000008 -3.8473584999999995 -0.5414031199999999
decision_type=2 2 2
left_child=1 -1 -3
right_child=-2 2 -4
leaf_value=-0.00066823976274526359 -0.0013206967681036719 0.0024107346537112942 7.114993311887616e-05
leaf_weight=347.96451222896576 331.20192840695381 269.7902943789959 274.75006949901581
leaf_count=1831 1750 1408 1443
internal_value=0 0.000490101 0.00123029
internal_weight=0 892.505 544.54
internal_count=6432 4682 2851
is_linear=0
shrinkage=0.01


Tree=25
num_leaves=4
num_cat=0
split_feature=4 10 11
split_gain=4.11997 3.18384 2.0132
threshold=-1.7450788999999998 5.5505683500000016 0.96913206500000015
decision_type=2 2 2
left_child=-1 2 -2
right_child=1 -3 -4
leaf_value=0.000862285560867329 -0.00021909745031856363 0.00042235809006732226 -0.0011448277146079741
leaf_weight=428.88677862286568 613.94867631793022 474.3431413769722 380.5182628929615
leaf_count=1452 2082 1606 1292
internal_value=0 -0.000251768 -0.000573315
internal_weight=0 1468.81 994.467
internal_count=6432 4980 3374
is_linear=0
shrinkage=0.01


Tree=26
num_leaves=4
num_cat=0
split_feature=2 10 5
split_gain=8.06462 6.9697 3.26504
threshold=-4.8752796499999986 5.6556406500000014 -2.3866468499999995
decision_type=2 2 2
left_child=-1 2 -2
right_child=1 -3 -4
leaf_value=0.0010676365910898486 0.00074192005738099663 -0.0017482127040721039 -0.00059035559388019262
leaf_weight=484.13891191780567 347.34332793951035 311.03868950903416 391.04495836794376
leaf_count=2023 1452 1313 1644
internal_value=0 -0.00049257 3.63568e-05
internal_weight=0 1049.43 738.388
internal_count=6432 4409 3096
is_linear=0
shrinkage=0.01


Tree=27
num_leaves=4
num_cat=0
split_feature=8 6 5
split_gain=6.75694 5.37215 5.85866
threshold=-0.11233646999999998 -2.0028127499999995 -2.1897921999999999
decision_type=2 2 2
left_child=-1 -2 -3
right_child=1 2 -4
leaf_value=0.0011375492875041217 -0.001361424510316668 -0.00077947874284356347 0.00084161091740417532
leaf_weight=397.54541218280792 374.81130093336105 427.96342453360558 465.35381516814232
leaf_count=1530 1453 1657 1792
internal_value=0 -0.000356603 6.4992e-05
internal_weight=0 1268.13 893.317
internal_count=6432 4902 3449
is_linear=0
shrinkage=0.01


Tree=28
num_leaves=3
num_cat=0
split_feature=0 9
split_gain=7.80901 7.54088
threshold=6.1008470000000008 -0.30024072499999993
decision_type=2 2
left_child=1 -1
right_child=-2 -3
leaf_value=0.0013339063226764883 -0.0013121113181967794 -0.00051021990030335998
leaf_weight=482.46262937784195 330.92005714774132 410.32004883885384
leaf_count=2527 1750 2155
internal_value=0 0.000486352
internal_weight=0 892.783
internal_count=6432 4682
is_linear=0
shrinkage=0.01


Tree=29
num_leaves=4
num_cat=0
split_feature=4 10 11
split_gain=4.05855 3.1209 1.98436
threshold=-1.7450788999999998 5.5505683500000016 0.96913206500000015
decision_type=2 2 2
left_child=-1 2 -2
right_child=1 -3 -4
leaf_value=0.00085567899152589613 -0.00021671157630223412 0.00041737942917708201 -0.0011359279292543199
leaf_weight=429.00897687673569 613.88108390569687 474.44671800732613 380.35528394579887
leaf_count=1452 2082 1606 1292
internal_value=0 -0.000249929 -0.000568367
internal_weight=0 1468.68 994.236
internal_count=6432 4980 3374
is_linear=0
shrinkage=0.01


Tree=30
num_leaves=4
num_cat=0
split_feature=2 10 5
split_gain=7.94082 6.85447 3.20383
threshold=-4.8752796499999986 5.6556406500000014 -2.3866468499999995
decision_type=2 2 2
left_child=-1 2 -2
right_child=1 -3 -4
leaf_value=0.0010589613165787131 0.00073390336639182177 -0.001735089216882178 -0.0005857433061807574
leaf_weight=484.41520032286644 347.53059427440166 310.70390489697456 390.91034935414791
leaf_count=2023 1452 1313 1644
internal_value=0 -0.000488987 3.53187e-05
internal_weight=0 1049.14 738.441
internal_count=6432 4409 3096
is_linear=0
shrinkage=0.01


Tree=31
num_leaves=4
num_cat=0
split_feature=8 6 5
split_gain=6.65315 5.29943 5.759
threshold=-0.11233646999999998 -2.0028127499999995 -2.1897921999999999
decision_type=2 2 2
left_child=-1 -2 -3
right_child=1 2 -4
leaf_value=0.001128383285836889 -0.0013523837793437254 -0.00077295858795820938 0.00083429851571144894
leaf_weight=397.75819501280785 374.57595384120941 427.77748656272888 465.55618605017662
leaf_count=1530 1453 1657 1792
internal_value=0 -0.000353978 6.46551e-05
internal_weight=0 1267.91 893.334
internal_count=6432 4902 3449
is_linear=0
shrinkage=0.01


Tree=32
num_leaves=4
num_cat=0
split_feature=0 3 1
split_gain=7.69885 7.5297 7.31742
threshold=6.1008470000000008 -3.8473584999999995 -0.5414031199999999
decision_type=2 2 2
left_child=1 -1 -3
right_child=-2 2 -4
leaf_value=-0.00066675377514432575 -0.0013035744140727857 0.0023844540993687687 6.7227462727763115e-05
leaf_weight=347.9159490019083 330.64006370306015 270.30031348764896 274.8432449400425
leaf_count=1831 1750 1408 1443
internal_value=0 0.000482635 0.00121619
internal_weight=0 893.06 545.144
internal_count=6432 4682 2851
is_linear=0
shrinkage=0.01


Tree=33
num_leaves=4
num_cat=0
split_feature=2 5 5
split_gain=4.03537 6.28607 5.59297
threshold=-2.6838957999999997 -1.5113109499999997 -2.3866468499999995
decision_type=2 2 2
left_child=2 -2 -1
right_child=1 -3 -4
leaf_value=0.00037217020113168358 -0.00025927021685272483 0.0014556644348770202 -0.0011043183115030382
leaf_weight=476.83312967419624 480.47962039709091 385.0083050429821 555.36580178141594
leaf_count=1616 1628 1303 1885
internal_value=0 0.000503611 -0.000422242
internal_weight=0 865.488 1032.2
internal_count=6432 2931 3501
is_linear=0
shrinkage=0.01


Tree=34
num_leaves=4
num_cat=0
split_feature=2 10 4
split_gain=7.82038 6.74 3.16063
threshold=-4.8752796499999986 5.6556406500000014 1.5146624500000001
decision_type=2 2 2
left_child=-1 2 -2
right_child=1 -3 -4
leaf_value=0.0010504624050964163 -0.0006673604954490611 -0.0017220005995033513 0.00064424191302636126
leaf_weight=484.68598490953445 343.48042562603951 310.37023892998695 395.01689755916595
leaf_count=2023 1441 1313 1655
internal_value=0 -0.000485473 3.42062e-05
internal_weight=0 1048.87 738.497
internal_count=6432 4409 3096
is_linear=0
shrinkage=0.01


Tree=35
num_leaves=4
num_cat=0
split_feature=8 6 5
split_gain=6.55144 5.22267 5.66199
threshold=-0.11233646999999998 -2.0028127499999995 -2.1897921999999999
decision_type=2 2 2
left_child=-1 -2 -3
right_child=1 2 -4
leaf_value=0.0011193372487398015 -0.0013429587261604267 -0.00076677123933209328 0.00082689475362242391
leaf_weight=397.96822261810303 374.33061325550079 427.60106068849564 465.7611109316349
leaf_count=1530 1453 1657 1792
internal_value=0 -0.000351384 6.40986e-05
internal_weight=0 1267.69 893.362
internal_count=6432 4902 3449
is_linear=0
shrinkage=0.01


Tree=36
num_leaves=4
num_cat=0
split_feature=0 3 1
split_gain=7.5871 7.41394 7.18973
threshold=6.1008470000000008 -3.8473584999999995 -0.5414031199999999
decision_type=2 2 2
left_child=1 -1 -3
right_child=-2 2 -4
leaf_value=-0.00066218908312398207 -0.0012948429402291971 0.0023628722173451365 6.6867560793169723e-05
leaf_weight=347.768400400877 330.35401470959187 270.72033619880676 274.85173797607422
leaf_count=1831 1750 1408 1443
internal_value=0 0.000478841 0.00120618
internal_weight=0 893.34 545.572
internal_count=6432 4682 2851
is_linear=0
shrinkage=0.01


Tree=37
num_leaves=4
num_cat=0
split_feature=4 8 5
split_gain=3.99188 3.10974 2.33027
threshold=-1.7450788999999998 0.0029524880500000007 -2.1897921999999999
decision_type=2 2 2
left_child=-1 2 -2
right_child=1 -3 -4
leaf_value=0.00084845272520911333 0.000722771215045314 -0.00079875584640960924 -0.00032304670165453722
leaf_weight=429.14150452613831 380.06506207585335 603.62112376093864 484.85339349508286
leaf_count=1452 1289 2046 1645
internal_value=0 -0.000247917 0.00013651
internal_weight=0 1468.54 864.918
internal_count=6432 4980 2934
is_linear=0
shrinkage=0.01


Tree=38
num_leaves=4
num_cat=0
split_feature=2 10 5
split_gain=7.6809 6.64394 3.12483
threshold=-4.8752796499999986 5.6556406500000014 -2.3866468499999995
decision_type=2 2 2
left_child=-1 2 -2
right_child=1 -3 -4
leaf_value=0.0010405469522515932 0.0007239238635130548 -0.0017098403632503211 -0.00057926805692285279
leaf_weight=485.00216291844845 347.76354804635048 310.06028854846954 390.72109550237656
leaf_count=2023 1452 1313 1644
internal_value=0 -0.000481364 3.44247e-05
internal_weight=0 1048.54 738.485
internal_count=6432 4409 3096
is_linear=0
shrinkage=0.01


Tree=39
num_leaves=4
num_cat=0
split_feature=8 6 5
split_gain=6.45092 5.15209 5.57101
threshold=-0.11233646999999998 -2.0028127499999995 -2.1897921999999999
decision_type=2 2 2
left_child=-1 -2 -3
right_child=1 2 -4
leaf_value=0.0011103387806288439 -0.0013340441278939089 -0.00076071798837604534 0.00082010580156235979
leaf_weight=398.17721816897392 374.09862494468689 427.42844378948212 465.94907775521278
leaf_count=1530 1453 1657 1792
internal_value=0 -0.000348795 6.37749e-05
internal_weight=0 1267.48 893.378
internal_count=6432 4902 3449
is_linear=0
shrinkage=0.01


Tree=40
num_leaves=3
num_cat=0
split_feature=0 9
split_gain=7.47999 7.402
threshold=6.1008470000000008 -0.30024072499999993
decision_type=2 2
left_child=1 -1
right_child=-2 -3
leaf_value=0.0013139317791133268 -0.0012864050070991598 -0.00051238767967050553
leaf_weight=483.21278385818005 330.0778289437294 410.39832380414009
leaf_count=2527 1750 2155
internal_value=0 0.000475179
internal_weight=0 893.611
internal_count=6432 4682
is_linear=0
shrinkage=0.01


Tree=41
num_leaves=4
num_cat=0
split_feature=2 5 5
split_gain=3.93617 6.22775 5.45973
threshold=-2.6838957999999997 -1.5113109499999997 -2.3866468499999995
decision_type=2 2 2
left_child=2 -2 -1
right_child=1 -3 -4
leaf_value=0.00036753614324558435 -0.00026210096876253154 0.00144459211592793 -0.0010913898146017215
leaf_weight=476.9299610555172 480.53991988301277 385.18675777316093 555.01981672644615
leaf_count=1616 1628 1303 1885
internal_value=0 0.000497256 -0.000417127
internal_weight=0 865.727 1031.95
internal_count=6432 2931 3501
is_linear=0
shrinkage=0.01


Tree=42
num_leaves=4
num_cat=0
split_feature=2 10 4
split_gain=7.56375 6.55082 3.10203
threshold=-4.8752796499999986 5.6556406500000014 1.5146624500000001
decision_type=2 2 2
left_child=-1 2 -2
right_child=1 -3 -4
leaf_value=0.001032161052380643 -0.00066122770081921117 -0.0016984579050371986 0.00063819709900909993
leaf_weight=485.26953409612179 343.32168781757355 309.77035892009735 395.17753295600414
leaf_count=2023 1441 1313 1655
internal_value=0 -0.000477878 3.41061e-05
internal_weight=0 1048.27 738.499
internal_count=6432 4409 3096
is_linear=0
shrinkage=0.01


Tree=43
num_leaves=4
num_cat=0
split_feature=8 6 5
split_gain=6.36162 5.08365 5.46637
threshold=-0.11233646999999998 -2.0028127499999995 -2.1897921999999999
decision_type=2 2 2
left_child=-1 -2 -3
right_child=1 2 -4
leaf_value=0.001102286102565654 -0.0013255437153862563 -0.00075383991265872655 0.00081207676109274927
leaf_weight=398.36416012048721 373.87731501460075 427.23227590322495 466.17131200432777
leaf_count=1530 1453 1657 1792
internal_value=0 -0.000346481 6.32437e-05
internal_weight=0 1267.28 893.404
internal_count=6432 4902 3449
is_linear=0
shrinkage=0.01


Tree=44
num_leaves=4
num_cat=0
split_feature=0 3 1
split_gain=7.37138 7.29522 7.06022
threshold=6.1008470000000008 -3.8473584999999995 -0.5414031199999999
decision_type=2 2 2
left_child=1 -1 -3
right_child=-2 2 -4
leaf_value=-0.00066075534579004814 -0.0012777740571071391 0.0023370028157826163 6.3025231027415054e-05
leaf_weight=347.72137270867825 329.79563981294632 271.22472754120827 274.9429192841053
leaf_count=1831 1750 1408 1443
internal_value=0 0.000471448 0.00119227
internal_weight=0 893.889 546.168
internal_count=6432 4682 2851
is_linear=0
shrinkage=0.01


Tree=45
num_leaves=4
num_cat=0
split_feature=4 8 5
split_gain=3.9263 3.09216 2.27907
threshold=-1.7450788999999998 0.0029524880500000007 -2.1897921999999999
decision_type=2 2 2
left_child=-1 2 -2
right_child=1 -3 -4
leaf_value=0.00084128954371402059 0.0007170608544893888 -0.00079526046399020715 -0.00031719724212728563
leaf_weight=429.27235454320908 380.15893974900246 603.51908549666405 484.71927636861801
leaf_count=1452 1289 2046 1645
internal_value=0 -0.000245921 0.000137413
internal_weight=0 1468.4 864.878
internal_count=6432 4980 2934
is_linear=0
shrinkage=0.01


Tree=46
num_leaves=4
num_cat=0
split_feature=2 10 4
split_gain=7.43022 6.45625 3.05627
threshold=-4.8752796499999986 5.6556406500000014 1.5146624500000001
decision_type=2 2 2
left_child=-1 2 -2
right_child=1 -3 -4
leaf_value=0.0010225245686738978 -0.00065619668379760692 -0.0016863882719376853 0.00063364610973985606
leaf_weight=485.57710199058056 343.19215770065784 309.46305301785469 395.29912473261356
leaf_count=2023 1441 1313 1655
internal_value=0 -0.000473872 3.42295e-05
internal_weight=0 1047.95 738.491
internal_count=6432 4409 3096
is_linear=0
shrinkage=0.01


Tree=47
num_leaves=4
num_cat=0
split_feature=8 6 5
split_gain=6.26452 5.01008 5.37957
threshold=-0.11233646999999998 -2.0028127499999995 -2.1897921999999999
decision_type=2 2 2
left_child=-1 -2 -3
right_child=1 2 -4
leaf_value=0.0010934766798499464 -0.0013163016619726102 -0.00074816873584984418 0.00080526844672999462
leaf_weight=398.56880420446396 373.63682433962822 427.07057905197144 466.35985291004181
leaf_count=1530 1453 1657 1792
internal_value=0 -0.00034394 6.27066e-05
internal_weight=0 1267.07 893.43
internal_count=6432 4902 3449
is_linear=0
shrinkage=0.01


Tree=48
num_leaves=3
num_cat=0
split_feature=0 9
split_gain=7.26641 7.27196
threshold=6.1008470000000008 -0.30024072499999993
decision_type=2 2
left_child=1 -1
right_child=-2 -3
leaf_value=0.0012983697590139038 -0.0012693654640409577 -0.00051137986028783832
leaf_weight=483.7987115830183 329.5209646821022 410.35856847465038
leaf_count=2527 1750 2155
internal_value=0 0.000467815
internal_weight=0 894.157
internal_count=6432 4682
is_linear=0
shrinkage=0.01


Tree=49
num_leaves=4
num_cat=0
split_feature=4 9 8
split_gain=3.87142 4.4157 4.39478
threshold=2.2289092500000005 -3.5365772499999997 0.0029524880500000007
decision_type=2 2 2
left_child=1 -1 -2
right_child=2 -3 -4
leaf_value=0.0012359668681232287 0.00011053871889331318 -0.00014763007394970164 -0.0012682868071844445
leaf_weight=409.76645988225937 572.40334275364876 527.73581454157829 387.75843089818954
leaf_count=1388 1942 1787 1315
internal_value=0 0.000457117 -0.000446296
internal_weight=0 937.502 960.162
internal_count=6432 3175 3257
is_linear=0
shrinkage=0.01


Tree=50
num_leaves=4
num_cat=0
split_feature=2 10 5
split_gain=7.31695 6.36567 3.04718
threshold=-4.8752796499999986 5.6556406500000014 -2.3866468499999995
decision_type=2 2 2
left_child=-1 2 -2
right_child=1 -3 -4
leaf_value=0.001014294587763851 0.00071438984027305953 -0.0016751444276145572 -0.00057244795383102611
leaf_weight=485.83967426419258 347.98540106415749 309.17694570124149 390.52101217210293
leaf_count=2023 1452 1313 1644
internal_value=0 -0.00047044 3.39121e-05
internal_weight=0 1047.68 738.506
internal_count=6432 4409 3096
is_linear=0
shrinkage=0.01


Tree=51
num_leaves=4
num_cat=0
split_feature=8 6 5
split_gain=6.17964 4.9441 5.28738
threshold=-0.11233646999999998 -2.0028127499999995 -2.1897921999999999
decision_type=2 2 2
left_child=-1 -2 -3
right_child=1 2 -4
leaf_value=0.0010857241764055212 -0.0013080056905927324 -0.00074205636479129564 0.00079801802005890576
leaf_weight=398.74881428480148 373.42086359858513 426.89620107412338 466.56052991747856
leaf_count=1530 1453 1657 1792
internal_value=0 -0.000341701 6.2166e-05
internal_weight=0 1266.88 893.457
internal_count=6432 4902 3449
is_linear=0
shrinkage=0.01


Tree=52
num_leaves=4
num_cat=0
split_feature=0 3 1
split_gain=7.16334 7.17812 6.93367
threshold=6.1008470000000008 -3.8473584999999995 -0.5414031199999999
decision_type=2 2 2
left_child=1 -1 -3
right_child=-2 2 -4
leaf_value=-0.00065919866956878459 -0.0012610363662045277 0.0023115581831485987 5.9272450239140341e-05
leaf_weight=347.67025157809258 329.24916313588619 271.72206170856953 275.03191523253918
leaf_count=1831 1750 1408 1443
internal_value=0 0.000464231 0.0011786
internal_weight=0 894.424 546.754
internal_count=6432 4682 2851
is_linear=0
shrinkage=0.01


Tree=53
num_leaves=4
num_cat=0
split_feature=4 8 5
split_gain=3.83238 3.02989 2.23111
threshold=-1.7450788999999998 0.0029524880500000007 -2.1897921999999999
decision_type=2 2 2
left_child=-1 2 -2
right_child=1 -3 -4
leaf_value=0.000830929791628735 0.00070973025208219268 -0.00078696675487086325 -0.00031353461690328694
leaf_weight=429.46285071969032 380.27956917881966 603.28160351514816 484.63528251647949
leaf_count=1452 1289 2046 1645
internal_value=0 -0.000243031 0.000136367
internal_weight=0 1468.2 864.915
internal_count=6432 4980 2934
is_linear=0
shrinkage=0.01


Tree=54
num_leaves=4
num_cat=0
split_feature=2 10 5
split_gain=7.20632 6.2731 2.98841
threshold=-4.8752796499999986 5.6556406500000014 -2.3866468499999995
decision_type=2 2 2
left_child=-1 2 -2
right_child=1 -3 -4
leaf_value=0.0010061952811656766 0.00070700527233027348 -0.0016637113023425859 -0.00056731046919274619
leaf_weight=486.09818287193775 348.15797531604767 308.88620194792747 390.37113718688488
leaf_count=2023 1452 1313 1644
internal_value=0 -0.000467064 3.34285e-05
internal_weight=0 1047.42 738.529
internal_count=6432 4409 3096
is_linear=0
shrinkage=0.01


Tree=55
num_leaves=4
num_cat=0
split_feature=8 6 5
split_gain=6.0946 4.87171 5.19889
threshold=-0.11233646999999998 -2.0028127499999995 -2.1897921999999999
decision_type=2 2 2
left_child=-1 -2 -3
right_child=1 2 -4
leaf_value=0.0010779049077811955 -0.0012990431611506269 -0.00073641900642342916 0.00079070663673807499
leaf_weight=398.93041718006134 373.18758779764175 426.7353857755661 466.76293355226517
leaf_count=1530 1453 1657 1792
internal_value=0 -0.000339445 6.13504e-05
internal_weight=0 1266.69 893.498
internal_count=6432 4902 3449
is_linear=0
shrinkage=0.01


Tree=56
num_leaves=3
num_cat=0
split_feature=0 9
split_gain=7.06214 7.15951
threshold=6.1008470000000008 -0.30024072499999993
decision_type=2 2
left_child=1 -1
right_child=-2 -3
leaf_value=0.0012840838733589313 -0.0012527942166243753 -0.00051117265159039357
leaf_weight=484.33696959912777 328.98043945431709 410.34854106605053
leaf_count=2527 1750 2155
internal_value=0 0.000460687
internal_weight=0 894.686
internal_count=6432 4682
is_linear=0
shrinkage=0.01


Tree=57
num_leaves=4
num_cat=0
split_feature=2 5 5
split_gain=3.79892 6.20683 5.28894
threshold=-2.6838957999999997 -1.5113109499999997 -2.3866468499999995
decision_type=2 2 2
left_child=2 -2 -1
right_child=1 -3 -4
leaf_value=0.00036207216285946047 -0.0002696373429571916 0.0014338508971731795 -0.0010740426833596264
leaf_weight=477.04212638735771 480.70050331950188 385.35783186554909 554.55221980810165
leaf_count=1616 1628 1303 1885
internal_value=0 0.00048834 -0.000409937
internal_weight=0 866.058 1031.59
internal_count=6432 2931 3501
is_linear=0
shrinkage=0.01


Tree=58
num_leaves=4
num_cat=0
split_feature=2 10 4
split_gain=7.09651 6.185 2.97599
threshold=-4.8752796499999986 5.6556406500000014 1.5146624500000001
decision_type=2 2 2
left_child=-1 2 -2
right_child=1 -3 -4
leaf_value=0.00099810541836593304 -0.00064856910038938852 -0.0016526017475670496 0.00062423078307366432
leaf_weight=486.35641293227673 342.99388659000397 308.60378335416317 395.5488019734621
leaf_count=2023 1441 1313 1655
internal_value=0 -0.00046368 3.31172e-05
internal_weight=0 1047.15 738.543
internal_count=6432 4409 3096
is_linear=0
shrinkage=0.01


Tree=59
num_leaves=4
num_cat=0
split_feature=8 6 5
split_gain=6.01047 4.80695 5.10105
threshold=-0.11233646999999998 -2.0028127499999995 -2.1897921999999999
decision_type=2 2 2
left_child=-1 -2 -3
right_child=1 2 -4
leaf_value=0.0010701192641338546 -0.0012907565563721637 -0.00072973895990559063 0.00078295860846300204
leaf_weight=399.11114698648453 372.97180491685867 426.54477888345718 466.97736588120461
leaf_count=1530 1453 1657 1792
internal_value=0 -0.000337197 6.08352e-05
internal_weight=0 1266.49 893.522
internal_count=6432 4902 3449
is_linear=0
shrinkage=0.01


Tree=60
num_leaves=4
num_cat=0
split_feature=0 3 1
split_gain=6.95952 7.06344 6.80927
threshold=6.1008470000000008 -3.8473584999999995 -0.5414031199999999
decision_type=2 2 2
left_child=1 -1 -3
right_child=-2 2 -4
leaf_value=-0.0006576839467793737 -0.0012443609823597536 0.002286393936100656 5.5595965896075035e-05
leaf_weight=347.62029311060905 328.7058110833168 272.21507416665554 275.11898973584175
leaf_count=1831 1750 1408 1443
internal_value=0 0.000457076 0.00116508
internal_weight=0 894.954 547.334
internal_count=6432 4682 2851
is_linear=0
shrinkage=0.01


Tree=61
num_leaves=4
num_cat=0
split_feature=4 9 8
split_gain=3.77132 4.37691 4.32709
threshold=2.2289092500000005 -3.5365772499999997 0.0029524880500000007
decision_type=2 2 2
left_child=1 -1 -2
right_child=2 -3 -4
leaf_value=0.0012262783460363189 0.00011186334994905138 -0.00015102779395274104 -0.001256554713801017
leaf_weight=409.93162566423416 572.36340939998627 527.81220242381096 387.53672859072685
leaf_count=1388 1942 1787 1315
internal_value=0 0.000451057 -0.000440603
internal_weight=0 937.744 959.9
internal_count=6432 3175 3257
is_linear=0
shrinkage=0.01


Tree=62
num_leaves=4
num_cat=0
split_feature=2 10 4
split_gain=6.9711 6.09549 2.9321
threshold=-4.8752796499999986 5.6556406500000014 1.5146624500000001
decision_type=2 2 2
left_child=-1 2 -2
right_child=1 -3 -4
leaf_value=0.00098879023237053907 -0.00064363376807238955 -0.0016408140597484156 0.00061978458945699956
leaf_weight=486.65415877103806 342.86676441133022 308.3042659163475 395.66750133037567
leaf_count=2023 1441 1313 1655
internal_value=0 -0.000459786 3.32388e-05
internal_weight=0 1046.84 738.534
internal_count=6432 4409 3096
is_linear=0
shrinkage=0.01


Tree=63
num_leaves=4
num_cat=0
split_feature=8 6 5
split_gain=5.91884 4.73729 5.02026
threshold=-0.11233646999999998 -2.0028127499999995 -2.1897921999999999
decision_type=2 2 2
left_child=-1 -2 -3
right_child=1 2 -4
leaf_value=0.0010615891312165935 -0.0012817376687579867 -0.00072425599854152294 0.00077642076719199992
leaf_weight=399.30933600664139 372.73714193701744 426.38839906454086 467.15842291712761
leaf_count=1530 1453 1657 1792
internal_value=0 -0.000334723 6.03182e-05
internal_weight=0 1266.28 893.547
internal_count=6432 4902 3449
is_linear=0
shrinkage=0.01


Tree=64
num_leaves=3
num_cat=0
split_feature=0 9
split_gain=6.85992 7.04944
threshold=6.1008470000000008 -0.30024072499999993
decision_type=2 2
left_child=1 -1
right_child=-2 -3
leaf_value=0.0012698910009234456 -0.0012361097911394862 -0.00051106846381036072
leaf_weight=484.87230837345123 328.43733896315098 410.34220165014267
leaf_count=2527 1750 2155
internal_value=0 0.000453547
internal_weight=0 895.215
internal_count=6432 4682
is_linear=0
shrinkage=0.01


Tree=65
num_leaves=4
num_cat=0
split_feature=4 8 5
split_gain=3.73539 2.98273 2.17255
threshold=-1.7450788999999998 0.0029524880500000007 -2.1897921999999999
decision_type=2 2 2
left_child=-1 2 -2
right_child=1 -3 -4
leaf_value=0.00082010603144351047 0.00070200999134078384 -0.00077982517787144635 -0.00030770650594479353
leaf_weight=429.65957000851631 380.40543416142464 603.07315877079964 484.49911952018738
leaf_count=1452 1289 2046 1645
internal_value=0 -0.000240008 0.000136391
internal_weight=0 1467.98 864.905
internal_count=6432 4980 2934
is_linear=0
shrinkage=0.01


Tree=66
num_leaves=4
num_cat=0
split_feature=6 7 11
split_gain=6.88353 6.39382 4.90247
threshold=-2.9713095999999997 0.25657104000000003 0.95771038500000005
decision_type=2 2 2
left_child=-1 2 -2
right_child=1 -3 -4
leaf_value=0.0012825286837905218 -0.0005028540111664154 -0.0015902420338822232 0.0010203838057837461
leaf_weight=328.72729727625847 554.21289801597595 309.0654509216547 341.47630432248116
leaf_count=1376 2327 1298 1431
internal_value=0 -0.000350063 7.78716e-05
internal_weight=0 1204.75 895.689
internal_count=6432 5056 3758
is_linear=0
shrinkage=0.01


Tree=67
num_leaves=4
num_cat=0
split_feature=8 6 5
split_gain=5.83874 4.67298 4.94386
threshold=-0.11233646999999998 -2.0028127499999995 -2.1897921999999999
decision_type=2 2 2
left_child=-1 -2 -3
right_child=1 2 -4
leaf_value=0.0010540851384009309 -0.0012734615414923981 -0.00071912937309858522 0.00077008443086771714
leaf_weight=399.48360508680344 372.52171960473061 426.2420015335083 467.33372008800507
leaf_count=1530 1453 1657 1792
internal_value=0 -0.000332541 5.97188e-05
internal_weight=0 1266.1 893.576
internal_count=6432 4902 3449
is_linear=0
shrinkage=0.01


Tree=68
num_leaves=4
num_cat=0
split_feature=0 3 1
split_gain=6.76229 6.94709 6.6881
threshold=6.1008470000000008 -3.8473584999999995 -0.5414031199999999
decision_type=2 2 2
left_child=1 -1 -3
right_child=-2 2 -4
leaf_value=-0.00065583603817464175 -0.0012279552035840467 0.0022614657239298655 5.1784786508730415e-05
leaf_weight=347.55965831875801 328.17240287363529 272.70471896231174 275.20933544635773
leaf_count=1831 1750 1408 1443
internal_value=0 0.000450066 0.00115157
internal_weight=0 895.474 547.914
internal_count=6432 4682 2851
is_linear=0
shrinkage=0.01


Tree=69
num_leaves=4
num_cat=0
split_feature=2 5 5
split_gain=3.70415 6.17821 5.14983
threshold=-2.6838957999999997 -1.5113109499999997 -2.3866468499999995
decision_type=2 2 2
left_child=2 -2 -1
right_child=1 -3 -4
leaf_value=0.0003566546715832651 -0.00027408899931057989 0.0014252259953654969 -0.0010605734134082048
leaf_weight=477.15386041998863 480.79438164830208 385.49497494101524 554.18875581026077
leaf_count=1616 1628 1303 1885
internal_value=0 0.000482099 -0.000404888
internal_weight=0 866.289 1031.34
internal_count=6432 2931 3501
is_linear=0
shrinkage=0.01


Tree=70
num_leaves=4
num_cat=0
split_feature=2 10 5
split_gain=6.86677 6.00636 2.90049
threshold=-4.8752796499999986 5.6556406500000014 -2.3866468499999995
decision_type=2 2 2
left_child=-1 2 -2
right_child=1 -3 -4
leaf_value=0.00098097891737781279 0.00069584905862230537 -0.0016295940659270289 -0.00055950903530303288
leaf_weight=486.90248739719391 348.41650854051113 308.0186285674572 390.14086402952671
leaf_count=2023 1452 1313 1644
internal_value=0 -0.000456524 3.27097e-05
internal_weight=0 1046.58 738.557
internal_count=6432 4409 3096
is_linear=0
shrinkage=0.01


Tree=71
num_leaves=4
num_cat=0
split_feature=8 6 5
split_gain=5.75268 4.58871 4.86076
threshold=-0.11233646999999998 -2.0028127499999995 -2.1897921999999999
decision_type=2 2 2
left_child=-1 -2 -3
right_child=1 2 -4
leaf_value=0.0010459532029703511 -0.0012630424184381286 -0.00071416139624497969 0.00076245293464093067
leaf_weight=399.67267352342606 372.25077775120735 426.10040599107742 467.54520335793495
leaf_count=1530 1453 1657 1792
internal_value=0 -0.000330194 5.83864e-05
internal_weight=0 1265.9 893.646
internal_count=6432 4902 3449
is_linear=0
shrinkage=0.01


Tree=72
num_leaves=3
num_cat=0
split_feature=0 9
split_gain=6.66476 6.925
threshold=6.1008470000000008 -0.30024072499999993
decision_type=2 2
left_child=1 -1
right_child=-2 -3
leaf_value=0.0012549257062330504 -0.0012197364559449013 -0.00050983016426099355
leaf_weight=485.43771639466286 327.90555284917355 410.29321651160717
leaf_count=2527 1750 2155
internal_value=0 0.000446572
internal_weight=0 895.731
internal_count=6432 4682
is_linear=0
shrinkage=0.01


Tree=73
num_leaves=4
num_cat=0
split_feature=4 8 5
split_gain=3.68291 2.95757 2.1244
threshold=-1.7450788999999998 0.0029524880500000007 -2.1897921999999999
decision_type=2 2 2
left_child=-1 2 -2
right_child=1 -3 -4
leaf_value=0.00081420556896247352 0.00069562147386095037 -0.00077594923741518946 -0.00030281646869833163
leaf_weight=429.76625794172287 380.51022356748581 602.9595533311367 484.38542306423187
leaf_count=1452 1289 2046 1645
internal_value=0 -0.000238344 0.000136446
internal_weight=0 1467.86 864.896
internal_count=6432 4980 2934
is_linear=0
shrinkage=0.01


Tree=74
num_leaves=4
num_cat=0
split_feature=5 2 9
split_gain=6.78519 7.90502 1.31179
threshold=-2.6213331499999994 -2.2840773999999997 -0.67855692999999995
decision_type=2 2 2
left_child=2 -2 -1
right_child=1 -3 -4
leaf_value=0.00034162074266279514 0.00022255551786786395 -0.0017041693708841721 0.0012370600777981957
leaf_weight=342.36383512616158 514.40772046148777 363.35832893848419 313.33590258657932
leaf_count=1432 2154 1539 1307
internal_value=0 -0.000575028 0.00076952
internal_weight=0 877.766 655.7
internal_count=6432 3693 2739
is_linear=0
shrinkage=0.01


Tree=75
num_leaves=4
num_cat=0
split_feature=8 6 5
split_gain=5.66308 4.52605 4.77483
threshold=-0.11233646999999998 -2.0028127499999995 -2.1897921999999999
decision_type=2 2 2
left_child=-1 -2 -3
right_child=1 2 -4
leaf_value=0.0010374402182235683 -0.0012545347904394486 -0.0007078846874124246 0.0007556391337625799
leaf_weight=399.87038725614548 372.02935460209846 425.92130118608475 467.73381927609444
leaf_count=1530 1453 1657 1792
internal_value=0 -0.000327719 5.8115e-05
internal_weight=0 1265.68 893.655
internal_count=6432 4902 3449
is_linear=0
shrinkage=0.01


Tree=76
num_leaves=4
num_cat=0
split_feature=0 3 1
split_gain=6.5708 6.83677 6.56903
threshold=6.1008470000000008 -3.8473584999999995 -0.5414031199999999
decision_type=2 2 2
left_child=1 -1 -3
right_child=-2 2 -4
leaf_value=-0.00065423814366489044 -0.001211755049613492 0.0022370924550601484 4.8299100049175765e-05
leaf_weight=347.50681386888027 327.6467073559761 273.18453498184681 275.29177895188332
leaf_count=1831 1750 1408 1443
internal_value=0 0.000443182 0.00113849
internal_weight=0 895.983 548.476
internal_count=6432 4682 2851
is_linear=0
shrinkage=0.01


Tree=77
num_leaves=4
num_cat=0
split_feature=4 9 8
split_gain=3.64179 4.33816 4.22346
threshold=2.2289092500000005 -3.5365772499999997 0.0029524880500000007
decision_type=2 2 2
left_child=1 -1 -2
right_child=2 -3 -4
leaf_value=0.0012146648423344906 0.00011259139616530756 -0.00015627788786678982 -0.0012396845765132757
leaf_weight=410.12867972254753 572.33686393499374 527.93081143498421 387.21817687153816
leaf_count=1388 1942 1787 1315
internal_value=0 0.000443112 -0.000433105
internal_weight=0 938.059 959.555
internal_count=6432 3175 3257
is_linear=0
shrinkage=0.01


Tree=78
num_leaves=4
num_cat=0
split_feature=6 7 11
split_gain=6.71912 6.28081 4.80985
threshold=-2.9713095999999997 0.25657104000000003 0.95771038500000005
decision_type=2 2 2
left_child=-1 2 -2
right_child=1 -3 -4
leaf_value=0.0012662503492110501 -0.00049766566283318753 -0.0015761715219095673 0.0010109440844121669
leaf_weight=329.07071198523045 553.9913863837719 308.71123525500298 341.68440966308117
leaf_count=1376 2327 1298 1431
internal_value=0 -0.000346118 7.78422e-05
internal_weight=0 1204.39 895.676
internal_count=6432 5056 3758
is_linear=0
shrinkage=0.01


Tree=79
num_leaves=4
num_cat=0
split_feature=8 6 5
split_gain=5.58449 4.46099 4.67635
threshold=-0.11233646999999998 -2.0028127499999995 -2.1897921999999999
decision_type=2 2 2
left_child=-1 -2 -3
right_child=1 2 -4
leaf_value=0.0010299127716739786 -0.0012460289563084692 -0.00070098779706537456 0.00074737108902949768
leaf_weight=400.0453437268734 371.8080902993679 425.72481223940849 467.96295514702797
leaf_count=1530 1453 1657 1792
internal_value=0 -0.00032554 5.74184e-05
internal_weight=0 1265.5 893.688
internal_count=6432 4902 3449
is_linear=0
shrinkage=0.01


end of trees

feature_importances:
Column_5=50
Column_8=28
Column_2=24
Column_10=23
Column_6=22
Column_0=20
Column_4=19
Column_1=12
Column_3=12
Column_9=12
Column_11=8
Column_7=2

parameters:
[boosting: gbdt]
[objective: multiclass]
[metric: multi_logloss]
[tree_learner: serial]
[device_type: cpu]
[data: ]
[valid: ]
[num_iterations: 20]
[learning_rate: 0.01]
[num_leaves: 4]
[num_threads: 8]
[deterministic: 0]
[force_col_wise: 0]
[force_row_wise: 0]
[histogram_pool_size: -1]
[max_depth: -1]
[min_data_in_leaf: 1286]
[min_sum_hessian_in_leaf: 0.001]
[bagging_fraction: 1]
[pos_bagging_fraction: 1]
[neg_bagging_fraction: 1]
[bagging_freq: 0]
[bagging_seed: 3]
[feature_fraction: 1]
[feature_fraction_bynode: 1]
[feature_fraction_seed: 2]
[extra_trees: 0]
[extra_seed: 6]
[early_stopping_round: 0]
[first_metric_only: 0]
[max_delta_step: 0]
[lambda_l1: 0]
[lambda_l2: 0]
[linear_lambda: 0]
[min_gain_to_split: 0]
[drop_rate: 0.1]
[max_drop: 50]
[skip_drop: 0.5]
[xgboost_dart_mode: 0]
[uniform_drop: 0]
[drop_seed: 4]
[top_rate: 0.2]
[other_rate: 0.1]
[min_data_per_group: 100]
[max_cat_threshold: 32]
[cat_l2: 10]
[cat_smooth: 10]
[max_cat_to_onehot: 4]
[top_k: 20]
[monotone_constraints: ]
[monotone_constraints_method: basic]
[monotone_penalty: 0]
[feature_contri: ]
[forcedsplits_filename: ]
[refit_decay_rate: 0.9]
[cegb_tradeoff: 1]
[cegb_penalty_split: 0]
[cegb_penalty_feature_lazy: ]
[cegb_penalty_feature_coupled: ]
[path_smooth: 0]
[interaction_constraints: ]
[verbosity: 1]
[saved_feature_importance_type: 0]
[linear_tree: 0]
[max_bin: 255]
[max_bin_by_feature: ]
[min_data_in_bin: 3]
[bin_construct_sample_cnt: 200000]
[data_random_seed: 1]
[is_enable_sparse: 1]
[enable_bundle: 1]
[use_missing: 1]
[zero_as_missing: 0]
[feature_pre_filter: 1]
[pre_partition: 0]
[two_round: 0]
[header: 0]
[label_column: ]
[weight_column: ]
[group_column: ]
[ignore_column: ]
[categorical_feature: ]
[forcedbins_filename: ]
[precise_float_parser: 0]
[parser_config_file: ]
[objective_seed: 5]
[num_class: 4]
[is_unbalance: 0]
[scale_pos_weight: 1]
[sigmoid: 1]
[boost_from_average: 1]
[reg_sqrt: 0]
[alpha: 0.9]
[fair_c: 1]
[poisson_max_delta_step: 0.7]
[tweedie_variance_power: 1.5]
[lambdarank_truncation_level: 30]
[lambdarank_norm: 1]
[label_gain: ]
[eval_at: ]
[multi_error_top_k: 1]
[auc_mu_weights: ]
[num_machines: 1]
[local_listen_port: 12400]
[time_out: 120]
[machine_list_filename: ]
[machines: ]
[gpu_platform_id: 1]
[gpu_device_id: 0]
[gpu_use_dp: 0]
[num_gpu: 1]

end of parameters

pandas_categorical:null
