tree
version=v4
num_class=4
num_tree_per_iteration=4
label_index=0
max_feature_idx=11
objective=multiclass num_class:4
feature_names=Column_0 Column_1 Column_2 Column_3 Column_4 Column_5 Column_6 Column_7 Column_8 Column_9 Column_10 Column_11
feature_infos=[-120.95422000000001:22.828399999999998] [-28.231649999999998:37.467030000000001] [-39.69238:31.430634000000001] [-78.128680000000003:60.368029999999997] [-24.367495000000002:34.891303999999998] [-34.510035999999999:25.160515] [-20.721453:15.056516] [-3.1834194999999998:3.5539893999999999] [-0.70398337:1.1752931] [-87.379265000000004:65.940219999999997] [-40.932568000000003:44.451830000000001] [-28.124859000000001:26.331334999999999]
tree_sizes=554 553 556 552 562 559 560 453 558 557 562 453 559 561 563 455 561 561 559 452 562 561 564 454 561 560 560 559 564 561 564 558 453 455 562 561 454 561 565 559 561 451 556 559 456 563 564 559 561 454 561 563 456 561 457 559 559 566 566 563 560 558 454 563 563 565 566 561 455 566 568 566 561 564 566 563 563 561 567 561 456 563 562 564 560 456 565 565 563 561 459 564 561 564 566 560 563 458 570 564 563 566 564 566 570 565 568 458 563 566 566 567 453 568 565 563 569 563 565 567 565 564 570 562 563 569 567 566 567 570 564 565 561 565 570 565 560 565 566 562 563 567 571 562 568 569 565 555 561 565 566 566 563 566 567 565 564 565 566 557 566 565 564 567 565 569 562 566 567 566 568 564 566 566 565 571 567 567 561 570 565 458 567 568 568 567 566 565 561 566 567 571 565 571 567 567 563 571 565 566 568 567 564 457 458 566 568 557 568 567 565 567 563 570 566 563 566 569 569 569 564 569 566 563 567 568 569 562 562 566 567 569 566 568 567 564 565 566 567 565

Tree=0
num_leaves=4
num_cat=0
split_feature=1 0 0
split_gain=88.3733 30.3002 9.46308
threshold=6.2855781500000001 -0.98584669999999985 0.66608760000000011
decision_type=2 2 2
left_child=2 -2 -1
right_child=1 -3 -4
leaf_value=-1.7148952477791874 -1.7578760854747646 -1.8004322430817938 -1.7412924502850644
leaf_weight=278.5324273109436 296.98710316419601 383.17234194278717 265.0243656039238
leaf_count=1464 1561 2014 1393
internal_value=-1.75783 -1.78185 -1.72777
internal_weight=0 680.159 543.557
internal_count=6432 3575 2857
is_linear=0
shrinkage=1


Tree=1
num_leaves=4
num_cat=0
split_feature=1 0 0
split_gain=65.7543 52.4943 10.9105
threshold=6.2436228000000007 -1.9398850999999999 0.31719394500000003
decision_type=2 2 2
left_child=2 -2 -1
right_child=1 -3 -4
leaf_value=-1.0739232385785937 -1.0937063897277968 -1.139939720475222 -1.0968988340041039
leaf_weight=396.83158114552498 382.0794777572155 687.44801789522171 431.35150307416916
leaf_count=1345 1295 2330 1462
internal_value=-1.10704 -1.12342 -1.08589
internal_weight=0 1069.53 828.183
internal_count=6432 3625 2807
is_linear=0
shrinkage=1


Tree=2
num_leaves=4
num_cat=0
split_feature=0 1 11
split_gain=22.3185 17.2173 5.89392
threshold=-1.3039231999999998 5.5389273500000007 -2.2972941499999995
decision_type=2 2 2
left_child=-1 -2 -3
right_child=1 2 -4
leaf_value=-1.4713019696450316 -1.4652682519552709 -1.4462394711871336 -1.4269304215165903
leaf_weight=579.38502877950668 321.40371143817902 324.98016223311424 307.81319841742516
leaf_count=2430 1348 1363 1291
internal_value=-1.45582 -1.44642 -1.43685
internal_weight=0 954.197 632.793
internal_count=6432 4002 2654
is_linear=0
shrinkage=1


Tree=3
num_leaves=4
num_cat=0
split_feature=1 0 0
split_gain=175.676 92.4546 9.60042
threshold=6.2855781500000001 1.1280905500000002 1.0136458500000003
decision_type=2 2 2
left_child=2 -2 -1
right_child=1 -3 -4
leaf_value=-1.3791749299497102 -1.327380910771635 -1.2617635699066987 -1.3563028646499049
leaf_weight=402.69745767116547 587.34265851974487 338.47303998470306 337.17819285392761
leaf_count=1555 2268 1307 1302
internal_value=-1.33242 -1.30339 -1.36875
internal_weight=0 925.816 739.876
internal_count=6432 3575 2857
is_linear=0
shrinkage=1


Tree=4
num_leaves=4
num_cat=0
split_feature=1 0 0
split_gain=73.2121 26.5658 7.57251
threshold=6.2855781500000001 -0.98584669999999985 0.66608760000000011
decision_type=2 2 2
left_child=2 -2 -1
right_child=1 -3 -4
leaf_value=0.038081478984875981 -4.9117845437505388e-05 -0.040192931835533727 0.014728394575301113
leaf_weight=287.31641386449337 296.98513022065163 370.50943093001842 268.71294355392456
leaf_count=1464 1561 2014 1393
internal_value=0 -0.0223319 0.0267956
internal_weight=0 667.495 556.029
internal_count=6432 3575 2857
is_linear=0
shrinkage=0.1


Tree=5
num_leaves=4
num_cat=0
split_feature=1 0 0
split_gain=52.5379 42.6249 8.32165
threshold=6.2179594500000013 -1.9398850999999999 0.31719394500000003
decision_type=2 2 2
left_child=2 -2 -1
right_child=1 -3 -4
leaf_value=0.029528273410866876 0.011901057392369511 -0.029523161646673474 0.0093824849018864995
leaf_weight=394.50995194911957 389.33007028698921 686.23945191502571 426.93380603194237
leaf_count=1318 1312 2363 1439
internal_value=0 -0.0145286 0.0190578
internal_weight=0 1075.57 821.444
internal_count=6432 3675 2757
is_linear=0
shrinkage=0.1


Tree=6
num_leaves=4
num_cat=0
split_feature=1 0 11
split_gain=18.8211 18.5779 5.11138
threshold=5.2273569000000011 -1.3039231999999998 -2.2972941499999995
decision_type=2 2 2
left_child=-1 -2 -3
right_child=1 2 -4
leaf_value=-0.01796905502287274 -0.0094281484112628822 0.0086685246453751877 0.025991679108438106
leaf_weight=421.40651953220367 429.9986352622509 349.31517368555069 332.41328272223473
leaf_count=1782 1824 1455 1371
internal_value=0 0.00684875 0.0171154
internal_weight=0 1111.73 681.728
internal_count=6432 4650 2826
is_linear=0
shrinkage=0.1


Tree=7
num_leaves=3
num_cat=0
split_feature=1 1
split_gain=147.593 30.4589
threshold=7.2842005000000007 6.0058219000000008
decision_type=2 2
left_child=1 -1
right_child=-2 -3
leaf_value=-0.036970881409954547 0.037991133206662107 -0.0016914637462429568
leaf_weight=633.66439060866833 632.74711790680885 398.69783785939217
leaf_count=2507 2400 1525
internal_value=0 -0.023346
internal_weight=0 1032.36
internal_count=6432 4032
is_linear=0
shrinkage=0.1


Tree=8
num_leaves=4
num_cat=0
split_feature=1 0 0
split_gain=60.6221 25.2348 5.45191
threshold=6.2318648500000009 -0.98584669999999985 0.66608760000000011
decision_type=2 2 2
left_child=2 -2 -1
right_child=1 -3 -4
leaf_value=0.03414448351065881 0.0012314918653321058 -0.037762154829454032 0.014263437739309298
leaf_weight=285.28239344060421 301.84970633685589 368.66156204044819 267.05398079752922
leaf_count=1418 1593 2057 1364
internal_value=0 -0.0202081 0.024532
internal_weight=0 670.511 552.336
internal_count=6432 3650 2782
is_linear=0
shrinkage=0.1


Tree=9
num_leaves=4
num_cat=0
split_feature=1 0 0
split_gain=41.6709 37.6191 7.70154
threshold=6.2436228000000007 -1.9398850999999999 0.31719394500000003
decision_type=2 2 2
left_child=2 -2 -1
right_child=1 -3 -4
leaf_value=0.026487778058973607 0.011659548043570431 -0.027599505481797928 0.0073642957779344875
leaf_weight=406.94764047861099 384.79005312919617 667.45382142066956 436.4563000202179
leaf_count=1345 1295 2330 1462
internal_value=0 -0.013243 0.0165915
internal_weight=0 1052.24 843.404
internal_count=6432 3625 2807
is_linear=0
shrinkage=0.1


Tree=10
num_leaves=4
num_cat=0
split_feature=1 0 11
split_gain=15.9106 13.8056 4.21417
threshold=5.2273569000000011 -1.3039231999999998 -2.2972941499999995
decision_type=2 2 2
left_child=-1 -2 -3
right_child=1 2 -4
leaf_value=-0.01662715371476968 -0.0079098536969000616 0.0073433902210770152 0.022968056466126582
leaf_weight=416.74291500449181 424.95554134249687 352.39151541888714 338.37262058258057
leaf_count=1782 1824 1455 1371
internal_value=0 0.00627234 0.0149972
internal_weight=0 1115.72 690.764
internal_count=6432 4650 2826
is_linear=0
shrinkage=0.1


Tree=11
num_leaves=3
num_cat=0
split_feature=1 1
split_gain=120.66 25.2442
threshold=7.2842005000000007 5.9869545000000004
decision_type=2 2
left_child=1 -1
right_child=-2 -3
leaf_value=-0.034352236753298349 0.033720456488358384 -0.0021789236341100758
leaf_weight=612.21851985156536 646.09899866580963 405.34535810351372
leaf_count=2482 2400 1550
internal_value=0 -0.021536
internal_weight=0 1017.56
internal_count=6432 4032
is_linear=0
shrinkage=0.1


Tree=12
num_leaves=4
num_cat=0
split_feature=1 0 0
split_gain=50.3483 22.2109 5.74364
threshold=6.2855781500000001 -0.98584669999999985 0.66608760000000011
decision_type=2 2 2
left_child=2 -2 -1
right_child=1 -3 -4
leaf_value=0.031025968562207559 0.001068563095815563 -0.036199653748053694 0.011058049043890027
leaf_weight=300.8222391307354 294.08635178208351 350.51297701895237 276.42070813477039
leaf_count=1464 1561 2014 1393
internal_value=0 -0.0191967 0.0214641
internal_weight=0 644.599 577.243
internal_count=6432 3575 2857
is_linear=0
shrinkage=0.1


Tree=13
num_leaves=4
num_cat=0
split_feature=0 1 0
split_gain=35.1678 38.4999 8.78991
threshold=-1.9398850999999999 5.9630390000000011 1.5710212000000003
decision_type=2 2 2
left_child=-1 -2 -3
right_child=1 2 -4
leaf_value=0.019278539418463036 0.011014114554925103 -0.013537748208293718 -0.035426583429745771
leaf_weight=633.01033636927605 526.89234232902527 369.13827237486839 364.72436913847923
leaf_count=2105 1745 1293 1289
internal_value=0 -0.00960931 -0.0244163
internal_weight=0 1260.75 733.863
internal_count=6432 4327 2582
is_linear=0
shrinkage=0.1


Tree=14
num_leaves=4
num_cat=0
split_feature=1 0 11
split_gain=13.4388 10.1533 3.49059
threshold=5.2273569000000011 -1.3039231999999998 -2.2972941499999995
decision_type=2 2 2
left_child=-1 -2 -3
right_child=1 2 -4
leaf_value=-0.015370150627143281 -0.0065321296652484781 0.0061825108556302511 0.020320264980927857
leaf_weight=412.39774113893509 420.40936326980591 355.09110729396343 343.64765983819962
leaf_count=1782 1824 1455 1371
internal_value=0 0.00574741 0.0131356
internal_weight=0 1119.15 698.739
internal_count=6432 4650 2826
is_linear=0
shrinkage=0.1


Tree=15
num_leaves=3
num_cat=0
split_feature=1 1
split_gain=98.9416 20.9065
threshold=7.2842005000000007 5.9869545000000004
decision_type=2 2
left_child=1 -1
right_child=-2 -3
leaf_value=-0.031757594965204375 0.030029184724267979 -0.0023477897798410844
leaf_weight=598.11058209836483 657.66115343570709 405.64050176739693
leaf_count=2482 2400 1550
internal_value=0 -0.0198724
internal_weight=0 1003.75
internal_count=6432 4032
is_linear=0
shrinkage=0.1


Tree=16
num_leaves=4
num_cat=0
split_feature=1 0 3
split_gain=41.1618 22.2943 5.24568
threshold=6.2318648500000009 0.8227518800000001 -1.5464088999999996
decision_type=2 2 2
left_child=2 -2 -1
right_child=1 -3 -4
leaf_value=0.0093319777903085686 -0.0028928864456833001 -0.041207216942135319 0.028530005028549122
leaf_weight=266.64640335738659 406.11840341985226 242.58629992604256 305.27147850394249
leaf_count=1297 2219 1431 1485
internal_value=0 -0.0172207 0.0195793
internal_weight=0 648.705 571.918
internal_count=6432 3650 2782
is_linear=0
shrinkage=0.1


Tree=17
num_leaves=4
num_cat=0
split_feature=0 1 0
split_gain=30.5284 31.135 7.81677
threshold=-1.9398850999999999 5.9630390000000011 1.5710212000000003
decision_type=2 2 2
left_child=-1 -2 -3
right_child=1 2 -4
leaf_value=0.017906205680554819 0.0094380379985461258 -0.012171633061690499 -0.032935950974507688
leaf_weight=636.24016204476357 530.10885715484619 366.38311901688576 358.88511356711388
leaf_count=2105 1745 1293 1289
internal_value=0 -0.00898257 -0.0224465
internal_weight=0 1255.38 725.268
internal_count=6432 4327 2582
is_linear=0
shrinkage=0.1


Tree=18
num_leaves=4
num_cat=0
split_feature=1 2 2
split_gain=11.4082 8.47766 3.03079
threshold=5.2273569000000011 -0.5979571749999999 1.0434148000000003
decision_type=2 2 2
left_child=-1 -2 -3
right_child=1 2 -4
leaf_value=-0.014234835578339209 -0.0067306018012519928 0.01721588809692063 0.004279841914934422
leaf_weight=408.50459650158882 385.54612532258034 415.16254976391792 321.26607802510262
leaf_count=1782 1598 1717 1335
internal_value=0 0.00528301 0.0115726
internal_weight=0 1121.97 736.429
internal_count=6432 4650 3052
is_linear=0
shrinkage=0.1


Tree=19
num_leaves=3
num_cat=0
split_feature=1 1
split_gain=81.966 18.3226
threshold=7.2842005000000007 4.8715596500000009
decision_type=2 2
left_child=1 -1
right_child=-2 -3
leaf_value=-0.036563923569752764 0.02694275350272566 -0.0082209684257368836
leaf_weight=355.74672517180443 667.24977752566338 635.58937619626522
leaf_count=1502 2400 2530
internal_value=0 -0.018392
internal_weight=0 991.336
internal_count=6432 4032
is_linear=0
shrinkage=0.1


Tree=20
num_leaves=4
num_cat=0
split_feature=1 0 0
split_gain=33.9271 19.9169 4.97299
threshold=6.2855781500000001 -0.98584669999999985 0.66608760000000011
decision_type=2 2 2
left_child=2 -2 -1
right_child=1 -3 -4
leaf_value=0.025843263157693388 0.0029613441840357821 -0.032865202278316893 0.0075452367376734391
leaf_weight=311.29116356372833 289.26212304830551 334.73953694105148 284.06697419285774
leaf_count=1464 1561 2014 1393
internal_value=0 -0.0162575 0.0171126
internal_weight=0 624.002 595.358
internal_count=6432 3575 2857
is_linear=0
shrinkage=0.1


Tree=21
num_leaves=4
num_cat=0
split_feature=0 1 0
split_gain=26.8459 26.7114 8.9589
threshold=-2.7395558499999995 5.9630390000000011 1.2940961500000003
decision_type=2 2 2
left_child=-1 -2 -3
right_child=1 2 -4
leaf_value=0.019099592556537138 0.009191037174725367 -0.0089358510368612708 -0.030235299498817439
leaf_weight=532.69748052954674 566.02135068178177 407.19819363951683 383.42744505405426
leaf_count=1755 1853 1430 1394
internal_value=0 -0.00739277 -0.0192654
internal_weight=0 1356.65 790.626
internal_count=6432 4677 2824
is_linear=0
shrinkage=0.1


Tree=22
num_leaves=4
num_cat=0
split_feature=8 10 10
split_gain=10.0777 9.78401 9.19004
threshold=0.22342776000000003 -6.7180106499999992 -4.9325737999999992
decision_type=2 2 2
left_child=-1 -2 -3
right_child=1 2 -4
leaf_value=-0.013328042171859233 -0.010215111946098131 0.023694623795162212 0.0020126047180503473
leaf_weight=409.96586909890175 306.90103650093079 327.21905793249607 485.58518120646477
leaf_count=1724 1293 1368 2047
internal_value=0 0.00499738 0.0107414
internal_weight=0 1119.71 812.804
internal_count=6432 4708 3415
is_linear=0
shrinkage=0.1


Tree=23
num_leaves=3
num_cat=0
split_feature=1 1
split_gain=68.0896 15.8083
threshold=7.2842005000000007 4.8715596500000009
decision_type=2 2
left_child=1 -1
right_child=-2 -3
leaf_value=-0.034165865061153648 0.024233101076610461 -0.0076171651060167756
leaf_weight=347.48730759322643 675.5524620115757 632.57873997092247
leaf_count=1502 2400 2530
internal_value=0 -0.0170301
internal_weight=0 980.066
internal_count=6432 4032
is_linear=0
shrinkage=0.1


Tree=24
num_leaves=4
num_cat=0
split_feature=1 0 5
split_gain=29.0774 20.5656 2.43549
threshold=5.6338842500000004 0.78664572500000018 -2.3148094499999998
decision_type=2 2 2
left_child=-1 2 -2
right_child=1 -3 -4
leaf_value=0.020369788253432469 -0.0060044268760558279 -0.032440611152360292 0.0082988767613571806
leaf_weight=446.63444191217422 237.67526772618294 295.0162032097578 238.5092116445303
leaf_count=2107 1288 1748 1289
internal_value=0 -0.0116938 0.00115975
internal_weight=0 771.201 476.184
internal_count=6432 4325 2577
is_linear=0
shrinkage=0.1


Tree=25
num_leaves=4
num_cat=0
split_feature=0 1 0
split_gain=24.0809 21.5776 6.38394
threshold=-1.9398850999999999 5.9630390000000011 1.5710212000000003
decision_type=2 2 2
left_child=-1 -2 -3
right_child=1 2 -4
leaf_value=0.015858196964651679 0.0071870463505015096 -0.01009459470870285 -0.029040326958664077
leaf_weight=640.86421680450439 534.56096425652504 362.12033978104591 349.52310153841972
leaf_count=2105 1745 1293 1289
internal_value=0 -0.00799532 -0.0193998
internal_weight=0 1246.2 711.643
internal_count=6432 4327 2582
is_linear=0
shrinkage=0.1


Tree=26
num_leaves=4
num_cat=0
split_feature=1 2 4
split_gain=9.61062 7.14997 2.95788
threshold=5.2273569000000011 -0.5979571749999999 9.8058080000000007
decision_type=2 2 2
left_child=-1 -2 -3
right_child=1 2 -4
leaf_value=-0.013121691648513307 -0.0062274193148334463 0.016039333843241296 0.0032599410189010033
leaf_weight=404.68848185241222 383.81122054159641 424.78079169988632 315.74333034455776
leaf_count=1782 1598 1754 1298
internal_value=0 0.0048494 0.0105905
internal_weight=0 1124.34 740.524
internal_count=6432 4650 3052
is_linear=0
shrinkage=0.1


Tree=27
num_leaves=4
num_cat=0
split_feature=1 0 1
split_gain=56.3152 27.0705 9.62447
threshold=8.5185700000000022 1.6287461500000002 6.0644295500000007
decision_type=2 2 2
left_child=1 2 -1
right_child=-2 -3 -4
leaf_value=-0.034056007637030906 0.034170436775796488 0.0084885294957782464 -0.011894695368778531
leaf_weight=345.04807382822037 369.06021669507027 484.68038375675678 453.57256412506104
leaf_count=1537 1300 1897 1698
internal_value=0 -0.0101549 -0.0214696
internal_weight=0 1283.3 798.621
internal_count=6432 5132 3235
is_linear=0
shrinkage=0.1


Tree=28
num_leaves=4
num_cat=0
split_feature=1 0 8
split_gain=24.7442 19.7633 7.62882
threshold=6.7601964500000014 -0.17315346499999998 0.32281629000000006
decision_type=2 2 2
left_child=2 -2 -1
right_child=1 -3 -4
leaf_value=0.020866972479893425 0.00069215528303622929 -0.038871626974839028 -0.00033766706152824733
leaf_weight=417.9223835170269 288.52496144175529 224.50210081040859 285.62161691486835
leaf_count=2026 1605 1420 1381
internal_value=0 -0.0166211 0.0122584
internal_weight=0 513.027 703.544
internal_count=6432 3025 3407
is_linear=0
shrinkage=0.1


Tree=29
num_leaves=4
num_cat=0
split_feature=0 1 0
split_gain=20.7213 19.6379 10.4367
threshold=-2.7395558499999995 5.1351157500000006 1.7197479000000002
decision_type=2 2 2
left_child=-1 -2 -3
right_child=1 2 -4
leaf_value=0.016725675259532443 0.01228762385768175 -0.0051099161108040143 -0.026217973648726661
leaf_weight=537.07793691754341 393.68259692192078 540.45619624853134 413.43198284506798
leaf_count=1755 1275 1890 1512
internal_value=0 -0.00650327 -0.0142585
internal_weight=0 1347.57 953.888
internal_count=6432 4677 3402
is_linear=0
shrinkage=0.1


Tree=30
num_leaves=4
num_cat=0
split_feature=8 11 6
split_gain=8.66877 7.165 6.94923
threshold=0.22342776000000003 -2.6187254499999999 -0.24209635499999996
decision_type=2 2 2
left_child=-1 -2 -3
right_child=1 2 -4
leaf_value=-0.012409733897688981 -0.0059051346567299432 0.019943018326007773 0.00014057614567226017
leaf_weight=406.66711583733559 409.56404885649681 379.48163475096226 332.47913278639317
leaf_count=1724 1734 1587 1387
internal_value=0 0.00463317 0.0106955
internal_weight=0 1121.52 711.961
internal_count=6432 4708 2974
is_linear=0
shrinkage=0.1


Tree=31
num_leaves=4
num_cat=0
split_feature=1 0 1
split_gain=48.9691 48.6598 7.43501
threshold=6.5584047500000011 0.48801042000000006 4.8715596500000009
decision_type=2 2 2
left_child=2 -2 -1
right_child=1 -3 -4
leaf_value=-0.030487026616464154 -0.0049789784279748841 0.041597268625243836 -0.01029752599348009
leaf_weight=334.83885215222836 518.33221520483494 395.42478722333908 400.66159516572952
leaf_count=1502 1896 1354 1680
internal_value=0 0.0151767 -0.0194889
internal_weight=0 913.757 735.5
internal_count=6432 3250 3182
is_linear=0
shrinkage=0.1


Tree=32
num_leaves=3
num_cat=0
split_feature=1 0
split_gain=21.3663 17.472
threshold=5.6338842500000004 -1.0833743999999998
decision_type=2 2
left_child=-1 -2
right_child=1 -3
leaf_value=0.017174646783302688 0.0066597905801536184 -0.023859816636705739
leaf_weight=456.60663405060768 339.48769649863243 419.2039660513401
leaf_count=2107 1804 2521
internal_value=0 -0.0102034
internal_weight=0 758.692
internal_count=6432 4325
is_linear=0
shrinkage=0.1


Tree=33
num_leaves=3
num_cat=0
split_feature=0 1
split_gain=17.3067 15.9135
threshold=-1.9398850999999999 6.4716239000000009
decision_type=2 2
left_child=-1 -2
right_child=1 -3
leaf_value=0.013375912996098097 0.0037256202445228206 -0.019032541776418294
leaf_weight=646.39741855859756 663.1770621240139 572.47718265652657
leaf_count=2105 2194 2133
internal_value=0 -0.00681821
internal_weight=0 1235.65
internal_count=6432 4327
is_linear=0
shrinkage=0.1


Tree=34
num_leaves=4
num_cat=0
split_feature=1 2 4
split_gain=7.70493 6.07927 2.53726
threshold=5.2273569000000011 -0.5979571749999999 9.2012760000000018
decision_type=2 2 2
left_child=-1 -2 -3
right_child=1 2 -4
leaf_value=-0.011770714597387461 -0.0058634116001309161 0.015399210293151382 0.0037236521885776852
leaf_weight=400.12467129528522 382.57938496768475 377.72158916294575 366.94169528782368
leaf_count=1782 1598 1549 1503
internal_value=0 0.00438216 0.00964594
internal_weight=0 1127.24 744.663
internal_count=6432 4650 3052
is_linear=0
shrinkage=0.1


Tree=35
num_leaves=4
num_cat=0
split_feature=1 0 1
split_gain=43.4081 23.1905 11.6809
threshold=8.5185700000000022 3.1454959000000007 6.0058219000000008
decision_type=2 2 2
left_child=1 2 -1
right_child=-2 -3 -4
leaf_value=-0.030213347616989836 0.029517946031278761 0.014043549208741006 -0.0076868803574784584
leaf_weight=393.76324398815632 375.78913354873657 321.27966019511223 554.13615436851978
leaf_count=1810 1300 1256 2066
internal_value=0 -0.00917489 -0.0170445
internal_weight=0 1269.18 947.899
internal_count=6432 5132 3876
is_linear=0
shrinkage=0.1


Tree=36
num_leaves=3
num_cat=0
split_feature=1 8
split_gain=19.0203 9.77422
threshold=7.2510308500000011 0.31802040500000006
decision_type=2 2
left_child=1 -1
right_child=-2 -3
leaf_value=0.018168596153982013 -0.01785321523852788 -0.0039836552902550327
leaf_weight=472.0570801794529 397.38643898069859 344.56724174320698
leaf_count=2308 2425 1699
internal_value=0 0.00882165
internal_weight=0 816.624
internal_count=6432 4007
is_linear=0
shrinkage=0.1


Tree=37
num_leaves=4
num_cat=0
split_feature=0 1 0
split_gain=15.351 14.4395 8.24256
threshold=-2.7395558499999995 5.1351157500000006 1.7197479000000002
decision_type=2 2 2
left_child=-1 -2 -3
right_child=1 2 -4
leaf_value=0.014338263867511464 0.010399991809646266 -0.0042389145944723931 -0.023134764090155281
leaf_weight=541.39519283175468 396.18857142329216 537.56526911258698 404.59858220815659
leaf_count=1755 1275 1890 1512
internal_value=0 -0.00561782 -0.0123535
internal_weight=0 1338.35 942.164
internal_count=6432 4677 3402
is_linear=0
shrinkage=0.1


Tree=38
num_leaves=4
num_cat=0
split_feature=8 10 10
split_gain=7.37093 7.37499 9.17042
threshold=0.19749377500000001 -6.7545672999999988 -4.9325737999999992
decision_type=2 2 2
left_child=-1 -2 -3
right_child=1 2 -4
leaf_value=-0.012747967803581209 -0.0091248081550445587 0.02103004769856099 9.8263742986610256e-05
leaf_weight=343.28802341222763 318.08048442006111 354.81621158123016 510.36346715688705
leaf_count=1466 1349 1465 2152
internal_value=0 0.00389562 0.00868253
internal_weight=0 1183.26 865.18
internal_count=6432 4966 3617
is_linear=0
shrinkage=0.1


Tree=39
num_leaves=4
num_cat=0
split_feature=0 1 1
split_gain=38.5548 24.3501 5.28064
threshold=3.6230424500000002 7.2842005000000007 6.0058219000000008
decision_type=2 2 2
left_child=1 2 -1
right_child=-2 -3 -4
leaf_value=-0.028209019541870769 0.028570062646827318 0.0071896413240567659 -0.010992649824709311
leaf_weight=403.32679885625839 359.75667202472687 559.198156863451 319.11742331087589
leaf_count=1887 1349 1957 1239
internal_value=0 -0.00847738 -0.0206042
internal_weight=0 1281.64 722.444
internal_count=6432 5083 3126
is_linear=0
shrinkage=0.1


Tree=40
num_leaves=4
num_cat=0
split_feature=0 1 0
split_gain=17.4859 10.513 6.66082
threshold=3.3385903500000005 6.2318648500000009 -1.9398850999999999
decision_type=2 2 2
left_child=1 -1 -3
right_child=-2 2 -4
leaf_value=0.017422956987821942 -0.022833468907980083 0.0086531697025543485 -0.014494944074112235
leaf_weight=453.24175357818604 260.65275430679321 234.53682000935078 264.49030019342899
leaf_count=2058 1449 1305 1620
internal_value=0 0.00639791 -0.00361561
internal_weight=0 952.269 499.027
internal_count=6432 4983 2925
is_linear=0
shrinkage=0.1


Tree=41
num_leaves=3
num_cat=0
split_feature=0 1
split_gain=12.6429 12.9511
threshold=-2.7395558499999995 6.4716239000000009
decision_type=2 2
left_child=-1 -2
right_child=1 -3
leaf_value=0.01297557904343058 0.00410865370826445 -0.015644740808824383
leaf_weight=543.84284630417824 710.7892185151577 622.6785708963871
leaf_count=1755 2344 2333
internal_value=0 -0.00511543
internal_weight=0 1333.47
internal_count=6432 4677
is_linear=0
shrinkage=0.1


Tree=42
num_leaves=4
num_cat=0
split_feature=10 4 8
split_gain=6.4404 7.56155 2.31541
threshold=-7.4982723999999985 9.1567900000000026 0.29579265500000002
decision_type=2 2 2
left_child=-1 -2 -3
right_child=1 2 -4
leaf_value=-0.01274465449252061 0.0114752987225007 -0.010492728879563762 0.0017235091972758376
leaf_weight=308.01706764101982 597.09446854889393 305.42041562497616 315.34037527441978
leaf_count=1316 2504 1294 1318
internal_value=0 0.003441 -0.004287
internal_weight=0 1217.86 620.761
internal_count=6432 5116 2612
is_linear=0
shrinkage=0.1


Tree=43
num_leaves=4
num_cat=0
split_feature=1 0 1
split_gain=33.3688 16.8134 8.38248
threshold=8.5185700000000022 3.2716517500000006 6.0058219000000008
decision_type=2 2 2
left_child=1 2 -1
right_child=-2 -3 -4
leaf_value=-0.026355903019301692 0.025507377540755872 0.011695791497863265 -0.0071387211742772712
leaf_weight=382.92152361571789 381.58473128080368 316.0600850135088 557.37696523964405
leaf_count=1833 1300 1213 2086
internal_value=0 -0.0082577 -0.0149646
internal_weight=0 1256.36 940.298
internal_count=6432 5132 3919
is_linear=0
shrinkage=0.1


Tree=44
num_leaves=3
num_cat=0
split_feature=1 0
split_gain=14.8109 15.3652
threshold=5.6338842500000004 -1.0833743999999998
decision_type=2 2
left_child=-1 -2
right_child=1 -3
leaf_value=0.014114297046553523 0.0071638812010189528 -0.021675011939996689
leaf_weight=466.22595985233784 337.79934687912464 407.76124756038189
leaf_count=2107 1804 2521
internal_value=0 -0.00860866
internal_weight=0 745.561
internal_count=6432 4325
is_linear=0
shrinkage=0.1


Tree=45
num_leaves=4
num_cat=0
split_feature=0 1 2
split_gain=11.3733 10.4371 8.5917
threshold=-1.9398850999999999 5.1351157500000006 -0.14792615999999997
decision_type=2 2 2
left_child=-1 -2 -3
right_child=1 2 -4
leaf_value=0.01081825761620118 0.0083085113916913245 -0.00066278277396012158 -0.020892208854508279
leaf_weight=651.62096530199051 376.80278858542442 384.88548132777214 461.91388849914074
leaf_count=2105 1209 1412 1706
internal_value=0 -0.00553679 -0.0116976
internal_weight=0 1223.6 846.799
internal_count=6432 4327 3118
is_linear=0
shrinkage=0.1


Tree=46
num_leaves=4
num_cat=0
split_feature=8 6 11
split_gain=6.10892 5.82591 4.49136
threshold=0.22342776000000003 -0.24209635499999996 -2.4006055499999994
decision_type=2 2 2
left_child=-1 2 -2
right_child=1 -3 -4
leaf_value=-0.01043561928290208 0.0019442204447859069 -0.0041290998671413949 0.018861193749435557
leaf_weight=399.96156844496727 315.53395517170429 497.58515466749668 312.24192084372044
leaf_count=1724 1335 2088 1285
internal_value=0 0.00395264 0.0103584
internal_weight=0 1125.36 627.776
internal_count=6432 4708 2620
is_linear=0
shrinkage=0.1


Tree=47
num_leaves=4
num_cat=0
split_feature=1 0 1
split_gain=28.0425 14.584 6.86434
threshold=8.5185700000000022 3.3385903500000005 6.0058219000000008
decision_type=2 2 2
left_child=1 2 -1
right_child=-2 -3 -4
leaf_value=-0.024398237930039035 0.023162615520173277 0.010941155134510678 -0.0069312184710457712
leaf_weight=376.73198306560516 384.96497547626495 313.98802317678928 558.58019192516804
leaf_count=1841 1300 1196 2095
internal_value=0 -0.00770659 -0.0139667
internal_weight=0 1249.3 935.312
internal_count=6432 5132 3936
is_linear=0
shrinkage=0.1


Tree=48
num_leaves=4
num_cat=0
split_feature=0 11 1
split_gain=14.0023 8.55247 7.73165
threshold=3.3385903500000005 -2.6661738999999995 5.941102700000001
decision_type=2 2 2
left_child=1 -1 -3
right_child=-2 2 -4
leaf_value=0.018823106486545633 -0.020710061239382418 0.011935004578803246 -0.010525779113600805
leaf_weight=326.55806674063206 254.32198949158192 263.67637790739536 365.97437582910061
leaf_count=1689 1449 1167 2127
internal_value=0 0.00569086 -0.00111996
internal_weight=0 956.209 629.651
internal_count=6432 4983 3294
is_linear=0
shrinkage=0.1


Tree=49
num_leaves=3
num_cat=0
split_feature=0 1
split_gain=9.9859 9.98734
threshold=-2.7395558499999995 6.4716239000000009
decision_type=2 2
left_child=-1 -2
right_child=1 -3
leaf_value=0.011551114904528655 0.0035489411238796634 -0.013847995410361089
leaf_weight=546.15990105271339 712.0085354745388 615.04656451940536
leaf_count=1755 2344 2333
internal_value=0 -0.00451397
internal_weight=0 1327.06
internal_count=6432 4677
is_linear=0
shrinkage=0.1


Tree=50
num_leaves=4
num_cat=0
split_feature=1 2 2
split_gain=5.60795 4.84439 2.1883
threshold=5.2273569000000011 -0.5979571749999999 1.0434148000000003
decision_type=2 2 2
left_child=-1 -2 -3
right_child=1 2 -4
leaf_value=-0.010097261712445092 -0.0054326017072941143 0.013143777819051945 0.0022392793215597791
leaf_weight=394.44514942169189 380.82136166095734 424.67573940753937 324.77205450832844
leaf_count=1782 1598 1717 1335
internal_value=0 0.00375154 0.00841833
internal_weight=0 1130.27 749.448
internal_count=6432 4650 3052
is_linear=0
shrinkage=0.1


Tree=51
num_leaves=4
num_cat=0
split_feature=0 1 5
split_gain=25.0011 13.9353 4.08384
threshold=3.6230424500000002 7.2842005000000007 -2.9625428499999997
decision_type=2 2 2
left_child=1 2 -1
right_child=-2 -3 -4
leaf_value=-0.0074540073831266818 0.022428055667664967 0.0045015972975945033 -0.023026163666685223
leaf_weight=285.69300885498524 369.18036209046841 565.43006351590157 410.24234901368618
leaf_count=1289 1349 1957 1837
internal_value=0 -0.00715933 -0.0166335
internal_weight=0 1261.37 695.935
internal_count=6432 5083 3126
is_linear=0
shrinkage=0.1


Tree=52
num_leaves=3
num_cat=0
split_feature=1 8
split_gain=12.3841 7.94101
threshold=7.2510308500000011 0.32281629000000006
decision_type=2 2
left_child=1 -1
right_child=-2 -3
leaf_value=0.014973466924998414 -0.014711636241696352 -0.0050694000474659157
leaf_weight=499.28356023132801 383.15397571027279 327.23718822002411
leaf_count=2398 2425 1609
internal_value=0 0.00703807
internal_weight=0 826.521
internal_count=6432 4007
is_linear=0
shrinkage=0.1


Tree=53
num_leaves=4
num_cat=0
split_feature=1 0 3
split_gain=8.81944 15.1613 4.91364
threshold=4.4205828500000015 2.3655721500000007 -0.53610491999999987
decision_type=2 2 2
left_child=-1 2 -2
right_child=1 -3 -4
leaf_value=0.013865787560140681 0.0090940880351286293 -0.02041018126197619 -0.0042070126798667623
leaf_weight=375.2421846985817 572.04907780885696 384.04136137664318 539.8197008818388
leaf_count=1190 1949 1450 1843
internal_value=0 -0.00328036 0.00263632
internal_weight=0 1495.91 1111.87
internal_count=6432 5242 3792
is_linear=0
shrinkage=0.1


Tree=54
num_leaves=3
num_cat=0
split_feature=10 4
split_gain=5.48439 6.48227
threshold=-7.2684585999999989 9.1567900000000026
decision_type=2 2
left_child=-1 -2
right_child=1 -3
leaf_value=-0.011142071979386256 0.010853355475655184 -0.0039121652568074195
leaf_weight=334.36670634150505 585.37588058412075 604.21768388152122
leaf_count=1441 2441 2550
internal_value=0 0.00335366
internal_weight=0 1189.59
internal_count=6432 4991
is_linear=0
shrinkage=0.1


Tree=55
num_leaves=4
num_cat=0
split_feature=1 2 0
split_gain=22.1162 10.8033 11.6066
threshold=8.5185700000000022 -1.0112712499999998 1.0466956000000003
decision_type=2 2 2
left_child=1 -1 -3
right_child=-2 2 -4
leaf_value=-0.023043640124828055 0.020356816602846769 -0.011875439951745137 0.010592403422307765
leaf_weight=313.040372595191 388.67807540297508 500.50363691151142 425.2942701280117
leaf_count=1294 1300 2194 1644
internal_value=0 -0.00698429 -0.00155413
internal_weight=0 1238.84 925.798
internal_count=6432 5132 3838
is_linear=0
shrinkage=0.1


Tree=56
num_leaves=4
num_cat=0
split_feature=0 11 1
split_gain=11.8425 7.17899 6.013
threshold=3.3385903500000005 -2.6661738999999995 5.941102700000001
decision_type=2 2 2
left_child=1 -1 -3
right_child=-2 2 -4
leaf_value=0.017158160190820008 -0.019214476996565297 0.010345569198558793 -0.009447225992555125
leaf_weight=330.33995005488396 250.00926080346107 266.57449576258659 361.81649847328663
leaf_count=1689 1449 1167 2127
internal_value=0 0.00522329 -0.00105077
internal_weight=0 958.731 628.391
internal_count=6432 4983 3294
is_linear=0
shrinkage=0.1


Tree=57
num_leaves=4
num_cat=0
split_feature=0 1 9
split_gain=7.86053 7.63296 2.54733
threshold=-1.9398850999999999 7.1347922000000006 -2.9875567499999995
decision_type=2 2 2
left_child=-1 2 -2
right_child=1 -3 -4
leaf_value=0.0089851928204551772 0.0067812271363567132 -0.015875108127879296 -0.0044263054718506707
leaf_weight=655.12158495187759 391.24502719938755 402.04591339826584 421.04123140871525
leaf_count=2105 1318 1583 1426
internal_value=0 -0.00460587 0.000971904
internal_weight=0 1214.33 812.286
internal_count=6432 4327 2744
is_linear=0
shrinkage=0.1


Tree=58
num_leaves=4
num_cat=0
split_feature=8 6 11
split_gain=5.21923 5.23133 4.06749
threshold=0.19749377500000001 -0.24209635499999996 -2.3666927499999995
decision_type=2 2 2
left_child=-1 2 -2
right_child=1 -3 -4
leaf_value=-0.010788125662701688 0.0015806467274134305 -0.0040637380808497339 0.017350658948781936
leaf_weight=337.48348757624626 334.51345840096474 531.48815657198429 320.02445222437382
leaf_count=1466 1417 2241 1308
internal_value=0 0.00330647 0.00929111
internal_weight=0 1186.03 654.538
internal_count=6432 4966 2725
is_linear=0
shrinkage=0.1


Tree=59
num_leaves=4
num_cat=0
split_feature=0 1 0
split_gain=20.0062 12.3982 9.86882
threshold=4.0251353000000014 5.9630390000000011 -1.9945556999999998
decision_type=2 2 2
left_child=1 -1 -3
right_child=-2 2 -4
leaf_value=-0.021209973307161699 0.021708681559225236 -0.012671092193322082 0.0085628250086485294
leaf_weight=380.47156068682671 325.07266849279404 359.54073771834373 559.47187308967113
leaf_count=1918 1174 1375 1965
internal_value=0 -0.00602924 0.000255585
internal_weight=0 1299.48 919.013
internal_count=6432 5258 3340
is_linear=0
shrinkage=0.1


Tree=60
num_leaves=4
num_cat=0
split_feature=1 0 6
split_gain=10.8032 15.5948 3.74018
threshold=5.2969999000000003 0.78664572500000018 -0.5505441499999999
decision_type=2 2 2
left_child=-1 2 -2
right_child=1 -3 -4
leaf_value=0.013307518972662325 -0.0041639050217436302 -0.024940515739066426 0.013121036513394913
leaf_weight=412.36453083157539 262.69103731215 293.65717607736588 239.15699435770512
leaf_count=1832 1424 1878 1298
internal_value=0 -0.00663703 0.00407328
internal_weight=0 795.505 501.848
internal_count=6432 4600 2722
is_linear=0
shrinkage=0.1


Tree=61
num_leaves=4
num_cat=0
split_feature=1 0 4
split_gain=7.1905 11.7463 4.50302
threshold=4.4205828500000015 2.3655721500000007 10.175300500000001
decision_type=2 2 2
left_child=-1 2 -2
right_child=1 -3 -4
leaf_value=0.0124836356950214 -0.0029330283484117342 -0.018208898281664231 0.010087322758480594
leaf_weight=376.66640669107437 674.57901011407375 378.05296629667282 438.13638912141323
leaf_count=1190 2305 1450 1487
internal_value=0 -0.00298025 0.00219379
internal_weight=0 1490.77 1112.72
internal_count=6432 5242 3792
is_linear=0
shrinkage=0.1


Tree=62
num_leaves=3
num_cat=0
split_feature=10 4
split_gain=4.63885 5.48
threshold=-7.2684585999999989 9.1567900000000026
decision_type=2 2
left_child=-1 -2
right_child=1 -3
leaf_value=-0.010232575916630134 0.0099997638763399746 -0.0035676474948160876
leaf_weight=331.8979020267725 588.45989768207073 602.52663451433182
leaf_count=1441 2441 2550
internal_value=0 0.00313594
internal_weight=0 1190.99
internal_count=6432 4991
is_linear=0
shrinkage=0.1


Tree=63
num_leaves=4
num_cat=0
split_feature=1 2 0
split_gain=17.6918 9.39719 8.09665
threshold=8.5185700000000022 -1.0112712499999998 1.0466956000000003
decision_type=2 2 2
left_child=1 -1 -3
right_child=-2 2 -4
leaf_value=-0.021501701378588541 0.018019941503014687 -0.010079399546600401 0.0087151523782096826
leaf_weight=308.35321322083473 391.39620876312256 492.57293786108494 428.71056437492371
leaf_count=1294 1300 2194 1644
internal_value=0 -0.00639106 -0.00133353
internal_weight=0 1229.64 921.284
internal_count=6432 5132 3838
is_linear=0
shrinkage=0.1


Tree=64
num_leaves=4
num_cat=0
split_feature=1 0 3
split_gain=9.42236 13.8552 4.55341
threshold=5.2969999000000003 -1.0358061499999998 -0.67771504999999987
decision_type=2 2 2
left_child=-1 -2 -3
right_child=1 2 -4
leaf_value=0.012393821829944841 0.0082480476935439372 -0.028746384829724598 -0.0081866709419538743
leaf_weight=414.95210050046444 360.8192013502121 212.2667528912425 218.71613398939371
leaf_count=1832 1909 1329 1362
internal_value=0 -0.00620913 -0.0183127
internal_weight=0 791.802 430.983
internal_count=6432 4600 2691
is_linear=0
shrinkage=0.1


Tree=65
num_leaves=4
num_cat=0
split_feature=1 9 0
split_gain=6.56529 4.50633 4.46637
threshold=6.4716239000000009 -0.8575811499999999 -0.35119186499999994
decision_type=2 2 2
left_child=1 -1 -2
right_child=2 -3 -4
leaf_value=0.012286124431931564 0.00045416394401530478 -0.0015417068606216739 -0.01358051292427038
leaf_weight=517.24586629867554 502.41903971135616 432.93788857758045 413.26646780967712
leaf_count=1676 1702 1406 1648
internal_value=0 0.00598567 -0.00587996
internal_weight=0 950.184 915.686
internal_count=6432 3082 3350
is_linear=0
shrinkage=0.1


Tree=66
num_leaves=4
num_cat=0
split_feature=8 11 6
split_gain=4.50008 4.39795 4.42312
threshold=0.19749377500000001 -2.6187254499999999 -0.24209635499999996
decision_type=2 2 2
left_child=-1 -2 -3
right_child=1 2 -4
leaf_value=-0.010020947090924144 -0.0050246339792187492 0.014801888906253256 -0.0004860179593719128
leaf_weight=335.32153668999672 426.88202266395092 405.04407848417759 355.21566139161587
leaf_count=1466 1828 1650 1488
internal_value=0 0.00309807 0.00765893
internal_weight=0 1187.14 760.26
internal_count=6432 4966 3138
is_linear=0
shrinkage=0.1


Tree=67
num_leaves=4
num_cat=0
split_feature=1 0 2
split_gain=15.4766 21.4715 4.24327
threshold=6.0859673500000016 1.6287461500000002 0.27931900000000004
decision_type=2 2 2
left_child=2 -2 -1
right_child=1 -3 -4
leaf_value=-0.023380445711172024 -0.0039468172802140187 0.02562188366096875 -0.0055995224284315784
leaf_weight=265.79246972501278 703.96141919493675 377.15789505839348 271.1096700578928
leaf_count=1297 2601 1224 1310
internal_value=0 0.00636848 -0.0144019
internal_weight=0 1081.12 536.902
internal_count=6432 3825 2607
is_linear=0
shrinkage=0.1


Tree=68
num_leaves=3
num_cat=0
split_feature=1 3
split_gain=8.85606 7.1228
threshold=7.4226013500000008 -2.0277616999999997
decision_type=2 2
left_child=1 -1
right_child=-2 -3
leaf_value=-0.0046631779440334817 -0.013315275866121563 0.013680545876741893
leaf_weight=377.30162110179663 346.18149246275425 482.21693915128708
leaf_count=1853 2250 2329
internal_value=0 0.00562823
internal_weight=0 859.519
internal_count=6432 4182
is_linear=0
shrinkage=0.1


Tree=69
num_leaves=4
num_cat=0
split_feature=0 1 5
split_gain=6.05592 8.17334 7.23296
threshold=-3.4309535499999995 5.9630390000000011 -2.2435769499999996
decision_type=2 2 2
left_child=-1 -2 -3
right_child=1 2 -4
leaf_value=0.010061467566078145 0.0056180004634988614 -0.00078174890046109216 -0.019910235954440293
leaf_weight=464.13538387417793 606.66463786363602 419.22285364568233 374.05483284592628
leaf_count=1480 1949 1592 1411
internal_value=0 -0.00311942 -0.00980142
internal_weight=0 1399.94 793.278
internal_count=6432 4952 3003
is_linear=0
shrinkage=0.1


Tree=70
num_leaves=4
num_cat=0
split_feature=11 5 0
split_gain=4.11145 6.09814 3.05213
threshold=-2.0086915999999997 -3.3859734999999995 1.0000000180025095e-35
decision_type=2 2 2
left_child=1 -1 -3
right_child=-2 2 -4
leaf_value=-0.015199894139388792 0.006979282147336255 -0.0053424773351500717 0.0084684247622793252
leaf_weight=313.47335225343704 567.32756701111794 308.5436539798975 332.40207731723785
leaf_count=1348 2353 1370 1361
internal_value=0 -0.00377007 0.00182002
internal_weight=0 954.419 640.946
internal_count=6432 4079 2731
is_linear=0
shrinkage=0.1


Tree=71
num_leaves=4
num_cat=0
split_feature=1 2 6
split_gain=13.8528 7.53716 8.30348
threshold=8.5185700000000022 -0.83698484499999981 -1.2454872499999998
decision_type=2 2 2
left_child=1 -1 -3
right_child=-2 2 -4
leaf_value=-0.018375302864577538 0.015754707894449476 -0.011162585949633005 0.0083292320670730214
leaf_weight=343.37605717778206 393.80074268579483 414.99687042832375 461.70008973777294
leaf_count=1462 1300 1736 1934
internal_value=0 -0.00581643 -0.000897495
internal_weight=0 1220.07 876.697
internal_count=6432 5132 3670
is_linear=0
shrinkage=0.1


Tree=72
num_leaves=4
num_cat=0
split_feature=0 3 11
split_gain=8.8237 5.79121 5.65318
threshold=3.3385903500000005 -2.0277616999999997 -2.4588204499999997
decision_type=2 2 2
left_child=1 -1 -3
right_child=-2 2 -4
leaf_value=-0.0044175853868132801 -0.016823500800668738 0.022256761099803426 0.0018809201158667436
leaf_weight=413.9265604019165 242.78367044776678 252.12751422822475 296.04668970406055
leaf_count=2170 1449 1268 1545
internal_value=0 0.00451078 0.0112526
internal_weight=0 962.101 548.174
internal_count=6432 4983 2813
is_linear=0
shrinkage=0.1


Tree=73
num_leaves=4
num_cat=0
split_feature=1 0 3
split_gain=5.42177 9.04291 3.91392
threshold=4.4205828500000015 2.3655721500000007 -0.53610491999999987
decision_type=2 2 2
left_child=-1 2 -2
right_child=1 -3 -4
leaf_value=0.010845695169152889 0.0076925885603366766 -0.016069678883774832 -0.0041769192698909189
leaf_weight=378.33055233955383 573.93733190000057 371.65271325409412 538.43277780711651
leaf_count=1190 1949 1450 1843
internal_value=0 -0.00256483 0.00194726
internal_weight=0 1484.02 1112.37
internal_count=6432 5242 3792
is_linear=0
shrinkage=0.1


Tree=74
num_leaves=4
num_cat=0
split_feature=10 2 11
split_gain=3.95213 4.70031 3.99643
threshold=-7.2684585999999989 1.3633862000000001 -1.9777092999999997
decision_type=2 2 2
left_child=-1 2 -2
right_child=1 -3 -4
leaf_value=-0.0094684359976055406 0.0010956196051036752 -0.0076256376704592803 0.014835808838405233
leaf_weight=329.60934802889824 523.69877742230892 312.71545898914337 355.29691632091999
leaf_count=1441 2209 1329 1453
internal_value=0 0.00290359 0.00664951
internal_weight=0 1191.71 878.996
internal_count=6432 4991 3662
is_linear=0
shrinkage=0.1


Tree=75
num_leaves=4
num_cat=0
split_feature=0 8 6
split_gain=13.7287 8.2911 6.31708
threshold=4.0251353000000014 0.22823550500000003 -0.65206819999999988
decision_type=2 2 2
left_child=1 -1 -3
right_child=-2 2 -4
leaf_value=0.0072332793786433801 0.017690040756603156 -0.019176552605895326 -0.002454873733747742
leaf_weight=377.23905868828297 328.42658936977386 430.97404539585114 474.83380569517612
leaf_count=1535 1174 1776 1947
internal_value=0 -0.00522317 -0.0104109
internal_weight=0 1283.05 905.808
internal_count=6432 5258 3723
is_linear=0
shrinkage=0.1


Tree=76
num_leaves=4
num_cat=0
split_feature=1 0 8
split_gain=8.10912 11.3717 5.38769
threshold=4.2216585000000011 -2.4963086499999996 0.32281629000000006
decision_type=2 2 2
left_child=-1 -2 -3
right_child=1 2 -4
leaf_value=0.016428893182860022 0.012239866532775657 -0.0041475038569119584 -0.022752105353456249
leaf_weight=246.05940155684948 299.35273756086826 406.91835800558329 252.08066456764936
leaf_count=1086 1559 2309 1478
internal_value=0 -0.00392238 -0.0112641
internal_weight=0 958.352 658.999
internal_count=6432 5346 3787
is_linear=0
shrinkage=0.1


Tree=77
num_leaves=4
num_cat=0
split_feature=0 1 8
split_gain=4.83205 7.1677 5.7183
threshold=-3.7719932499999995 7.6098798500000013 0.31948510000000002
decision_type=2 2 2
left_child=-1 2 -2
right_child=1 -3 -4
leaf_value=0.0095149099382839993 -0.0046394742413218143 -0.014338128826721473 0.010289360301570771
leaf_weight=425.12334561347961 610.12816870212555 382.93648882210255 442.77388951182365
leaf_count=1352 2071 1511 1498
internal_value=0 -0.00262244 0.00163851
internal_weight=0 1435.84 1052.9
internal_count=6432 5080 3569
is_linear=0
shrinkage=0.1


Tree=78
num_leaves=4
num_cat=0
split_feature=8 10 10
split_gain=3.54922 3.7223 7.22732
threshold=0.19749377500000001 -6.7180106499999992 -5.0642718499999999
decision_type=2 2 2
left_child=-1 -2 -3
right_child=1 2 -4
leaf_value=-0.0089327135471109678 -0.0065351493488767232 0.017685469883532357 -0.0010393766169914406
leaf_weight=332.22958341240883 316.29307544231415 333.95327080786228 538.53817698359489
leaf_count=1466 1370 1347 2249
internal_value=0 0.00275858 0.00612771
internal_weight=0 1188.78 872.491
internal_count=6432 4966 3596
is_linear=0
shrinkage=0.1


Tree=79
num_leaves=4
num_cat=0
split_feature=1 0 0
split_gain=11.5631 16.9334 4.61897
threshold=5.0414818500000012 1.6729809500000001 -2.4409186999999997
decision_type=2 2 2
left_child=-1 2 -2
right_child=1 -3 -4
leaf_value=-0.017466654319150267 -0.013514057543403705 0.019027270078694331 0.001604588044388524
leaf_weight=322.78328141570091 354.01860529184341 462.07177339494228 470.83815804123878
leaf_count=1632 1433 1564 1803
internal_value=0 0.00370125 -0.00488415
internal_weight=0 1286.93 824.857
internal_count=6432 4800 3236
is_linear=0
shrinkage=0.1


Tree=80
num_leaves=3
num_cat=0
split_feature=1 8
split_gain=7.60352 5.87624
threshold=7.2510308500000011 0.31802040500000006
decision_type=2 2
left_child=1 -1
right_child=-2 -3
leaf_value=0.012553413021068861 -0.011716037907255479 -0.0044934605939761212
leaf_weight=489.59680098295212 369.69379633665085 344.49780513346195
leaf_count=2308 2425 1699
internal_value=0 0.00551271
internal_weight=0 834.095
internal_count=6432 4007
is_linear=0
shrinkage=0.1


Tree=81
num_leaves=4
num_cat=0
split_feature=1 0 4
split_gain=4.40341 6.94199 3.62008
threshold=4.4205828500000015 2.3655721500000007 9.9638235000000019
decision_type=2 2 2
left_child=-1 2 -2
right_child=1 -3 -4
leaf_value=0.0097449753035716916 -0.0031977405448464433 -0.014265128091442217 0.0083781173581834786
leaf_weight=379.42393282055855 651.76738072931767 366.61764667928219 461.40340533852577
leaf_count=1190 2230 1450 1562
internal_value=0 -0.00233029 0.00160039
internal_weight=0 1479.79 1113.17
internal_count=6432 5242 3792
is_linear=0
shrinkage=0.1


Tree=82
num_leaves=4
num_cat=0
split_feature=1 2 3
split_gain=3.40962 4.88885 1.91148
threshold=5.2273569000000011 -0.5979571749999999 -1.1530179999999997
decision_type=2 2 2
left_child=-1 -2 -3
right_child=1 2 -4
leaf_value=-0.0078625849365288932 -0.006199512620313416 0.0022459413241601544 0.012362458985847813
leaf_weight=386.73790061473846 382.03852653503418 346.8378259241581 404.69565151631832
leaf_count=1782 1598 1404 1648
internal_value=0 0.00301133 0.00769362
internal_weight=0 1133.57 751.533
internal_count=6432 4650 3052
is_linear=0
shrinkage=0.1


Tree=83
num_leaves=4
num_cat=0
split_feature=1 2 6
split_gain=11.0061 6.52247 6.79084
threshold=8.5185700000000022 -0.83698484499999981 -1.2454872499999998
decision_type=2 2 2
left_child=1 -1 -3
right_child=-2 2 -4
leaf_value=-0.017060894079019725 0.013940433515425824 -0.010074543834404794 0.0076030261307457091
leaf_weight=338.63083238899708 395.04881691932678 410.1756586432457 462.15965290367603
leaf_count=1462 1300 1736 1934
internal_value=0 -0.00528162 -0.00070904
internal_weight=0 1210.97 872.335
internal_count=6432 5132 3670
is_linear=0
shrinkage=0.1


Tree=84
num_leaves=4
num_cat=0
split_feature=0 3 11
split_gain=7.22166 4.88777 4.2532
threshold=3.2716517500000006 -1.9202901999999997 -2.4174953499999994
decision_type=2 2 2
left_child=1 -1 -3
right_child=-2 2 -4
leaf_value=-0.0040655594386698789 -0.015170098604708568 0.01947675994403214 0.0018066475882387301
leaf_weight=414.36181679368019 243.19210556894541 263.48137165606022 282.02475520968437
leaf_count=2178 1474 1309 1471
internal_value=0 0.0041221 0.0103414
internal_weight=0 959.868 545.506
internal_count=6432 4958 2780
is_linear=0
shrinkage=0.1


Tree=85
num_leaves=3
num_cat=0
split_feature=0 1
split_gain=3.88213 5.37025
threshold=-3.4309535499999995 6.4716239000000009
decision_type=2 2
left_child=-1 -2
right_child=1 -3
leaf_value=0.0080163287832438999 0.0032022235264407267 -0.0092667888379859217
leaf_weight=466.76939177513123 752.24104544520378 638.6593603938818
leaf_count=1480 2459 2493
internal_value=0 -0.00252317
internal_weight=0 1390.9
internal_count=6432 4952
is_linear=0
shrinkage=0.1


Tree=86
num_leaves=4
num_cat=0
split_feature=8 6 9
split_gain=3.03654 3.5203 2.75083
threshold=0.19749377500000001 -0.24209635499999996 -2.8774740999999997
decision_type=2 2 2
left_child=-1 2 -2
right_child=1 -3 -4
leaf_value=-0.0082515401086107661 0.0012940282713596006 -0.0034986546316407327 0.014209252472757509
leaf_weight=330.31813699007034 346.00743916630745 528.42752841114998 315.09839059412479
leaf_count=1466 1435 2241 1290
internal_value=0 0.00258612 0.00744972
internal_weight=0 1189.53 661.106
internal_count=6432 4966 2725
is_linear=0
shrinkage=0.1


Tree=87
num_leaves=4
num_cat=0
split_feature=0 8 6
split_gain=9.65353 7.08229 5.13987
threshold=4.0251353000000014 0.22823550500000003 -0.65206819999999988
decision_type=2 2 2
left_child=1 -1 -3
right_child=-2 2 -4
leaf_value=0.0070231582686899165 0.014682477392194294 -0.017319277220979059 -0.0021506505653182766
leaf_weight=376.43923999369144 331.02695520222187 423.7045009881258 472.50398778915405
leaf_count=1535 1174 1776 1947
internal_value=0 -0.00448722 -0.00932199
internal_weight=0 1272.65 896.208
internal_count=6432 5258 3723
is_linear=0
shrinkage=0.1


Tree=88
num_leaves=4
num_cat=0
split_feature=1 0 1
split_gain=7.18935 10.4627 5.18504
threshold=4.1844682000000004 -1.0833743999999998 6.7601964500000014
decision_type=2 2 2
left_child=-1 -2 -3
right_child=1 2 -4
leaf_value=0.015635951683776142 0.0080479249856449993 -0.0042539440428516024 -0.024112136986869852
leaf_weight=242.40525172650814 426.15205672383308 299.81932500004768 234.18347664177418
leaf_count=1060 2163 1500 1709
internal_value=0 -0.00363737 -0.0129626
internal_weight=0 960.155 534.003
internal_count=6432 5372 3209
is_linear=0
shrinkage=0.1


Tree=89
num_leaves=4
num_cat=0
split_feature=4 0 9
split_gain=3.61706 6.06179 3.35183
threshold=9.9638235000000019 0.10436814000000001 -1.9173190999999996
decision_type=2 2 2
left_child=2 -2 -1
right_child=1 -3 -4
leaf_value=0.001777731559597097 0.013765538150461824 -0.0038530976897689115 -0.0094002387667966331
leaf_weight=552.96811491250992 406.1598349660635 376.11192516982555 521.0220440775156
leaf_count=1911 1326 1374 1821
internal_value=0 0.0052946 -0.00364501
internal_weight=0 782.272 1073.99
internal_count=6432 2700 3732
is_linear=0
shrinkage=0.1


Tree=90
num_leaves=3
num_cat=0
split_feature=10 4
split_gain=2.97986 4.23231
threshold=-7.2684585999999989 9.1567900000000026
decision_type=2 2
left_child=-1 -2
right_child=1 -3
leaf_value=-0.0082612329932856745 0.0085167991462142736 -0.0033941372132074276
leaf_weight=326.22592358291149 592.89551241695881 600.44260901212692
leaf_count=1441 2441 2550
internal_value=0 0.00252367
internal_weight=0 1193.34
internal_count=6432 4991
is_linear=0
shrinkage=0.1


Tree=91
num_leaves=4
num_cat=0
split_feature=1 2 6
split_gain=9.16607 5.81594 5.45629
threshold=8.5185700000000022 -0.83698484499999981 -1.2454872499999998
decision_type=2 2 2
left_child=1 -1 -3
right_child=-2 2 -4
leaf_value=-0.016047412151787122 0.012670302291655999 -0.009005807414301575 0.0068651342846532465
leaf_weight=335.48250369727612 396.2108898460865 406.53705403208733 463.68237237632275
leaf_count=1462 1300 1736 1934
internal_value=0 -0.00486155 -0.000549232
internal_weight=0 1205.7 870.219
internal_count=6432 5132 3670
is_linear=0
shrinkage=0.1


Tree=92
num_leaves=4
num_cat=0
split_feature=0 1 3
split_gain=6.19234 9.70012 5.42733
threshold=-4.1629081999999995 7.3531298500000011 -1.9202901999999997
decision_type=2 2 2
left_child=-1 2 -2
right_child=1 -3 -4
leaf_value=0.014243791839894285 -0.0074235034601385771 -0.0202640201708333 0.010340577925039014
leaf_weight=249.71616622805595 304.46405082941055 252.17792704701424 395.27734854072332
leaf_count=1248 1521 1764 1899
internal_value=0 -0.00344875 0.00261126
internal_weight=0 951.919 699.741
internal_count=6432 5184 3420
is_linear=0
shrinkage=0.1


Tree=93
num_leaves=4
num_cat=0
split_feature=1 2 0
split_gain=3.61805 6.09673 6.11447
threshold=4.4205828500000015 -1.0655205999999999 -2.4963086499999996
decision_type=2 2 2
left_child=-1 -2 -3
right_child=1 2 -4
leaf_value=0.0088580393796378123 0.0090281107640972722 0.0048722012800162711 -0.010983174233001356
leaf_weight=380.21154236793518 370.0634718388319 361.32025834918022 744.14838998019695
leaf_count=1190 1299 1157 2786
internal_value=0 -0.00208177 -0.00580088
internal_weight=0 1475.53 1105.47
internal_count=6432 5242 3943
is_linear=0
shrinkage=0.1


Tree=94
num_leaves=4
num_cat=0
split_feature=5 10 10
split_gain=2.87351 3.8804 3.76904
threshold=-3.5399672999999994 -6.4961113499999987 -4.0174431999999998
decision_type=2 2 2
left_child=-1 -2 -3
right_child=1 2 -4
leaf_value=-0.0060644441314018404 -0.0061509857274933922 0.01441540905973974 -0.00011963130711081742
leaf_weight=496.37617860734463 309.12385125458241 362.46594433486462 351.31353843212128
leaf_count=2131 1342 1476 1483
internal_value=0 0.00320817 0.00726144
internal_weight=0 1022.9 713.779
internal_count=6432 4301 2959
is_linear=0
shrinkage=0.1


Tree=95
num_leaves=4
num_cat=0
split_feature=1 0 0
split_gain=8.2676 14.4834 2.63222
threshold=5.5131309000000011 1.3356912000000001 -2.4963086499999996
decision_type=2 2 2
left_child=-1 2 -2
right_child=1 -3 -4
leaf_value=-0.013149985262878985 -0.011778973104977412 0.017301647597608421 0.00022467884679617527
leaf_weight=391.74474161863327 331.4308153539896 469.4526998847723 407.03844924271107
leaf_count=2007 1341 1557 1527
internal_value=0 0.00356798 -0.00516265
internal_weight=0 1207.92 738.469
internal_count=6432 4425 2868
is_linear=0
shrinkage=0.1


Tree=96
num_leaves=4
num_cat=0
split_feature=1 0 2
split_gain=5.81318 8.60698 4.6346
threshold=4.1844682000000004 -1.0833743999999998 -0.30306710499999995
decision_type=2 2 2
left_child=-1 -2 -3
right_child=1 2 -4
leaf_value=0.013952544910494269 0.0072091923820279116 -0.00043804785347533815 -0.019564294600955472
leaf_weight=245.10839496552944 428.8369323015213 211.94626844674349 314.96856410056353
leaf_count=1060 2163 1281 1928
internal_value=0 -0.00330987 -0.011871
internal_weight=0 955.752 526.915
internal_count=6432 5372 3209
is_linear=0
shrinkage=0.1


Tree=97
num_leaves=3
num_cat=0
split_feature=8 7
split_gain=3.31012 4.9051
threshold=0.34062285500000006 0.010281831500000001
decision_type=2 2
left_child=1 -1
right_child=-2 -3
leaf_value=-0.0092087012378741697 0.0057573531445556528 0.0036769880758435736
leaf_weight=616.84755250811577 670.21899649500847 566.91838632524014
leaf_count=2146 2316 1970
internal_value=0 -0.0030376
internal_weight=0 1183.77
internal_count=6432 4116
is_linear=0
shrinkage=0.1


Tree=98
num_leaves=4
num_cat=0
split_feature=11 5 0
split_gain=2.74165 4.64168 2.34907
threshold=-2.0086915999999997 -3.3859734999999995 1.0000000180025095e-35
decision_type=2 2 2
left_child=1 -1 -3
right_child=-2 2 -4
leaf_value=-0.013172056340587601 0.0056908043381182155 -0.0045546060154711653 0.0075744316458210368
leaf_weight=307.79965369403362 570.93868421018124 306.10269992053509 333.80553840100765
leaf_count=1348 2353 1370 1361
internal_value=0 -0.00308127 0.00177246
internal_weight=0 947.708 639.908
internal_count=6432 4079 2731
is_linear=0
shrinkage=0.1


Tree=99
num_leaves=4
num_cat=0
split_feature=1 8 6
split_gain=7.47794 5.63188 7.79899
threshold=8.5185700000000022 0.22342776000000003 -0.83785849999999995
decision_type=2 2 2
left_child=1 -1 -3
right_child=-2 2 -4
leaf_value=0.0068844396511135962 0.011364970409600411 -0.018623689517784637 0.00025221515822783819
leaf_weight=320.18892581760883 396.9597455561161 412.4689008295536 466.39293675124645
leaf_count=1354 1300 1796 1982
internal_value=0 -0.00446999 -0.00860666
internal_weight=0 1199.05 878.862
internal_count=6432 5132 3778
is_linear=0
shrinkage=0.1


Tree=100
num_leaves=4
num_cat=0
split_feature=0 1 9
split_gain=5.18635 8.2239 3.01421
threshold=-4.3355679999999994 6.2179594500000013 -4.4260094999999993
decision_type=2 2 2
left_child=-1 -2 -3
right_child=1 2 -4
leaf_value=0.013240842540972124 0.0054994809360176368 -0.0038041802615932218 -0.020387195608703293
leaf_weight=242.61470556259155 513.07596288621426 195.94642789661884 248.76323148608208
leaf_count=1196 2303 1276 1657
internal_value=0 -0.00312737 -0.0130804
internal_weight=0 957.786 444.71
internal_count=6432 5236 2933
is_linear=0
shrinkage=0.1


Tree=101
num_leaves=4
num_cat=0
split_feature=1 2 0
split_gain=3.15996 5.96767 5.33134
threshold=4.4205828500000015 -1.0833218999999998 -2.5410628499999999
decision_type=2 2 2
left_child=-1 -2 -3
right_child=1 2 -4
leaf_value=0.0082811114126411008 0.0091759934250485696 0.0044315480322581298 -0.010381950200268358
leaf_weight=380.77243292331696 363.79393914341927 359.36747428774834 749.98328264057636
leaf_count=1190 1275 1149 2818
internal_value=0 -0.00193841 -0.00558321
internal_weight=0 1473.14 1109.35
internal_count=6432 5242 3967
is_linear=0
shrinkage=0.1


Tree=102
num_leaves=4
num_cat=0
split_feature=1 2 8
split_gain=2.51022 4.16202 2.00196
threshold=5.2273569000000011 -0.5979571749999999 0.28181505500000004
decision_type=2 2 2
left_child=-1 -2 -3
right_child=1 2 -4
leaf_value=-0.0068176748684687068 -0.0059784840536980183 0.012856573690923898 0.0024314377585998087
leaf_weight=383.05067236721516 380.8101419210434 319.46632404625416 435.03982047736645
leaf_count=1782 1598 1330 1722
internal_value=0 0.00254409 0.00684556
internal_weight=0 1135.32 754.506
internal_count=6432 4650 3052
is_linear=0
shrinkage=0.1


Tree=103
num_leaves=4
num_cat=0
split_feature=0 8 6
split_gain=7.04912 5.31575 3.48676
threshold=4.0251353000000014 0.22823550500000003 -0.65206819999999988
decision_type=2 2 2
left_child=1 -1 -3
right_child=-2 2 -4
leaf_value=0.0060354697285207506 0.012467526515164799 -0.014837920159432845 -0.0022582983198391952
leaf_weight=377.05163997411728 332.0562664270401 414.04702569544315 470.96025782823563
leaf_count=1535 1174 1776 1947
internal_value=0 -0.00390749 -0.00814362
internal_weight=0 1262.06 885.007
internal_count=6432 5258 3723
is_linear=0
shrinkage=0.1


Tree=104
num_leaves=4
num_cat=0
split_feature=3 11 7
split_gain=5.02675 4.51734 4.34572
threshold=-1.9202901999999997 -2.6086827499999994 -0.051418344999999997
decision_type=2 2 2
left_child=2 -2 -1
right_child=1 -3 -4
leaf_value=0.0011737598226406996 0.016005854703248511 -0.00069219406219911525 -0.017185617749259936
leaf_weight=282.12987226247787 266.33455435931683 413.62624882161617 237.42629755288363
leaf_count=1567 1356 2217 1292
internal_value=0 0.00584828 -0.00721609
internal_weight=0 679.961 519.556
internal_count=6432 3573 2859
is_linear=0
shrinkage=0.1


Tree=105
num_leaves=4
num_cat=0
split_feature=1 9 5
split_gain=2.87081 3.48175 3.34484
threshold=6.4716239000000009 -0.8575811499999999 -2.0792807499999992
decision_type=2 2 2
left_child=1 -1 -2
right_child=2 -3 -4
leaf_value=0.0094994569110550039 0.0015359035388949316 -0.0026351122478134995 -0.010748375631875308
leaf_weight=520.53433129191399 501.9130377471447 433.27126118540764 396.95772315561771
leaf_count=1676 1869 1406 1481
internal_value=0 0.00398726 -0.00388906
internal_weight=0 953.806 898.871
internal_count=6432 3082 3350
is_linear=0
shrinkage=0.1


Tree=106
num_leaves=4
num_cat=0
split_feature=7 11 0
split_gain=2.38145 4.63479 3.53308
threshold=0.36567165000000007 -2.2460881499999998 0.053371591500000003
decision_type=2 2 2
left_child=1 2 -1
right_child=-2 -3 -4
leaf_value=-0.011654181949528285 -0.0077612473211842075 0.0085333840100897517 0.0033581527210713954
leaf_weight=300.92316642403603 304.26533119380474 585.52609071135521 327.25112080574036
leaf_count=1359 1334 2394 1345
internal_value=0 0.00213271 -0.00383342
internal_weight=0 1213.7 628.174
internal_count=6432 5098 2704
is_linear=0
shrinkage=0.1


Tree=107
num_leaves=3
num_cat=0
split_feature=1 2
split_gain=6.48983 5.65488
threshold=7.2842005000000007 0.16243746500000003
decision_type=2 2
left_child=1 -1
right_child=-2 -3
leaf_value=-0.014464685163016008 0.0066093755851316799 0.0015808726760346309
leaf_weight=427.89025685191154 713.24687284231186 451.29683215916157
leaf_count=1987 2400 2045
internal_value=0 -0.00622832
internal_weight=0 879.187
internal_count=6432 4032
is_linear=0
shrinkage=0.1


Tree=108
num_leaves=4
num_cat=0
split_feature=1 0 8
split_gain=4.73815 7.52864 5.33235
threshold=4.1382568500000003 -3.5650296499999996 0.32281629000000006
decision_type=2 2 2
left_child=-1 -2 -3
right_child=1 2 -4
leaf_value=0.012700238628582975 0.012685199517068353 -0.00128478328355886 -0.018950722745301248
leaf_weight=241.47107617557049 232.50570341944695 449.96223466098309 275.46136871725321
leaf_count=1034 1189 2561 1648
internal_value=0 -0.00297403 -0.00799298
internal_weight=0 957.929 725.424
internal_count=6432 5398 4209
is_linear=0
shrinkage=0.1


Tree=109
num_leaves=4
num_cat=0
split_feature=0 1 8
split_gain=2.83764 4.18402 3.82305
threshold=-3.7719932499999995 7.6098798500000013 0.31948510000000002
decision_type=2 2 2
left_child=-1 2 -2
right_child=1 -3 -4
leaf_value=0.0072831815188137477 -0.0039427420652256998 -0.011105270654601124 0.0082634354926224094
leaf_weight=427.50884091854095 606.42098148167133 373.03070990741253 444.81046579778194
leaf_count=1352 2071 1511 1498
internal_value=0 -0.00200659 0.00122209
internal_weight=0 1424.26 1051.23
internal_count=6432 5080 3569
is_linear=0
shrinkage=0.1


Tree=110
num_leaves=4
num_cat=0
split_feature=6 8 6
split_gain=2.27537 4.84265 3.28051
threshold=-0.24209635499999996 0.28418356000000006 -2.7238534499999996
decision_type=2 2 2
left_child=2 -2 -1
right_child=1 -3 -4
leaf_value=-0.0012822475047259479 0.0044443661051030026 -0.012855620354461951 0.01138979466118396
leaf_weight=542.36096978187561 318.71709939837456 328.65449698269367 327.74066758155823
leaf_count=2276 1387 1399 1370
internal_value=0 -0.00433841 0.00349092
internal_weight=0 647.372 870.102
internal_count=6432 2786 3646
is_linear=0
shrinkage=0.1


Tree=111
num_leaves=4
num_cat=0
split_feature=0 8 6
split_gain=6.09801 4.59954 3.04209
threshold=4.0251353000000014 0.22823550500000003 -0.65206819999999988
decision_type=2 2 2
left_child=1 -1 -3
right_child=-2 2 -4
leaf_value=0.0056094788827754458 0.011599779109085412 -0.013872983876679701 -0.0020898237994558064
leaf_weight=377.45592968165874 332.61126747727394 410.59644243121147 469.79583376646042
leaf_count=1535 1174 1776 1947
internal_value=0 -0.00362576 -0.00758524
internal_weight=0 1257.85 880.392
internal_count=6432 5258 3723
is_linear=0
shrinkage=0.1


Tree=112
num_leaves=3
num_cat=0
split_feature=1 4
split_gain=4.44294 5.74607
threshold=7.9564423500000006 9.118344500000001
decision_type=2 2
left_child=1 -1
right_child=-2 -3
leaf_value=0.01134787868737621 -0.01148744027212331 -0.0042683688880286817
leaf_weight=461.34590148925781 255.79628163576126 481.57933662086725
leaf_count=2280 1750 2402
internal_value=0 0.00337221
internal_weight=0 942.925
internal_count=6432 4682
is_linear=0
shrinkage=0.1


Tree=113
num_leaves=4
num_cat=0
split_feature=7 0 11
split_gain=2.84601 4.96754 4.50565
threshold=0.010281831500000001 -0.31008933499999997 -2.3399486499999997
decision_type=2 2 2
left_child=1 -1 -2
right_child=2 -3 -4
leaf_value=0.003564393785440708 -0.0026285268011656399 -0.010172948435142281 0.012408971403823682
leaf_weight=529.63257341086864 411.35884435474873 523.32684579491615 386.43473161756992
leaf_count=1731 1422 1934 1345
internal_value=0 -0.00326314 0.00465533
internal_weight=0 1052.96 797.794
internal_count=6432 3665 2767
is_linear=0
shrinkage=0.1


Tree=114
num_leaves=4
num_cat=0
split_feature=10 2 10
split_gain=2.15624 3.87263 3.0906
threshold=-7.2684585999999989 1.3633862000000001 -5.1497661999999993
decision_type=2 2 2
left_child=-1 2 -2
right_child=1 -3 -4
leaf_value=-0.0071212325651157857 0.012442543419535407 -0.0074990344371086096 0.00045116726019083745
leaf_weight=322.8030287027359 369.70014688372612 311.37420628964901 513.42736795544624
leaf_count=1441 1508 1329 2154
internal_value=0 0.00209011 0.00547107
internal_weight=0 1194.5 883.128
internal_count=6432 4991 3662
is_linear=0
shrinkage=0.1


Tree=115
num_leaves=4
num_cat=0
split_feature=2 1 0
split_gain=5.74419 6.22167 12.7846
threshold=-1.2405618499999997 5.8679961500000006 1.1737591500000002
decision_type=2 2 2
left_child=-1 -2 -3
right_child=1 2 -4
leaf_value=-0.011937504476921403 -0.0084261275316949904 -0.0028175364368639658 0.021568905690788228
leaf_weight=341.74480204284191 358.39845073223114 524.28469683229923 364.38870166242123
leaf_count=1422 1827 2006 1177
internal_value=0 0.00269621 0.0071818
internal_weight=0 1247.07 888.673
internal_count=6432 5010 3183
is_linear=0
shrinkage=0.1


Tree=116
num_leaves=4
num_cat=0
split_feature=3 7 11
split_gain=4.27973 3.77911 3.69286
threshold=-1.9202901999999997 -0.051418344999999997 -2.6086827499999994
decision_type=2 2 2
left_child=1 -1 -2
right_child=2 -3 -4
leaf_value=0.0011003277846762596 0.014483504987079241 -0.016078417008715623 -0.00057377625260590127
leaf_weight=282.02795587480068 269.02471387386322 234.56474831700325 412.82574182003736
leaf_count=1567 1356 1292 2217
internal_value=0 -0.00669988 0.00536709
internal_weight=0 516.593 681.85
internal_count=6432 2859 3573
is_linear=0
shrinkage=0.1


Tree=117
num_leaves=4
num_cat=0
split_feature=4 0 9
split_gain=2.57537 4.09357 2.65431
threshold=9.9638235000000019 0.10436814000000001 -1.9173190999999996
decision_type=2 2 2
left_child=2 -2 -1
right_child=1 -3 -4
leaf_value=0.00175263221632769 0.011393929946384437 -0.0030925498657787963 -0.0082232920904263072
leaf_weight=551.29637144505978 408.69180780649185 373.17681759595871 516.67940138280392
leaf_count=1911 1326 1374 1821
internal_value=0 0.0044797 -0.00307365
internal_weight=0 781.869 1067.98
internal_count=6432 2700 3732
is_linear=0
shrinkage=0.1


Tree=118
num_leaves=4
num_cat=0
split_feature=8 8 6
split_gain=2.06878 3.31858 6.24095
threshold=0.19749377500000001 0.28418356000000006 -0.27422548999999996
decision_type=2 2 2
left_child=-1 -2 -3
right_child=1 2 -4
leaf_value=-0.0068777244447279853 0.010813383019571066 0.0055042148620311889 -0.011963941222812424
leaf_weight=326.2540441006422 320.27573566138744 541.5939389616251 328.63815152645111
leaf_count=1466 1347 2210 1409
internal_value=0 0.00211045 -0.00109253
internal_weight=0 1190.51 870.232
internal_count=6432 4966 3619
is_linear=0
shrinkage=0.1


Tree=119
num_leaves=4
num_cat=0
split_feature=1 8 6
split_gain=5.30128 3.9829 5.92754
threshold=8.5185700000000022 0.22342776000000003 -0.83785849999999995
decision_type=2 2 2
left_child=1 -1 -3
right_child=-2 2 -4
leaf_value=0.0057298952819299781 0.0095578112060017133 -0.016182376270584022 0.00039991925109179199
leaf_weight=321.32521744072437 397.84022665023804 402.67223925888538 463.93147780001163
leaf_count=1354 1300 1796 1982
internal_value=0 -0.00377927 -0.00730514
internal_weight=0 1187.93 866.604
internal_count=6432 5132 3778
is_linear=0
shrinkage=0.1


Tree=120
num_leaves=4
num_cat=0
split_feature=0 1 2
split_gain=4.10161 6.31394 4.35042
threshold=-4.3355679999999994 7.3531298500000011 -0.35809407999999993
decision_type=2 2 2
left_child=-1 2 -2
right_child=1 -3 -4
leaf_value=0.011696324876339429 0.011841755492282368 -0.016691734453276149 -0.0042444252718784334
leaf_weight=245.21677353978157 273.83141203224659 243.70733217895031 435.50729324668646
leaf_count=1196 1320 1779 2137
internal_value=0 -0.00280546 0.00196545
internal_weight=0 953.046 709.339
internal_count=6432 5236 3457
is_linear=0
shrinkage=0.1


Tree=121
num_leaves=4
num_cat=0
split_feature=1 2 3
split_gain=2.49945 4.5905 3.90769
threshold=4.4205828500000015 -1.0833218999999998 -1.7806957999999999
decision_type=2 2 2
left_child=-1 -2 -3
right_child=1 2 -4
leaf_value=0.0073218410828792147 0.0079552121396168508 0.0017241249589720186 -0.010266697752197617
leaf_weight=381.43358054757118 365.06348569691181 485.94272066652775 616.69278581440449
leaf_count=1190 1275 1740 2227
internal_value=0 -0.00176427 -0.00498222
internal_weight=0 1467.7 1102.64
internal_count=6432 5242 3967
is_linear=0
shrinkage=0.1


Tree=122
num_leaves=4
num_cat=0
split_feature=5 10 10
split_gain=2.05599 3.05369 2.73935
threshold=-3.5399672999999994 -6.4961113499999987 -4.0174431999999998
decision_type=2 2 2
left_child=-1 -2 -3
right_child=1 2 -4
leaf_value=-0.0051589188977762199 -0.0056335135537063478 0.012325944960653278 -3.9692919922921684e-05
leaf_weight=492.15516036748886 307.37055690586567 366.43409341573715 350.51530134677887
leaf_count=2131 1342 1476 1483
internal_value=0 0.00270536 0.00628041
internal_weight=0 1024.32 716.949
internal_count=6432 4301 2959
is_linear=0
shrinkage=0.1


Tree=123
num_leaves=4
num_cat=0
split_feature=2 1 0
split_gain=4.94126 5.08415 10.6406
threshold=-1.2405618499999997 5.8679961500000006 1.1737591500000002
decision_type=2 2 2
left_child=-1 -2 -3
right_child=1 2 -4
leaf_value=-0.011091555962223089 -0.0075864097303255358 -0.0025883744067393064 0.019643368543990843
leaf_weight=339.4817326515913 355.58955591917038 523.07649418711662 365.87378133833408
leaf_count=1422 1827 2006 1177
internal_value=0 0.00251935 0.00656176
internal_weight=0 1244.54 888.95
internal_count=6432 5010 3183
is_linear=0
shrinkage=0.1


Tree=124
num_leaves=4
num_cat=0
split_feature=1 0 5
split_gain=3.71539 6.48575 5.16571
threshold=4.1382568500000003 0.78664572500000018 -2.1778902999999996
decision_type=2 2 2
left_child=-1 2 -2
right_child=1 -3 -4
leaf_value=0.011154748181392071 -0.0050848689834004316 -0.013506536764353459 0.013451024095486272
leaf_weight=243.90178157389164 320.78809058666229 350.00542030483484 282.97876384854317
leaf_count=1034 1671 2270 1457
internal_value=0 -0.00267587 0.0036027
internal_weight=0 953.772 603.767
internal_count=6432 5398 3128
is_linear=0
shrinkage=0.1


Tree=125
num_leaves=4
num_cat=0
split_feature=7 11 3
split_gain=2.32859 3.92087 3.86618
threshold=0.010281831500000001 -2.0207494999999995 -0.29803276499999992
decision_type=2 2 2
left_child=1 -1 -2
right_child=2 -3 -4
leaf_value=0.0018152686289653588 0.011585012689649617 -0.010761207365653475 -0.0023607778608766153
leaf_weight=648.61970567703247 374.10558404028416 401.24243804812431 424.20134903490543
leaf_count=2255 1279 1410 1488
internal_value=0 -0.00299128 0.00417455
internal_weight=0 1049.86 798.307
internal_count=6432 3665 2767
is_linear=0
shrinkage=0.1


Tree=126
num_leaves=4
num_cat=0
split_feature=11 5 4
split_gain=1.88631 3.69613 1.97499
threshold=-2.0086915999999997 -3.3859734999999995 9.3121625000000012
decision_type=2 2 2
left_child=1 -1 -3
right_child=-2 2 -4
leaf_value=-0.011654251422958194 0.0047046346022796993 -0.0037174656986265009 0.0074047937646677612
leaf_weight=303.54008696973324 573.58835665881634 324.88056394457817 313.92326688766479
leaf_count=1348 2353 1374 1357
internal_value=0 -0.00256884 0.00174827
internal_weight=0 942.344 638.804
internal_count=6432 4079 2731
is_linear=0
shrinkage=0.1


Tree=127
num_leaves=4
num_cat=0
split_feature=1 9 4
split_gain=4.39189 3.98718 3.27134
threshold=8.7955045000000016 1.7716112500000003 9.7190040000000018
decision_type=2 2 2
left_child=1 2 -1
right_child=-2 -3 -4
leaf_value=-0.013601453939867298 0.0097260053062861625 0.0039259043072071642 -0.00039583237647320319
leaf_weight=418.14687702059746 336.82732924818993 485.91738756000996 340.21829542517662
leaf_count=1808 1100 2074 1450
internal_value=0 -0.00314592 -0.00767714
internal_weight=0 1244.28 758.365
internal_count=6432 5332 3258
is_linear=0
shrinkage=0.1


Tree=128
num_leaves=4
num_cat=0
split_feature=3 3 0
split_gain=3.41184 3.47097 3.23488
threshold=-1.9202901999999997 3.6559138500000006 -0.036187888499999994
decision_type=2 2 2
left_child=2 -2 -1
right_child=1 -3 -4
leaf_value=0.0014207018243010299 0.013286435368053373 -0.0011951194542199576 -0.014493316730513154
leaf_weight=272.10702759027481 280.39843260496855 403.93889884650707 240.73875991255045
leaf_count=1374 1458 2115 1485
internal_value=0 0.00473851 -0.00604962
internal_weight=0 684.337 512.846
internal_count=6432 3573 2859
is_linear=0
shrinkage=0.1


Tree=129
num_leaves=4
num_cat=0
split_feature=6 7 11
split_gain=2.35858 3.12583 3.33914
threshold=1.9608514500000001 0.0027606855500000005 -2.3150134999999996
decision_type=2 2 2
left_child=1 2 -1
right_child=-2 -3 -4
leaf_value=1.2012079333371144e-05 0.0060681986638903484 0.0036041884808499891 -0.013046500918093125
leaf_weight=417.38382975757122 490.27173140645027 571.50141888856888 368.87219451367855
leaf_count=1442 1718 1973 1299
internal_value=0 -0.00202369 -0.00611439
internal_weight=0 1357.76 786.256
internal_count=6432 4714 2741
is_linear=0
shrinkage=0.1


Tree=130
num_leaves=4
num_cat=0
split_feature=1 2 8
split_gain=1.79719 3.79104 1.86865
threshold=5.2273569000000011 -0.5979571749999999 0.28181505500000004
decision_type=2 2 2
left_child=-1 -2 -3
right_child=1 2 -4
leaf_value=-0.0058008064399208258 -0.0059989047050659069 0.012036263531810469 0.0019779148030844968
leaf_weight=379.39737452566624 380.11869376897812 320.67689397931099 435.60074040293694
leaf_count=1782 1598 1330 1722
internal_value=0 0.00214805 0.00624286
internal_weight=0 1136.4 756.278
internal_count=6432 4650 3052
is_linear=0
shrinkage=0.1


Tree=131
num_leaves=4
num_cat=0
split_feature=0 8 8
split_gain=4.13095 3.59044 2.42069
threshold=4.0251353000000014 0.22823550500000003 0.33172752000000005
decision_type=2 2 2
left_child=1 -1 -3
right_child=-2 2 -4
leaf_value=0.0051253522058230822 0.0095130008805033427 -0.012222057565283478 -0.0016453209673634392
leaf_weight=376.93200470507145 332.82768881320953 404.15452837944031 465.7653628885746
leaf_count=1535 1174 1716 2007
internal_value=0 -0.00302684 -0.00655915
internal_weight=0 1246.85 869.92
internal_count=6432 5258 3723
is_linear=0
shrinkage=0.1


Tree=132
num_leaves=4
num_cat=0
split_feature=1 0 6
split_gain=3.12729 5.23609 5.44475
threshold=4.1844682000000004 -3.5650296499999996 1.2185628500000003
decision_type=2 2 2
left_child=-1 -2 -3
right_child=1 2 -4
leaf_value=0.010005253154354727 0.010409945359180835 -0.013049063801093745 0.0054712447896580439
leaf_weight=251.41982281208038 234.64959724247456 471.77865890413523 239.23174360394478
leaf_count=1060 1184 2795 1393
internal_value=0 -0.00254286 -0.00681759
internal_weight=0 945.66 711.01
internal_count=6432 5372 4188
is_linear=0
shrinkage=0.1


Tree=133
num_leaves=4
num_cat=0
split_feature=0 1 8
split_gain=2.35569 3.30148 3.07429
threshold=-3.7719932499999995 7.6098798500000013 0.31948510000000002
decision_type=2 2 2
left_child=-1 2 -2
right_child=1 -3 -4
leaf_value=0.0066054999977624889 -0.003643441854867778 -0.0099921196346932292 0.0073015606789981107
leaf_weight=428.07917562127113 604.7569749802351 369.18332082033157 445.82021449506283
leaf_count=1352 2071 1511 1498
internal_value=0 -0.00185745 0.00100115
internal_weight=0 1419.76 1050.58
internal_count=6432 5080 3569
is_linear=0
shrinkage=0.1


Tree=134
num_leaves=4
num_cat=0
split_feature=10 10 6
split_gain=1.61232 3.56015 1.50279
threshold=-6.7180106499999992 -4.9325737999999992 -0.60964944999999993
decision_type=2 2 2
left_child=-1 -2 -3
right_child=1 2 -4
leaf_value=-0.0053484983281988641 0.0087274138346618412 0.0018877762737209845 -0.0077278305016279837
leaf_weight=395.96626049280167 468.17739813029766 340.31178207695484 311.1328846514225
leaf_count=1766 1900 1420 1346
internal_value=0 0.00207573 -0.00270468
internal_weight=0 1119.62 651.445
internal_count=6432 4666 2766
is_linear=0
shrinkage=0.1


Tree=135
num_leaves=4
num_cat=0
split_feature=2 0 1
split_gain=4.1919 6.49996 3.7667
threshold=-0.015515817999999999 -0.31008933499999997 7.1713957000000006
decision_type=2 2 2
left_child=2 -2 -1
right_child=1 -3 -4
leaf_value=-0.012873146138956185 -0.0057280110668501832 0.012048504432807359 0.0014289526604323779
leaf_weight=373.93261529505253 357.52856877446175 484.34139889478683 362.81853476166725
leaf_count=1789 1597 1813 1233
internal_value=0 0.00449911 -0.00582997
internal_weight=0 841.87 736.751
internal_count=6432 3410 3022
is_linear=0
shrinkage=0.1


Tree=136
num_leaves=4
num_cat=0
split_feature=1 0 5
split_gain=3.28858 5.24181 4.1578
threshold=4.0976588000000005 0.78664572500000018 -2.1778902999999996
decision_type=2 2 2
left_child=-1 2 -2
right_child=1 -3 -4
leaf_value=0.01055648528406433 -0.004748548128281886 -0.012338945778193432 0.011801256086637952
leaf_weight=240.40787687897682 321.71175806224346 346.92620626837015 287.42628864198923
leaf_count=1008 1676 2285 1463
internal_value=0 -0.00252742 0.0030606
internal_weight=0 956.064 609.138
internal_count=6432 5424 3139
is_linear=0
shrinkage=0.1


Tree=137
num_leaves=4
num_cat=0
split_feature=4 0 8
split_gain=2.21478 3.36174 2.31762
threshold=9.9638235000000019 0.10436814000000001 0.26312513500000007
decision_type=2 2 2
left_child=2 -2 -1
right_child=1 -3 -4
leaf_value=-0.0088791075323434322 0.010397562591469943 -0.0027374707737584684 0.00075398551809082196
leaf_weight=399.72952876985073 409.62780241668224 371.6236662119627 665.66276641190052
leaf_count=1398 1326 1374 2334
internal_value=0 0.00414952 -0.0028603
internal_weight=0 781.251 1065.39
internal_count=6432 2700 3732
is_linear=0
shrinkage=0.1


Tree=138
num_leaves=4
num_cat=0
split_feature=8 8 2
split_gain=1.66702 2.89746 1.93041
threshold=0.22342776000000003 0.40457527500000007 0.26018457000000006
decision_type=2 2 2
left_child=-1 2 -2
right_child=1 -3 -4
leaf_value=-0.0055594066298000674 0.010078976465054162 -0.0055057829165809438 0.00012417882097645307
leaf_weight=383.08870381116867 418.90160657465458 349.00281417369843 364.12177866697311
leaf_count=1724 1742 1452 1514
internal_value=0 0.0020722 0.00544979
internal_weight=0 1132.03 783.023
internal_count=6432 4708 3256
is_linear=0
shrinkage=0.1


Tree=139
num_leaves=4
num_cat=0
split_feature=2 1 0
split_gain=3.78561 3.987 7.74732
threshold=-1.2405618499999997 5.8679961500000006 1.1737591500000002
decision_type=2 2 2
left_child=-1 -2 -3
right_child=1 2 -4
leaf_value=-0.0097633525731004676 -0.0067874864188361278 -0.0020670534911959039 0.016891622059851008
leaf_weight=335.42510890960693 352.57864524424076 520.72581452131271 367.77770832180977
leaf_count=1422 1827 2006 1177
internal_value=0 0.00221006 0.0057805
internal_weight=0 1241.08 888.504
internal_count=6432 5010 3183
is_linear=0
shrinkage=0.1


Tree=140
num_leaves=4
num_cat=0
split_feature=0 1 7
split_gain=3.07403 5.39044 4.68165
threshold=-4.554934499999999 7.400393750000001 -0.13374286999999999
decision_type=2 2 2
left_child=-1 2 -2
right_child=1 -3 -4
leaf_value=0.010212388128665368 -0.008146390661922397 -0.015620807040770575 0.0083294724480364093
leaf_weight=239.38231234252453 285.02494706958532 234.77549923956394 436.72150661796331
leaf_count=1144 1390 1756 2142
internal_value=0 -0.00245854 0.00182299
internal_weight=0 956.522 721.746
internal_count=6432 5288 3532
is_linear=0
shrinkage=0.1


Tree=141
num_leaves=4
num_cat=0
split_feature=1 2 6
split_gain=2.24061 3.35343 3.62462
threshold=4.4205828500000015 -1.0833218999999998 0.27934125000000004
decision_type=2 2 2
left_child=-1 -2 -3
right_child=1 2 -4
leaf_value=0.0069247380831884689 0.0065979478964637564 0.00014378817074206979 -0.011642915146077352
leaf_weight=381.64454793930054 366.90469455718994 670.08076795935631 427.26050564646721
leaf_count=1190 1275 2416 1551
internal_value=0 -0.00167826 -0.00444548
internal_weight=0 1464.25 1097.34
internal_count=6432 5242 3967
is_linear=0
shrinkage=0.1


Tree=142
num_leaves=4
num_cat=0
split_feature=5 10 9
split_gain=1.61094 2.15018 2.23339
threshold=-3.5399672999999994 -6.4715897999999994 1.0000000180025095e-35
decision_type=2 2 2
left_child=-1 -2 -3
right_child=1 2 -4
leaf_value=-0.0045515239942571211 -0.0045412282361281331 0.00042981358920380762 0.011670099116880927
leaf_weight=489.45214036107063 309.58598704636097 397.09153710305691 318.60037577152252
leaf_count=2131 1359 1647 1295
internal_value=0 0.00242166 0.00543359
internal_weight=0 1025.28 715.692
internal_count=6432 4301 2942
is_linear=0
shrinkage=0.1


Tree=143
num_leaves=4
num_cat=0
split_feature=1 11 10
split_gain=3.50259 3.40216 2.96635
threshold=8.7955045000000016 -1.6703054499999999 -5.9437694499999987
decision_type=2 2 2
left_child=1 2 -1
right_child=-2 -3 -4
leaf_value=0.0007644901098166968 0.008703113258763117 0.006305818394632727 -0.010669416773864225
leaf_weight=393.990209415555 336.73961052298546 308.10709652304649 535.0140179246664
leaf_count=1673 1100 1344 2315
internal_value=0 -0.00280025 -0.0058203
internal_weight=0 1237.11 929.004
internal_count=6432 5332 3988
is_linear=0
shrinkage=0.1


Tree=144
num_leaves=4
num_cat=0
split_feature=3 7 11
split_gain=2.85177 3.37187 3.18189
threshold=-1.9202901999999997 -0.051418344999999997 -2.6086827499999994
decision_type=2 2 2
left_child=1 -1 -2
right_child=2 -3 -4
leaf_value=0.001804083708766028 0.012705539310737205 -0.014541063691947756 -0.0012218104217478522
leaf_weight=279.41335543990135 271.73671765625477 230.18268413096666 413.89658608287573
leaf_count=1567 1356 1292 2217
internal_value=0 -0.00557896 0.00429801
internal_weight=0 509.596 685.633
internal_count=6432 2859 3573
is_linear=0
shrinkage=0.1


Tree=145
num_leaves=4
num_cat=0
split_feature=6 7 7
split_gain=2.37595 2.87254 2.51142
threshold=1.9608514500000001 0.0027606855500000005 -0.27378041499999994
decision_type=2 2 2
left_child=1 2 -1
right_child=-2 -3 -4
leaf_value=-0.00037103109227329547 0.0060884330496122803 0.003353552397402931 -0.011687478758327615
leaf_weight=396.51450707018375 489.4052549302578 571.35712732374668 388.01604887843132
leaf_count=1381 1718 1973 1360
internal_value=0 -0.00203997 -0.00596796
internal_weight=0 1355.89 784.531
internal_count=6432 4714 2741
is_linear=0
shrinkage=0.1


Tree=146
num_leaves=4
num_cat=0
split_feature=6 8 6
split_gain=1.48303 3.52306 2.75369
threshold=-0.24209635499999996 0.28418356000000006 -2.6274514999999998
decision_type=2 2 2
left_child=2 -2 -1
right_child=1 -3 -4
leaf_value=-0.0014536068553483153 0.0039574049809214728 -0.010855402322354336 0.010194565505070112
leaf_weight=550.86371052265167 319.1876092851162 323.08842141926289 321.3507482111454
leaf_count=2312 1387 1399 1334
internal_value=0 -0.00349398 0.00283794
internal_weight=0 642.276 872.214
internal_count=6432 2786 3646
is_linear=0
shrinkage=0.1


Tree=147
num_leaves=4
num_cat=0
split_feature=8 8 6
split_gain=3.40326 4.37276 7.08376
threshold=0.22214839 0.28997107000000005 -0.83785849999999995
decision_type=2 2 2
left_child=-1 -2 -3
right_child=1 2 -4
leaf_value=0.0072205003606469562 -0.012916390306843179 -0.0083450430936337951 0.010348286287774115
leaf_weight=431.123071834445 329.8666730672121 417.19602742791176 394.3172885030508
leaf_count=1706 1340 1778 1608
internal_value=0 -0.00320813 0.000738114
internal_weight=0 1141.38 811.513
internal_count=6432 4726 3386
is_linear=0
shrinkage=0.1


Tree=148
num_leaves=4
num_cat=0
split_feature=8 8 8
split_gain=2.8754 5.0788 4.3841
threshold=0.32281629000000006 0.22342776000000003 0.42412072500000003
decision_type=2 2 2
left_child=1 -1 -2
right_child=2 -3 -4
leaf_value=-0.0051939564374546233 -0.015632266449847637 0.011619557705394518 0.003693780612683504
leaf_weight=327.3756904527545 235.76734362542629 398.15856390446424 233.76199179887772
leaf_count=1724 1296 2112 1300
internal_value=0 0.00403296 -0.00601051
internal_weight=0 725.534 469.529
internal_count=6432 3836 2596
is_linear=0
shrinkage=0.1


Tree=149
num_leaves=4
num_cat=0
split_feature=0 1 2
split_gain=2.12947 3.42992 3.84977
threshold=-4.4274183499999991 5.1351157500000006 -0.66968224999999981
decision_type=2 2 2
left_child=-1 -2 -3
right_child=1 2 -4
leaf_value=0.0068888081028526454 0.005757494700334675 0.0038175272429657545 -0.0091111540980779795
leaf_weight=370.34941664338112 443.82413637638092 347.2896708548069 683.80884926021099
leaf_count=1170 1397 1254 2611
internal_value=0 -0.00159275 -0.00475658
internal_weight=0 1474.92 1031.1
internal_count=6432 5262 3865
is_linear=0
shrinkage=0.1


Tree=150
num_leaves=4
num_cat=0
split_feature=0 1 5
split_gain=1.44295 3.68323 1.7761
threshold=-0.98584669999999985 6.8513402000000001 -2.2661953999999995
decision_type=2 2 2
left_child=1 -1 -2
right_child=2 -3 -4
leaf_value=-0.011981430997257956 -0.0016898296802093514 0.0041428972209129238 0.0069719579421438169
leaf_weight=281.68152040243149 488.62987565994263 285.00129464268684 459.19937026500702
leaf_count=1313 1995 1292 1832
internal_value=0 -0.00387204 0.00250659
internal_weight=0 566.683 947.829
internal_count=6432 2605 3827
is_linear=0
shrinkage=0.1


Tree=151
num_leaves=4
num_cat=0
split_feature=2 4 4
split_gain=3.19005 5.48695 2.91072
threshold=-0.015515817999999999 9.0560735000000019 8.5612250000000021
decision_type=2 2 2
left_child=2 -2 -1
right_child=1 -3 -4
leaf_value=0.0020792660748902435 -0.0043291832990539148 0.011827941436456189 -0.010656441038330385
leaf_weight=316.48264468461275 413.19944337010384 427.79565985500813 414.47216886281967
leaf_count=1308 1697 1713 1714
internal_value=0 0.00388959 -0.00514224
internal_weight=0 840.995 730.955
internal_count=6432 3410 3022
is_linear=0
shrinkage=0.1


Tree=152
num_leaves=4
num_cat=0
split_feature=1 0 5
split_gain=2.91143 4.32582 3.57425
threshold=4.0976588000000005 0.78664572500000018 -2.1778902999999996
decision_type=2 2 2
left_child=-1 2 -2
right_child=1 -3 -4
leaf_value=0.009917442693517714 -0.0045962394603725589 -0.011364870487377001 0.010726224223930983
leaf_weight=241.34319819509983 321.01777771115303 342.94402385503054 289.5611365288496
leaf_count=1008 1676 2285 1463
internal_value=0 -0.00237759 0.00267029
internal_weight=0 953.523 610.579
internal_count=6432 5424 3139
is_linear=0
shrinkage=0.1


Tree=153
num_leaves=4
num_cat=0
split_feature=6 7 7
split_gain=2.04627 2.45908 2.16107
threshold=1.9608514500000001 0.0027606855500000005 -0.27378041499999994
decision_type=2 2 2
left_child=1 2 -1
right_child=-2 -3 -4
leaf_value=-0.00037689738906996435 0.005617604605683924 0.0030626885223505058 -0.010888285731827837
leaf_weight=396.20123912394047 489.98080164194107 571.50486096739769 386.28898771107197
leaf_count=1381 1718 1973 1360
internal_value=0 -0.00192394 -0.00556601
internal_weight=0 1354 782.49
internal_count=6432 4714 2741
is_linear=0
shrinkage=0.1


Tree=154
num_leaves=4
num_cat=0
split_feature=8 8 2
split_gain=1.43807 2.33357 1.61991
threshold=0.22342776000000003 0.40457527500000007 0.26018457000000006
decision_type=2 2 2
left_child=-1 2 -2
right_child=1 -3 -4
leaf_value=-0.0052024401494990356 0.0091367105040121802 -0.0049316374473927192 2.8047711259003084e-05
leaf_weight=381.80797456204891 421.09212826192379 347.24918161332607 364.03776612877846
leaf_count=1724 1742 1452 1514
internal_value=0 0.00189433 0.00491334
internal_weight=0 1132.38 785.13
internal_count=6432 4708 3256
is_linear=0
shrinkage=0.1


Tree=155
num_leaves=4
num_cat=0
split_feature=1 9 4
split_gain=2.95043 2.98619 2.80173
threshold=8.6288110000000007 1.7716112500000003 9.7190040000000018
decision_type=2 2 2
left_child=1 2 -1
right_child=-2 -3 -4
leaf_value=-0.012376529857671202 0.0074569145208398056 0.0035165604694377319 9.5510467918189423e-05
leaf_weight=397.03640529513359 375.53793665766716 469.03808271884918 329.67070940136909
leaf_count=1757 1225 2026 1424
internal_value=0 -0.00270379 -0.00671859
internal_weight=0 1195.75 726.707
internal_count=6432 5207 3181
is_linear=0
shrinkage=0.1


Tree=156
num_leaves=4
num_cat=0
split_feature=0 1 7
split_gain=2.59902 4.54872 4.19393
threshold=-4.554934499999999 7.3531298500000011 -0.13374286999999999
decision_type=2 2 2
left_child=-1 2 -2
right_child=1 -3 -4
leaf_value=0.0093750754902774385 -0.0077576969603576967 -0.0142425459142221 0.0079018591489576281
leaf_weight=240.71805748343468 282.42715951800346 237.60957381129265 433.58936238288879
leaf_count=1144 1376 1800 2112
internal_value=0 -0.00225349 0.00172507
internal_weight=0 953.626 716.017
internal_count=6432 5288 3488
is_linear=0
shrinkage=0.1


Tree=157
num_leaves=4
num_cat=0
split_feature=4 2 4
split_gain=1.97389 4.49081 2.44379
threshold=9.2012760000000018 -0.16254504999999997 5.4811135000000011
decision_type=2 2 2
left_child=2 -2 -1
right_child=1 -3 -4
leaf_value=0.0024725736420991946 0.010901685121912343 -0.0030249017188172206 -0.007933388814412504
leaf_weight=412.98653048276901 425.89426650106907 507.40377913415432 497.61194871366024
leaf_count=1446 1452 1786 1748
internal_value=0 0.00333025 -0.00321394
internal_weight=0 933.298 910.598
internal_count=6432 3238 3194
is_linear=0
shrinkage=0.1


Tree=158
num_leaves=4
num_cat=0
split_feature=11 5 4
split_gain=1.40627 3.00904 1.95598
threshold=-2.0086915999999997 -3.3859734999999995 9.3121625000000012
decision_type=2 2 2
left_child=1 -1 -3
right_child=-2 2 -4
leaf_value=-0.010551062692887157 0.0039822537246084894 -0.0038566699285444263 0.0072149986541488595
leaf_weight=300.35393360257149 575.20173142850399 324.57757422327995 313.86207775771618
leaf_count=1348 2353 1374 1357
internal_value=0 -0.00229691 0.00158625
internal_weight=0 938.794 638.44
internal_count=6432 4079 2731
is_linear=0
shrinkage=0.1


Tree=159
num_leaves=4
num_cat=0
split_feature=8 2 6
split_gain=2.86132 3.7566 4.20691
threshold=0.22214839 -0.87505110999999991 -1.4006974499999998
decision_type=2 2 2
left_child=-1 -2 -3
right_child=1 2 -4
leaf_value=0.0066601323972350565 -0.012241897317276269 -0.0077030573431146583 0.0067442908420076511
leaf_weight=431.90944385528564 312.30817420780659 349.2926025390625 476.5138101130724
leaf_count=1706 1348 1469 1909
internal_value=0 -0.00289964 0.000633474
internal_weight=0 1138.11 825.806
internal_count=6432 4726 3378
is_linear=0
shrinkage=0.1


Tree=160
num_leaves=4
num_cat=0
split_feature=3 3 7
split_gain=2.50237 2.9152 2.72417
threshold=-1.9202901999999997 3.6559138500000006 -0.055148642499999991
decision_type=2 2 2
left_child=2 -2 -1
right_child=1 -3 -4
leaf_value=0.0014777145908450337 0.011809161711353636 -0.0014322839080988651 -0.013231529621229907
leaf_weight=275.76206566393375 282.75786530226469 403.56008586287498 231.69657929986715
leaf_count=1546 1458 2115 1313
internal_value=0 0.00402309 -0.00523826
internal_weight=0 686.318 507.459
internal_count=6432 3573 2859
is_linear=0
shrinkage=0.1


Tree=161
num_leaves=4
num_cat=0
split_feature=0 1 9
split_gain=1.96663 2.5128 2.74649
threshold=-3.7719932499999995 7.6098798500000013 -5.6391353499999992
decision_type=2 2 2
left_child=-1 2 -2
right_child=1 -3 -4
leaf_value=0.0060509620797351499 0.0071819942223900514 -0.0088227267176878548 -0.0032976573056896956
leaf_weight=428.39835265278816 410.91640712320805 365.54589678347111 638.9436861127615
leaf_count=1352 1385 1511 2184
internal_value=0 -0.00168215 0.00080409
internal_weight=0 1415.41 1049.86
internal_count=6432 5080 3569
is_linear=0
shrinkage=0.1


Tree=162
num_leaves=4
num_cat=0
split_feature=4 0 1
split_gain=1.4597 2.20593 2.61482
threshold=7.3814378000000005 2.4906491000000002 6.5009436500000009
decision_type=2 2 2
left_child=-1 2 -2
right_child=1 -3 -4
leaf_value=0.0043125510350249061 -0.012310770157918566 0.0048738673943969323 0.00015995679094994557
leaf_weight=527.99582642316818 301.87394711375237 304.43796953558922 379.51228913664818
leaf_count=2214 1369 1256 1593
internal_value=0 -0.00220303 -0.00536494
internal_weight=0 985.824 681.386
internal_count=6432 4218 2962
is_linear=0
shrinkage=0.1


Tree=163
num_leaves=4
num_cat=0
split_feature=0 6 8
split_gain=2.76932 2.39609 3.06611
threshold=4.0251353000000014 -3.1976997999999996 0.25221489000000002
decision_type=2 2 2
left_child=1 -1 -3
right_child=-2 2 -4
leaf_value=0.0044691142475173466 0.0078303537731231818 -0.013292671748075528 -0.00091694596670492407
leaf_weight=356.53033002465963 332.77527178823948 307.99648647010326 571.94380787014961
leaf_count=1532 1174 1258 2468
internal_value=0 -0.00244661 -0.00524869
internal_weight=0 1236.47 879.94
internal_count=6432 5258 3726
is_linear=0
shrinkage=0.1


Tree=164
num_leaves=4
num_cat=0
split_feature=8 8 8
split_gain=2.46567 4.28034 3.81324
threshold=0.32281629000000006 0.22342776000000003 0.42412072500000003
decision_type=2 2 2
left_child=1 -1 -2
right_child=2 -3 -4
leaf_value=-0.0047784308348052095 -0.014628940314390954 0.010656444383644161 0.0034399792510081371
leaf_weight=325.76507606357336 233.16950439661741 400.62445567548275 234.01774013787508
leaf_count=1724 1296 2112 1300
internal_value=0 0.00373434 -0.00557808
internal_weight=0 726.39 467.187
internal_count=6432 3836 2596
is_linear=0
shrinkage=0.1


Tree=165
num_leaves=4
num_cat=0
split_feature=6 7 11
split_gain=1.78219 2.12078 1.97419
threshold=1.9608514500000001 0.0027606855500000005 -2.3314884499999997
decision_type=2 2 2
left_child=1 2 -1
right_child=-2 -3 -4
leaf_value=-0.00035885543401984474 0.005245719361036104 0.0028364874274946421 -0.01042579500734808
leaf_weight=406.74789574742317 490.44480863213539 571.66309182345867 373.84858150780201
leaf_count=1411 1718 1973 1330
internal_value=0 -0.00179116 -0.00518018
internal_weight=0 1352.26 780.596
internal_count=6432 4714 2741
is_linear=0
shrinkage=0.1


Tree=166
num_leaves=4
num_cat=0
split_feature=4 0 1
split_gain=1.23526 2.44186 2.05694
threshold=7.3814378000000005 2.5338594000000003 6.4315312500000008
decision_type=2 2 2
left_child=-1 2 -2
right_child=1 -3 -4
leaf_value=0.003969893917324681 -0.011601740001834074 0.0055064778149441973 -0.00053621355406709137
leaf_weight=529.16471457481384 295.7607891112566 299.71304753422737 388.8447677642107
leaf_count=2214 1353 1236 1629
internal_value=0 -0.00202118 -0.0053167
internal_weight=0 984.319 684.606
internal_count=6432 4218 2982
is_linear=0
shrinkage=0.1


Tree=167
num_leaves=4
num_cat=0
split_feature=1 0 10
split_gain=2.70729 5.06002 1.94468
threshold=5.5131309000000011 1.6287461500000002 -5.0642718499999999
decision_type=2 2 2
left_child=-1 2 -2
right_child=1 -3 -4
leaf_value=-0.0077049603097145607 -0.0074082866328854819 0.010574480835276777 0.0028060075609172008
leaf_weight=370.54043238610029 421.81460106372833 442.04106138646603 333.96997578442097
leaf_count=2007 1658 1443 1324
internal_value=0 0.00207589 -0.00289474
internal_weight=0 1197.83 755.785
internal_count=6432 4425 2982
is_linear=0
shrinkage=0.1


Tree=168
num_leaves=4
num_cat=0
split_feature=11 1 8
split_gain=2.42051 4.13876 2.57093
threshold=-2.6661738999999995 5.4044390000000009 0.28710900000000006
decision_type=2 2 2
left_child=-1 -2 -3
right_child=1 2 -4
leaf_value=0.0061939257931922925 0.0059185322040658621 -0.0015360782937343441 -0.016240693535199982
leaf_weight=416.57150919735432 301.25684894621372 232.37520657479763 243.48505023121834
leaf_count=2156 1291 1430 1555
internal_value=0 -0.00325345 -0.00906004
internal_weight=0 777.117 475.86
internal_count=6432 4276 2985
is_linear=0
shrinkage=0.1


Tree=169
num_leaves=4
num_cat=0
split_feature=3 5 6
split_gain=1.78785 4.35278 4.22781
threshold=6.8098814500000007 -1.2006906999999998 -0.65056699499999993
decision_type=2 2 2
left_child=1 2 -1
right_child=-2 -3 -4
leaf_value=-0.0069760544056659823 -0.0056024610418627082 0.010306134244861362 0.0064596499551483541
leaf_weight=613.80755794048309 430.6552550047636 418.92398637533188 378.70112705230713
leaf_count=2132 1515 1456 1329
internal_value=0 0.00175836 -0.00184953
internal_weight=0 1411.43 992.509
internal_count=6432 4917 3461
is_linear=0
shrinkage=0.1


Tree=170
num_leaves=4
num_cat=0
split_feature=10 11 11
split_gain=1.17106 3.20878 3.3351
threshold=-6.7180106499999992 -1.6447082999999998 -2.3232346499999994
decision_type=2 2 2
left_child=-1 2 -2
right_child=1 -3 -4
leaf_value=-0.0045932732762399365 7.116028972687532e-05 -0.0068719987134257116 0.013321355756304488
leaf_weight=393.17331720888615 503.17481751739979 311.53792092204094 305.17066694796085
leaf_count=1766 2171 1263 1232
internal_value=0 0.00175037 0.00507344
internal_weight=0 1119.88 808.345
internal_count=6432 4666 3403
is_linear=0
shrinkage=0.1


Tree=171
num_leaves=4
num_cat=0
split_feature=8 1 11
split_gain=2.64678 2.30043 5.04967
threshold=0.22823550500000003 8.2656520000000011 -2.0759185499999995
decision_type=2 2 2
left_child=-1 2 -2
right_child=1 -3 -4
leaf_value=0.0061378945733634015 -0.012178301589097031 0.0044415219762282384 0.0041806495185442117
leaf_weight=466.3253403455019 477.88341589272022 310.42540845274925 311.80820276588202
leaf_count=1846 2154 1030 1402
internal_value=0 -0.00285196 -0.005719
internal_weight=0 1100.12 789.692
internal_count=6432 4586 3556
is_linear=0
shrinkage=0.1


Tree=172
num_leaves=4
num_cat=0
split_feature=0 1 7
split_gain=2.31935 3.67141 3.86792
threshold=-4.554934499999999 7.3531298500000011 -0.13374286999999999
decision_type=2 2 2
left_child=-1 2 -2
right_child=1 -3 -4
leaf_value=0.0087817393156542061 -0.0077605246985077911 -0.013061754563550548 0.0072706992770111669
leaf_weight=241.57987275719643 282.18042793869972 234.18429010361433 435.25725835561752
leaf_count=1144 1376 1800 2112
internal_value=0 -0.00219005 0.00135866
internal_weight=0 951.622 717.438
internal_count=6432 5288 3488
is_linear=0
shrinkage=0.1


Tree=173
num_leaves=4
num_cat=0
split_feature=1 0 8
split_gain=1.65384 2.75516 2.09768
threshold=4.4205828500000015 -2.8848016499999996 0.29845335000000001
decision_type=2 2 2
left_child=-1 -2 -3
right_child=1 2 -4
leaf_value=0.0059045475252761407 0.0051265984461628077 -0.0087581036443296033 0.00031748931989468828
leaf_weight=382.2729663848877 440.28072452545166 523.07721856236458 496.3306148648262
leaf_count=1190 1399 1983 1860
internal_value=0 -0.00148418 -0.00433937
internal_weight=0 1459.69 1019.41
internal_count=6432 5242 3843
is_linear=0
shrinkage=0.1


Tree=174
num_leaves=4
num_cat=0
split_feature=11 5 4
split_gain=1.24423 2.62766 1.95813
threshold=-2.0086915999999997 -3.3859734999999995 9.3121625000000012
decision_type=2 2 2
left_child=1 -1 -3
right_child=-2 2 -4
leaf_value=-0.0099041513578744973 0.0037463230801211703 -0.0039842831994845781 0.0070922906312086247
leaf_weight=298.58338604867458 575.68867498636246 324.68753507733345 313.8925658762455
leaf_count=1348 2353 1374 1357
internal_value=0 -0.0021604 0.00146038
internal_weight=0 937.163 638.58
internal_count=6432 4079 2731
is_linear=0
shrinkage=0.1


Tree=175
num_leaves=4
num_cat=0
split_feature=8 6 2
split_gain=2.29101 2.27545 3.04423
threshold=0.22823550500000003 -3.0268323499999998 -0.044475255999999998
decision_type=2 2 2
left_child=-1 -2 -3
right_child=1 2 -4
leaf_value=0.0056980462187445268 -0.0096592263942923886 -0.0065895255983408688 0.0060262530110663827
leaf_weight=467.32623055577278 326.53167566657066 350.27731820195913 421.35475769639015
leaf_count=1846 1395 1485 1706
internal_value=0 -0.00266173 0.000299403
internal_weight=0 1098.16 771.632
internal_count=6432 4586 3191
is_linear=0
shrinkage=0.1


Tree=176
num_leaves=4
num_cat=0
split_feature=3 3 7
split_gain=2.11735 2.46798 2.43468
threshold=-1.9202901999999997 3.6559138500000006 -0.055148642499999991
decision_type=2 2 2
left_child=2 -2 -1
right_child=1 -3 -4
leaf_value=0.0014874731232459681 0.010805672461903715 -0.0013603579623155488 -0.012455403013297697
leaf_weight=275.44312825798988 284.52023950219154 402.80135104060173 229.65942062437534
leaf_count=1546 1458 2115 1313
internal_value=0 0.00367583 -0.00485206
internal_weight=0 687.322 505.103
internal_count=6432 3573 2859
is_linear=0
shrinkage=0.1


Tree=177
num_leaves=4
num_cat=0
split_feature=4 2 2
split_gain=1.67635 3.95741 2.62942
threshold=9.1567900000000026 -0.16254504999999997 -0.21311581999999998
decision_type=2 2 2
left_child=2 -2 -1
right_child=1 -3 -4
leaf_value=-0.0094404521172567531 0.010089519739687535 -0.0029372950598261739 0.0015254628717136778
leaf_weight=372.92492158710957 430.05845202505589 509.46539935469627 528.59882979094982
leaf_count=1291 1463 1799 1879
internal_value=0 0.00302561 -0.0030107
internal_weight=0 939.524 901.524
internal_count=6432 3262 3170
is_linear=0
shrinkage=0.1


Tree=178
num_leaves=4
num_cat=0
split_feature=4 1 1
split_gain=1.18274 4.29376 1.734
threshold=9.1567900000000026 6.5384030000000015 6.5986345000000011
decision_type=2 2 2
left_child=1 -1 -2
right_child=2 -3 -4
leaf_value=-0.0051891044499047384 0.002179424434513173 0.0098893639681749083 -0.0074158512890214719
