tree
version=v4
num_class=4
num_tree_per_iteration=4
label_index=0
max_feature_idx=11
objective=multiclass num_class:4
feature_names=Column_0 Column_1 Column_2 Column_3 Column_4 Column_5 Column_6 Column_7 Column_8 Column_9 Column_10 Column_11
feature_infos=[-29.749303999999999:11.225439] [-24.374748:15.052626999999999] [-16.241683999999999:9.4496640000000003] [-74.378799999999998:76.833489999999998] [-45.86862:40.129196] [-32.257713000000003:27.612888000000002] [-17.945896000000001:14.213497] [-2.7432531999999998:2.2395208000000002] [-0.88125500000000001:2.5189976999999999] [-109.15806600000001:74.819389999999999] [-35.793320000000001:71.932329999999993] [-31.478106:24.871704000000001]
tree_sizes=555 555 557 555 572 574 571 569 561 568 565 567 568 574 464 571 574 571 573 572 575 571 570 575 558 457 565 566 576 578 575 573 566 568 565 567 567 564 564 565 575 571 575 574 576 575 576 466 562 566 566 567 571 470 571 464 570 571 568 569 570 570 463 569 571 570 575 570 567 455 564 566 455 563 561 561 571 574 571 574 572 571 568 571 460 461 565 568 575 572 571 571 562 460 566 566 571 567 568 570 458 565 565 569 571 564 565 567 572 463 572 573 567 460 567 568 569 568 567 570 571 463 464 569 570 564 567 554 570 466 568 573 562 569 566 569 463 465 571 572 576 576 469 576 569 569 570 569 569 563 565 568 568 567 569 567 567 568 461 566

Tree=0
num_leaves=4
num_cat=0
split_feature=2 1 6
split_gain=6.57724 3.73951 7.49369
threshold=-7.326384749999999 -8.3103314999999984 -1.6411329999999997
decision_type=2 2 2
left_child=-1 -2 -3
right_child=1 2 -4
leaf_value=-1.7710745083970569 -1.7433299988510718 -1.7435748491920351 -1.7653893653208754
leaf_weight=286.90362048149109 251.13579511642456 245.04765462875366 440.62916779518127
leaf_count=1508 1320 1288 2316
internal_value=-1.75783 -1.75377 -1.75759
internal_weight=0 936.813 685.677
internal_count=6432 4924 3604
is_linear=0
shrinkage=1


Tree=1
num_leaves=4
num_cat=0
split_feature=4 10 11
split_gain=4.36799 3.48247 2.12783
threshold=-1.7450788999999998 5.5505683500000016 0.96913206500000015
decision_type=2 2 2
left_child=-1 2 -2
right_child=1 -3 -4
leaf_value=-1.0981582493181428 -1.1093505942424196 -1.1025773573986852 -1.118861628020142
leaf_weight=428.40108239650726 614.2775850892067 473.83756083250046 381.19435155391693
leaf_count=1452 2082 1606 1292
internal_value=-1.10704 -1.10963 -1.11299
internal_weight=0 1469.31 995.472
internal_count=6432 4980 3374
is_linear=0
shrinkage=1


Tree=2
num_leaves=4
num_cat=0
split_feature=5 7 1
split_gain=7.84628 7.01693 2.81754
threshold=-2.6213331499999994 -0.031120879999999993 -5.9778979999999988
decision_type=2 2 2
left_child=2 -2 -1
right_child=1 -3 -4
leaf_value=-1.4544153217653788 -1.4551884832422035 -1.4737134808704453 -1.4412625601520479
leaf_weight=310.43592900037766 557.68789395689964 322.83429175615311 342.62398615479469
leaf_count=1302 2339 1354 1437
internal_value=-1.45582 -1.46198 -1.44751
internal_weight=0 880.522 653.06
internal_count=6432 3693 2739
is_linear=0
shrinkage=1


Tree=3
num_leaves=4
num_cat=0
split_feature=8 2 6
split_gain=7.4181 8.0029 3.86785
threshold=-0.11233646999999998 -6.3521799999999988 -1.1306035499999998
decision_type=2 2 2
left_child=-1 -2 -3
right_child=1 2 -4
leaf_value=-1.3204784361955531 -1.3247667442458286 -1.3500477211506257 -1.3362711033794266
leaf_weight=396.22322201728821 415.38695955276489 335.88334572315216 518.19782173633575
leaf_count=1530 1604 1297 2001
internal_value=-1.33242 -1.33615 -1.34169
internal_weight=0 1269.47 854.081
internal_count=6432 4902 3298
is_linear=0
shrinkage=1


Tree=4
num_leaves=4
num_cat=0
split_feature=8 3 7
split_gain=6.26082 6.80094 4.33078
threshold=-0.11945125499999999 -3.8473584999999995 -0.12979311499999999
decision_type=2 2 2
left_child=-1 -2 -3
right_child=1 2 -4
leaf_value=-0.0088232562790718054 -0.0049142252321998509 0.0021272171649535827 0.013607693726094987
leaf_weight=276.71677829325199 343.40318389236927 355.95565019547939 247.63296161592007
leaf_count=1458 1803 1870 1301
internal_value=0 0.00257589 0.00683729
internal_weight=0 946.992 603.589
internal_count=6432 4974 3171
is_linear=0
shrinkage=0.0666667


Tree=5
num_leaves=4
num_cat=0
split_feature=4 8 9
split_gain=3.78238 4.40499 4.33808
threshold=2.2289092500000005 0.0029524880500000007 -3.5365772499999997
decision_type=2 2 2
left_child=2 -2 -1
right_child=1 -3 -4
leaf_value=0.0081577008832016337 0.00077719792184018761 -0.0084266863343742567 -0.00098346304862710014
leaf_weight=409.98610335588455 572.25187414884567 387.68057990074158 527.73631474375725
leaf_count=1388 1942 1315 1787
internal_value=0 -0.0029399 0.00301319
internal_weight=0 959.932 937.722
internal_count=6432 3257 3175
is_linear=0
shrinkage=0.0666667


Tree=6
num_leaves=4
num_cat=0
split_feature=6 9 10
split_gain=7.07093 5.96186 3.5947
threshold=-2.9713095999999997 7.1369010000000008 3.6467324000000008
decision_type=2 2 2
left_child=-1 2 -2
right_child=1 -3 -4
leaf_value=0.0086726342478218414 0.00027947123567196517 0.0048693315832995946 -0.0087163642413495314
leaf_weight=328.34914256632328 312.53975073993206 356.65796306729317 535.99689798057079
leaf_count=1376 1311 1495 2250
internal_value=0 -0.00236303 -0.00540295
internal_weight=0 1205.19 848.537
internal_count=6432 5056 3561
is_linear=0
shrinkage=0.0666667


Tree=7
num_leaves=4
num_cat=0
split_feature=8 2 6
split_gain=6.24725 6.64275 3.22319
threshold=-0.11233646999999998 -6.3521799999999988 -1.1306035499999998
decision_type=2 2 2
left_child=-1 -2 -3
right_child=1 2 -4
leaf_value=0.00727862047655424 0.0045977996207181935 -0.010794652038508126 -0.0023815376275737685
leaf_weight=398.60726350545883 417.28318202495575 332.47533193230629 517.2750595510006
leaf_count=1530 1604 1297 2001
internal_value=0 -0.00229061 -0.00567327
internal_weight=0 1267.03 849.75
internal_count=6432 4902 3298
is_linear=0
shrinkage=0.0666667


Tree=8
num_leaves=4
num_cat=0
split_feature=2 0 9
split_gain=5.38605 3.13408 3.7384
threshold=-7.326384749999999 -3.3573925499999997 1.1936152500000003
decision_type=2 2 2
left_child=-1 -2 -3
right_child=1 2 -4
leaf_value=-0.012083797464202652 -0.0055957128654331792 0.013338113512205488 -0.0018351287694397984
leaf_weight=283.61821810901165 264.22479408979416 404.62595307826996 271.22124357521534
leaf_count=1508 1382 2120 1422
internal_value=0 0.00363876 0.00724901
internal_weight=0 940.072 675.847
internal_count=6432 4924 3542
is_linear=0
shrinkage=0.1


Tree=9
num_leaves=4
num_cat=0
split_feature=4 2 8
split_gain=3.47024 3.56206 3.61634
threshold=-1.7450788999999998 -6.9951207999999996 0.0015988281000000003
decision_type=2 2 2
left_child=-1 -2 -3
right_child=1 2 -4
leaf_value=0.0079027612028184039 0.0059393635584332654 -0.00032613582806569855 -0.012039287636498835
leaf_weight=430.21198731660843 385.76553812623024 626.64097255468369 454.95513609051704
leaf_count=1452 1311 2124 1545
internal_value=0 -0.00231061 -0.00525308
internal_weight=0 1467.36 1081.6
internal_count=6432 4980 3669
is_linear=0
shrinkage=0.1


Tree=10
num_leaves=4
num_cat=0
split_feature=5 7 1
split_gain=6.57013 5.81674 2.25567
threshold=-2.6213331499999994 -0.031120879999999993 -5.9778979999999988
decision_type=2 2 2
left_child=2 -2 -1
right_child=1 -3 -4
leaf_value=0.0013796455336447327 0.00049335715518440974 -0.01643434804665966 0.013121982146932595
leaf_weight=310.4798716455698 558.21625073254108 318.99671252071857 345.79662363231182
leaf_count=1302 2339 1354 1437
internal_value=0 -0.00566237 0.00756676
internal_weight=0 877.213 656.276
internal_count=6432 3693 2739
is_linear=0
shrinkage=0.1


Tree=11
num_leaves=4
num_cat=0
split_feature=8 2 6
split_gain=5.18878 5.69364 2.74732
threshold=-0.11233646999999998 -6.3521799999999988 -1.0192297499999998
decision_type=2 2 2
left_child=-1 -2 -3
right_child=1 2 -4
leaf_value=0.0099115392510473639 0.0063961808433969551 -0.014521610720534293 -0.0029862499773306126
leaf_weight=400.94843617081642 418.5326900780201 357.70275685191154 488.32529577612877
leaf_count=1530 1604 1406 1892
internal_value=0 -0.00314391 -0.00786343
internal_weight=0 1264.56 846.028
internal_count=6432 4902 3298
is_linear=0
shrinkage=0.1


Tree=12
num_leaves=4
num_cat=0
split_feature=8 3 7
split_gain=4.91566 5.7532 3.6366
threshold=-0.11945125499999999 -3.8473584999999995 -0.12979311499999999
decision_type=2 2 2
left_child=-1 -2 -3
right_child=1 2 -4
leaf_value=-0.009866254578959649 -0.0058238724137784133 0.0022802351879336793 0.015363860154674986
leaf_weight=272.9192142188549 342.15277881920338 357.30958952009678 251.2790754288435
leaf_count=1458 1803 1870 1301
internal_value=0 0.00282171 0.00768231
internal_weight=0 950.741 608.589
internal_count=6432 4974 3171
is_linear=0
shrinkage=0.0833333


Tree=13
num_leaves=4
num_cat=0
split_feature=4 2 1
split_gain=2.95567 3.05238 3.43737
threshold=-1.7450788999999998 -6.9951207999999996 -7.1376644999999987
decision_type=2 2 2
left_child=-1 -2 -3
right_child=1 2 -4
leaf_value=0.0060700939516658897 0.0045772231493846688 -0.010410460385928379 -0.00057494580159976171
leaf_weight=431.34691506624222 386.52552309632301 381.72999432682991 697.87710854411125
leaf_count=1452 1311 1297 2372
internal_value=0 -0.00177747 -0.00405261
internal_weight=0 1466.13 1079.61
internal_count=6432 4980 3669
is_linear=0
shrinkage=0.0833333


Tree=14
num_leaves=3
num_cat=0
split_feature=10 3
split_gain=6.47534 7.67651
threshold=5.6556406500000014 -0.50290375999999992
decision_type=2 2
left_child=1 -1
right_child=-2 -3
leaf_value=0.010534045166928466 -0.008309426947872546 -0.0035427265493502384
leaf_weight=540.55837738513947 457.24444505572319 535.57045508921146
leaf_count=2259 1925 2248
internal_value=0 0.00352828
internal_weight=0 1076.13
internal_count=6432 4507
is_linear=0
shrinkage=0.0833333


Tree=15
num_leaves=4
num_cat=0
split_feature=7 2 4
split_gain=4.66042 6.01665 2.12191
threshold=0.26562030500000006 -5.1724224999999988 2.2629484000000004
decision_type=2 2 2
left_child=1 -1 -3
right_child=-2 2 -4
leaf_value=0.0037397310673350174 0.0079221945290163173 -0.01249854250292514 -0.0032189918495942526
leaf_weight=586.75490020215511 393.75638116896152 335.04693460464478 349.76621371507645
leaf_count=2254 1512 1309 1357
internal_value=0 -0.00245302 -0.00775904
internal_weight=0 1271.57 684.813
internal_count=6432 4920 2666
is_linear=0
shrinkage=0.0833333


Tree=16
num_leaves=4
num_cat=0
split_feature=1 6 9
split_gain=4.63877 7.22425 5.80052
threshold=-8.9850029999999972 -2.0439340999999995 -0.41964745999999992
decision_type=2 2 2
left_child=-1 -2 -3
right_child=1 2 -4
leaf_value=0.0050287678372576017 0.0042922432517194476 5.1677030414688089e-05 -0.0083402580603078955
leaf_weight=279.02259682118893 293.72865878045559 328.49391923844814 322.3490332365036
leaf_count=1456 1536 1730 1710
internal_value=0 -0.00149353 -0.00410467
internal_weight=0 944.572 650.843
internal_count=6432 4976 3440
is_linear=0
shrinkage=0.0444444


Tree=17
num_leaves=4
num_cat=0
split_feature=11 9 6
split_gain=2.89902 4.13698 5.13947
threshold=0.38206005000000004 8.0682565000000022 -0.59240644999999992
decision_type=2 2 2
left_child=-1 2 -2
right_child=1 -3 -4
leaf_value=-0.0025052446501584377 -0.0002915940161386766 -0.0023520103878532789 0.0066144028213625918
leaf_weight=614.72818249464035 447.00057017803192 429.2623630464077 406.3854253590107
leaf_count=2081 1515 1459 1377
internal_value=0 0.0012069 0.00299707
internal_weight=0 1282.65 853.386
internal_count=6432 4351 2892
is_linear=0
shrinkage=0.0444444


Tree=18
num_leaves=4
num_cat=0
split_feature=5 7 3
split_gain=5.59924 4.59059 4.60597
threshold=-2.9261952499999997 0.027498587500000005 -0.9344960699999999
decision_type=2 2 2
left_child=-1 2 -2
right_child=1 -3 -4
leaf_value=0.0033696861946979871 0.0038378938095069218 -0.0066351182173626459 -0.0037375892065897916
leaf_weight=595.45310889184475 313.78722077608109 303.61845670640469 320.43740491569042
leaf_count=2475 1307 1301 1349
internal_value=0 -0.002141 1.04358e-05
internal_weight=0 937.843 634.225
internal_count=6432 3957 2656
is_linear=0
shrinkage=0.0444444


Tree=19
num_leaves=4
num_cat=0
split_feature=6 6 9
split_gain=4.51814 4.25447 3.36422
threshold=-2.0814270499999994 -0.59240644999999992 -3.0230911499999995
decision_type=2 2 2
left_child=-1 -2 -3
right_child=1 2 -4
leaf_value=-0.0036384432178906832 0.0055166858142115882 -0.003723293358733777 0.0020540786522092462
leaf_weight=479.75994284451008 358.5687982738018 334.0474044084549 492.81638985872269
leaf_count=1872 1378 1286 1896
internal_value=0 0.00147342 -0.000279941
internal_weight=0 1185.43 826.864
internal_count=6432 4560 3182
is_linear=0
shrinkage=0.0444444


Tree=20
num_leaves=4
num_cat=0
split_feature=8 11 3
split_gain=4.17913 4.79079 4.26515
threshold=-0.11945125499999999 0.66049862000000015 -1.4415295499999998
decision_type=2 2 2
left_child=-1 -2 -3
right_child=1 2 -4
leaf_value=-0.0073219115704719765 0.0071631174658183926 -0.0086685180395009338 0.0035083639561430471
leaf_weight=270.60497130453587 440.59494017064571 245.12576135993004 267.20089988410473
leaf_count=1458 2289 1296 1389
internal_value=0 0.00206585 -0.00231774
internal_weight=0 952.922 512.327
internal_count=6432 4974 2685
is_linear=0
shrinkage=0.0666667


Tree=21
num_leaves=4
num_cat=0
split_feature=4 9 8
split_gain=2.63968 3.62631 3.44369
threshold=2.2289092500000005 -3.5365772499999997 0.0029524880500000007
decision_type=2 2 2
left_child=1 -1 -2
right_child=2 -3 -4
leaf_value=0.0071999006495868179 0.00082169732895005093 -0.0011420058504974418 -0.0073363123074698267
leaf_weight=412.44234836101532 572.03624325990677 528.24185231328011 384.5802101790905
leaf_count=1388 1942 1787 1315
internal_value=0 0.0025155 -0.002458
internal_weight=0 940.684 956.616
internal_count=6432 3175 3257
is_linear=0
shrinkage=0.0666667


Tree=22
num_leaves=4
num_cat=0
split_feature=10 10 3
split_gain=5.5109 6.99622 11.053
threshold=5.6556406500000014 4.2152240500000007 -0.50290375999999992
decision_type=2 2 2
left_child=1 2 -1
right_child=-2 -3 -4
leaf_value=0.0063858411221162491 -0.0061581813064676815 0.009670077913874333 -0.010603827006467195
leaf_weight=367.56060929596424 454.61442893743515 394.03153251111507 316.93457002937794
leaf_count=1521 1925 1650 1336
internal_value=0 0.00259315 -0.00148071
internal_weight=0 1078.53 684.495
internal_count=6432 4507 2857
is_linear=0
shrinkage=0.0666667


Tree=23
num_leaves=4
num_cat=0
split_feature=8 2 2
split_gain=3.84824 4.52442 2.51651
threshold=-0.11233646999999998 -6.3521799999999988 -3.3322511499999998
decision_type=2 2 2
left_child=-1 -2 -3
right_child=1 2 -4
leaf_value=0.0056608042660052111 0.0038350510305008058 -0.0078649542841567471 -0.00051566356134113078
leaf_weight=404.2172788977623 420.12536919116974 471.50387872755527 369.23280474543571
leaf_count=1530 1604 1848 1450
internal_value=0 -0.00181428 -0.00463731
internal_weight=0 1260.86 840.737
internal_count=6432 4902 3298
is_linear=0
shrinkage=0.0666667


Tree=24
num_leaves=4
num_cat=0
split_feature=2 0 9
split_gain=3.9433 2.79189 2.68326
threshold=-7.326384749999999 -3.3573925499999997 1.1936152500000003
decision_type=2 2 2
left_child=-1 -2 -3
right_child=1 2 -4
leaf_value=-0.010461833028574931 -0.0056541718902357561 0.011551841138862162 -0.001287597125933455
leaf_weight=279.0786090195179 264.28562650084496 410.23064361512661 269.82972398400307
leaf_count=1508 1382 2120 1422
internal_value=0 0.00306791 0.0064575
internal_weight=0 944.346 680.06
internal_count=6432 4924 3542
is_linear=0
shrinkage=0.1


Tree=25
num_leaves=3
num_cat=0
split_feature=11 4
split_gain=2.51313 3.74862
threshold=0.38206005000000004 2.2289092500000005
decision_type=2 2
left_child=-1 -2
right_child=1 -3
leaf_value=-0.0052490393532650106 0.0080867012349193201 -0.0027257025882143847
leaf_weight=613.57635653018951 624.102463722229 659.46003016829491
leaf_count=2081 2103 2248
internal_value=0 0.00253158
internal_weight=0 1283.56
internal_count=6432 4351
is_linear=0
shrinkage=0.1


Tree=26
num_leaves=4
num_cat=0
split_feature=6 7 11
split_gain=4.87003 4.72966 4.47869
threshold=-2.9713095999999997 0.25657104000000003 0.95771038500000005
decision_type=2 2 2
left_child=-1 2 -2
right_child=1 -3 -4
leaf_value=0.010689525237170143 -0.0048827162460782702 -0.01376154689554434 0.0096651225422645804
leaf_weight=333.24228516221046 553.49263116717339 303.64898139238358 342.60989220440388
leaf_count=1376 2327 1298 1431
internal_value=0 -0.0029755 0.000679408
internal_weight=0 1199.75 896.103
internal_count=6432 5056 3758
is_linear=0
shrinkage=0.1


Tree=27
num_leaves=4
num_cat=0
split_feature=6 9 11
split_gain=3.77194 4.06952 6.58232
threshold=-2.7082038499999999 -3.8696993499999999 0.85404150000000001
decision_type=2 2 2
left_child=-1 -2 -3
right_child=1 2 -4
leaf_value=-0.0087974407657600579 -0.0042312771988491571 0.017533964948598702 -0.0011147027771223534
leaf_weight=376.94457751512527 522.1639137417078 342.14559736847878 423.60285212099552
leaf_count=1478 2018 1313 1623
internal_value=0 0.00257592 0.00721775
internal_weight=0 1287.91 765.748
internal_count=6432 4954 2936
is_linear=0
shrinkage=0.1


Tree=28
num_leaves=4
num_cat=0
split_feature=8 3 7
split_gain=5.31826 5.72198 3.71842
threshold=-0.11945125499999999 -3.8473584999999995 -0.12979311499999999
decision_type=2 2 2
left_child=-1 -2 -3
right_child=1 2 -4
leaf_value=-0.0020464228531084025 -0.0011368677703365295 0.00046665000740937372 0.0031145808951730481
leaf_weight=274.05865608155727 341.56374996900558 357.06085833907127 250.77796053886414
leaf_count=1458 1803 1870 1301
internal_value=0 0.000589189 0.00155912
internal_weight=0 949.403 607.839
internal_count=6432 4974 3171
is_linear=0
shrinkage=0.0166667


Tree=29
num_leaves=4
num_cat=0
split_feature=9 8 4
split_gain=2.98036 4.18372 4.12154
threshold=-3.8696993499999999 -0.054675736999999995 2.1152725000000006
decision_type=2 2 2
left_child=2 -2 -1
right_child=1 -3 -4
leaf_value=0.0019871082237634939 0.00077741583443930124 -0.0013707786018804546 -0.00038066195512412429
leaf_weight=393.88532057404518 400.22484880685806 679.21315348148346 424.07069617509842
leaf_count=1330 1357 2303 1442
internal_value=0 -0.000574289 0.000759534
internal_weight=0 1079.44 817.956
internal_count=6432 3660 2772
is_linear=0
shrinkage=0.0166667


Tree=30
num_leaves=4
num_cat=0
split_feature=10 10 3
split_gain=5.83039 6.61759 11.2292
threshold=5.6556406500000014 4.2152240500000007 -0.50290375999999992
decision_type=2 2 2
left_child=1 2 -1
right_child=-2 -3 -4
leaf_value=0.0016612623047064529 -0.0015807775824309075 0.0023869870464399722 -0.002623946161022198
leaf_weight=366.61912164092064 455.49250683188438 394.50373391807079 316.51213160157204
leaf_count=1521 1925 1650 1336
internal_value=0 0.000668329 -0.000324184
internal_weight=0 1077.63 683.131
internal_count=6432 4507 2857
is_linear=0
shrinkage=0.0166667


Tree=31
num_leaves=4
num_cat=0
split_feature=8 2 2
split_gain=4.70524 5.22559 2.47421
threshold=-0.11233646999999998 -6.3521799999999988 -3.3322511499999998
decision_type=2 2 2
left_child=-1 -2 -3
right_child=1 2 -4
leaf_value=0.0015703669591505284 0.0010212631393613477 -0.0020540550983895638 -0.00023581929865295752
leaf_weight=402.02174401283264 419.16924887895584 473.23251819610596 370.76786370575428
leaf_count=1530 1604 1848 1450
internal_value=0 -0.000499852 -0.00125531
internal_weight=0 1263.17 844
internal_count=6432 4902 3298
is_linear=0
shrinkage=0.0166667


Tree=32
num_leaves=4
num_cat=0
split_feature=1 6 9
split_gain=4.02519 5.8855 4.61592
threshold=-8.9850029999999972 -2.0439340999999995 -0.41964745999999992
decision_type=2 2 2
left_child=-1 -2 -3
right_child=1 2 -4
leaf_value=0.010495229718939483 0.0085227975528110716 -0.00020793359923142624 -0.017115184151227262
leaf_weight=280.8010400980711 296.38256311416626 329.37913128733635 316.77666540443897
leaf_count=1456 1536 1730 1710
internal_value=0 -0.00314488 -0.00849668
internal_weight=0 942.538 646.156
internal_count=6432 4976 3440
is_linear=0
shrinkage=0.1


Tree=33
num_leaves=4
num_cat=0
split_feature=10 10 7
split_gain=2.43768 3.45446 2.45095
threshold=4.8822861500000014 2.1447348500000003 -0.16872639499999997
decision_type=2 2 2
left_child=1 -1 -2
right_child=2 -3 -4
leaf_value=0.0045016716419741974 -0.0014803698020149191 -0.0071702947904321917 0.0096579934137304493
leaf_weight=393.64394822716713 383.76871007680893 712.56817889213562 407.15075552463531
leaf_count=1337 1299 2420 1376
internal_value=0 -0.00301684 0.00425345
internal_weight=0 1106.21 790.919
internal_count=6432 3757 2675
is_linear=0
shrinkage=0.1


Tree=34
num_leaves=4
num_cat=0
split_feature=10 10 3
split_gain=4.78176 5.8004 9.35576
threshold=5.6556406500000014 4.2152240500000007 -0.50290375999999992
decision_type=2 2 2
left_child=1 2 -1
right_child=-2 -3 -4
leaf_value=0.0088086047896683509 -0.0086344291504342717 0.013218832601316528 -0.014674427159699544
leaf_weight=369.38692153990269 452.47471012175083 397.27077440917492 313.76750867068768
leaf_count=1521 1925 1650 1336
internal_value=0 0.00361051 -0.00197697
internal_weight=0 1080.43 683.154
internal_count=6432 4507 2857
is_linear=0
shrinkage=0.1


Tree=35
num_leaves=4
num_cat=0
split_feature=8 2 2
split_gain=3.41537 3.96961 2.36596
threshold=-0.11233646999999998 -5.1724224999999988 -3.0247808499999995
decision_type=2 2 2
left_child=-1 -2 -3
right_child=1 2 -4
leaf_value=0.0079813394199050453 0.0033909923965241996 -0.013737030276300723 -0.0018301491235439905
leaf_weight=405.37110215425491 591.82049550116062 337.97129166126251 329.66322009265423
leaf_count=1530 2274 1334 1294
internal_value=0 -0.0025719 -0.00785767
internal_weight=0 1259.46 667.635
internal_count=6432 4902 2628
is_linear=0
shrinkage=0.1


Tree=36
num_leaves=4
num_cat=0
split_feature=8 8 8
split_gain=3.57297 4.62781 4.96683
threshold=-0.11787626499999999 -0.045521553499999992 0.031082615000000004
decision_type=2 2 2
left_child=-1 -2 -3
right_child=1 2 -4
leaf_value=-0.010124236946373197 0.013362928089949169 -0.012866749368400666 0.0050179185555510909
leaf_weight=271.94743302464485 291.65462198853493 250.13858422636986 409.4720745831728
leaf_count=1476 1521 1307 2128
internal_value=0 0.00287363 -0.00176433
internal_weight=0 951.265 659.611
internal_count=6432 4956 3435
is_linear=0
shrinkage=0.1


Tree=37
num_leaves=4
num_cat=0
split_feature=0 2 5
split_gain=2.36122 3.49404 2.66396
threshold=4.0721890000000007 -6.9951207999999996 -1.4526030999999999
decision_type=2 2 2
left_child=1 -1 -3
right_child=-2 2 -4
leaf_value=0.005449736371728465 0.0070243414817838679 -0.0092215337133559547 0.0010061305569696805
leaf_weight=465.5004169344902 383.60449853539467 611.48032695055008 436.43378791213036
leaf_count=1575 1300 2079 1478
internal_value=0 -0.00175948 -0.00496193
internal_weight=0 1513.41 1047.91
internal_count=6432 5132 3557
is_linear=0
shrinkage=0.1


Tree=38
num_leaves=4
num_cat=0
split_feature=5 7 2
split_gain=4.58095 3.77742 1.832
threshold=-2.6213331499999994 -0.031120879999999993 -5.1066754999999988
decision_type=2 2 2
left_child=2 -2 -1
right_child=1 -3 -4
leaf_value=0.00081012063369968572 0.00014319384730519826 -0.013596721143272051 0.011339933588571409
leaf_weight=318.90909691154957 559.37822465598583 311.52335073053837 342.8732303082943
leaf_count=1325 2339 1354 1414
internal_value=0 -0.0047716 0.00626568
internal_weight=0 870.902 661.782
internal_count=6432 3693 2739
is_linear=0
shrinkage=0.1


Tree=39
num_leaves=4
num_cat=0
split_feature=7 2 4
split_gain=3.31845 4.50048 1.62305
threshold=0.26562030500000006 -5.1724224999999988 2.2629484000000004
decision_type=2 2 2
left_child=1 -1 -3
right_child=-2 2 -4
leaf_value=0.0038970389113002347 0.0079747330647528571 -0.013072248605494264 -0.0032886188749195453
leaf_weight=588.73312664031982 397.13096299767494 330.37169817090034 348.35880692303181
leaf_count=2254 1512 1309 1357
internal_value=0 -0.00250106 -0.0080508
internal_weight=0 1267.46 678.731
internal_count=6432 4920 2666
is_linear=0
shrinkage=0.1


Tree=40
num_leaves=4
num_cat=0
split_feature=1 6 9
split_gain=3.34967 4.97938 4.03838
threshold=-8.9850029999999972 -2.0439340999999995 -0.41964745999999992
decision_type=2 2 2
left_child=-1 -2 -3
right_child=1 2 -4
leaf_value=0.0063480686669367585 0.0051949712284610318 -7.4812041394386225e-05 -0.010652390744848004
leaf_weight=282.94911389052868 298.10267986357212 329.07230633497238 313.00101555883884
leaf_count=1456 1536 1730 1710
internal_value=0 -0.00192538 -0.00523122
internal_weight=0 940.176 642.073
internal_count=6432 4976 3440
is_linear=0
shrinkage=0.0666667


Tree=41
num_leaves=4
num_cat=0
split_feature=3 5 1
split_gain=2.34298 2.21722 3.16166
threshold=-2.6988595499999994 -3.4339784499999992 -5.9778979999999988
decision_type=2 2 2
left_child=-1 -2 -3
right_child=1 2 -4
leaf_value=0.0029317274039029522 -0.0060458878483080599 -0.0041322751905213282 0.0043860754814819894
leaf_weight=743.12001401185989 379.08652287721634 382.8688160777092 391.84334668517113
leaf_count=2521 1293 1296 1322
internal_value=0 -0.00186807 0.00017624
internal_weight=0 1153.8 774.712
internal_count=6432 3911 2618
is_linear=0
shrinkage=0.0666667


Tree=42
num_leaves=4
num_cat=0
split_feature=8 9 3
split_gain=4.20091 6.76146 4.05589
threshold=-0.041901884499999993 -4.9627822499999992 0.12023821500000001
decision_type=2 2 2
left_child=2 -2 -1
right_child=1 -3 -4
leaf_value=0.00099781443777973745 -0.0044631215912609148 0.008058317295900716 -0.0090266337012810619
leaf_weight=381.82606583833694 309.87325210869312 502.45488806068897 338.33460156619549
leaf_count=1597 1296 2085 1454
internal_value=0 0.00328185 -0.00371171
internal_weight=0 812.328 720.161
internal_count=6432 3381 3051
is_linear=0
shrinkage=0.0666667


Tree=43
num_leaves=4
num_cat=0
split_feature=9 11 11
split_gain=2.98568 6.46321 2.68266
threshold=-3.8696993499999999 0.85404150000000001 0.50767748500000009
decision_type=2 2 2
left_child=2 -2 -1
right_child=1 -3 -4
leaf_value=-0.0070883438751746354 0.0084136248894820902 -0.0026089102687647807 0.0011154170931416201
leaf_weight=380.33397203683853 436.25953979790211 516.16445980966091 331.62392707169056
leaf_count=1479 1672 1988 1293
internal_value=0 0.00243998 -0.0032671
internal_weight=0 952.424 711.958
internal_count=6432 3660 2772
is_linear=0
shrinkage=0.0666667


Tree=44
num_leaves=4
num_cat=0
split_feature=1 6 9
split_gain=3.97531 6.14607 4.73332
threshold=-8.9850029999999972 -2.0439340999999995 -0.41964745999999992
decision_type=2 2 2
left_child=-1 -2 -3
right_child=1 2 -4
leaf_value=0.0034771490912998242 0.0029406583824615664 -6.1273122165426884e-05 -0.0057660162614271496
leaf_weight=280.91782788932323 295.64395010471344 329.28253149986267 317.35169281065464
leaf_count=1456 1536 1730 1710
internal_value=0 -0.00104072 -0.00286102
internal_weight=0 942.278 646.634
internal_count=6432 4976 3440
is_linear=0
shrinkage=0.0333333


Tree=45
num_leaves=4
num_cat=0
split_feature=11 9 6
split_gain=2.62028 4.03904 4.91612
threshold=0.38206005000000004 8.0682565000000022 -0.59240644999999992
decision_type=2 2 2
left_child=-1 2 -2
right_child=1 -3 -4
leaf_value=-0.0017875560897817691 -0.00022699498110814693 -0.0017772236706237801 0.0048369416122214298
leaf_weight=613.87817916274071 446.96574410796165 429.27937462925911 406.95612859725952
leaf_count=2081 1515 1459 1377
internal_value=0 0.000860378 0.00218634
internal_weight=0 1283.2 853.922
internal_count=6432 4351 2892
is_linear=0
shrinkage=0.0333333


Tree=46
num_leaves=4
num_cat=0
split_feature=5 7 3
split_gain=4.57302 3.32367 3.71704
threshold=-2.9261952499999997 0.024970512000000004 -0.9344960699999999
decision_type=2 2 2
left_child=-1 2 -2
right_child=1 -3 -4
leaf_value=0.0022739730225046096 0.0024858736960818844 -0.0043355221321147129 -0.0026251080407034681
leaf_weight=598.30599188804626 314.35406677424908 301.95388641953468 318.08864863216877
leaf_count=2475 1300 1311 1346
internal_value=0 -0.00145837 -8.47074e-05
internal_weight=0 934.397 632.443
internal_count=6432 3957 2646
is_linear=0
shrinkage=0.0333333


Tree=47
num_leaves=3
num_cat=0
split_feature=6 5
split_gain=3.59059 4.12908
threshold=-2.0814270499999994 -2.3091860999999994
decision_type=2 2
left_child=-1 -2
right_child=1 -3
leaf_value=-0.0024437992226470128 -0.0011810805239295724 0.0027674535529456251
leaf_weight=476.82503695785999 537.53232797980309 650.22067546844482
leaf_count=1872 2069 2491
internal_value=0 0.000980496
internal_weight=0 1187.75
internal_count=6432 4560
is_linear=0
shrinkage=0.0333333


Tree=48
num_leaves=4
num_cat=0
split_feature=2 0 0
split_gain=3.14109 2.53494 1.99411
threshold=-7.326384749999999 -3.3573925499999997 2.0612701500000008
decision_type=2 2 2
left_child=-1 -2 -3
right_child=1 2 -4
leaf_value=-0.0094002220185572059 -0.005598809507257281 0.011977550470242388 0.0011024039048946053
leaf_weight=276.14530555903912 264.08626443147659 303.64418230950832 379.13420131802559
leaf_count=1508 1382 1570 1972
internal_value=0 0.00272088 0.00593878
internal_weight=0 946.865 682.778
internal_count=6432 4924 3542
is_linear=0
shrinkage=0.1


Tree=49
num_leaves=4
num_cat=0
split_feature=11 9 6
split_gain=2.24132 3.53905 4.04205
threshold=0.38206005000000004 8.0682565000000022 -0.59240644999999992
decision_type=2 2 2
left_child=-1 2 -2
right_child=1 -3 -4
leaf_value=-0.0049597091779811989 -0.00047160850018180037 -0.0050254441262453722 0.01328867388445111
leaf_weight=612.69868609309196 446.52324464917183 428.64455077052116 409.02032786607742
leaf_count=2081 1515 1459 1377
internal_value=0 0.0023911 0.00610694
internal_weight=0 1284.19 855.544
internal_count=6432 4351 2892
is_linear=0
shrinkage=0.1


Tree=50
num_leaves=4
num_cat=0
split_feature=6 4 8
split_gain=4.21963 4.04954 5.55841
threshold=-2.9713095999999997 -1.0716378499999999 -0.05230477749999999
decision_type=2 2 2
left_child=-1 -2 -3
right_child=1 2 -4
leaf_value=0.0099183967586792196 -0.012282037858985363 -0.0095785637638214419 0.0069384506751406271
leaf_weight=334.82819680869579 326.32240469753742 324.925606533885 546.31019906699657
leaf_count=1376 1383 1383 2290
internal_value=0 -0.00278039 0.000778464
internal_weight=0 1197.56 871.236
internal_count=6432 5056 3673
is_linear=0
shrinkage=0.1


Tree=51
num_leaves=4
num_cat=0
split_feature=8 0 9
split_gain=2.9165 2.5602 2.49748
threshold=-0.010205029999999999 -0.44266402999999993 -3.8696993499999999
decision_type=2 2 2
left_child=2 -2 -1
right_child=1 -3 -4
leaf_value=-0.0020973725797987673 0.0014071693200654659 -0.010336191894339904 0.0083898188405530927
leaf_weight=406.64253211021423 359.25787031650543 384.16548673808575 514.26357039809227
leaf_count=1572 1397 1505 1958
internal_value=0 -0.00466124 0.00375901
internal_weight=0 743.423 920.906
internal_count=6432 2902 3530
is_linear=0
shrinkage=0.1


Tree=52
num_leaves=4
num_cat=0
split_feature=8 3 7
split_gain=3.14315 4.41575 3.51521
threshold=-0.11787626499999999 -3.8473584999999995 -0.12979311499999999
decision_type=2 2 2
left_child=-1 -2 -3
right_child=1 2 -4
leaf_value=-0.0079405523512004438 -0.0053879283591100197 0.001154685264812954 0.013962183589168956
leaf_weight=270.3264217376709 339.25468125939369 359.21950849890709 254.08265228569508
leaf_count=1476 1800 1862 1294
internal_value=0 0.00224076 0.00646066
internal_weight=0 952.557 613.302
internal_count=6432 4956 3156
is_linear=0
shrinkage=0.0833333


Tree=53
num_leaves=3
num_cat=0
split_feature=3 8
split_gain=2.23384 2.05856
threshold=-2.6988595499999994 -0.00085475194999999995
decision_type=2 2
left_child=-1 -2
right_child=1 -3
leaf_value=0.0035754455948692676 0.00066161651067517941 -0.0064925518452322167
leaf_weight=743.41664645075798 678.67838701605797 474.64810299873352
leaf_count=2521 2295 1616
internal_value=0 -0.00228266
internal_weight=0 1153.33
internal_count=6432 3911
is_linear=0
shrinkage=0.0833333


Tree=54
num_leaves=4
num_cat=0
split_feature=10 10 3
split_gain=3.86215 4.87741 7.84216
threshold=5.6556406500000014 4.2152240500000007 -0.50290375999999992
decision_type=2 2 2
left_child=1 2 -1
right_child=-2 -3 -4
leaf_value=0.0065800266947235835 -0.0064993977578920864 0.0099931947681508107 -0.011355863975154687
leaf_weight=371.5018208026886 449.42475019395351 400.28952127695084 311.01285208761692
leaf_count=1521 1925 1650 1336
internal_value=0 0.00269009 -0.00159312
internal_weight=0 1082.8 682.515
internal_count=6432 4507 2857
is_linear=0
shrinkage=0.0833333


Tree=55
num_leaves=3
num_cat=0
split_feature=6 5
split_gain=2.69359 3.81886
threshold=-2.0814270499999994 -2.3091860999999994
decision_type=2 2
left_child=-1 -2
right_child=1 -3
leaf_value=-0.0053178944827160443 -0.0030861521318647275 0.0063975389852325088
leaf_weight=473.71074765920639 537.97610956430435 652.4790922999382
leaf_count=1872 2069 2491
internal_value=0 0.00211178
internal_weight=0 1190.46
internal_count=6432 4560
is_linear=0
shrinkage=0.0833333


Tree=56
num_leaves=4
num_cat=0
split_feature=5 8 9
split_gain=3.09707 4.72714 3.89574
threshold=-2.3385539999999998 -0.0045183989999999985 -1.1680122999999998
decision_type=2 2 2
left_child=1 -1 -2
right_child=2 -3 -4
leaf_value=-0.010697812909797842 0.0089765823113463414 0.0030139759758393376 -0.002595302644511376
leaf_weight=292.83574578166008 345.40492038428783 273.53041200339794 310.98217740654945
leaf_count=1560 1787 1419 1666
internal_value=0 -0.00407561 0.00349407
internal_weight=0 566.366 656.387
internal_count=6432 2979 3453
is_linear=0
shrinkage=0.075


Tree=57
num_leaves=4
num_cat=0
split_feature=4 5 2
split_gain=2.06205 3.93164 3.12464
threshold=-1.7450788999999998 -2.3091860999999994 -4.6297726499999987
decision_type=2 2 2
left_child=-1 -2 -3
right_child=1 2 -4
leaf_value=0.0045583563449777022 0.0028750108172245176 -0.0095215713531275337 -7.9374754542714188e-05
leaf_weight=433.43908753991127 674.10926452279091 404.92198184132576 384.18706542253494
leaf_count=1452 2306 1371 1303
internal_value=0 -0.00133126 -0.00492453
internal_weight=0 1463.22 789.109
internal_count=6432 4980 2674
is_linear=0
shrinkage=0.075


Tree=58
num_leaves=4
num_cat=0
split_feature=10 10 3
split_gain=3.43757 5.84544 6.76424
threshold=5.2527137000000002 4.2152240500000007 -0.50290375999999992
decision_type=2 2 2
left_child=1 2 -1
right_child=-2 -3 -4
leaf_value=0.0054686695268982548 -0.004873001352844358 0.010990577747117666 -0.0095402377248760412
leaf_weight=372.95994582772255 532.67860221862793 317.60834412276745 308.71621868014336
leaf_count=1521 2275 1300 1336
internal_value=0 0.00258692 -0.00132854
internal_weight=0 999.285 681.676
internal_count=6432 4157 2857
is_linear=0
shrinkage=0.075


Tree=59
num_leaves=4
num_cat=0
split_feature=7 1 7
split_gain=2.62689 4.12033 4.66427
threshold=0.26562030500000006 -4.1557445499999988 -0.32200082999999996
decision_type=2 2 2
left_child=1 2 -1
right_child=-2 -3 -4
leaf_value=0.0083390623363625224 0.0053037463087790221 -0.0074522447808138817 -0.0031990858950993167
leaf_weight=332.31466290354729 399.09215280413628 448.32452669739723 484.26458641886711
leaf_count=1290 1512 1744 1886
internal_value=0 -0.00167525 0.00149647
internal_weight=0 1264.9 816.579
internal_count=6432 4920 3176
is_linear=0
shrinkage=0.075


Tree=60
num_leaves=4
num_cat=0
split_feature=1 0 8
split_gain=3.06753 4.59073 2.79431
threshold=-8.9850029999999972 -0.44266402999999993 -0.010205029999999999
decision_type=2 2 2
left_child=-1 -2 -3
right_child=1 2 -4
leaf_value=0.0045470218639971863 -0.0055424606760015264 -0.0016723368776900918 0.0054911587265318688
leaf_weight=283.82878801226616 388.91200561821461 302.1208850890398 247.78143945336342
leaf_count=1456 2084 1611 1281
internal_value=0 -0.00138491 0.00155547
internal_weight=0 938.814 549.902
internal_count=6432 4976 2892
is_linear=0
shrinkage=0.05


Tree=61
num_leaves=4
num_cat=0
split_feature=9 11 6
split_gain=2.07236 4.06101 3.82193
threshold=-3.8696993499999999 0.69559575000000018 -0.93511342499999983
decision_type=2 2 2
left_child=2 -2 -1
right_child=1 -3 -4
leaf_value=-0.0013046055100231436 -0.0054942781158685734 0.0008900297035499753 0.0055340069966538169
leaf_weight=435.50549423694611 391.51036259531975 684.70195496082306 384.85532692074776
leaf_count=1476 1333 2327 1296
internal_value=0 -0.00143249 0.00190359
internal_weight=0 1076.21 820.361
internal_count=6432 3660 2772
is_linear=0
shrinkage=0.05


Tree=62
num_leaves=3
num_cat=0
split_feature=5 7
split_gain=3.43966 2.62373
threshold=-2.9261952499999997 -0.031120879999999993
decision_type=2 2
left_child=-1 -2
right_child=1 -3
leaf_value=0.0029413592449570626 7.0038554103234917e-05 -0.0054724016078943963
leaf_weight=601.77678126096725 597.65592677891254 332.22704619169235
leaf_count=2475 2499 1458
internal_value=0 -0.00191016
internal_weight=0 929.883
internal_count=6432 3957
is_linear=0
shrinkage=0.05


Tree=63
num_leaves=4
num_cat=0
split_feature=9 11 11
split_gain=2.40312 5.74998 2.57894
threshold=-3.8696993499999999 0.85404150000000001 0.50767748500000009
decision_type=2 2 2
left_child=2 -2 -1
right_child=1 -3 -4
leaf_value=-0.0050236084011106973 0.0058458855971351602 -0.0019419503811725872 0.0010191706019462361
leaf_weight=378.71843722462654 438.43942366540432 515.90091466903687 330.78525938093662
leaf_count=1479 1672 1988 1293
internal_value=0 0.00163591 -0.00220634
internal_weight=0 954.34 709.504
internal_count=6432 3660 2772
is_linear=0
shrinkage=0.05


Tree=64
num_leaves=4
num_cat=0
split_feature=2 0 0
split_gain=2.63293 1.97406 1.76983
threshold=-7.326384749999999 -3.5022971999999997 2.0612701500000008
decision_type=2 2 2
left_child=-1 -2 -3
right_child=1 2 -4
leaf_value=-0.0057648258072322397 -0.0033522936389336518 0.0072204429802357976 0.00044844420453140206
leaf_weight=274.04379780590534 255.69302748143673 312.34844020009041 380.42049106955528
leaf_count=1508 1347 1605 1972
internal_value=0 0.00165398 0.00350173
internal_weight=0 948.462 692.769
internal_count=6432 4924 3577
is_linear=0
shrinkage=0.0666667


Tree=65
num_leaves=4
num_cat=0
split_feature=3 5 1
split_gain=1.9938 2.1267 2.72021
threshold=-2.6988595499999994 -3.4339784499999992 -5.9778979999999988
decision_type=2 2 2
left_child=-1 -2 -3
right_child=1 2 -4
leaf_value=0.0027036254565880654 -0.0058196920076444012 -0.003727670528298606 0.0041775282419753094
leaf_weight=744.09865042567253 378.35351532697678 381.70066517591476 392.28892090916634
leaf_count=2521 1293 1296 1322
internal_value=0 -0.00172341 0.000279001
internal_weight=0 1152.34 773.99
internal_count=6432 3911 2618
is_linear=0
shrinkage=0.0666667


Tree=66
num_leaves=4
num_cat=0
split_feature=8 9 3
split_gain=3.20109 5.92082 3.08496
threshold=-0.041901884499999993 -4.9627822499999992 1.4671257000000002
decision_type=2 2 2
left_child=2 -2 -1
right_child=1 -3 -4
leaf_value=0.00050250521677249187 -0.0044103377300803827 0.0072956311242820746 -0.0083507102432507658
leaf_weight=411.99476458132267 309.52791659533978 505.91662384569645 304.01140448451042
leaf_count=1726 1296 2085 1325
internal_value=0 0.00285226 -0.00325651
internal_weight=0 815.445 716.006
internal_count=6432 3381 3051
is_linear=0
shrinkage=0.0666667


Tree=67
num_leaves=4
num_cat=0
split_feature=6 7 2
split_gain=2.25729 2.4203 3.82528
threshold=-2.7082038499999999 0.25657104000000003 -5.1988114999999988
decision_type=2 2 2
left_child=-1 2 -2
right_child=1 -3 -4
leaf_value=-0.0045824521157113796 0.0040994106613361017 0.0061090311629885706 -0.0043862247987589125
leaf_weight=371.8439999371767 442.950075507164 343.26359936594963 505.62547256052494
leaf_count=1478 1684 1286 1984
internal_value=0 0.00131213 -0.000423744
internal_weight=0 1291.84 948.576
internal_count=6432 4954 3668
is_linear=0
shrinkage=0.0666667


Tree=68
num_leaves=4
num_cat=0
split_feature=1 6 9
split_gain=2.60163 4.2415 3.31232
threshold=-8.9850029999999972 -2.0439340999999995 -0.41964745999999992
decision_type=2 2 2
left_child=-1 -2 -3
right_child=1 2 -4
leaf_value=0.0083410480055449068 0.007258601294054744 -0.00019514802876542371 -0.014617636101555233
leaf_weight=285.49904789030552 299.26127973198891 329.16413435339928 308.46781894564629
leaf_count=1456 1536 1730 1710
internal_value=0 -0.00256282 -0.00717233
internal_weight=0 936.893 637.632
internal_count=6432 4976 3440
is_linear=0
shrinkage=0.1


Tree=69
num_leaves=3
num_cat=0
split_feature=2 4
split_gain=1.98348 2.76844
threshold=-6.9951207999999996 2.1152725000000006
decision_type=2 2
left_child=-1 -2
right_child=1 -3
leaf_value=0.0054249542224948022 0.0025852451695102261 -0.00632154074725418
leaf_weight=500.26889458298683 690.8779376745224 705.16200241446495
leaf_count=1690 2329 2413
internal_value=0 -0.00191371
internal_weight=0 1396.04
internal_count=6432 4742
is_linear=0
shrinkage=0.1


Tree=70
num_leaves=4
num_cat=0
split_feature=1 0 5
split_gain=3.2291 3.943 4.97746
threshold=-8.9850029999999972 -0.55101612999999994 -1.7536263999999997
decision_type=2 2 2
left_child=-1 -2 -3
right_child=1 2 -4
leaf_value=-0.0085550905607667035 0.0093285727350903777 0.0054008341331285318 -0.011551625793708378
leaf_weight=342.90783677995205 490.71269947290421 377.80318805575371 319.80891750752926
leaf_count=1456 2047 1562 1367
internal_value=0 0.00246043 -0.00237075
internal_weight=0 1188.32 697.612
internal_count=6432 4976 2929
is_linear=0
shrinkage=0.1


Tree=71
num_leaves=4
num_cat=0
split_feature=9 11 11
split_gain=2.00895 4.7031 2.24098
threshold=-3.8696993499999999 0.85404150000000001 0.50767748500000009
decision_type=2 2 2
left_child=2 -2 -1
right_child=1 -3 -4
leaf_value=-0.0093200344026100855 0.010558650866111312 -0.0035127831276514296 0.0019584428466954801
leaf_weight=376.76922680437565 441.17528465390205 514.55445337295532 330.89331865310669
leaf_count=1479 1672 1988 1293
internal_value=0 0.00298274 -0.00404637
internal_weight=0 955.73 707.663
internal_count=6432 3660 2772
is_linear=0
shrinkage=0.1


Tree=72
num_leaves=3
num_cat=0
split_feature=5 9
split_gain=2.52952 3.69071
threshold=-3.1314664999999997 -1.1680122999999998
decision_type=2 2
left_child=-1 -2
right_child=1 -3
leaf_value=-0.0062610803083636181 0.0096742865872959938 -0.0039559091295806141
leaf_weight=424.3429090231657 424.4395703971386 373.45069748163223
leaf_count=2245 2173 2014
internal_value=0 0.0032947
internal_weight=0 797.89
internal_count=6432 4187
is_linear=0
shrinkage=0.1


Tree=73
num_leaves=4
num_cat=0
split_feature=10 10 7
split_gain=2.01804 2.95268 2.37387
threshold=4.8075349500000009 2.1447348500000003 -0.18162228499999997
decision_type=2 2 2
left_child=1 -1 -2
right_child=2 -3 -4
leaf_value=0.004058265565451304 -0.0019360290475921337 -0.006816642825802896 0.008834574330798841
leaf_weight=394.29532179236412 387.20549908280373 680.67404890060425 433.99484866857529
leaf_count=1337 1312 2320 1463
internal_value=0 -0.00282776 0.00375611
internal_weight=0 1074.97 821.2
internal_count=6432 3657 2775
is_linear=0
shrinkage=0.1


Tree=74
num_leaves=4
num_cat=0
split_feature=2 2 1
split_gain=3.23029 4.73907 4.04945
threshold=-2.6812728999999993 -4.9816217499999995 -6.165929049999999
decision_type=2 2 2
left_child=1 2 -1
right_child=-2 -3 -4
leaf_value=-0.010617018026658957 -0.0085317594579484221 0.010650536446077344 0.0042283140351087522
leaf_weight=332.4474213719368 344.36278139054775 443.46015401184559 410.79222078621387
leaf_count=1420 1437 1851 1724
internal_value=0 0.00246941 -0.00241193
internal_weight=0 1186.7 743.24
internal_count=6432 4995 3144
is_linear=0
shrinkage=0.1


Tree=75
num_leaves=4
num_cat=0
split_feature=8 1 7
split_gain=1.88331 2.18386 1.86682
threshold=-0.010205029999999999 -6.0845617999999986 -0.25299495
decision_type=2 2 2
left_child=2 -2 -1
right_child=1 -3 -4
leaf_value=-0.0026404164706156979 0.0021609629330689752 -0.0087546024094069946 0.0065809108591220467
leaf_weight=358.76471115648746 337.32826782763004 401.37317417562008 565.73335336148739
leaf_count=1384 1320 1582 2146
internal_value=0 -0.00377001 0.00300244
internal_weight=0 738.701 924.498
internal_count=6432 2902 3530
is_linear=0
shrinkage=0.1


Tree=76
num_leaves=4
num_cat=0
split_feature=8 8 8
split_gain=2.43 4.31921 3.89489
threshold=-0.11787626499999999 -0.045521553499999992 0.031082615000000004
decision_type=2 2 2
left_child=-1 -2 -3
right_child=1 2 -4
leaf_value=-0.0056301474704503647 0.0082905493770754277 -0.0080332156758849312 0.0025359677133538483
leaf_weight=267.338503241539 293.54532754421234 247.9167440533638 413.30613453686237
leaf_count=1476 1521 1307 2128
internal_value=0 0.00156081 -0.00142681
internal_weight=0 954.768 661.223
internal_count=6432 4956 3435
is_linear=0
shrinkage=0.0666667


Tree=77
num_leaves=4
num_cat=0
split_feature=0 9 8
split_gain=1.96299 2.74287 3.12632
threshold=4.0721890000000007 -9.193165999999998 0.0029524880500000007
decision_type=2 2 2
left_child=1 -1 -3
right_child=-2 2 -4
leaf_value=0.0037883399417911095 0.0042712655361565825 0.00031871348936816717 -0.0067792232856036675
leaf_weight=385.68715515732765 384.49131977558136 642.97746279835701 482.94699883460999
leaf_count=1300 1300 2180 1652
internal_value=0 -0.00106374 -0.00272583
internal_weight=0 1511.61 1125.92
internal_count=6432 5132 3832
is_linear=0
shrinkage=0.0666667


Tree=78
num_leaves=4
num_cat=0
split_feature=6 4 8
split_gain=2.89157 3.32235 4.27367
threshold=-2.9713095999999997 -1.0716378499999999 -0.05230477749999999
decision_type=2 2 2
left_child=-1 -2 -3
right_child=1 2 -4
leaf_value=0.0054290155102852556 -0.007329366235226448 -0.0055135333380781299 0.004168331451038761
leaf_weight=338.48493418097496 322.73831841349602 321.38036738336086 548.37680803239346
leaf_count=1376 1383 1383 2290
internal_value=0 -0.0015527 0.000590826
internal_weight=0 1192.5 869.757
internal_count=6432 5056 3673
is_linear=0
shrinkage=0.0666667


Tree=79
num_leaves=4
num_cat=0
split_feature=6 5 8
split_gain=1.73551 2.44107 1.9973
threshold=-2.7082038499999999 -2.3091860999999994 -0.045521553499999992
decision_type=2 2 2
left_child=-1 -2 -3
right_child=1 2 -4
leaf_value=-0.0040315316479243041 -0.0020276871962011962 0.00034344967557241427 0.0074376404075562012
leaf_weight=369.67736880481243 587.26256024837494 363.11294388771057 342.98973433673382
leaf_count=1478 2265 1363 1326
internal_value=0 0.00114814 0.00378946
internal_weight=0 1293.37 706.103
internal_count=6432 4954 2689
is_linear=0
shrinkage=0.0666667


Tree=80
num_leaves=4
num_cat=0
split_feature=1 6 9
split_gain=2.44188 4.22308 2.97636
threshold=-8.9850029999999972 -2.0439340999999995 -0.41964745999999992
decision_type=2 2 2
left_child=-1 -2 -3
right_child=1 2 -4
leaf_value=0.0020203861269596514 0.0018318556101314751 -0.00012100871435522867 -0.003541036618496589
leaf_weight=286.08273507654667 299.07551178336143 329.97567012906075 307.01266072690487
leaf_count=1456 1536 1730 1710
internal_value=0 -0.000618772 -0.00176938
internal_weight=0 936.064 636.988
internal_count=6432 4976 3440
is_linear=0
shrinkage=0.025


Tree=81
num_leaves=4
num_cat=0
split_feature=11 9 6
split_gain=2.16436 3.46864 3.76884
threshold=0.38206005000000004 8.0682565000000022 -0.59240644999999992
decision_type=2 2 2
left_child=-1 2 -2
right_child=1 -3 -4
leaf_value=-0.0012191671806203277 -8.297084622831618e-05 -0.0012489436763271564 0.0032385998031388584
leaf_weight=612.27177378535271 446.10839661955833 428.46966922283173 409.46548771858215
leaf_count=2081 1515 1459 1377
internal_value=0 0.000587166 0.00150669
internal_weight=0 1284.04 855.574
internal_count=6432 4351 2892
is_linear=0
shrinkage=0.025


Tree=82
num_leaves=4
num_cat=0
split_feature=6 9 10
split_gain=3.05561 3.3832 3.32079
threshold=-2.9713095999999997 7.1369010000000008 3.6467324000000008
decision_type=2 2 2
left_child=-1 2 -2
right_child=1 -3 -4
leaf_value=0.0020957850294084494 0.00059000691151744867 0.0014283640837840657 -0.0026799796103636865
leaf_weight=337.99314750730991 307.82129426300526 359.97570598125458 525.40326781570911
leaf_count=1376 1311 1495 2250
internal_value=0 -0.000596947 -0.00147194
internal_weight=0 1193.2 833.225
internal_count=6432 5056 3561
is_linear=0
shrinkage=0.025


Tree=83
num_leaves=4
num_cat=0
split_feature=6 6 10
split_gain=2.05031 3.32319 2.58697
threshold=-2.0814270499999994 -0.59240644999999992 4.4134112000000005
decision_type=2 2 2
left_child=-1 -2 -3
right_child=1 2 -4
leaf_value=-0.0013979120758908117 0.0025462389119789287 0.0011132663882443181 -0.0016800488556350829
leaf_weight=471.00975386798382 362.73465043306351 403.14647547900677 426.38323482871056
leaf_count=1872 1378 1546 1636
internal_value=0 0.000550275 -0.000322514
internal_weight=0 1192.26 829.53
internal_count=6432 4560 3182
is_linear=0
shrinkage=0.025


Tree=84
num_leaves=3
num_cat=0
split_feature=5 9
split_gain=2.28036 3.21324
threshold=-3.1314664999999997 -1.1680122999999998
decision_type=2 2
left_child=-1 -2
right_child=1 -3
leaf_value=-0.0047556878073504961 0.0072492443160975147 -0.0029214752306649162
leaf_weight=423.07885819673538 426.48005674779415 372.38833697140217
leaf_count=2245 2173 2014
internal_value=0 0.00250822
internal_weight=0 798.868
internal_count=6432 4187
is_linear=0
shrinkage=0.08


Tree=85
num_leaves=3
num_cat=0
split_feature=11 1
split_gain=1.93411 3.18506
threshold=0.38206005000000004 -5.7639319999999996
decision_type=2 2
left_child=-1 -2
right_child=1 -3
leaf_value=-0.0036851146798295392 0.0057575133409839222 -0.0022095816107622064
leaf_weight=611.46270534396172 643.44199100136757 641.13212513923645
leaf_count=2081 2185 2166
internal_value=0 0.00178113
internal_weight=0 1284.57
internal_count=6432 4351
is_linear=0
shrinkage=0.08


Tree=86
num_leaves=4
num_cat=0
split_feature=2 2 1
split_gain=2.78142 4.04627 3.3857
threshold=-2.6812728999999993 -4.9816217499999995 -6.165929049999999
decision_type=2 2 2
left_child=1 2 -1
right_child=-2 -3 -4
leaf_value=-0.0078332482381332693 -0.0063599594039350478 0.0078437114794620739 0.0030393474519805294
leaf_weight=330.25313638150692 342.81047995388508 445.8431801199913 411.93603745102882
leaf_count=1420 1437 1851 1724
internal_value=0 0.00181992 -0.00179865
internal_weight=0 1188.03 742.189
internal_count=6432 4995 3144
is_linear=0
shrinkage=0.08


Tree=87
num_leaves=4
num_cat=0
split_feature=7 1 7
split_gain=1.72452 3.26956 3.97151
threshold=0.26562030500000006 -4.1557445499999988 -0.32200082999999996
decision_type=2 2 2
left_child=1 2 -1
right_child=-2 -3 -4
leaf_value=0.008256382950109626 0.0045575041679138317 -0.0069813109386237526 -0.0030930613696667146
leaf_weight=333.73353596031666 402.03076313436031 444.42407365143299 482.78338733315468
leaf_count=1290 1512 1744 1886
internal_value=0 -0.00145963 0.00154578
internal_weight=0 1260.94 816.517
internal_count=6432 4920 3176
is_linear=0
shrinkage=0.08


Tree=88
num_leaves=4
num_cat=0
split_feature=8 8 8
split_gain=2.22656 3.85475 3.55034
threshold=-0.11787626499999999 -0.045521553499999992 0.031082615000000004
decision_type=2 2 2
left_child=-1 -2 -3
right_child=1 2 -4
leaf_value=-0.0067419481960833035 0.0097915227689622311 -0.009580630722684811 0.0030519006446389947
leaf_weight=266.39455673098564 295.0976415425539 246.56386244297028 413.77378061413765
leaf_count=1476 1521 1307 2128
internal_value=0 0.00187351 -0.00166497
internal_weight=0 955.435 660.338
internal_count=6432 4956 3435
is_linear=0
shrinkage=0.0833333


Tree=89
num_leaves=4
num_cat=0
split_feature=0 9 6
split_gain=1.82619 2.58641 2.97541
threshold=4.0721890000000007 -9.193165999999998 0.82442333000000012
decision_type=2 2 2
left_child=1 -1 -3
right_child=-2 2 -4
leaf_value=0.0046027755283035987 0.0051459402476987642 -0.00022621440631024513 -0.009271318218249551
leaf_weight=385.93604049086571 384.86984798312187 742.45417961478233 382.75461968779564
leaf_count=1300 1300 2532 1300
internal_value=0 -0.00128394 -0.00330303
internal_weight=0 1511.14 1125.21
internal_count=6432 5132 3832
is_linear=0
shrinkage=0.0833333


Tree=90
num_leaves=4
num_cat=0
split_feature=10 10 3
split_gain=2.69942 4.86937 5.61397
threshold=5.2527137000000002 4.2152240500000007 -0.50290375999999992
decision_type=2 2 2
left_child=1 2 -1
right_child=-2 -3 -4
leaf_value=0.0053819943272315771 -0.0048287941016138024 0.01100239001951029 -0.0098281697651934757
leaf_weight=374.77815093100071 529.47068095207214 320.27299140393734 306.19211061298847
leaf_count=1521 2275 1300 1336
internal_value=0 0.00252837 -0.00145712
internal_weight=0 1001.24 680.97
internal_count=6432 4157 2857
is_linear=0
shrinkage=0.0833333


Tree=91
num_leaves=4
num_cat=0
split_feature=0 8 6
split_gain=1.65293 3.64162 3.66699
threshold=3.7072346000000005 0.031868927000000005 -1.3615706999999999
decision_type=2 2 2
left_child=1 2 -1
right_child=-2 -3 -4
leaf_value=0.011271691029131092 -0.0048550434164274054 -0.0049599902883629716 0.00016073612868606276
leaf_weight=338.5772200524807 377.32143038511276 419.02919419109821 527.87685446441174
leaf_count=1301 1475 1645 2011
internal_value=0 0.00141799 0.00450247
internal_weight=0 1285.48 866.454
internal_count=6432 4957 3312
is_linear=0
shrinkage=0.0833333


Tree=92
num_leaves=4
num_cat=0
split_feature=2 4 2
split_gain=2.11089 1.87302 4.83545
threshold=-7.326384749999999 3.0608698000000003 -3.7852818499999992
decision_type=2 2 2
left_child=-1 2 -2
right_child=1 -3 -4
leaf_value=-0.0077786110287861032 -0.010871410698225517 0.0071715608078113807 0.0083143703735913937
leaf_weight=271.61716525256634 276.67009477317333 423.2680346518755 250.12569850683212
leaf_count=1508 1436 2197 1291
internal_value=0 0.0022181 -0.00176189
internal_weight=0 950.064 526.796
internal_count=6432 4924 2727
is_linear=0
shrinkage=0.1


Tree=93
num_leaves=3
num_cat=0
split_feature=3 6
split_gain=1.81422 1.95734
threshold=-2.6988595499999994 0.41300644000000003
decision_type=2 2
left_child=-1 -2
right_child=1 -3
leaf_value=0.0038730285344999622 0.00098080716297875266 -0.0074001841701060462
leaf_weight=744.53434631228447 678.48264098167419 472.87592959403992
leaf_count=2521 2309 1602
internal_value=0 -0.00246136
internal_weight=0 1151.36
internal_count=6432 3911
is_linear=0
shrinkage=0.1


Tree=94
num_leaves=4
num_cat=0
split_feature=5 10 8
split_gain=2.53504 3.52741 3.20797
threshold=-0.80904184999999995 5.2527137000000002 -0.0090138039999999985
decision_type=2 2 2
left_child=1 2 -1
right_child=-2 -3 -4
leaf_value=0.00052319484086354865 -0.0060401589890644019 -0.005385308297054422 0.014133381958700231
leaf_weight=371.4357482790947 479.8672111928463 354.59227126836777 324.4620702713728
leaf_count=1552 2060 1512 1308
internal_value=0 0.00273253 0.00686894
internal_weight=0 1050.49 695.898
internal_count=6432 4372 2860
is_linear=0
shrinkage=0.1


Tree=95
num_leaves=4
num_cat=0
split_feature=9 11 9
split_gain=1.47198 3.96041 2.10595
threshold=-3.8696993499999999 0.85404150000000001 -10.784666749999998
decision_type=2 2 2
left_child=2 -2 -1
right_child=1 -3 -4
leaf_value=0.0023518581845070972 0.0094636601295297017 -0.0034314146597860225 -0.0086036369991379005
leaf_weight=329.6979586482048 443.74834732711315 514.11092132329941 375.07410024106503
leaf_count=1297 1672 1988 1475
internal_value=0 0.0025425 -0.00347857
internal_weight=0 957.859 704.772
internal_count=6432 3660 2772
is_linear=0
shrinkage=0.1


Tree=96
num_leaves=4
num_cat=0
split_feature=1 0 8
split_gain=2.07701 3.63454 2.53451
threshold=-8.9850029999999972 -0.44266402999999993 -0.0090138039999999985
decision_type=2 2 2
left_child=-1 -2 -3
right_child=1 2 -4
leaf_value=0.0044569660006127726 -0.0058580869848036017 -0.0019328170648208157 0.0062511012112563078
leaf_weight=287.4840292185545 383.66209083795547 302.77549438178539 247.66391491889954
leaf_count=1456 2084 1619 1273
internal_value=0 -0.00137519 0.00174944
internal_weight=0 934.102 550.439
internal_count=6432 4976 2892
is_linear=0
shrinkage=0.06


Tree=97
num_leaves=4
num_cat=0
split_feature=11 9 6
split_gain=1.67849 2.83711 3.39149
threshold=0.38206005000000004 8.0682565000000022 -0.82721144999999996
decision_type=2 2 2
left_child=-1 2 -2
right_child=1 -3 -4
leaf_value=-0.0025766228213127359 -0.00057642413076940851 -0.0027483980628307536 0.006969623758509156
leaf_weight=610.49857896566391 424.56458649039268 427.56911358237267 433.1800582408905
leaf_count=2081 1440 1459 1452
internal_value=0 0.00124424 0.0032345
internal_weight=0 1285.31 857.745
internal_count=6432 4351 2892
is_linear=0
shrinkage=0.06


Tree=98
num_leaves=4
num_cat=0
split_feature=4 8 10
split_gain=2.44999 3.7841 4.11017
threshold=-0.78468631499999986 -0.05230477749999999 4.3253135500000006
decision_type=2 2 2
left_child=-1 -2 -3
right_child=1 2 -4
leaf_value=-0.0038651794503254777 -0.003086937205959317 -0.00083857708214187692 0.0084322531573650054
leaf_weight=427.11848273873329 409.43381655216217 317.56499496102333 375.9836943000555
leaf_count=1817 1753 1306 1556
internal_value=0 0.00148705 0.00418729
internal_weight=0 1102.98 693.549
internal_count=6432 4615 2862
is_linear=0
shrinkage=0.06


Tree=99
num_leaves=4
num_cat=0
split_feature=7 2 11
split_gain=1.44888 3.04834 1.60073
threshold=0.26562030500000006 -5.2392890499999991 0.74676072000000004
decision_type=2 2 2
left_child=1 -1 -3
right_child=-2 2 -4
leaf_value=0.0022189009866573611 0.003123809790540165 -0.00095189121988587715 -0.0067561880615192443
leaf_weight=573.48717270791531 403.03081151843071 360.15442638099194 325.76610869169235
leaf_count=2192 1512 1428 1300
internal_value=0 -0.00100941 -0.00370854
internal_weight=0 1259.41 685.921
internal_count=6432 4920 2728
is_linear=0
shrinkage=0.06


Tree=100
num_leaves=3
num_cat=0
split_feature=5 9
split_gain=1.93102 2.76455
threshold=-3.1314664999999997 -1.1680122999999998
decision_type=2 2
left_child=-1 -2
right_child=1 -3
leaf_value=-0.0054822199691899097 0.0083544514917081487 -0.003430766444164872
leaf_weight=421.14545588195324 428.75126679241657 371.51844167709351
leaf_count=2245 2173 2014
internal_value=0 0.00288326
internal_weight=0 800.27
internal_count=6432 4187
is_linear=0
shrinkage=0.1


Tree=101
num_leaves=4
num_cat=0
split_feature=2 5 4
split_gain=1.68669 2.50659 3.15053
threshold=-6.9951207999999996 -1.0769448999999998 2.1152725000000006
decision_type=2 2 2
left_child=-1 2 -2
right_child=1 -3 -4
leaf_value=0.0049988221267381712 0.0010361601628171636 0.0039789387327903184 -0.010778511465450889
leaf_weight=501.0513119995594 449.63604575395584 491.74169147014618 453.19685769081116
leaf_count=1690 1519 1662 1561
internal_value=0 -0.00176562 -0.00489447
internal_weight=0 1394.57 902.833
internal_count=6432 4742 3080
is_linear=0
shrinkage=0.1


Tree=102
num_leaves=4
num_cat=0
split_feature=2 2 0
split_gain=2.3681 3.41882 2.85283
threshold=-2.6812728999999993 -4.9816217499999995 -0.66470832499999988
decision_type=2 2 2
left_child=1 2 -1
right_child=-2 -3 -4
leaf_value=0.0043557033282237284 -0.0073591928450826294 0.0089890880928136154 -0.008063339503925699
leaf_weight=357.09284776449203 341.1105799973011 447.98908415436745 383.74379602074623
leaf_count=1508 1437 1851 1636
internal_value=0 0.00209295 -0.0020772
internal_weight=0 1188.83 740.837
internal_count=6432 4995 3144
is_linear=0
shrinkage=0.1


Tree=103
num_leaves=4
num_cat=0
split_feature=11 0 0
split_gain=1.59652 4.17342 1.18336
threshold=0.54074465000000005 -2.7218548999999994 0.064016135000000016
decision_type=2 2 2
left_child=2 -2 -1
right_child=1 -3 -4
leaf_value=-0.0079606032250063036 0.01155582579773891 -0.0021220948535833292 0.00045617313164527155
leaf_weight=337.20169401168823 338.04617720842361 655.90273143351078 331.02528068423271
leaf_count=1295 1301 2550 1286
internal_value=0 0.00252982 -0.00379111
internal_weight=0 993.949 668.227
internal_count=6432 3851 2581
is_linear=0
shrinkage=0.1


Tree=104
num_leaves=4
num_cat=0
split_feature=7 8 7
split_gain=1.91674 4.22296 5.37878
threshold=-0.43488834999999998 -0.0016761432499999998 0.12636076000000004
decision_type=2 2 2
left_child=-1 2 -2
right_child=1 -3 -4
leaf_value=0.0070592480419039566 -0.018295972025530249 0.0051858640277128408 0.0022866772450037638
leaf_weight=292.22149726748466 262.96755239367485 420.64467263221741 245.49020205438137
leaf_count=1538 1399 2166 1329
internal_value=0 -0.00222633 -0.00835839
internal_weight=0 929.102 508.458
internal_count=6432 4894 2728
is_linear=0
shrinkage=0.1


Tree=105
num_leaves=4
num_cat=0
split_feature=3 9 2
split_gain=1.63222 4.14822 2.14353
threshold=-8.7646669999999975 7.5876106500000011 -5.7307989999999993
decision_type=2 2 2
left_child=-1 2 -2
right_child=1 -3 -4
leaf_value=0.0053500672149834963 0.007250850088395832 -0.010555059324139993 -0.0019388550906258202
leaf_weight=441.3856937289238 412.06302157044411 381.10048040747643 660.94593161344528
leaf_count=1493 1392 1306 2241
internal_value=0 -0.00159287 0.00159023
internal_weight=0 1454.11 1073.01
internal_count=6432 4939 3633
is_linear=0
shrinkage=0.1


Tree=106
num_leaves=4
num_cat=0
split_feature=6 9 10
split_gain=2.29917 2.67137 3.33044
threshold=-2.9713095999999997 7.1369010000000008 3.6467324000000008
decision_type=2 2 2
left_child=-1 2 -2
right_child=1 -3 -4
leaf_value=0.007230018514984728 0.0030620274572706763 0.0050849438551500148 -0.010074924720243083
leaf_weight=340.27751570940018 306.06939847767353 361.17828921973705 522.28799006342888
leaf_count=1376 1311 1495 2250
internal_value=0 -0.00209178 -0.00522096
internal_weight=0 1189.54 828.357
internal_count=6432 5056 3561
is_linear=0
shrinkage=0.1


Tree=107
num_leaves=4
num_cat=0
split_feature=6 2 5
split_gain=1.41818 3.24235 1.69901
threshold=-2.0814270499999994 -3.3733628999999996 -2.3091860999999994
decision_type=2 2 2
left_child=-1 2 -2
right_child=1 -3 -4
leaf_value=-0.0046740111567063342 -0.0063952475574468844 0.010028580243905455 0.0025796966680539015
leaf_weight=467.83332802355289 385.66199684143066 343.07174104452133 465.54355962574482
leaf_count=1872 1478 1324 1758
internal_value=0 0.00182125 -0.00148665
internal_weight=0 1194.28 851.206
internal_count=6432 4560 3236
is_linear=0
shrinkage=0.1


Tree=108
num_leaves=4
num_cat=0
split_feature=5 8 9
split_gain=2.36379 4.15903 2.30432
threshold=-2.3385539999999998 -0.0045183989999999985 -1.1680122999999998
decision_type=2 2 2
left_child=1 -1 -2
right_child=2 -3 -4
leaf_value=-0.0032798032606646921 0.0023978883074741919 0.001021436652135883 -0.00056516929782267019
leaf_weight=289.2406747341156 351.71472218632698 273.22679732739925 307.41301488876343
leaf_count=1560 1787 1419 1666
internal_value=0 -0.00119041 0.00101594
internal_weight=0 562.467 659.128
internal_count=6432 2979 3453
is_linear=0
shrinkage=0.025


Tree=109
num_leaves=3
num_cat=0
split_feature=11 1
split_gain=1.9393 2.60561
threshold=0.38206005000000004 -5.7639319999999996
decision_type=2 2
left_child=-1 -2
right_child=1 -3
leaf_value=-0.001155706507469309 0.0016765692053193418 -0.00057549289802453032
leaf_weight=611.37306705117226 644.68632739782333 639.69640973210335
leaf_count=2081 2185 2166
internal_value=0 0.000554913
internal_weight=0 1284.38
internal_count=6432 4351
is_linear=0
shrinkage=0.025


Tree=110
num_leaves=4
num_cat=0
split_feature=4 8 10
split_gain=2.49531 3.83193 4.38809
threshold=-0.78468631499999986 -0.05230477749999999 4.3253135500000006
decision_type=2 2 2
left_child=-1 -2 -3
right_child=1 2 -4
leaf_value=-0.0016252804863923704 -0.001292437238778726 -0.00040275194366521343 0.0035885902232854977
leaf_weight=427.33601814508438 409.5333890914917 318.07345260679722 375.26022471487522
leaf_count=1817 1753 1306 1556
internal_value=0 0.000624966 0.00175752
internal_weight=0 1102.87 693.334
internal_count=6432 4615 2862
is_linear=0
shrinkage=0.025


Tree=111
num_leaves=4
num_cat=0
split_feature=7 2 4
split_gain=1.84013 3.45093 1.33831
threshold=0.26562030500000006 -5.1724224999999988 2.2629484000000004
decision_type=2 2 2
left_child=1 -1 -3
right_child=-2 2 -4
leaf_value=0.00092728449993472308 0.0014735619507473079 -0.0028433838819200783 -0.00061130371689030233
leaf_weight=588.94205501675606 401.45291873812675 326.03026674687862 346.11772631108761
leaf_count=2254 1512 1309 1357
internal_value=0 -0.000469828 -0.00169399
internal_weight=0 1261.09 672.148
internal_count=6432 4920 2666
is_linear=0
shrinkage=0.025


Tree=112
num_leaves=4
num_cat=0
split_feature=1 6 6
split_gain=1.90727 3.53647 2.91678
threshold=-8.9850029999999972 -2.0439340999999995 0.22462908500000003
decision_type=2 2 2
left_child=-1 -2 -3
right_child=1 2 -4
leaf_value=0.0071089228644276442 0.006737413226057332 -0.013516954604485116 7.3472571043212056e-05
leaf_weight=288.18188866972923 300.35184252262115 303.24777705967426 329.52335867285728
leaf_count=1456 1536 1651 1789
internal_value=0 -0.00219819 -0.00643957
internal_weight=0 933.123 632.771
internal_count=6432 4976 3440
is_linear=0
shrinkage=0.1


Tree=113
num_leaves=3
num_cat=0
split_feature=11 1
split_gain=1.56567 2.59728
threshold=0.38206005000000004 -5.7639319999999996
decision_type=2 2
left_child=-1 -2
right_child=1 -3
leaf_value=-0.0041517126562399054 0.0064777366498367239 -0.0025124049799364286
leaf_weight=610.0084373652935 645.23171955347061 640.21056696772575
leaf_count=2081 2185 2166
internal_value=0 0.00200022
internal_weight=0 1285.44
internal_count=6432 4351
is_linear=0
shrinkage=0.1


Tree=114
num_leaves=4
num_cat=0
split_feature=4 8 10
split_gain=2.07757 3.34876 3.67914
threshold=-0.78468631499999986 -0.05230477749999999 4.3253135500000006
decision_type=2 2 2
left_child=-1 -2 -3
right_child=1 2 -4
leaf_value=-0.0059563673399437612 -0.004916719627615823 -0.0014449440113251989 0.013155198213973316
leaf_weight=425.45996731519699 408.63280121982098 317.61483529210091 378.01589992642403
leaf_count=1817 1753 1306 1556
internal_value=0 0.0022683 0.00648899
internal_weight=0 1104.26 695.631
internal_count=6432 4615 2862
is_linear=0
shrinkage=0.1


Tree=115
num_leaves=4
num_cat=0
split_feature=7 1 7
split_gain=1.31183 3.01742 3.56179
threshold=0.26562030500000006 -4.1557445499999988 -0.32200082999999996
decision_type=2 2 2
left_child=1 2 -1
right_child=-2 -3 -4
leaf_value=0.0099414382914594403 0.0049572242444906878 -0.0082413293370014393 -0.0034942581197526107
leaf_weight=334.34305483102798 403.5572132319212 442.75519388914108 481.40921133756638
leaf_count=1290 1512 1744 1886
internal_value=0 -0.00159491 0.00201248
internal_weight=0 1258.51 815.752
internal_count=6432 4920 3176
is_linear=0
shrinkage=0.1


Tree=116
num_leaves=4
num_cat=0
split_feature=5 8 8
split_gain=1.87465 3.40174 2.28267
threshold=-2.3385539999999998 -0.0045183989999999985 -0.036778960499999992
decision_type=2 2 2
left_child=1 -1 -2
right_child=2 -3 -4
leaf_value=-0.011893081225580766 0.009342056376555467 0.0037022559682718913 -0.0024105130965222121
leaf_weight=285.65192392468452 338.639752805233 274.05237793922424 322.79329770803452
leaf_count=1560 1788 1419 1665
internal_value=0 -0.00425701 0.00360655
internal_weight=0 559.704 661.433
internal_count=6432 2979 3453
is_linear=0
shrinkage=0.1


Tree=117
num_leaves=4
num_cat=0
split_feature=10 10 7
split_gain=1.62947 2.54771 2.02186
threshold=4.8075349500000009 2.1447348500000003 -0.18162228499999997
decision_type=2 2 2
left_child=1 -1 -2
right_child=2 -3 -4
leaf_value=0.0038424764480400383 -0.0018903600780795079 -0.006262475599246216 0.0080449584793043354
leaf_weight=394.57644376158714 386.93156364560127 678.63266545534134 435.21322709321976
leaf_count=1337 1312 2320 1463
internal_value=0 -0.00254729 0.00336903
internal_weight=0 1073.21 822.145
internal_count=6432 3657 2775
is_linear=0
shrinkage=0.1


Tree=118
num_leaves=4
num_cat=0
split_feature=10 10 3
split_gain=2.2497 2.80737 4.70884
threshold=5.6556406500000014 4.2614364500000006 -0.50290375999999992
decision_type=2 2 2
left_child=1 2 -1
right_child=-2 -3 -4
leaf_value=0.0060492128734363111 -0.0060276109091884937 0.0091563591482108214 -0.010533662535767879
leaf_weight=380.64325910806656 442.73265029489994 394.90907536447048 311.25773999094963
leaf_count=1544 1925 1600 1363
internal_value=0 0.00242898 -0.00141074
internal_weight=0 1086.81 691.901
internal_count=6432 4507 2907
is_linear=0
shrinkage=0.1


Tree=119
num_leaves=4
num_cat=0
split_feature=11 0 0
split_gain=1.36371 3.64036 0.98501
threshold=0.54074465000000005 -2.7218548999999994 0.064016135000000016
decision_type=2 2 2
left_child=2 -2 -1
right_child=1 -3 -4
leaf_value=-0.0073218919162383288 0.010741706773850911 -0.0020151486700581574 0.00036473123344565677
leaf_weight=335.74181473255157 339.61542889475822 655.36929070949554 331.14216853678226
leaf_count=1295 1301 2550 1286
internal_value=0 0.00233911 -0.00350509
internal_weight=0 994.985 666.884
internal_count=6432 3851 2581
is_linear=0
shrinkage=0.1


Tree=120
num_leaves=4
num_cat=0
split_feature=1 0 3
split_gain=2.07814 3.69112 2.41201
threshold=-8.9850029999999972 -0.44266402999999993 0.24100649500000002
decision_type=2 2 2
left_child=-1 -2 -3
right_child=1 2 -4
leaf_value=0.0029752093621446597 -0.0039255215039409796 0.0037465919072744019 -0.0015538535906369179
leaf_weight=287.40363122522831 383.72693571448326 284.33586746454239 265.74989131093025
leaf_count=1456 2084 1514 1378
internal_value=0 -0.000914503 0.00118591
internal_weight=0 933.813 550.086
internal_count=6432 4976 2892
is_linear=0
shrinkage=0.04


Tree=121
num_leaves=3
num_cat=0
split_feature=11 11
split_gain=1.57523 2.34258
threshold=0.38206005000000004 1.1530263500000002
decision_type=2 2
left_child=-1 -2
right_child=1 -3
leaf_value=-0.0016674289372507782 0.0023372496796312731 -0.0010971311976658118
leaf_weight=610.09385365247726 710.29522716999054 575.03169625997543
leaf_count=2081 2401 1950
internal_value=0 0.000800771
internal_weight=0 1285.33
internal_count=6432 4351
is_linear=0
shrinkage=0.04


Tree=122
num_leaves=3
num_cat=0
split_feature=5 7
split_gain=2.13179 2.18858
threshold=-2.9261952499999997 -0.031120879999999993
decision_type=2 2
left_child=-1 -2
right_child=1 -3
leaf_value=0.0018336714958821579 0.00022669886614579954 -0.0038420520939056509
leaf_weight=606.16050297021866 595.15247839689255 328.15509487688541
leaf_count=2475 2499 1458
internal_value=0 -0.00121939
internal_weight=0 923.308
internal_count=6432 3957
is_linear=0
shrinkage=0.04


Tree=123
num_leaves=4
num_cat=0
split_feature=9 11 11
split_gain=1.42629 4.5742 2.23129
threshold=-3.8696993499999999 0.85404150000000001 0.50767748500000009
decision_type=2 2 2
left_child=2 -2 -1
right_child=1 -3 -4
leaf_value=-0.0034759510064387073 0.0039895463507122466 -0.0015553148734892674 0.0010364611716171649
leaf_weight=374.91387924551964 442.33766996860504 515.40414406359196 329.35632427036762
leaf_count=1479 1672 1988 1293
internal_value=0 0.00100561 -0.00136569
internal_weight=0 957.742 704.27
internal_count=6432 3660 2772
is_linear=0
shrinkage=0.04


Tree=124
num_leaves=4
num_cat=0
split_feature=8 8 7
split_gain=1.85633 3.47498 3.59283
threshold=-0.11787626499999999 -0.045521553499999992 -0.21141043999999998
decision_type=2 2 2
left_child=-1 -2 -3
right_child=1 2 -4
leaf_value=-0.0074144847500040509 0.011040984484238917 -0.0096525240840327226 0.0051145314804290831
leaf_weight=264.54121892154217 296.59054899215698 317.5371233522892 342.43791908025742
leaf_count=1476 1521 1664 1771
internal_value=0 0.00205007 -0.00199042
internal_weight=0 956.566 659.975
internal_count=6432 4956 3435
is_linear=0
shrinkage=0.1


Tree=125
num_leaves=4
num_cat=0
split_feature=0 9 6
split_gain=1.52207 2.11911 2.63615
threshold=4.0721890000000007 -9.193165999999998 -0.64812931499999993
decision_type=2 2 2
left_child=1 -1 -3
right_child=-2 2 -4
leaf_value=0.0049703143669052527 0.0056251620751885346 0.0015953069974175974 -0.008120397505466892
leaf_weight=386.7172292470932 385.6476021707058 520.97907316684723 601.92875465750694
leaf_count=1300 1300 1782 2050
internal_value=0 -0.00141404 -0.00361274
internal_weight=0 1509.63 1122.91
internal_count=6432 5132 3832
is_linear=0
shrinkage=0.1


Tree=126
num_leaves=4
num_cat=0
split_feature=2 11 9
split_gain=1.99455 2.88416 2.95524
threshold=-2.6812728999999993 0.9801730500000001 -1.9611354999999999
decision_type=2 2 2
left_child=1 2 -1
right_child=-2 -3 -4
leaf_value=0.003589884240205678 -0.0067822408133423858 0.0081792244358115315 -0.0091949546584346453
leaf_weight=416.66637629270554 339.50090207159519 453.66240610182285 319.39476171135902
leaf_count=1768 1437 1884 1343
internal_value=0 0.00190765 -0.00195777
internal_weight=0 1189.72 736.061
internal_count=6432 4995 3111
is_linear=0
shrinkage=0.1


Tree=127
num_leaves=4
num_cat=0
split_feature=5 5 7
split_gain=1.22787 3.6397 2.6177
threshold=-2.3091860999999994 -4.1361506999999991 -0.25299495
decision_type=2 2 2
left_child=1 -1 -2
right_child=2 -3 -4
leaf_value=0.0036676687558112285 -0.0038318554916966598 -0.01009581012045627 0.0071418591713211842
leaf_weight=401.03168255090714 375.27086254954338 368.85736852884293 516.6449901163578
leaf_count=1566 1458 1437 1971
internal_value=0 -0.00292648 0.0025247
internal_weight=0 769.889 891.916
internal_count=6432 3003 3429
is_linear=0
shrinkage=0.1


Tree=128
num_leaves=4
num_cat=0
split_feature=9 5 4
split_gain=1.76764 3.32352 2.40827
threshold=9.0136030000000016 -3.1314664999999997 1.6441470500000002
decision_type=2 2 2
left_child=1 -1 -3
right_child=-2 2 -4
leaf_value=-0.0052162502938673597 -0.0056662453442814665 0.010975511160374821 0.00052829579636079439
leaf_weight=313.07885268330574 290.85561314225197 283.32012920081615 333.71231277287006
leaf_count=1664 1585 1463 1720
internal_value=0 0.00177697 0.0053253
internal_weight=0 930.111 617.032
internal_count=6432 4847 3183
is_linear=0
shrinkage=0.0833333


Tree=129
num_leaves=3
num_cat=0
split_feature=11 1
split_gain=1.50293 2.35793
threshold=0.38206005000000004 -5.7639319999999996
decision_type=2 2
left_child=-1 -2
right_child=1 -3
leaf_value=-0.0033897665185040351 0.005185602898816111 -0.0019525617144316467
leaf_weight=609.72786375880241 645.85842490196228 639.62137821316719
leaf_count=2081 2185 2166
internal_value=0 0.00163384
internal_weight=0 1285.48
internal_count=6432 4351
is_linear=0
shrinkage=0.0833333


Tree=130
num_leaves=4
num_cat=0
split_feature=6 3 9
split_gain=2.01295 2.688 2.52386
threshold=-2.9713095999999997 7.1976919500000003 -4.8430585999999991
decision_type=2 2 2
left_child=-1 2 -2
right_child=1 -3 -4
leaf_value=0.0056223768951733678 -0.0099471083602118635 0.0043591736460296604 -0.0005322623191114683
leaf_weight=341.23977664113045 327.28200496733189 361.08429953455925 499.5289958268404
leaf_count=1376 1405 1561 2090
internal_value=0 -0.00163934 -0.004259
internal_weight=0 1187.9 826.811
internal_count=6432 5056 3495
is_linear=0
shrinkage=0.0833333


Tree=131
num_leaves=4
num_cat=0
split_feature=11 2 9
split_gain=1.18407 3.47933 2.17187
threshold=0.54074465000000005 -5.8194320499999987 -5.8590522999999992
decision_type=2 2 2
left_child=2 -2 -1
right_child=1 -3 -4
leaf_value=-0.0075360259002114306 0.007725585419740698 -0.0022904684486125771 0.0019832889763443098
leaf_weight=329.40420450270176 408.02012756466866 587.83343036472797 336.43375971913338
leaf_count=1306 1540 2311 1275
internal_value=0 0.0018133 -0.00272612
internal_weight=0 995.854 665.838
internal_count=6432 3851 2581
is_linear=0
shrinkage=0.0833333


Tree=132
num_leaves=4
num_cat=0
split_feature=3 1 3
split_gain=1.7907 4.66782 1.87974
threshold=-3.8473584999999995 -8.084462499999999 5.0815901500000011
decision_type=2 2 2
left_child=-1 -2 -3
right_child=1 2 -4
leaf_value=-0.0052192486013055046 0.01406245787845508 0.0034413109021066363 -0.0083390305363038996
leaf_weight=427.3696615844965 251.71043281257153 272.34350475668907 269.47531868517399
leaf_count=2314 1264 1428 1426
internal_value=0 0.00280988 -0.00241768
internal_weight=0 793.529 541.819
internal_count=6432 4118 2854
is_linear=0
shrinkage=0.1


Tree=133
num_leaves=4
num_cat=0
split_feature=3 5 7
split_gain=1.39032 3.63823 2.91657
threshold=-8.7646669999999975 -0.80904184999999995 0.013190938500000001
decision_type=2 2 2
left_child=-1 2 -2
right_child=1 -3 -4
leaf_value=0.0049341825883078179 -0.00062442778898056457 0.0057816780411423371 -0.01181599941148409
leaf_weight=442.13027489185333 606.27134516835213 468.68134102225304 378.06573805212975
leaf_count=1493 2068 1583 1288
internal_value=0 -0.00147007 -0.0049229
internal_weight=0 1453.02 984.337
internal_count=6432 4939 3356
is_linear=0
shrinkage=0.1


Tree=134
num_leaves=4
num_cat=0
split_feature=10 10 3
split_gain=1.92124 3.29005 4.18806
threshold=5.2527137000000002 4.2614364500000006 -0.50290375999999992
decision_type=2 2 2
left_child=1 2 -1
right_child=-2 -3 -4
leaf_value=0.0057060658470832115 -0.0049232036766217093 0.0110581802041583 -0.0099468867415936201
leaf_weight=381.41886842250824 525.50394701957703 312.33144199848175 309.73862288892269
leaf_count=1544 2275 1250 1363
internal_value=0 0.00254042 -0.00130872
internal_weight=0 1003.49 691.157
internal_count=6432 4157 2907
is_linear=0
shrinkage=0.1


Tree=135
num_leaves=4
num_cat=0
split_feature=10 2 11
split_gain=1.14124 2.77769 1.68215
threshold=4.6564680000000012 -5.1724224999999988 0.84379072500000019
decision_type=2 2 2
left_child=1 -1 -2
right_child=2 -3 -4
leaf_value=0.0084124108728460979 0.0013116847175349664 -0.0028760471688666868 -0.0080055980390149554
leaf_weight=415.00399571657181 442.79034531116486 459.13878905773163 344.54577215015888
leaf_count=1570 1709 1812 1341
internal_value=0 0.00248321 -0.00276565
internal_weight=0 874.143 787.336
internal_count=6432 3382 3050
is_linear=0
shrinkage=0.1


Tree=136
num_leaves=3
num_cat=0
split_feature=0 9
split_gain=2.02158 1.84037
threshold=-3.5904494999999996 -1.1680122999999998
decision_type=2 2
left_child=-1 -2
right_child=1 -3
leaf_value=-0.0012905108967492878 0.0013629474224368548 -0.00047829310973177198
leaf_weight=347.48359777033329 470.38896603882313 403.32803143560886
leaf_count=1855 2395 2182
internal_value=0 0.000512988
internal_weight=0 873.717
internal_count=6432 4577
is_linear=0
shrinkage=0.02


Tree=137
num_leaves=3
num_cat=0
split_feature=11 11
split_gain=1.92518 2.46854
threshold=0.38206005000000004 1.1530263500000002
decision_type=2 2
left_child=-1 -2
right_child=1 -3
leaf_value=-0.00092181130060424573 0.0012311488652469455 -0.00053231184864986896
leaf_weight=611.30103072524071 709.34363406896591 574.81919503211975
leaf_count=2081 2401 1950
internal_value=0 0.000441786
internal_weight=0 1284.16
internal_count=6432 4351
is_linear=0
shrinkage=0.02


Tree=138
num_leaves=4
num_cat=0
split_feature=1 0 5
split_gain=2.05693 3.3369 3.57041
threshold=-8.9850029999999972 -0.55101612999999994 -1.7536263999999997
decision_type=2 2 2
left_child=-1 -2 -3
right_child=1 2 -4
leaf_value=-0.0013783017750108274 0.0016472019411677352 0.00080280551664993222 -0.0020715984785116938
leaf_weight=338.18662814795971 493.72046732902527 380.89848652482033 316.4740322381258
leaf_count=1456 2047 1562 1367
internal_value=0 0.000389086 -0.000501625
internal_weight=0 1191.09 697.373
internal_count=6432 4976 2929
is_linear=0
shrinkage=0.02


Tree=139
num_leaves=4
num_cat=0
split_feature=7 1 7
split_gain=1.76015 3.28492 3.72619
threshold=0.26562030500000006 -4.1557445499999988 -0.32200082999999996
decision_type=2 2 2
left_child=1 2 -1
right_child=-2 -3 -4
leaf_value=0.0020083893637385312 0.0011523766802991801 -0.0017517798064700832 -0.00073978235832164257
leaf_weight=334.15765906870365 401.67308324575424 444.29411087930202 482.0359084457159
leaf_count=1290 1512 1744 1886
internal_value=0 -0.000367944 0.000385346
internal_weight=0 1260.49 816.194
internal_count=6432 4920 3176
is_linear=0
shrinkage=0.02


Tree=140
num_leaves=4
num_cat=0
split_feature=8 3 7
split_gain=2.88311 4.45681 3.61378
threshold=-0.11945125499999999 -3.8473584999999995 -0.12979311499999999
decision_type=2 2 2
left_child=-1 -2 -3
right_child=1 2 -4
leaf_value=-0.0015328424740287383 -0.001099987598607638 0.00020575750973522223 0.0027997511066747078
leaf_weight=265.57772362232208 340.44068820774555 361.39249601960182 254.06036822497845
leaf_count=1458 1803 1870 1301
internal_value=0 0.000430157 0.00127656
internal_weight=0 955.894 615.453
internal_count=6432 4974 3171
is_linear=0
shrinkage=0.0166667


Tree=141
num_leaves=4
num_cat=0
split_feature=4 5 2
split_gain=1.72914 3.82389 3.115
threshold=-1.7450788999999998 -2.3091860999999994 -4.6297726499999987
decision_type=2 2 2
left_child=-1 -2 -3
right_child=1 2 -4
leaf_value=0.00092160195841702085 0.00064588909810382993 -0.0020849060620904566 1.1377387314683084e-05
leaf_weight=434.24357667565346 673.61087965965271 404.41040748357773 383.74800351262093
leaf_count=1452 2306 1371 1303
internal_value=0 -0.000276182 -0.00106424
internal_weight=0 1461.77 788.158
internal_count=6432 4980 2674
is_linear=0
shrinkage=0.0166667


Tree=142
num_leaves=3
num_cat=0
split_feature=10 3
split_gain=3.01218 3.59649
threshold=5.6556406500000014 -0.50290375999999992
decision_type=2 2
left_child=1 -1
right_child=-2 -3
leaf_value=0.0014136084847283282 -0.0011519234801862382 -0.00050678822386622914
leaf_weight=554.51288326084614 445.87273724377155 529.62277381122112
leaf_count=2259 1925 2248
internal_value=0 0.000475455
internal_weight=0 1084.14
internal_count=6432 4507
is_linear=0
shrinkage=0.0166667


Tree=143
num_leaves=4
num_cat=0
split_feature=7 2 4
split_gain=1.79325 3.84318 1.70033
threshold=0.26562030500000006 -5.1724224999999988 2.2629484000000004
decision_type=2 2 2
left_child=1 -1 -3
right_child=-2 2 -4
leaf_value=0.000674394755089588 0.00096827363049128415 -0.0020296228974623063 -0.00035395014927229208
leaf_weight=587.74050882458687 401.72569620609283 327.90727992355824 345.38559918105602
leaf_count=2254 1512 1309 1357
internal_value=0 -0.000310387 -0.00117004
internal_weight=0 1261.03 673.293
internal_count=6432 4920 2666
is_linear=0
shrinkage=0.0166667


Tree=144
num_leaves=4
num_cat=0
split_feature=8 8 7
split_gain=1.71133 2.92021 3.08273
threshold=-0.11945125499999999 -0.045521553499999992 -0.21141043999999998
decision_type=2 2 2
left_child=-1 -2 -3
right_child=1 2 -4
leaf_value=-0.0071896702648671026 0.010095751342986641 -0.008920867112966956 0.004773528627193835
leaf_weight=260.39007963240147 301.82703472673893 315.33216316998005 343.38334222137928
leaf_count=1458 1539 1664 1771
internal_value=0 0.00195024 -0.00178208
internal_weight=0 960.543 658.716
internal_count=6432 4974 3435
is_linear=0
shrinkage=0.1


Tree=145
num_leaves=4
num_cat=0
split_feature=2 2 8
split_gain=1.49436 2.12347 2.50472
threshold=-6.9951207999999996 -4.8496325999999987 0.0029524880500000007
decision_type=2 2 2
left_child=-1 -2 -3
right_child=1 2 -4
leaf_value=0.0046951392232726877 -0.0072727647955604883 0.0054263106375732513 -0.0050499402402180539
leaf_weight=501.59950003027916 455.4056379199028 546.26041361689568 391.97799649834633
leaf_count=1690 1554 1848 1340
internal_value=0 -0.00166997 0.00104953
internal_weight=0 1393.64 938.238
internal_count=6432 4742 3188
is_linear=0
shrinkage=0.1


Tree=146
num_leaves=4
num_cat=0
split_feature=10 5 8
split_gain=1.80245 3.12604 2.52703
threshold=5.2527137000000002 -0.93894049499999988 -0.0090138039999999985
decision_type=2 2 2
left_child=1 2 -1
right_child=-2 -3 -4
leaf_value=0.00056905028893510033 -0.0047629128866121485 -0.0057221794411821576 0.012734569514815709
leaf_weight=364.36863850057125 524.94869187474251 318.26956301927567 321.31719791889191
leaf_count=1518 2275 1357 1282
internal_value=0 0.00246822 0.0062699
internal_weight=0 1003.96 685.686
internal_count=6432 4157 2800
is_linear=0
shrinkage=0.1


Tree=147
num_leaves=4
num_cat=0
split_feature=8 6 0
split_gain=1.20096 1.83469 1.71809
threshold=-0.010205029999999999 -1.4185480499999998 -0.44266402999999993
decision_type=2 2 2
left_child=1 -1 -2
right_child=2 -3 -4
leaf_value=0.0074789801986120926 0.0019401342547731384 -0.0014986584295626965 -0.0077363535624633264
leaf_weight=401.48224388062954 357.6301911175251 525.69892148673534 376.82938535511494
leaf_count=1538 1397 1992 1505
internal_value=0 0.00238878 -0.00302458
internal_weight=0 927.181 734.46
internal_count=6432 3530 2902
is_linear=0
shrinkage=0.1


Tree=148
num_leaves=4
num_cat=0
split_feature=7 8 7
split_gain=1.7268 3.79432 4.84412
threshold=-0.43488834999999998 -0.0016761432499999998 0.12636076000000004
decision_type=2 2 2
left_child=-1 2 -2
right_child=1 -3 -4
leaf_value=0.0066897109822851063 -0.017451291531526147 0.004891245770459531 0.0021213375959769683
leaf_weight=292.99721004068851 260.54562450945377 421.58097420632839 245.68764148652554
leaf_count=1538 1399 2166 1329
internal_value=0 -0.00211639 -0.00795221
internal_weight=0 927.814 506.233
internal_count=6432 4894 2728
is_linear=0
shrinkage=0.1


Tree=149
num_leaves=4
num_cat=0
split_feature=4 5 2
split_gain=1.4017 3.97069 2.86079
threshold=-1.7450788999999998 -2.3091860999999994 -4.6297726499999987
decision_type=2 2 2
left_child=-1 -2 -3
right_child=1 2 -4
leaf_value=0.0049974790839664961 0.0041749437781920546 -0.012165877106502906 -0.00010833686091884723
leaf_weight=435.09902188181877 672.41140466928482 403.6313738822937 383.9563367664814
leaf_count=1452 2306 1371 1303
internal_value=0 -0.00146907 -0.00628771
internal_weight=0 1460 787.588
internal_count=6432 4980 2674
is_linear=0
shrinkage=0.1


Tree=150
num_leaves=4
num_cat=0
split_feature=2 2 0
split_gain=1.78137 2.83181 2.61781
threshold=-2.6812728999999993 -4.9816217499999995 -0.66470832499999988
decision_type=2 2 2
left_child=1 2 -1
right_child=-2 -3 -4
leaf_value=0.0041523305616074238 -0.0064182705254660719 0.00805583370503315 -0.0077513241284121268
leaf_weight=357.34177342057228 338.449716553092 450.33236299455166 382.50318223237991
leaf_count=1508 1437 1851 1636
internal_value=0 0.00180368 -0.00200191
internal_weight=0 1190.18 739.845
internal_count=6432 4995 3144
is_linear=0
shrinkage=0.1


Tree=151
num_leaves=4
num_cat=0
split_feature=11 2 9
split_gain=1.19076 3.02171 1.96706
threshold=0.54074465000000005 -5.8194320499999987 -5.8590522999999992
decision_type=2 2 2
left_child=2 -2 -1
right_child=1 -3 -4
leaf_value=-0.0087771126763516154 0.0087848910532999352 -0.0024120815300637082 0.002094670370652097
leaf_weight=328.78690825402737 409.13817608356476 586.54780614376068 337.01112589240074
leaf_count=1306 1540 2311 1275
internal_value=0 0.00218888 -0.00327407
internal_weight=0 995.686 665.798
internal_count=6432 3851 2581
is_linear=0
shrinkage=0.1


Tree=152
num_leaves=4
num_cat=0
split_feature=11 11 11
split_gain=1.75482 4.94798 4.50699
threshold=0.048994898500000009 0.66049862000000015 1.4206976500000001
decision_type=2 2 2
left_child=-1 -2 -3
right_child=1 2 -4
leaf_value=-0.0074826208808415721 0.011896162754939307 -0.010119588981875609 0.0069357124895082492
leaf_weight=249.82365621626377 328.58538109064102 381.38671645522118 260.95799851417542
leaf_count=1281 1700 2051 1400
internal_value=0 0.00191503 -0.00319073
internal_weight=0 970.93 642.345
internal_count=6432 5151 3451
is_linear=0
shrinkage=0.1


Tree=153
num_leaves=4
num_cat=0
split_feature=11 2 4
split_gain=1.46738 2.46317 3.03982
threshold=0.38206005000000004 -6.2053014999999982 2.2629484000000004
decision_type=2 2 2
left_child=-1 -2 -3
right_child=1 2 -4
leaf_value=-0.0040252266715067441 0.0078496776586297456 0.0047216008517807391 -0.0073758953915492118
leaf_weight=609.53658831119537 454.62486779689789 416.87499150633812 413.9734423160553
leaf_count=2081 1536 1395 1420
internal_value=0 0.00193201 -0.00130602
internal_weight=0 1285.47 830.848
internal_count=6432 4351 2815
is_linear=0
shrinkage=0.1


Tree=154
num_leaves=4
num_cat=0
split_feature=1 0 5
split_gain=1.71343 2.95587 3.29394
threshold=-8.9850029999999972 -0.55101612999999994 -1.7536263999999997
decision_type=2 2 2
left_child=-1 -2 -3
right_child=1 2 -4
leaf_value=-0.0063085053328613867 0.0076771337936730301 0.0038275198757443327 -0.0099873317608222857
leaf_weight=336.54055613279343 495.33361327648163 381.17521761357784 315.40659931302071
leaf_count=1456 2047 1562 1367
internal_value=0 0.00177163 -0.00242773
internal_weight=0 1191.92 696.582
internal_count=6432 4976 2929
is_linear=0
shrinkage=0.1


Tree=155
num_leaves=4
num_cat=0
split_feature=7 1 7
split_gain=1.16631 2.85427 3.47042
threshold=0.26562030500000006 -4.1557445499999988 -0.32572108499999991
decision_type=2 2 2
left_child=1 2 -1
right_child=-2 -3 -4
leaf_value=0.0098694339550142139 0.0046689441813461885 -0.0079807910753401049 -0.0034079728807022893
leaf_weight=332.13221961259842 404.0144931524992 441.7697197496891 483.34215892851353
leaf_count=1278 1512 1744 1898
internal_value=0 -0.00150721 0.00199974
internal_weight=0 1257.24 815.474
internal_count=6432 4920 3176
is_linear=0
shrinkage=0.1


Tree=156
num_leaves=4
num_cat=0
split_feature=3 1 4
split_gain=1.68365 4.08369 1.78761
threshold=-3.8473584999999995 -8.084462499999999 2.3671868500000004
decision_type=2 2 2
left_child=-1 -2 -3
right_child=1 2 -4
leaf_value=-0.0025386673384240731 0.0065936869937476151 -0.0040460309145903817 0.0017056644750566908
leaf_weight=426.74183669686317 253.35420839488506 263.65696991980076 277.03207905590534
leaf_count=2314 1264 1393 1461
internal_value=0 0.00135547 -0.00109904
internal_weight=0 794.043 540.689
internal_count=6432 4118 2854
is_linear=0
shrinkage=0.05


Tree=157
num_leaves=4
num_cat=0
split_feature=3 5 1
split_gain=1.32357 1.80948 2.80092
threshold=-2.6988595499999994 -3.4339784499999992 -5.9778979999999988
decision_type=2 2 2
left_child=-1 -2 -3
right_child=1 2 -4
leaf_value=0.0016445600850216917 -0.0039033779567978176 -0.0027263683408161789 0.003295162091825574
leaf_weight=746.08853405714035 376.29254248738289 381.13674139976501 391.4821760058403
leaf_count=2521 1293 1296 1322
internal_value=0 -0.00106008 0.000324711
internal_weight=0 1148.91 772.619
internal_count=6432 3911 2618
is_linear=0
shrinkage=0.05


Tree=158
num_leaves=3
num_cat=0
split_feature=9 8
split_gain=1.7248 5.16126
threshold=-5.0725519999999991 -0.060189034999999995
decision_type=2 2
left_child=-1 -2
right_child=1 -3
leaf_value=-0.0021305242578083055 -0.0036689732247228075 0.0040667518571778248
leaf_weight=586.1643181592226 334.07724229991436 608.11754970252514
leaf_count=2497 1437 2498
internal_value=0 0.00132387
internal_weight=0 942.195
internal_count=6432 3935
is_linear=0
shrinkage=0.05


Tree=159
num_leaves=4
num_cat=0
split_feature=0 8 6
split_gain=1.15317 2.75204 3.2651
threshold=3.7072346000000005 0.031868927000000005 -1.3615706999999999
decision_type=2 2 2
left_child=1 2 -1
right_child=-2 -3 -4
leaf_value=0.0061288472060070133 -0.0024416345008357351 -0.0026302806770782078 -0.00014689487395067204
leaf_weight=340.70257169008255 374.62475968897343 416.75788357853889 529.1421335786581
leaf_count=1301 1475 1645 2011
internal_value=0 0.00071055 0.0023112
internal_weight=0 1286.6 869.845
internal_count=6432 4957 3312
is_linear=0
shrinkage=0.05


end of trees

feature_importances:
Column_8=56
Column_2=48
Column_9=47
Column_6=41
Column_7=41
Column_11=39
Column_10=35
Column_1=34
Column_5=34
Column_3=32
Column_0=27
Column_4=25

parameters:
[boosting: dart]
[objective: multiclass]
[metric: multi_logloss]
[tree_learner: serial]
[device_type: cpu]
[data: ]
[valid: ]
[num_iterations: 40]
[learning_rate: 0.1]
[num_leaves: 4]
[num_threads: 8]
[deterministic: 0]
[force_col_wise: 0]
[force_row_wise: 0]
[histogram_pool_size: -1]
[max_depth: -1]
[min_data_in_leaf: 1286]
[min_sum_hessian_in_leaf: 0.001]
[bagging_fraction: 1]
[pos_bagging_fraction: 1]
[neg_bagging_fraction: 1]
[bagging_freq: 0]
[bagging_seed: 3]
[feature_fraction: 1]
[feature_fraction_bynode: 1]
[feature_fraction_seed: 2]
[extra_trees: 0]
[extra_seed: 6]
[early_stopping_round: 0]
[first_metric_only: 0]
[max_delta_step: 0]
[lambda_l1: 0]
[lambda_l2: 0]
[linear_lambda: 0]
[min_gain_to_split: 0]
[drop_rate: 0.1]
[max_drop: 50]
[skip_drop: 0.5]
[xgboost_dart_mode: 0]
[uniform_drop: 0]
[drop_seed: 4]
[top_rate: 0.2]
[other_rate: 0.1]
[min_data_per_group: 100]
[max_cat_threshold: 32]
[cat_l2: 10]
[cat_smooth: 10]
[max_cat_to_onehot: 4]
[top_k: 20]
[monotone_constraints: ]
[monotone_constraints_method: basic]
[monotone_penalty: 0]
[feature_contri: ]
[forcedsplits_filename: ]
[refit_decay_rate: 0.9]
[cegb_tradeoff: 1]
[cegb_penalty_split: 0]
[cegb_penalty_feature_lazy: ]
[cegb_penalty_feature_coupled: ]
[path_smooth: 0]
[interaction_constraints: ]
[verbosity: 1]
[saved_feature_importance_type: 0]
[linear_tree: 0]
[max_bin: 255]
[max_bin_by_feature: ]
[min_data_in_bin: 3]
[bin_construct_sample_cnt: 200000]
[data_random_seed: 1]
[is_enable_sparse: 1]
[enable_bundle: 1]
[use_missing: 1]
[zero_as_missing: 0]
[feature_pre_filter: 1]
[pre_partition: 0]
[two_round: 0]
[header: 0]
[label_column: ]
[weight_column: ]
[group_column: ]
[ignore_column: ]
[categorical_feature: ]
[forcedbins_filename: ]
[precise_float_parser: 0]
[parser_config_file: ]
[objective_seed: 5]
[num_class: 4]
[is_unbalance: 0]
[scale_pos_weight: 1]
[sigmoid: 1]
[boost_from_average: 1]
[reg_sqrt: 0]
[alpha: 0.9]
[fair_c: 1]
[poisson_max_delta_step: 0.7]
[tweedie_variance_power: 1.5]
[lambdarank_truncation_level: 30]
[lambdarank_norm: 1]
[label_gain: ]
[eval_at: ]
[multi_error_top_k: 1]
[auc_mu_weights: ]
[num_machines: 1]
[local_listen_port: 12400]
[time_out: 120]
[machine_list_filename: ]
[machines: ]
[gpu_platform_id: 1]
[gpu_device_id: 0]
[gpu_use_dp: 0]
[num_gpu: 1]

end of parameters

pandas_categorical:null
