tree
version=v4
num_class=1
num_tree_per_iteration=1
label_index=0
max_feature_idx=11
objective=binary sigmoid:1
feature_names=Column_0 Column_1 Column_2 Column_3 Column_4 Column_5 Column_6 Column_7 Column_8 Column_9 Column_10 Column_11
feature_infos=[-29.749303999999999:11.225439] [-24.374748:15.052626999999999] [-16.241683999999999:9.4496640000000003] [-74.378799999999998:76.833489999999998] [-45.86862:40.129196] [-32.257713000000003:27.612888000000002] [-17.945896000000001:14.213497] [-2.7432531999999998:2.2395208000000002] [-0.88125500000000001:2.5189976999999999] [-109.15806600000001:74.819389999999999] [-35.793320000000001:71.932329999999993] [-31.478106:24.871704000000001]
tree_sizes=465 563 549 559 567 566 563 562 567 567 568 567 458 462 459 567 460 563 567 567 567 565 563 564 562 569 564 462 562 564 462 458 565 568 563 564 567 568 461 565 568 566 571 569 566 463 567 568 456 564 565 459 566 569 461 568 565 465 459 568 463 566 566 457 564 557 568 461 565 569 565 565 458 570 563 564 571 464 462 560 570 459 571 462 567 568 563 571 450 569 464 563 564 570 568 566 562 564 448 457 466 564 576 567 575 463 569 562 564 466 462 562 570 560 560 568 572 550 569 569

Tree=0
num_leaves=3
num_cat=0
split_feature=3 7
split_gain=20.9903 24.2081
threshold=-2.4688477499999997 -0.30578813499999996
decision_type=2 2
left_child=-1 -2
right_child=1 -3
leaf_value=-0.2234214251921709 -0.21570338889163421 -0.055555740395718506
leaf_weight=624.77783021330833 326.14035546779633 614.5555205643177
leaf_count=2567 1340 2525
internal_value=-0.155915 -0.111079
internal_weight=0 940.696
internal_count=6432 3865
is_linear=0
shrinkage=0.475115


Tree=1
num_leaves=4
num_cat=0
split_feature=7 4 6
split_gain=24.5427 21.7802 14.7145
threshold=-0.22376716999999999 1.7552913500000003 -0.16618670499999996
decision_type=2 2 2
left_child=1 -1 -2
right_child=2 -3 -4
leaf_value=-0.017547305323411335 -0.070892079965711771 0.10169626590626735 0.016203736713067286
leaf_weight=308.19002231955528 538.10364644229412 362.0390549749136 346.61791254580021
leaf_count=1291 2211 1514 1416
internal_value=0 0.0468647 -0.0367695
internal_weight=0 670.229 884.722
internal_count=6432 2805 3627
is_linear=0
shrinkage=0.32967


Tree=2
num_leaves=4
num_cat=0
split_feature=6 2 6
split_gain=24.4149 19.6477 14.658
threshold=0.45424965 -6.3521799999999988 -1.5097162999999998
decision_type=2 2 2
left_child=1 -1 -3
right_child=-2 2 -4
leaf_value=-0.073421379480827165 -0.11163508132484076 0.028700964476398839 0.21292522118402252
leaf_weight=322.01552498340607 531.84552049636841 365.95886163413525 326.24156546592712
leaf_count=1355 2176 1539 1362
internal_value=0 0.0555361 0.115528
internal_weight=0 1014.22 692.2
internal_count=6432 4256 2901
is_linear=0
shrinkage=0.631944


Tree=3
num_leaves=4
num_cat=0
split_feature=0 1 9
split_gain=16.715 20.6597 13.3143
threshold=3.9685518500000003 -3.7152385999999997 -1.8161939999999996
decision_type=2 2 2
left_child=1 2 -1
right_child=-2 -3 -4
leaf_value=0.13637559554624851 -0.10248047107885636 -0.067972746857148478 0.0080712983306423132
leaf_weight=403.22489857673645 324.34919500350952 397.8050939142704 411.76596201956272
leaf_count=1688 1350 1667 1727
internal_value=0 0.0257864 0.0715511
internal_weight=0 1212.8 814.991
internal_count=6432 5082 3415
is_linear=0
shrinkage=0.501885


Tree=4
num_leaves=4
num_cat=0
split_feature=3 11 11
split_gain=11.1914 11.2329 9.51848
threshold=-9.1027437499999984 1.1329621000000001 0.29624474000000006
decision_type=2 2 2
left_child=-1 2 -2
right_child=1 -3 -4
leaf_value=0.067567635957129987 0.0072317851033434129 0.042020768345067898 -0.081677466874363794
leaf_weight=320.72535020112991 348.42696808278561 358.85814628005028 498.52367526292801
leaf_count=1387 1455 1506 2084
internal_value=0 -0.0191729 -0.0451011
internal_weight=0 1205.81 846.951
internal_count=6432 5045 3539
is_linear=0
shrinkage=0.412698


Tree=5
num_leaves=4
num_cat=0
split_feature=11 10 4
split_gain=12.1567 13.9189 10.9675
threshold=0.89703940000000004 4.3672058000000007 0.57218215000000006
decision_type=2 2 2
left_child=2 -2 -1
right_child=1 -3 -4
leaf_value=0.093734778376414543 -0.10862919241973258 0.013155340905525491 -0.0036493121147693161
leaf_weight=314.15246894955635 305.22269631922245 349.23263943195343 555.79193751513958
leaf_count=1349 1287 1464 2332
internal_value=0 -0.0436421 0.0315178
internal_weight=0 654.455 869.944
internal_count=6432 2751 3681
is_linear=0
shrinkage=0.416596


Tree=6
num_leaves=4
num_cat=0
split_feature=4 3 4
split_gain=14.3448 8.73166 11.5815
threshold=-0.99420303499999985 -6.2297206499999991 3.1110728500000007
decision_type=2 2 2
left_child=-1 -2 -3
right_child=1 2 -4
leaf_value=-0.084255414331392914 -0.043227191143484681 0.13727687389862786 0.0084911871772076208
leaf_weight=409.4162672907114 317.85725347697735 308.81098891794682 483.42288643121719
leaf_count=1745 1354 1306 2027
internal_value=0 0.0295087 0.0586916
internal_weight=0 1110.09 792.234
internal_count=6432 4687 3333
is_linear=0
shrinkage=0.519481


Tree=7
num_leaves=4
num_cat=0
split_feature=7 6 4
split_gain=38.7895 51.3521 15.6303
threshold=-0.22376716999999999 0.27404831500000004 2.4158919000000005
decision_type=2 2 2
left_child=2 -2 -1
right_child=1 -3 -4
leaf_value=0.0044557662227441251 -0.053312879626478245 0.031729974414046125 0.056158944883094961
leaf_weight=322.18756178021431 560.2571779936552 304.391601100564 327.52353666722775
leaf_count=1405 2336 1291 1400
internal_value=0 -0.0233743 0.0305197
internal_weight=0 864.649 649.711
internal_count=6432 3627 2805
is_linear=0
shrinkage=0.166667


Tree=8
num_leaves=4
num_cat=0
split_feature=8 8 5
split_gain=11.5268 16.2924 17.2779
threshold=-0.11570958049999999 -0.043334898499999989 -3.0795209499999996
decision_type=2 2 2
left_child=-1 -2 -3
right_child=1 2 -4
leaf_value=0.066140557270273542 -0.095430869017694597 -0.062224157500469945 0.063976803752267913
leaf_weight=351.40033413469791 361.20798397064209 325.98005656898022 473.57990871369839
leaf_count=1494 1539 1386 2013
internal_value=0 -0.0210689 0.0125248
internal_weight=0 1160.77 799.56
internal_count=6432 4938 3399
is_linear=0
shrinkage=0.421875


Tree=9
num_leaves=4
num_cat=0
split_feature=5 7 5
split_gain=15.1815 12.3535 12.8327
threshold=-0.83523989999999992 -0.29002998499999993 -3.2263719999999996
decision_type=2 2 2
left_child=1 -1 -3
right_child=-2 2 -4
leaf_value=0.12663004274736026 -0.079196038985454048 0.076448984297379521 -0.069812108230849684
leaf_weight=308.29937797784805 490.72319693863392 322.09430329501629 382.41193109750748
leaf_count=1322 2084 1391 1635
internal_value=0 0.0364994 -0.00294277
internal_weight=0 1012.81 704.506
internal_count=6432 4348 3026
is_linear=0
shrinkage=0.539864


Tree=10
num_leaves=4
num_cat=0
split_feature=7 5 8
split_gain=8.90454 7.73792 5.46474
threshold=-0.30578813499999996 -3.0795209499999996 -0.022661056499999995
decision_type=2 2 2
left_child=-1 -2 -3
right_child=1 2 -4
leaf_value=-0.046522436404459057 -0.026622952446237726 0.011989721506284509 0.087432518707482948
leaf_weight=484.69561930000782 365.69258940219879 338.33605198562145 309.36455748975277
leaf_count=2067 1565 1492 1308
internal_value=0 0.0210868 0.0480239
internal_weight=0 1013.39 647.701
internal_count=6432 4365 2800
is_linear=0
shrinkage=0.410256


Tree=11
num_leaves=4
num_cat=0
split_feature=3 11 7
split_gain=34.3275 22.2919 6.35916
threshold=-9.1027437499999984 1.1329621000000001 -0.23825802499999996
decision_type=2 2 2
left_child=-1 2 -2
right_child=1 -3 -4
leaf_value=0.057619243230013717 -0.052840997403467364 0.025743839550793773 -0.018358904221462316
leaf_weight=307.71822108328342 360.48805986344814 349.54913948476315 478.11089991033077
leaf_count=1387 1519 1506 2020
internal_value=0 -0.015846 -0.0331817
internal_weight=0 1188.15 838.599
internal_count=6432 5045 3539
is_linear=0
shrinkage=0.196032


Tree=12
num_leaves=3
num_cat=0
split_feature=4 4
split_gain=7.7529 13.8082
threshold=0.38438487000000005 3.7432913500000002
decision_type=2 2
left_child=-1 -2
right_child=1 -3
leaf_value=0.035280584678028241 -0.074309558898480163 0.014976302378095573
leaf_weight=524.71844224631786 379.92488652467728 593.63363909721375
leaf_count=2309 1605 2518
internal_value=0 -0.0198669
internal_weight=0 973.559
internal_count=6432 4123
is_linear=0
shrinkage=0.365714


Tree=13
num_leaves=3
num_cat=0
split_feature=8 6
split_gain=5.87656 9.11865
threshold=0.064787915000000015 -0.59240644999999992
decision_type=2 2
left_child=1 -1
right_child=-2 -3
leaf_value=0.054525352402780572 -0.054699889584920176 -0.026094669164177485
leaf_weight=592.06369043886662 326.59340867400169 580.24156169593334
leaf_count=2549 1388 2495
internal_value=0 0.0146218
internal_weight=0 1172.31
internal_count=6432 5044
is_linear=0
shrinkage=0.457031


Tree=14
num_leaves=3
num_cat=0
split_feature=6 10
split_gain=9.34073 8.41973
threshold=0.41300644000000003 4.7903230000000017
decision_type=2 2
left_child=1 -1
right_child=-2 -3
leaf_value=0.004594905576860848 0.021258688888161837 -0.032921517859245089
leaf_weight=546.00979882478714 526.0738500058651 422.53477247059345
leaf_count=2350 2277 1805
internal_value=0 -0.0117719
internal_weight=0 968.545
internal_count=6432 4155
is_linear=0
shrinkage=0.199546


Tree=15
num_leaves=4
num_cat=0
split_feature=7 5 6
split_gain=4.34164 8.66495 6.78962
threshold=0.05985723250000001 -3.6343425499999999 -0.52424785499999993
decision_type=2 2 2
left_child=1 -1 -3
right_child=-2 2 -4
leaf_value=-0.048094342922677821 0.020734689621417939 0.031956546063998344 -0.020345954219699626
leaf_weight=303.06487350165844 480.96962769329548 358.55423109233379 353.78431679308414
leaf_count=1292 2085 1539 1516
internal_value=0 -0.0101591 0.00598041
internal_weight=0 1015.4 712.339
internal_count=6432 4347 3055
is_linear=0
shrinkage=0.267857


Tree=16
num_leaves=3
num_cat=0
split_feature=7 8
split_gain=7.55005 5.09744
threshold=0.25657104000000003 0.0015988281000000003
decision_type=2 2
left_child=1 -1
right_child=-2 -3
leaf_value=-0.010047150358688889 -0.050983357467612116 0.043171945359159469
leaf_weight=593.6114696264267 354.3672993928194 542.34393665194511
leaf_count=2564 1527 2341
internal_value=0 0.0153615
internal_weight=0 1135.96
internal_count=6432 4905
is_linear=0
shrinkage=0.396825


Tree=17
num_leaves=4
num_cat=0
split_feature=5 4 5
split_gain=5.01207 10.7848 2.63481
threshold=-3.4339784499999992 1.1149629500000002 -0.99493754999999984
decision_type=2 2 2
left_child=-1 -2 -3
right_child=1 2 -4
leaf_value=0.066780046782368471 -0.12837267455400861 0.088404087744409499 -0.015999280389729337
leaf_weight=469.92388194799423 419.54663959145546 299.99840009212494 299.62814231216908
leaf_count=2029 1828 1290 1285
internal_value=0 -0.0315266 0.0362346
internal_weight=0 1019.17 599.627
internal_count=6432 4403 2575
is_linear=0
shrinkage=0.7875


Tree=18
num_leaves=4
num_cat=0
split_feature=4 0 0
split_gain=11.0121 6.58874 4.02202
threshold=3.2076503500000002 -2.2472405499999994 0.32636066000000002
decision_type=2 2 2
left_child=1 -1 -2
right_child=2 -3 -4
leaf_value=0.090468019343225708 -0.080633992362346016 0.0037913627251278787 -0.0073930510076134041
leaf_weight=301.99383072555065 343.04324269294739 524.88950464129448 313.82791242003441
leaf_count=1308 1463 2323 1338
internal_value=0 0.0354474 -0.0456423
internal_weight=0 826.883 656.871
internal_count=6432 3631 2801
is_linear=0
shrinkage=0.467532


Tree=19
num_leaves=4
num_cat=0
split_feature=7 7 10
split_gain=4.61818 8.71011 6.13468
threshold=0.05985723250000001 -0.41864122499999995 4.6693368000000008
decision_type=2 2 2
left_child=1 -1 -3
right_child=-2 2 -4
leaf_value=0.035958114661539378 0.034113968765867274 -0.085611179085097036 -0.0024187107625108437
leaf_weight=363.0533187314868 476.27343000471592 340.55375580489635 303.08900725841522
leaf_count=1584 2085 1461 1302
internal_value=0 -0.0167216 -0.0464362
internal_weight=0 1006.7 643.643
internal_count=6432 4347 2763
is_linear=0
shrinkage=0.425347


Tree=20
num_leaves=4
num_cat=0
split_feature=3 11 11
split_gain=11.6301 10.6292 7.50279
threshold=-9.1027437499999984 1.1329621000000001 0.29624474000000006
decision_type=2 2 2
left_child=-1 2 -2
right_child=1 -3 -4
leaf_value=0.038820785506103066 0.0010711014236937056 0.02275888653716223 -0.043421166606477365
leaf_weight=314.39371475577354 339.02757441997528 347.59410746395588 482.08613531291485
leaf_count=1387 1455 1506 2084
internal_value=0 -0.0108314 -0.0250509
internal_weight=0 1168.71 821.114
internal_count=6432 5045 3539
is_linear=0
shrinkage=0.229167


Tree=21
num_leaves=4
num_cat=0
split_feature=5 0 0
split_gain=3.94516 7.81046 6.07284
threshold=-1.4151392499999997 -0.13303663499999999 1.6936595500000002
decision_type=2 2 2
left_child=2 -2 -1
right_child=1 -3 -4
leaf_value=-0.036546572672243462 0.061620476784784432 -0.017456705336566545 0.022898850788335035
leaf_weight=564.25019642710686 293.05503621697426 303.35607089102268 322.19260613620281
leaf_count=2419 1273 1344 1396
internal_value=0 0.021399 -0.0149401
internal_weight=0 596.411 886.443
internal_count=6432 2617 3815
is_linear=0
shrinkage=0.345455


Tree=22
num_leaves=4
num_cat=0
split_feature=9 9 9
split_gain=3.93087 3.86096 4.86362
threshold=11.573457500000002 0.96430738000000005 -10.504301999999997
decision_type=2 2 2
left_child=1 2 -1
right_child=-2 -3 -4
leaf_value=0.042099482797874933 -0.04918146907087264 0.055519020298942186 -0.03204096815090849
leaf_weight=313.14943537116051 296.3210583627224 328.19839726388454 542.88176513463259
leaf_count=1347 1295 1440 2350
internal_value=0 0.0118307 -0.00491925
internal_weight=0 1184.23 856.031
internal_count=6432 5137 3697
is_linear=0
shrinkage=0.473761


Tree=23
num_leaves=4
num_cat=0
split_feature=5 2 2
split_gain=3.45152 5.63057 5.0256
threshold=-1.6637639999999998 -4.5200946999999987 -5.1433496499999984
decision_type=2 2 2
left_child=2 -2 -1
right_child=1 -3 -4
leaf_value=-0.022620742231532685 0.018771595727983613 -0.088277849209611334 0.067948580573842315
leaf_weight=391.93667179346085 349.04752317070961 309.42881325632334 427.7288306504488
leaf_count=1721 1528 1349 1834
internal_value=0 -0.0315327 0.0246414
internal_weight=0 658.476 819.666
internal_count=6432 2877 3555
is_linear=0
shrinkage=0.577778


Tree=24
num_leaves=4
num_cat=0
split_feature=1 8 11
split_gain=3.11457 6.9776 2.31526
threshold=-8.8751289999999994 0.0057196498000000014 0.61251015000000009
decision_type=2 2 2
left_child=-1 2 -2
right_child=1 -3 -4
leaf_value=-0.035341296798718946 0.010593561794446529 -0.030515823063050174 0.060955065682057136
leaf_weight=352.007523432374 303.70165783911943 449.40342753380537 370.17542159557343
leaf_count=1508 1322 1961 1641
internal_value=0 0.010743 0.0382582
internal_weight=0 1123.28 673.877
internal_count=6432 4924 2963
is_linear=0
shrinkage=0.4275


Tree=25
num_leaves=4
num_cat=0
split_feature=8 8 11
split_gain=7.0759 4.81739 2.25839
threshold=1.0000000180025095e-35 -0.076901412499999988 0.77799958000000013
decision_type=2 2 2
left_child=1 -1 -2
right_child=2 -3 -4
leaf_value=0.0020001469876533918 0.077588167150967696 -0.083329868483950728 0.010008388429502378
leaf_weight=499.44089379906654 322.49209305644035 354.13366097956896 297.95762806385756
leaf_count=2136 1400 1581 1315
internal_value=0 -0.0334018 0.0451344
internal_weight=0 853.575 620.45
internal_count=6432 3717 2715
is_linear=0
shrinkage=0.55963


Tree=26
num_leaves=4
num_cat=0
split_feature=6 4 3
split_gain=3.77293 6.54608 5.16834
threshold=-0.59795504999999982 1.4217315000000001 1.1719843000000003
decision_type=2 2 2
left_child=1 -1 -2
right_child=2 -3 -4
leaf_value=-0.075543695896332752 0.064834831842101051 0.012959348340602628 -0.012958548065815567
leaf_weight=305.25257763266563 339.86471578478813 430.1795377805829 393.96337613463402
leaf_count=1326 1544 1860 1702
internal_value=0 -0.0237752 0.0230706
internal_weight=0 735.432 733.828
internal_count=6432 3186 3246
is_linear=0
shrinkage=0.462222


Tree=27
num_leaves=3
num_cat=0
split_feature=8 1
split_gain=13.3033 10.7699
threshold=0.0057196498000000014 -6.0503172999999988
decision_type=2 2
left_child=1 -1
right_child=-2 -3
leaf_value=-0.0065316912096992355 -0.019797962692156203 0.030830429772247786
leaf_weight=420.21454054862261 589.61747968196869 455.89396174997091
leaf_count=1850 2542 2040
internal_value=0 0.0129102
internal_weight=0 876.109
internal_count=6432 3890
is_linear=0
shrinkage=0.16835


Tree=28
num_leaves=4
num_cat=0
split_feature=1 7 3
split_gain=3.8893 3.51605 3.626
threshold=-2.3759841499999994 -0.30578813499999996 -3.1731757999999997
decision_type=2 2 2
left_child=1 -1 -3
right_child=-2 2 -4
leaf_value=-0.023054048570113134 -0.043702834494897265 -0.0092769061667926332 0.050137823531469942
leaf_weight=378.04587381333113 300.14300345629454 306.83335206657648 483.56560318171978
leaf_count=1649 1329 1376 2078
internal_value=0 0.0108546 0.027073
internal_weight=0 1168.44 790.399
internal_count=6432 5103 3454
is_linear=0
shrinkage=0.4275


Tree=29
num_leaves=4
num_cat=0
split_feature=7 5 1
split_gain=5.91664 5.98937 5.17225
threshold=0.17282931500000001 -3.7019251499999997 -5.8887765499999984
decision_type=2 2 2
left_child=1 -1 -3
right_child=-2 2 -4
leaf_value=-0.025651185695299592 -0.034479343063155546 2.6201881898022669e-05 0.05315093019402424
leaf_weight=310.60129451751709 385.02654203027487 369.26592314243317 395.80683358758688
leaf_count=1365 1697 1619 1751
internal_value=0 0.0121597 0.02751
internal_weight=0 1075.67 765.073
internal_count=6432 4735 3370
is_linear=0
shrinkage=0.322862


Tree=30
num_leaves=3
num_cat=0
split_feature=7 6
split_gain=13.0403 10.1236
threshold=0.06507988000000002 -0.59240644999999992
decision_type=2 2
left_child=1 -1
right_child=-2 -3
leaf_value=0.0090732403208629592 0.036791692250991777 -0.044507216893525214
leaf_weight=506.04964523762465 458.90199583023787 497.07850022614002
leaf_count=2221 2069 2142
internal_value=0 -0.0174774
internal_weight=0 1003.13
internal_count=6432 4363
is_linear=0
shrinkage=0.266667


Tree=31
num_leaves=3
num_cat=0
split_feature=0 7
split_gain=3.65572 6.51187
threshold=1.5276271000000003 -0.19842982999999997
decision_type=2 2
left_child=1 -1
right_child=-2 -3
leaf_value=0.041513427307834951 -0.02034251175134599 -0.012733078376757332
leaf_weight=414.26689244061708 561.95240979641676 483.08514798432589
leaf_count=1800 2500 2132
internal_value=0 0.0123101
internal_weight=0 897.352
internal_count=6432 3932
is_linear=0
shrinkage=0.31746


Tree=32
num_leaves=4
num_cat=0
split_feature=7 6 6
split_gain=4.6754 5.09727 5.29969
threshold=0.16687122500000004 1.6013392000000002 -1.4679898499999997
decision_type=2 2 2
left_child=1 2 -1
right_child=-2 -3 -4
leaf_value=-0.0013513827589845102 0.046585829777068682 0.035935792552395172 -0.08695753969170375
leaf_weight=402.44746962934732 396.19754675775766 316.64290966838598 340.56007377058268
leaf_count=1779 1783 1375 1495
internal_value=0 -0.0177222 -0.0405893
internal_weight=0 1059.65 743.008
internal_count=6432 4649 3274
is_linear=0
shrinkage=0.505051


Tree=33
num_leaves=4
num_cat=0
split_feature=0 4 7
split_gain=2.96877 3.07008 2.29821
threshold=-5.7106479999999991 0.43742590000000009 -0.22932690499999997
decision_type=2 2 2
left_child=-1 -2 -3
right_child=1 2 -4
leaf_value=-0.042853538000337879 0.043829035148241199 -0.038549058373514439 0.015201317165731924
leaf_weight=299.11081780493259 411.57902120798826 317.31334602087736 428.25967495888472
leaf_count=1300 1873 1378 1881
internal_value=0 0.0106443 -0.00767466
internal_weight=0 1157.15 745.573
internal_count=6432 5132 3259
is_linear=0
shrinkage=0.478674


Tree=34
num_leaves=4
num_cat=0
split_feature=7 6 5
split_gain=9.80485 7.10304 4.8367
threshold=0.17282931500000001 1.1851318000000002 -2.7056955499999997
decision_type=2 2 2
left_child=1 2 -1
right_child=-2 -3 -4
leaf_value=0.0011393842512146251 -0.014389470744567071 -0.0066677502009918855 0.018724158901193558
leaf_weight=299.20105735957623 387.05127617716789 371.06880635768175 407.05545578896999
leaf_count=1321 1697 1617 1797
internal_value=0 0.00509454 0.0112745
internal_weight=0 1077.33 706.257
internal_count=6432 4735 3118
is_linear=0
shrinkage=0.105


Tree=35
num_leaves=4
num_cat=0
split_feature=1 0 9
split_gain=19.9147 12.666 11.4679
threshold=-3.5658194999999995 3.2972407500000007 -1.8161939999999996
decision_type=2 2 2
left_child=1 2 -1
right_child=-2 -3 -4
leaf_value=0.045048475024843215 -0.029971599380580291 -0.016605577975611314 0.0035486300962302994
leaf_weight=366.33429772406816 437.87002268433571 297.90364587306976 373.59824086725712
leaf_count=1594 1904 1303 1631
internal_value=0 0.0124121 0.0240948
internal_weight=0 1037.84 739.933
internal_count=6432 4528 3225
is_linear=0
shrinkage=0.166667


Tree=36
num_leaves=4
num_cat=0
split_feature=7 11 1
split_gain=3.37926 4.07019 4.05704
threshold=0.17282931500000001 0.94947180000000009 -5.5267177999999992
decision_type=2 2 2
left_child=1 2 -1
right_child=-2 -3 -4
leaf_value=0.029799563894175162 -0.043148953556830343 0.057293457539388463 -0.053374793868832995
leaf_weight=346.46708654612303 384.19691172987223 407.94295418262482 324.01135385781527
leaf_count=1511 1697 1797 1427
internal_value=0 0.0152102 -0.0103948
internal_weight=0 1078.42 670.478
internal_count=6432 4735 2938
is_linear=0
shrinkage=0.534323


Tree=37
num_leaves=4
num_cat=0
split_feature=11 9 3
split_gain=7.03942 3.63354 2.61249
threshold=0.89703940000000004 -7.8032494999999988 -1.3064555499999997
decision_type=2 2 2
left_child=1 -1 -2
right_child=2 -3 -4
leaf_value=-0.011221158801846194 -0.0055022186543702105 0.041283607912689535 -0.055034593582800731
leaf_weight=298.34744005650282 301.47476454079151 540.32947968691587 320.23291633278131
leaf_count=1293 1365 2388 1386
internal_value=0 0.0226058 -0.0310157
internal_weight=0 838.677 621.708
internal_count=6432 3681 2751
is_linear=0
shrinkage=0.38188


Tree=38
num_leaves=3
num_cat=0
split_feature=11 11
split_gain=4.00453 5.03413
threshold=0.93214693500000012 0.14724713500000003
decision_type=2 2
left_child=1 -1
right_child=-2 -3
leaf_value=0.024986823739635771 0.030667620018836474 -0.048059088452095999
leaf_weight=341.65187785029411 569.35890103876591 549.9452930316329
leaf_count=1481 2525 2426
internal_value=0 -0.0200686
internal_weight=0 891.597
internal_count=6432 3907
is_linear=0
shrinkage=0.472608


Tree=39
num_leaves=4
num_cat=0
split_feature=7 8 4
split_gain=6.34452 7.17469 7.03668
threshold=-0.22376716999999999 0.0057196498000000014 2.2629484000000004
decision_type=2 2 2
left_child=2 -2 -1
right_child=1 -3 -4
leaf_value=-0.011028280622576568 0.0047906444168056058 -0.063002022942955996 0.062609275719258617
leaf_weight=310.48783744871616 526.86427227407694 300.20380388200283 325.74298139661551
leaf_count=1384 2313 1314 1421
internal_value=0 -0.0198163 0.0266733
internal_weight=0 827.068 636.231
internal_count=6432 3627 2805
is_linear=0
shrinkage=0.35


Tree=40
num_leaves=4
num_cat=0
split_feature=11 4 10
split_gain=32.0755 29.1087 14.2489
threshold=0.89703940000000004 3.2689003500000005 4.3672058000000007
decision_type=2 2 2
left_child=1 -1 -2
right_child=2 -3 -4
leaf_value=0.041582216973471586 -0.047612918342158271 -0.012437081362094711 -0.0045634736000694448
leaf_weight=468.82006087899208 293.92919950932264 359.82584789395332 336.59727361053228
leaf_count=2128 1287 1553 1464
internal_value=0 0.0181252 -0.0246316
internal_weight=0 828.646 630.526
internal_count=6432 3681 2751
is_linear=0
shrinkage=0.142857


Tree=41
num_leaves=4
num_cat=0
split_feature=10 5 11
split_gain=3.86412 3.12713 1.85145
threshold=6.7711925000000006 -1.4151392499999997 0.61251015000000009
decision_type=2 2 2
left_child=1 2 -1
right_child=-2 -3 -4
leaf_value=-0.039130924820829888 -0.052056635495235828 0.04670295767153624 0.01406833984350875
leaf_weight=295.47501064836979 302.42273046076298 448.00850271433592 414.13060604035854
leaf_count=1278 1325 1995 1834
internal_value=0 0.0131194 -0.00808348
internal_weight=0 1157.61 709.606
internal_count=6432 5107 3112
is_linear=0
shrinkage=0.513416


Tree=42
num_leaves=4
num_cat=0
split_feature=8 8 1
split_gain=12.9436 9.4132 3.15018
threshold=1.0000000180025095e-35 -0.076901412499999988 -5.6927629999999985
decision_type=2 2 2
left_child=1 -1 -2
right_child=2 -3 -4
leaf_value=0.0012567515651598948 0.025945936100560632 -0.029138383388056098 0.0054992385026785759
leaf_weight=497.68445409089327 307.83282679319382 357.16461852192879 307.27771337330341
leaf_count=2136 1336 1581 1379
internal_value=0 -0.0114426 0.0157318
internal_weight=0 854.849 615.111
internal_count=6432 3717 2715
is_linear=0
shrinkage=0.142857


Tree=43
num_leaves=4
num_cat=0
split_feature=11 7 10
split_gain=3.95656 4.54855 2.66309
threshold=0.89703940000000004 -0.22489737499999998 4.6564680000000012
decision_type=2 2 2
left_child=1 -1 -2
right_child=2 -3 -4
leaf_value=-0.016050694842794231 -0.048896592403511782 0.042909139681587341 0.0031805695027906302
leaf_weight=361.52947169542313 326.36029069125652 479.86642586439848 294.24896665662527
leaf_count=1573 1464 2108 1287
internal_value=0 0.0175754 -0.0242053
internal_weight=0 841.396 620.609
internal_count=6432 3681 2751
is_linear=0
shrinkage=0.396964


Tree=44
num_leaves=4
num_cat=0
split_feature=7 5 7
split_gain=3.08197 5.13605 3.63143
threshold=-0.22376716999999999 -1.8561768499999998 0.06507988000000002
decision_type=2 2 2
left_child=1 -1 -2
right_child=2 -3 -4
leaf_value=0.076218750044874203 -0.062468536178648434 -0.019361213849157951 0.008948699919341498
leaf_weight=311.85950055718422 354.37714669853449 324.86302959173918 467.11243814975023
leaf_count=1343 1558 1462 2069
internal_value=0 0.0274528 -0.0218595
internal_weight=0 636.723 821.49
internal_count=6432 2805 3627
is_linear=0
shrinkage=0.531994


Tree=45
num_leaves=3
num_cat=0
split_feature=3 7
split_gain=31.0987 27.8462
threshold=-2.4688477499999997 -0.30578813499999996
decision_type=2 2
left_child=-1 -2
right_child=1 -3
leaf_value=-0.058678349053000692 -0.052369006845396346 -0.0094516155231734317
leaf_weight=609.67540277540684 319.62471126765013 592.4497774541378
leaf_count=2567 1340 2525
internal_value=0 -0.0244915
internal_weight=0 912.074
internal_count=6432 3865
is_linear=0
shrinkage=0.117188


Tree=46
num_leaves=4
num_cat=0
split_feature=7 5 5
split_gain=3.25198 5.58241 5.24806
threshold=0.17282931500000001 -3.7019251499999997 -0.26451636999999995
decision_type=2 2 2
left_child=1 -1 -3
right_child=-2 2 -4
leaf_value=-0.031821039845142583 -0.029499051967109002 0.051339488498942307 -0.011683616072760732
leaf_weight=309.07489440590143 384.59236171096563 471.30582752078772 294.04304783791304
leaf_count=1365 1697 2051 1319
internal_value=0 0.0101692 0.0271263
internal_weight=0 1074.42 765.349
internal_count=6432 4735 3370
is_linear=0
shrinkage=0.370192


Tree=47
num_leaves=4
num_cat=0
split_feature=10 6 11
split_gain=8.4646 6.70921 4.85379
threshold=4.7903230000000017 -0.59795504999999982 0.93214693500000012
decision_type=2 2 2
left_child=2 -2 -1
right_child=1 -3 -4
leaf_value=0.0015872561041418024 -0.053880104935191679 0.0040891519745158145 0.046530836530325553
leaf_weight=496.78277684003115 315.77957546710968 323.26293718069792 313.63263856619596
leaf_count=2210 1380 1420 1422
internal_value=0 -0.0245561 0.0189805
internal_weight=0 639.043 810.415
internal_count=6432 2800 3632
is_linear=0
shrinkage=0.282857


Tree=48
num_leaves=3
num_cat=0
split_feature=5 3
split_gain=11.425 9.63556
threshold=-3.4339784499999992 0.94307830000000015
decision_type=2 2
left_child=-1 -2
right_child=1 -3
leaf_value=0.018082830344492339 -0.021382996889633136 0.0061451442941844649
leaf_weight=457.09706009179354 537.75446143001318 464.4746986925602
leaf_count=2029 2400 2003
internal_value=0 -0.00862531
internal_weight=0 1002.23
internal_count=6432 4403
is_linear=0
shrinkage=0.14


Tree=49
num_leaves=4
num_cat=0
split_feature=7 5 1
split_gain=31.7464 20.6915 11.6417
threshold=0.17282931500000001 -3.7019251499999997 -5.8887765499999984
decision_type=2 2 2
left_child=1 -1 -3
right_child=-2 2 -4
leaf_value=-0.018293045635376384 -0.034260453279814397 0.0066130921785839368 0.041131726501926757
leaf_weight=312.3730995208025 396.40751907229424 369.92407094687223 388.7388527020812
leaf_count=1365 1697 1619 1751
internal_value=0 0.0118778 0.0243004
internal_weight=0 1071.04 758.663
internal_count=6432 4735 3370
is_linear=0
shrinkage=0.139286


Tree=50
num_leaves=4
num_cat=0
split_feature=2 0 11
split_gain=3.09918 3.40084 3.33902
threshold=-2.4363589499999994 3.0168672500000002 1.0128413000000003
decision_type=2 2 2
left_child=1 2 -1
right_child=-2 -3 -4
leaf_value=-0.069794104761113973 0.060258065328186158 0.039919091849572999 0.017282888327459285
leaf_weight=526.80955205112696 292.74808622151613 339.95537804812193 298.81775721907616
leaf_count=2313 1287 1522 1310
internal_value=0 -0.0154713 -0.0382785
internal_weight=0 1165.58 825.627
internal_count=6432 5145 3623
is_linear=0
shrinkage=0.658009


Tree=51
num_leaves=3
num_cat=0
split_feature=0 9
split_gain=3.46137 2.69051
threshold=1.5276271000000003 -2.2956952999999998
decision_type=2 2
left_child=1 -1
right_child=-2 -3
leaf_value=0.049217490383995664 -0.032033944181865059 -0.0077176337467663135
leaf_weight=432.25057312101126 564.00005139410496 460.83911522477865
leaf_count=1881 2500 2051
internal_value=0 0.0198387
internal_weight=0 893.09
internal_count=6432 3932
is_linear=0
shrinkage=0.518392


Tree=52
num_leaves=4
num_cat=0
split_feature=3 4 4
split_gain=10.419 9.45632 6.18526
threshold=-8.4515689999999974 -0.92925131499999991 3.1110728500000007
decision_type=2 2 2
left_child=-1 -2 -3
right_child=1 2 -4
leaf_value=-0.026311034883851725 -0.018965145154399177 0.037848179457347128 0.0059075164049317945
leaf_weight=364.45849124342203 293.30183421820402 313.24776880443096 493.46410607546568
leaf_count=1595 1302 1364 2171
internal_value=0 0.00837125 0.0183101
internal_weight=0 1100.01 806.712
internal_count=6432 4837 3535
is_linear=0
shrinkage=0.177778


Tree=53
num_leaves=4
num_cat=0
split_feature=7 5 9
split_gain=2.58225 4.47204 2.79403
threshold=-0.22489737499999998 -3.1314664999999997 1.0000000180025095e-35
decision_type=2 2 2
left_child=2 -2 -1
right_child=1 -3 -4
leaf_value=-0.046512658820144319 0.056685195098085617 -0.00713172516532074 0.0090313316531858874
leaf_weight=328.4479149505496 288.86354103684425 542.35856742411852 295.12421178072691
leaf_count=1431 1299 2397 1305
internal_value=0 0.0150457 -0.0202248
internal_weight=0 831.222 623.572
internal_count=6432 3696 2736
is_linear=0
shrinkage=0.414299


Tree=54
num_leaves=3
num_cat=0
split_feature=5 11
split_gain=3.35864 3.79602
threshold=-1.3398238499999997 0.82951980000000014
decision_type=2 2
left_child=1 -1
right_child=-2 -3
leaf_value=0.018526556151603521 0.045339266144278328 -0.081245581382692528
leaf_weight=458.36854448914528 569.21162471175194 428.12761551141739
leaf_count=1992 2545 1895
internal_value=0 -0.0296578
internal_weight=0 886.496
internal_count=6432 3887
is_linear=0
shrinkage=0.761905


Tree=55
num_leaves=4
num_cat=0
split_feature=5 2 4
split_gain=13.7615 9.51815 4.17052
threshold=-1.6031441499999999 -4.5200946999999987 3.3313853500000006
decision_type=2 2 2
left_child=2 -2 -1
right_child=1 -3 -4
leaf_value=0.016825613142929054 0.00060882845278586897 -0.026847419123148732 0.00050545380825325133
leaf_weight=467.29396157711744 346.50789163261652 307.94080896675587 356.42014820128679
leaf_count=2051 1503 1326 1552
internal_value=0 -0.0123103 0.0097639
internal_weight=0 654.449 823.714
internal_count=6432 2829 3603
is_linear=0
shrinkage=0.113636


Tree=56
num_leaves=4
num_cat=0
split_feature=4 5 7
split_gain=2.24477 5.14763 1.98001
threshold=5.5088665000000008 -1.6276394499999998 -0.11767385799999998
decision_type=2 2 2
left_child=1 2 -1
right_child=-2 -3 -4
leaf_value=0.068017763498792919 0.044057271298522327 -0.072981507332743015 -0.014025828996972262
leaf_weight=289.39689645171165 411.71366292983294 462.5768241584301 295.69551999121904
leaf_count=1254 1798 2051 1329
internal_value=0 -0.0173937 0.0265544
internal_weight=0 1047.67 585.092
internal_count=6432 4634 2583
is_linear=0
shrinkage=0.705128


Tree=57
num_leaves=3
num_cat=0
split_feature=5 8
split_gain=36.1369 20.6012
threshold=-3.0795209499999996 -0.040241224999999992
decision_type=2 2
left_child=-1 -2
right_child=1 -3
leaf_value=-0.059719544215099368 -0.037900220789044127 -0.0018382472508463514
leaf_weight=552.84917180985212 488.06116914749146 462.70273466408253
leaf_count=2351 2096 1985
internal_value=0 -0.0203502
internal_weight=0 950.764
internal_count=6432 4081
is_linear=0
shrinkage=0.122449


Tree=58
num_leaves=3
num_cat=0
split_feature=5 6
split_gain=54.6503 22.2857
threshold=-3.0795209499999996 -0.49424947999999996
decision_type=2 2
left_child=-1 -2
right_child=1 -3
leaf_value=-0.031782044771476115 0.037780457716251131 -0.0011769846570058168
leaf_weight=554.77116560190916 449.82390032708645 468.30083508789539
leaf_count=2351 2039 2042
internal_value=0 0.0179097
internal_weight=0 918.125
internal_count=6432 4081
is_linear=0
shrinkage=0.125


Tree=59
num_leaves=4
num_cat=0
split_feature=7 5 3
split_gain=3.13834 2.67405 2.77626
threshold=-0.30578813499999996 -1.4151392499999997 -1.9973164499999998
decision_type=2 2 2
left_child=-1 2 -2
right_child=1 -3 -4
leaf_value=-0.040727704138051386 -0.048620497255578474 0.059339081328171173 0.033102406356659404
leaf_weight=474.21681000292301 289.36456535756588 377.68285123258829 323.26170115172863
leaf_count=2067 1325 1656 1384
internal_value=0 0.0192294 -0.00549815
internal_weight=0 990.309 612.626
internal_count=6432 4365 2709
is_linear=0
shrinkage=0.606061


Tree=60
num_leaves=3
num_cat=0
split_feature=3 7
split_gain=23.5347 22.2436
threshold=-2.4688477499999997 -0.30578813499999996
decision_type=2 2
left_child=-1 -2
right_child=1 -3
leaf_value=-0.047952939239535246 -0.043124845764866859 -0.0033111880513835078
leaf_weight=601.94978527724743 312.93780996650457 587.79181727766991
leaf_count=2567 1340 2525
internal_value=0 -0.0171435
internal_weight=0 900.73
internal_count=6432 3865
is_linear=0
shrinkage=0.120635


Tree=61
num_leaves=4
num_cat=0
split_feature=7 8 5
split_gain=2.51108 3.55581 2.38649
threshold=-0.40278558999999997 0.031976834000000003 -1.6031441499999999
decision_type=2 2 2
left_child=-1 2 -2
right_child=1 -3 -4
leaf_value=0.047928086536457734 0.041734804906874166 -0.07696932753144034 -0.035089958046264039
leaf_weight=370.54283782839775 432.0084028840065 323.93278320878744 333.16338674724102
leaf_count=1630 1876 1450 1476
internal_value=0 -0.0170725 0.00828454
internal_weight=0 1089.1 765.172
internal_count=6432 4802 3352
is_linear=0
shrinkage=0.682051


Tree=62
num_leaves=4
num_cat=0
split_feature=8 6 5
split_gain=5.72418 4.46057 1.87691
threshold=1.0000000180025095e-35 -1.4679898499999997 -2.5120231999999993
decision_type=2 2 2
left_child=1 -1 -2
right_child=2 -3 -4
leaf_value=0.020599262315489537 0.011323897344289662 -0.0793431445353531 0.087042354279954395
leaf_weight=363.21503439545631 297.15932467579842 484.77251175045967 312.07258320599794
leaf_count=1569 1346 2148 1369
internal_value=0 -0.0365352 0.0501099
internal_weight=0 847.988 609.232
internal_count=6432 3717 2715
is_linear=0
shrinkage=0.681885


Tree=63
num_leaves=3
num_cat=0
split_feature=6 7
split_gain=23.0267 19.1839
threshold=0.41300644000000003 -0.22376716999999999
decision_type=2 2
left_child=1 -1
right_child=-2 -3
leaf_value=0.013341882602567754 0.032643919493079432 -0.041044895252175945
leaf_weight=411.86706418544054 503.50477873533964 542.54714273661375
leaf_count=1774 2277 2381
internal_value=0 -0.0175749
internal_weight=0 954.414
internal_count=6432 4155
is_linear=0
shrinkage=0.19


Tree=64
num_leaves=4
num_cat=0
split_feature=3 8 4
split_gain=8.45588 8.88988 5.64312
threshold=-1.3064555499999997 -0.045521553499999992 3.3313853500000006
decision_type=2 2 2
left_child=2 -2 -1
right_child=1 -3 -4
leaf_value=0.020574206103770407 -0.022747131619107411 0.0036152083864978896 -0.002793728488012999
leaf_weight=372.02283862233162 374.75420721620321 428.29593552649021 285.30672162771225
leaf_count=1697 1617 1829 1289
internal_value=0 -0.00868713 0.0104316
internal_weight=0 803.05 657.33
internal_count=6432 3446 2986
is_linear=0
shrinkage=0.125


Tree=65
num_leaves=4
num_cat=0
split_feature=7 8 4
split_gain=2.53173 3.22471 3.1726
threshold=-0.22489737499999998 -0.026257627499999995 3.465659
decision_type=2 2 2
left_child=1 -1 -2
right_child=2 -3 -4
leaf_value=0.019900666110396439 0.065190083162861207 -0.087605374530265262 -0.028684457073429329
leaf_weight=298.33850806206465 490.41061815619469 326.88784818351269 341.35477282106876
leaf_count=1329 2176 1407 1520
internal_value=0 -0.0363068 0.0266642
internal_weight=0 625.226 831.765
internal_count=6432 2736 3696
is_linear=0
shrinkage=0.747692


Tree=66
num_leaves=4
num_cat=0
split_feature=4 7 7
split_gain=3.7654 3.63716 5.06195
threshold=-0.64941657999999991 0.14921507000000003 -0.21846417999999998
decision_type=2 2 2
left_child=-1 2 -2
right_child=1 -3 -4
leaf_value=-0.051207825064007118 0.038684144487680393 0.080146635442861602 -0.068402946954669336
leaf_weight=417.10079352557659 453.22500042617321 292.79076477140188 292.73187233507633
leaf_count=1865 1980 1287 1300
internal_value=0 0.0201927 -0.00333947
internal_weight=0 1038.75 745.957
internal_count=6432 4567 3280
is_linear=0
shrinkage=0.634766


Tree=67
num_leaves=3
num_cat=0
split_feature=7 6
split_gain=6.16574 5.09518
threshold=0.17282931500000001 -0.59795504999999982
decision_type=2 2
left_child=1 -1
right_child=-2 -3
leaf_value=-0.019087145464410947 -0.064309817918392048 0.062405923370978417
leaf_weight=518.87289834022522 384.34699463099241 546.27809257805347
leaf_count=2295 1697 2440
internal_value=0 0.0227078
internal_weight=0 1065.15
internal_count=6432 4735
is_linear=0
shrinkage=0.588942


Tree=68
num_leaves=4
num_cat=0
split_feature=5 10 3
split_gain=23.7886 10.9989 3.17045
threshold=-3.2263719999999996 5.4471049500000008 0.6968742750000001
decision_type=2 2 2
left_child=-1 2 -2
right_child=1 -3 -4
leaf_value=0.02654894419988885 -0.012114768571875534 -0.035727941661143445 0.0088204718174552891
leaf_weight=479.43620440363884 343.58225790411234 330.64458221942186 295.1527481675148
leaf_count=2173 1542 1444 1273
internal_value=0 -0.0137947 -0.00244081
internal_weight=0 969.38 638.735
internal_count=6432 4259 2815
is_linear=0
shrinkage=0.148148


Tree=69
num_leaves=4
num_cat=0
split_feature=7 1 0
split_gain=6.14222 5.90629 3.87146
threshold=0.17282931500000001 -4.9641659499999991 0.13663442500000003
decision_type=2 2 2
left_child=1 2 -1
right_child=-2 -3 -4
leaf_value=0.0077286939939323427 -0.016760849974573017 0.019077414126232345 -0.016456930391520023
leaf_weight=319.92003674805164 386.07223501056433 448.42501276731491 298.73744984716177
leaf_count=1384 1697 2034 1317
internal_value=0 0.00572688 -0.00395007
internal_weight=0 1067.08 618.657
internal_count=6432 4735 2701
is_linear=0
shrinkage=0.152778


Tree=70
num_leaves=4
num_cat=0
split_feature=6 5 5
split_gain=17.1379 9.89303 4.90431
threshold=-0.59240644999999992 -2.3091860999999994 -2.8288494999999996
decision_type=2 2 2
left_child=2 -2 -1
right_child=1 -3 -4
leaf_value=0.0026494655904793643 -0.059096034986581343 -0.0005626842642560279 0.044247088335032644
leaf_weight=302.42306013405323 331.15974360704422 396.60097428411245 427.61266345530748
leaf_count=1350 1417 1765 1900
internal_value=0 -0.0271977 0.0270149
internal_weight=0 727.761 730.036
internal_count=6432 3182 3250
is_linear=0
shrinkage=0.25


Tree=71
num_leaves=4
num_cat=0
split_feature=7 3 10
split_gain=3.50067 4.04389 2.3369
threshold=-0.22489737499999998 -0.62544312499999988 4.4978783000000009
decision_type=2 2 2
left_child=2 -2 -1
right_child=1 -3 -4
leaf_value=0.001820919033361474 0.056918225135786246 -0.013432325708721464 -0.059591378927237787
leaf_weight=316.73057360947132 407.79588420689106 419.19714358448982 310.35899715870619
leaf_count=1395 1897 1799 1341
internal_value=0 0.021258 -0.0285732
internal_weight=0 826.993 627.09
internal_count=6432 3696 2736
is_linear=0
shrinkage=0.502976


Tree=72
num_leaves=3
num_cat=0
split_feature=4 4
split_gain=2.4355 4.16728
threshold=0.43742590000000009 3.7432913500000002
decision_type=2 2
left_child=-1 -2
right_child=1 -3
leaf_value=0.044246926263863159 -0.094457579704831207 0.017358718305087346
leaf_weight=520.23184524476528 357.60422164946795 580.52397050708532
leaf_count=2334 1580 2518
internal_value=0 -0.0252644
internal_weight=0 938.128
internal_count=6432 4098
is_linear=0
shrinkage=0.814815


Tree=73
num_leaves=4
num_cat=0
split_feature=5 3 7
split_gain=3.68946 4.99546 3.38856
threshold=-1.4151392499999997 2.1151475000000004 -0.21846417999999998
decision_type=2 2 2
left_child=1 -1 -2
right_child=2 -3 -4
leaf_value=0.0025818081153402097 0.015327280515947384 -0.014410404771997546 -0.0015527133507149437
leaf_weight=496.13266338407993 285.89543361216784 375.06887002289295 301.81559066474438
leaf_count=2216 1300 1599 1317
internal_value=0 -0.00473366 0.00665866
internal_weight=0 871.202 587.711
internal_count=6432 3815 2617
is_linear=0
shrinkage=0.111111


Tree=74
num_leaves=4
num_cat=0
split_feature=3 6 10
split_gain=2.08311 5.54481 8.40339
threshold=-8.4515689999999974 -1.4854495999999997 4.0400336500000007
decision_type=2 2 2
left_child=-1 -2 -3
right_child=1 2 -4
leaf_value=-0.049911170917501219 0.09578126248196378 -0.11769120073196748 0.044207700490656948
leaf_weight=358.66590308398008 340.91249510645866 299.61842296272516 459.56128346174955
leaf_count=1595 1503 1330 2004
internal_value=0 0.0160957 -0.0196874
internal_weight=0 1100.09 759.18
internal_count=6432 4837 3334
is_linear=0
shrinkage=0.752143


Tree=75
num_leaves=4
num_cat=0
split_feature=3 10 5
split_gain=7.56367 6.08921 4.70821
threshold=-9.1027437499999984 4.7903230000000017 -2.3091860999999994
decision_type=2 2 2
left_child=-1 2 -2
right_child=1 -3 -4
leaf_value=0.03808408617085015 -0.017762381942836636 -0.033020528618914566 0.030731625322867027
leaf_weight=311.5084471181035 293.05214869230986 517.29742386937141 326.69759893417358
leaf_count=1387 1307 2263 1475
internal_value=0 -0.0107707 0.00780096
internal_weight=0 1137.05 619.75
internal_count=6432 5045 2782
is_linear=0
shrinkage=0.277778


Tree=76
num_leaves=4
num_cat=0
split_feature=11 6 5
split_gain=13.4701 7.41877 5.17336
threshold=0.89703940000000004 -0.59795504999999982 -2.5652365999999995
decision_type=2 2 2
left_child=1 -1 -2
right_child=2 -3 -4
leaf_value=-0.0047107423017533111 -0.026917336811025171 0.016208620138215845 -0.0066516702247264867
leaf_weight=441.2481791600585 298.27912884950638 398.12975496053696 324.90983053296804
leaf_count=1902 1301 1779 1450
internal_value=0 0.00521163 -0.0163515
internal_weight=0 839.378 623.189
internal_count=6432 3681 2751
is_linear=0
shrinkage=0.111111


Tree=77
num_leaves=3
num_cat=0
split_feature=5 8
split_gain=18.1444 12.3905
threshold=-3.0795209499999996 -0.040241224999999992
decision_type=2 2
left_child=-1 -2
right_child=1 -3
leaf_value=-0.022570606631245362 -0.0084234936918798006 0.019528326977793973
leaf_weight=543.64936342835426 473.96312385052443 453.39076026529074
leaf_count=2351 2096 1985
internal_value=0 0.00524238
internal_weight=0 927.354
internal_count=6432 4081
is_linear=0
shrinkage=0.120879


Tree=78
num_leaves=3
num_cat=0
split_feature=6 8
split_gain=2.93625 4.27199
threshold=-2.0907757999999994 -0.044583305999999996
decision_type=2 2
left_child=-1 -2
right_child=1 -3
leaf_value=-0.045241874253699153 -0.022762881098715184 0.053412790246476299
leaf_weight=387.51633282005787 525.36630301177502 543.06680092215538
leaf_count=1733 2330 2369
internal_value=0 0.0159559
internal_weight=0 1068.43
internal_count=6432 4699
is_linear=0
shrinkage=0.602262


Tree=79
num_leaves=4
num_cat=0
split_feature=8 4 4
split_gain=3.39787 5.2678 1.71166
threshold=0.0057196498000000014 0.20350766500000003 5.0325796500000006
decision_type=2 2 2
left_child=1 -1 -3
right_child=-2 2 -4
leaf_value=-0.05468714300565785 -0.046495412351507795 0.11430002920591556 0.03063797978621682
leaf_weight=293.06171533465385 575.06558033823967 292.30135925114155 293.41930165886879
leaf_count=1315 2542 1291 1284
internal_value=0 0.030011 0.0723892
internal_weight=0 878.782 585.721
internal_count=6432 3890 2575
is_linear=0
shrinkage=0.77381


Tree=80
num_leaves=4
num_cat=0
split_feature=4 7 6
split_gain=22.5185 5.55766 5.74449
threshold=0.38438487000000005 -0.30578813499999996 -0.55930574999999993
decision_type=2 2 2
left_child=-1 -2 -3
right_child=1 2 -4
leaf_value=0.018794752342490097 -0.022582458057460984 0.0057887227772656039 -0.015115356712535041
leaf_weight=506.20846860855818 304.5474468767643 333.26027742773294 316.35847670584917
leaf_count=2309 1276 1466 1381
internal_value=0 -0.0101975 -0.00439138
internal_weight=0 954.166 649.619
internal_count=6432 4123 2847
is_linear=0
shrinkage=0.111111


Tree=81
num_leaves=3
num_cat=0
split_feature=4 4
split_gain=2.64244 1.83554
threshold=0.38438487000000005 3.7432913500000002
decision_type=2 2
left_child=-1 -2
right_child=1 -3
leaf_value=0.043425462072746127 -0.06646692431549224 0.0022413919663574131
leaf_weight=512.19407104700804 360.23651638627052 580.52962891757488
leaf_count=2309 1605 2518
internal_value=0 -0.0240683
internal_weight=0 940.766
internal_count=6432 4123
is_linear=0
shrinkage=0.756122


Tree=82
num_leaves=4
num_cat=0
split_feature=8 8 4
split_gain=11.4005 5.85426 4.10607
threshold=1.0000000180025095e-35 -0.076901412499999988 1.8824553500000001
decision_type=2 2 2
left_child=1 -1 -2
right_child=2 -3 -4
leaf_value=-0.00051099447121799384 0.0023789688708185687 -0.020455672265013651 0.021928214782672976
leaf_weight=502.16035368293524 291.95507686585188 353.71422696858644 314.94454988837242
leaf_count=2136 1307 1581 1408
internal_value=0 -0.00875369 0.0125239
internal_weight=0 855.875 606.9
internal_count=6432 3717 2715
is_linear=0
shrinkage=0.11875


Tree=83
num_leaves=3
num_cat=0
split_feature=4 5
split_gain=6.52816 9.03347
threshold=0.12992930500000002 -1.9685935499999998
decision_type=2 2
left_child=-1 -2
right_child=1 -3
leaf_value=-0.015029889147871104 0.022099722693473361 -0.0083936851271763473
leaf_weight=486.35788851231337 506.10672929137945 469.46722763776779
leaf_count=2147 2231 2054
internal_value=0 0.00742564
internal_weight=0 975.574
internal_count=6432 4285
is_linear=0
shrinkage=0.158333


Tree=84
num_leaves=4
num_cat=0
split_feature=1 11 10
split_gain=14.2278 9.60493 3.96346
threshold=-3.5658194999999995 0.89703940000000004 4.4978783000000009
decision_type=2 2 2
left_child=1 2 -1
right_child=-2 -3 -4
leaf_value=0.0098380640803954547 -0.0090816558354009144 -0.0039007752355516472 0.001722059402840795
leaf_weight=299.17669823020697 440.11127612739801 449.89968430995941 302.55570907890797
leaf_count=1292 1904 1941 1295
internal_value=0 0.00162546 0.00575727
internal_weight=0 1051.63 601.732
internal_count=6432 4528 2587
is_linear=0
shrinkage=0.05


Tree=85
num_leaves=4
num_cat=0
split_feature=3 11 5
split_gain=2.00939 3.29441 4.63778
threshold=-9.1027437499999984 0.23664724500000003 -1.4151392499999997
decision_type=2 2 2
left_child=-1 -2 -3
right_child=1 2 -4
leaf_value=0.039738032014844174 -0.060808817791547481 -0.027504010839221365 0.058119201659761872
leaf_weight=317.25067740678787 308.04407165199518 492.77689637243748 339.76881621032953
leaf_count=1387 1333 2194 1518
internal_value=0 -0.0109926 0.00743953
internal_weight=0 1140.59 832.546
internal_count=6432 5045 3712
is_linear=0
shrinkage=0.563831


Tree=86
num_leaves=4
num_cat=0
split_feature=5 6 3
split_gain=4.17266 2.75506 1.7989
threshold=-1.1454339999999996 -1.9349720499999998 2.3947349500000006
decision_type=2 2 2
left_child=1 -1 -3
right_child=-2 2 -4
leaf_value=0.10004617338130771 -0.060495051017610844 0.045691883431667767 -0.044358699882870112
leaf_weight=300.60003033280373 526.24062079191208 325.03031473606825 307.76510971784592
leaf_count=1375 2300 1426 1331
internal_value=0 0.0335046 0.00189506
internal_weight=0 933.395 632.795
internal_count=6432 4132 2757
is_linear=0
shrinkage=0.844156


Tree=87
num_leaves=4
num_cat=0
split_feature=6 8 1
split_gain=29.3777 13.3801 11.4794
threshold=-1.1306035499999998 -0.044583305999999996 -5.4032618999999995
decision_type=2 2 2
left_child=2 -2 -1
right_child=1 -3 -4
leaf_value=-0.0022726024292236396 -0.0019176278395554168 0.018263445465546868 -0.023022331361777126
leaf_weight=323.77191306650639 353.05437323451042 464.10375549644232 327.17829316854477
leaf_count=1376 1602 2046 1408
internal_value=0 0.00954418 -0.0127018
internal_weight=0 817.158 650.95
internal_count=6432 3648 2784
is_linear=0
shrinkage=0.078125


Tree=88
num_leaves=3
num_cat=0
split_feature=6 6
split_gain=12.629 14.2797
threshold=0.45424965 -1.5097162999999998
decision_type=2 2
left_child=1 -1
right_child=-2 -3
leaf_value=-0.0056140903207292335 -0.013279362085347773 0.01919530143853513
leaf_weight=490.12830740958452 508.02180626988411 472.8665776103735
leaf_count=2161 2176 2095
internal_value=0 0.00656825
internal_weight=0 962.995
internal_count=6432 4256
is_linear=0
shrinkage=0.101852


Tree=89
num_leaves=4
num_cat=0
split_feature=4 10 7
split_gain=13.3129 5.70011 3.27312
threshold=1.1149629500000002 4.6693368000000008 -0.18829439499999998
decision_type=2 2 2
left_child=2 -2 -1
right_child=1 -3 -4
leaf_value=-0.017447494953616648 0.00014856783595728495 0.01512210105760764 -0.0039053173647742028
leaf_weight=291.29927499592304 445.79445701092482 421.39532774686813 318.19206890463829
leaf_count=1270 1940 1836 1386
internal_value=0 0.00742469 -0.0103776
internal_weight=0 867.19 609.491
internal_count=6432 3776 2656
is_linear=0
shrinkage=0.0923077


Tree=90
num_leaves=3
num_cat=0
split_feature=3 7
split_gain=31.5197 16.5938
threshold=-2.4688477499999997 -0.30578813499999996
decision_type=2 2
left_child=-1 -2
right_child=1 -3
leaf_value=-0.055338676496268446 -0.039656015022329162 0.00098917136042303675
leaf_weight=605.42383366823196 314.94546115398407 587.14790477603674
leaf_count=2567 1340 2525
internal_value=0 -0.0132012
internal_weight=0 902.093
internal_count=6432 3865
is_linear=0
shrinkage=0.142857


Tree=91
num_leaves=4
num_cat=0
split_feature=3 4 11
split_gain=3.51492 3.6397 1.61802
threshold=0.94307830000000015 3.3313853500000006 0.80080073000000007
decision_type=2 2 2
left_child=1 -1 -2
right_child=2 -3 -4
leaf_value=0.01113815139409109 0.083021944641227322 -0.10799667205902164 -0.0018297306746743085
leaf_weight=447.29277098923922 375.53625431656837 336.5411105453968 304.97499091923237
leaf_count=2016 1610 1486 1320
internal_value=0 -0.0400127 0.0449952
internal_weight=0 783.834 680.511
internal_count=6432 3502 2930
is_linear=0
shrinkage=0.865385


Tree=92
num_leaves=4
num_cat=0
split_feature=4 3 3
split_gain=1.72085 2.19982 1.95625
threshold=1.4660105500000002 -1.3064555499999997 -2.2867078499999995
decision_type=2 2 2
left_child=1 -1 -2
right_child=2 -3 -4
leaf_value=0.011660704519911719 0.043504610580662892 -0.046637418064481337 -0.0051304233778507128
leaf_weight=292.52244530618191 335.96095994114876 337.93866818398237 496.33895868062973
leaf_count=1319 1493 1487 2133
internal_value=0 -0.0195882 0.0145013
internal_weight=0 630.461 832.3
internal_count=6432 2806 3626
is_linear=0
shrinkage=0.492188


Tree=93
num_leaves=4
num_cat=0
split_feature=4 7 7
split_gain=9.13145 11.7738 6.98665
threshold=-0.64941657999999991 0.13295014000000002 -0.22376716999999999
decision_type=2 2 2
left_child=-1 2 -2
right_child=1 -3 -4
leaf_value=-0.014299366282887388 0.0067598238029515246 0.02450893971509098 -0.015643656282539976
leaf_weight=426.06478481739759 450.93560725450516 298.67574373632669 298.89795799553394
leaf_count=1865 1946 1319 1302
internal_value=0 0.00542925 -0.00217063
internal_weight=0 1048.51 749.834
internal_count=6432 4567 3248
is_linear=0
shrinkage=0.113636


Tree=94
num_leaves=4
num_cat=0
split_feature=3 5 7
split_gain=13.3912 14.7278 7.41642
threshold=-6.389511849999999 -0.87382644999999992 -0.22376716999999999
decision_type=2 2 2
left_child=-1 2 -2
right_child=1 -3 -4
leaf_value=-0.013573575175083124 0.023965907906414716 -0.010015911717472393 0.0049852861928802103
leaf_weight=437.43602819740772 293.5200734436512 344.06451077014208 404.72117180377245
leaf_count=1900 1281 1492 1759
internal_value=0 0.00537847 0.0129642
internal_weight=0 1042.31 698.241
internal_count=6432 4532 3040
is_linear=0
shrinkage=0.0909091


Tree=95
num_leaves=4
num_cat=0
split_feature=4 0 0
split_gain=9.42634 7.45452 5.06381
threshold=3.2076503500000002 -2.2472405499999994 0.32636066000000002
decision_type=2 2 2
left_child=1 -1 -2
right_child=2 -3 -4
leaf_value=0.019603113143449216 -0.017514259820799682 -0.00017102822182301367 0.00012487145739956316
leaf_weight=300.25458461791277 339.20721257477999 522.23224966973066 312.86013607680798
leaf_count=1308 1463 2323 1338
internal_value=0 0.00704766 -0.00905105
internal_weight=0 822.487 652.067
internal_count=6432 3631 2801
is_linear=0
shrinkage=0.1


Tree=96
num_leaves=4
num_cat=0
split_feature=3 5 0
split_gain=4.05692 2.47988 2.32179
threshold=-8.4515689999999974 -0.31603502499999997 1.6936595500000002
decision_type=2 2 2
left_child=-1 2 -2
right_child=1 -3 -4
leaf_value=-0.073883206004724061 0.013945267411370678 -0.03917323842215352 0.10292510893838661
leaf_weight=362.41437611728907 509.59636173397303 293.67568724602461 301.33058840036392
leaf_count=1595 2225 1310 1302
internal_value=0 0.0240962 0.0470091
internal_weight=0 1104.6 810.927
internal_count=6432 4837 3527
is_linear=0
shrinkage=0.803571


Tree=97
num_leaves=4
num_cat=0
split_feature=0 7 7
split_gain=20.7947 15.6186 11.3812
threshold=3.9685518500000003 -0.38509218499999992 0.05985723250000001
decision_type=2 2 2
left_child=1 -1 -3
right_child=-2 2 -4
leaf_value=0.032361660736972719 -0.028972418011693181 -0.01351781799743727 0.01540338012572404
leaf_weight=294.67562818527222 309.26956069469452 489.54794503748417 375.81947664916515
leaf_count=1293 1350 2123 1666
internal_value=0 0.00750616 -0.000957662
internal_weight=0 1160.04 865.367
internal_count=6432 5082 3789
is_linear=0
shrinkage=0.125


Tree=98
num_leaves=3
num_cat=0
split_feature=0 5
split_gain=3.83985 5.7874
threshold=1.5276271000000003 -1.4151392499999997
decision_type=2 2
left_child=1 -1
right_child=-2 -3
leaf_value=-0.025296816033343408 -0.065107024518941348 0.13845055589622016
leaf_weight=540.3665137514472 564.4395824894309 359.39735915511847
leaf_count=2370 2500 1562
internal_value=0 0.0401096
internal_weight=0 899.764
internal_count=6432 3932
is_linear=0
shrinkage=1


Tree=99
num_leaves=3
num_cat=0
split_feature=5 3
split_gain=3.06682 2.7372
threshold=-3.4339784499999992 0.94307830000000015
decision_type=2 2
left_child=-1 -2
right_child=1 -3
leaf_value=0.062719386128083088 -0.075672867586440873 0.022688809044154854
leaf_weight=462.53503350913525 531.09149028360844 467.56778407841921
leaf_count=2029 2400 2003
internal_value=0 -0.0296204
internal_weight=0 998.659
internal_count=6432 4403
is_linear=0
shrinkage=0.9375


Tree=100
num_leaves=3
num_cat=0
split_feature=7 11
split_gain=17.2524 12.3004
threshold=-0.30578813499999996 0.77799958000000013
decision_type=2 2
left_child=-1 -2
right_child=1 -3
leaf_value=-0.02376508817624275 9.1661510146204362e-05 -0.015642052591329725
leaf_weight=496.88109590113163 523.93999563157558 491.1699727922678
leaf_count=2067 2250 2115
internal_value=0 -0.00752124
internal_weight=0 1015.11
internal_count=6432 4365
is_linear=0
shrinkage=0.0714286


Tree=101
num_leaves=4
num_cat=0
split_feature=3 3 6
split_gain=22.523 5.97412 6.8247
threshold=-9.1027437499999984 -1.3064555499999997 -0.43826582499999994
decision_type=2 2 2
left_child=-1 -2 -3
right_child=1 2 -4
leaf_value=0.0297955814666605 0.0056061139718598845 -0.025666785483009016 -0.002656961178979796
leaf_weight=309.00889353454113 342.51206960529089 400.71812917292118 404.93606913089752
leaf_count=1387 1599 1687 1759
internal_value=0 -0.00822258 -0.0141016
internal_weight=0 1148.17 805.654
internal_count=6432 5045 3446
is_linear=0
shrinkage=0.125


Tree=102
num_leaves=4
num_cat=0
split_feature=8 8 3
split_gain=17.1196 15.0414 9.11108
threshold=1.0000000180025095e-35 -0.076901412499999988 0.24100649500000002
decision_type=2 2 2
left_child=1 -1 -2
right_child=2 -3 -4
leaf_value=-0.0011803227048712505 -0.001904447851212471 -0.016305412823266058 0.011881026350351294
leaf_weight=506.0724920630455 316.82157193869352 365.60015222430229 302.60512094199657
leaf_count=2136 1413 1581 1302
internal_value=0 -0.00752414 0.00483009
internal_weight=0 871.673 619.427
internal_count=6432 3717 2715
is_linear=0
shrinkage=0.0568182


Tree=103
num_leaves=4
num_cat=0
split_feature=3 8 1
split_gain=2.9668 2.74643 5.40834
threshold=-9.1027437499999984 0.0057196498000000014 -6.3963911999999992
decision_type=2 2 2
left_child=-1 2 -2
right_child=1 -3 -4
leaf_value=0.070364426395744403 -0.06671516148732301 -0.069727706839885065 0.079996482759926921
leaf_weight=318.67064590752125 315.86828826367855 454.06443580985069 375.79804769158363
leaf_count=1387 1383 2004 1658
internal_value=0 -0.0197879 0.0129966
internal_weight=0 1145.73 691.666
internal_count=6432 5045 3041
is_linear=0
shrinkage=0.826446


Tree=104
num_leaves=4
num_cat=0
split_feature=7 2 3
split_gain=16.5206 14.1994 13.0707
threshold=-0.30578813499999996 -6.1186189499999992 -2.0777471499999995
decision_type=2 2 2
left_child=-1 -2 -3
right_child=1 2 -4
leaf_value=-0.022824036963175229 -0.017929011408740664 -0.011462694710738566 0.0090173353968390473
leaf_weight=489.63512800633907 372.64860439300537 294.10928148776293 346.08546833693981
leaf_count=2067 1592 1306 1467
internal_value=0 -0.00684384 -0.000391312
internal_weight=0 1012.84 640.195
internal_count=6432 4365 2773
is_linear=0
shrinkage=0.0714286


Tree=105
num_leaves=3
num_cat=0
split_feature=1 9
split_gain=14.0309 7.50606
threshold=-3.5658194999999995 -2.4123833999999995
decision_type=2 2
left_child=1 -1
right_child=-2 -3
leaf_value=0.010784753675120365 -0.010699831389591921 -0.0013101809397841253
leaf_weight=504.65799259394407 438.93645493686199 543.96570216864347
leaf_count=2166 1904 2362
internal_value=0 0.0045106
internal_weight=0 1048.62
internal_count=6432 4528
is_linear=0
shrinkage=0.0714286


Tree=106
num_leaves=4
num_cat=0
split_feature=7 5 6
split_gain=33.3094 24.7731 7.90872
threshold=0.17282931500000001 -3.5849823999999999 -1.1306035499999998
decision_type=2 2 2
left_child=1 -1 -3
right_child=-2 2 -4
leaf_value=-0.010479266577519269 -0.019188096721685054 0.0051529621596740002 0.021278190519680017
leaf_weight=335.87113565206528 397.14674516767263 304.42924216389656 440.22861424833536
leaf_count=1441 1697 1320 1974
internal_value=0 0.00686358 0.0146859
internal_weight=0 1080.53 744.658
internal_count=6432 4735 3294
is_linear=0
shrinkage=0.0769231


Tree=107
num_leaves=4
num_cat=0
split_feature=1 5 11
split_gain=4.93733 3.2489 2.33174
threshold=-2.3759841499999994 -1.3327797499999998 0.57474732500000003
decision_type=2 2 2
left_child=1 2 -1
right_child=-2 -3 -4
leaf_value=0.0012699872309145624 -0.10453227016005862 -0.035892538215287581 0.10566411880799698
leaf_weight=297.74709543585777 299.30585490912199 435.16226947307587 435.39278760552406
leaf_count=1276 1329 1910 1917
internal_value=0 0.0263326 0.063267
internal_weight=0 1168.3 733.14
internal_count=6432 5103 3193
is_linear=0
shrinkage=0.909091


Tree=108
num_leaves=4
num_cat=0
split_feature=7 5 4
split_gain=25.1434 19.4198 6.53336
threshold=0.17282931500000001 -3.4968398499999993 1.1149629500000002
decision_type=2 2 2
left_child=1 -1 -3
right_child=-2 2 -4
leaf_value=-0.010093334994175869 -0.018381014966791655 0.004200343253626726 0.020279225173609229
leaf_weight=343.80031818151474 392.72973265498877 290.65158331394196 442.938257843256
leaf_count=1476 1697 1317 1942
internal_value=0 0.00624954 0.0139087
internal_weight=0 1077.39 733.59
internal_count=6432 4735 3259
is_linear=0
shrinkage=0.0833333


Tree=109
num_leaves=3
num_cat=0
split_feature=11 4
split_gain=5.62489 5.34513
threshold=0.94947180000000009 0.50606012500000019
decision_type=2 2
left_child=1 -1
right_child=-2 -3
leaf_value=0.0036506445913629592 0.0055603099130626128 -0.008613668754381968
leaf_weight=328.18277262896299 564.40551123768091 585.26815197616816
leaf_count=1439 2475 2518
internal_value=0 -0.00420737
internal_weight=0 913.451
internal_count=6432 3957
is_linear=0
shrinkage=0.0769231


Tree=110
num_leaves=3
num_cat=0
split_feature=5 11
split_gain=3.9149 2.48561
threshold=-1.3398238499999997 0.82951980000000014
decision_type=2 2
left_child=1 -1
right_child=-2 -3
leaf_value=0.0084223384390576302 0.058711468092527766 -0.088362622437473323
leaf_weight=461.47119772434235 573.61538819223642 431.40718854218721
leaf_count=1992 2545 1895
internal_value=0 -0.0383407
internal_weight=0 892.878
internal_count=6432 3887
is_linear=0
shrinkage=0.916667


Tree=111
num_leaves=4
num_cat=0
split_feature=8 8 8
split_gain=3.397 3.53786 3.42102
threshold=1.0000000180025095e-35 -0.076901412499999988 0.064787915000000015
decision_type=2 2 2
left_child=1 -1 -2
right_child=2 -3 -4
leaf_value=0.012719581731374986 0.13304883467821996 -0.11819514858937215 -0.016320468312637774
leaf_weight=501.15376002341509 298.69485465437174 351.00490038841963 315.07058460265398
leaf_count=2136 1327 1581 1388
internal_value=0 -0.0412043 0.0563715
internal_weight=0 852.159 613.765
internal_count=6432 3717 2715
is_linear=0
shrinkage=1


Tree=112
num_leaves=4
num_cat=0
split_feature=9 7 9
split_gain=2.51625 3.86837 4.26338
threshold=-10.504301999999997 0.055691895000000005 1.0000000180025095e-35
decision_type=2 2 2
left_child=-1 2 -2
right_child=1 -3 -4
leaf_value=0.072758925204547201 -0.13497746155460505 0.058410620242165132 0.0014670169627577032
leaf_weight=310.38481076806784 333.37425500899553 360.4490949138999 455.13499560952187
leaf_count=1347 1460 1610 2015
internal_value=0 -0.0202586 -0.0562204
internal_weight=0 1148.96 788.509
internal_count=6432 5085 3475
is_linear=0
shrinkage=0.916667


Tree=113
num_leaves=4
num_cat=0
split_feature=7 8 5
split_gain=3.25993 4.44699 2.09676
threshold=-0.22376716999999999 0.0057196498000000014 -1.8850982999999999
decision_type=2 2 2
left_child=2 -2 -1
right_child=1 -3 -4
leaf_value=0.11182012641301151 0.013012656380665096 -0.14034192744396448 -0.0030746330560905912
leaf_weight=311.53225163370371 525.6667402535677 295.3258268609643 324.05721448361874
leaf_count=1335 2313 1314 1470
internal_value=0 -0.0421518 0.0532407
internal_weight=0 820.993 635.589
internal_count=6432 3627 2805
is_linear=0
shrinkage=1


Tree=114
num_leaves=4
num_cat=0
split_feature=8 6 3
split_gain=6.74081 5.48983 5.66945
threshold=0.064540365000000016 0.41300644000000003 -2.5904664999999993
decision_type=2 2 2
left_child=1 2 -1
right_child=-2 -3 -4
leaf_value=-0.18527802377047947 0.12659417195446018 0.059503128064443661 -0.0092885315829067221
leaf_weight=329.12783844769001 324.19325891137123 387.23263665288687 412.42474584281445
leaf_count=1479 1455 1720 1778
internal_value=0 -0.0370039 -0.087399
internal_weight=0 1128.79 741.553
internal_count=6432 4977 3257
is_linear=0
shrinkage=1


Tree=115
num_leaves=4
num_cat=0
split_feature=3 7 8
split_gain=6.29895 4.74509 4.67628
threshold=-1.3064555499999997 -0.26324489999999995 -0.045521553499999992
decision_type=2 2 2
left_child=2 -2 -1
right_child=1 -3 -4
leaf_value=0.13542527104310947 -0.1284837694856398 0.0024096163459194232 -0.0061092190352828261
leaf_weight=303.2122053951025 323.58570914715528 474.15242119133472 348.36249361932278
leaf_count=1380 1412 2034 1606
internal_value=0 -0.0506845 0.0597543
internal_weight=0 797.738 651.575
internal_count=6432 3446 2986
is_linear=0
shrinkage=0.833333


Tree=116
num_leaves=4
num_cat=0
split_feature=7 4 7
split_gain=15.2267 13.8803 4.93464
threshold=-0.22376716999999999 1.7552913500000003 0.06507988000000002
decision_type=2 2 2
left_child=1 -1 -2
right_child=2 -3 -4
leaf_value=-0.0043472941376562838 -0.015360280888370062 0.020422419953769054 -0.0023584390258514819
leaf_weight=287.59486389905214 357.53052019327879 346.26257751137018 468.1436951905489
leaf_count=1291 1558 1514 2069
internal_value=0 0.00918386 -0.00798845
internal_weight=0 633.857 825.674
internal_count=6432 2805 3627
is_linear=0
shrinkage=0.0833333


Tree=117
num_leaves=4
num_cat=0
split_feature=7 5 6
split_gain=2.82098 5.39308 4.48986
threshold=0.17282931500000001 -3.7019251499999997 0.45424965
decision_type=2 2 2
left_child=1 -1 -3
right_child=-2 2 -4
leaf_value=-0.086089865725724024 -0.074465438672427373 0.13476805693418661 -0.021694649707690417
leaf_weight=307.44100446254015 382.33234492689371 449.29297952353954 309.91460937261581
leaf_count=1365 1697 2000 1370
internal_value=0 0.0256498 0.0708987
internal_weight=0 1066.65 759.208
internal_count=6432 4735 3370
is_linear=0
shrinkage=1


Tree=118
num_leaves=4
num_cat=0
split_feature=0 1 9
split_gain=8.49947 8.6574 5.85045
threshold=3.9685518500000003 -3.7152385999999997 -1.6838164999999998
decision_type=2 2 2
left_child=1 2 -1
right_child=-2 -3 -4
leaf_value=0.015433854466842371 -0.012452647012517176 -0.0072405658871409631 0.0010197961306056195
leaf_weight=390.33464974164963 302.60295654088259 371.24570313096046 391.86159402877092
leaf_count=1696 1350 1667 1719
internal_value=0 0.00323897 0.00821276
internal_weight=0 1153.44 782.196
internal_count=6432 5082 3415
is_linear=0
shrinkage=0.0833333


Tree=119
num_leaves=4
num_cat=0
split_feature=7 3 7
split_gain=19.6973 14.9289 3.65339
threshold=0.16687122500000004 -2.2867078499999995 -0.27106405999999994
decision_type=2 2 2
left_child=1 -1 -3
right_child=-2 2 -4
leaf_value=0.0066496559357511979 0.01742513710365149 -0.021897088318624497 -0.008100908900863046
leaf_weight=423.73126903921366 385.49954029172659 335.50531081855297 300.9068264439702
leaf_count=1897 1783 1448 1304
internal_value=0 -0.00657132 -0.015374
internal_weight=0 1060.14 636.412
internal_count=6432 4649 2752
is_linear=0
shrinkage=0.0909091


end of trees

feature_importances:
Column_7=58
Column_5=46
Column_4=37
Column_3=36
Column_8=32
Column_6=30
Column_11=26
Column_0=17
Column_1=16
Column_10=13
Column_9=12
Column_2=6

parameters:
[boosting: dart]
[objective: binary]
[metric: binary_logloss]
[tree_learner: serial]
[device_type: cpu]
[data: ]
[valid: ]
[num_iterations: 120]
[learning_rate: 1]
[num_leaves: 4]
[num_threads: 8]
[deterministic: 0]
[force_col_wise: 0]
[force_row_wise: 0]
[histogram_pool_size: -1]
[max_depth: -1]
[min_data_in_leaf: 1286]
[min_sum_hessian_in_leaf: 0.001]
[bagging_fraction: 1]
[pos_bagging_fraction: 1]
[neg_bagging_fraction: 1]
[bagging_freq: 0]
[bagging_seed: 3]
[feature_fraction: 1]
[feature_fraction_bynode: 1]
[feature_fraction_seed: 2]
[extra_trees: 0]
[extra_seed: 6]
[early_stopping_round: 0]
[first_metric_only: 0]
[max_delta_step: 0]
[lambda_l1: 0]
[lambda_l2: 0]
[linear_lambda: 0]
[min_gain_to_split: 0]
[drop_rate: 0.1]
[max_drop: 50]
[skip_drop: 0.5]
[xgboost_dart_mode: 0]
[uniform_drop: 0]
[drop_seed: 4]
[top_rate: 0.2]
[other_rate: 0.1]
[min_data_per_group: 100]
[max_cat_threshold: 32]
[cat_l2: 10]
[cat_smooth: 10]
[max_cat_to_onehot: 4]
[top_k: 20]
[monotone_constraints: ]
[monotone_constraints_method: basic]
[monotone_penalty: 0]
[feature_contri: ]
[forcedsplits_filename: ]
[refit_decay_rate: 0.9]
[cegb_tradeoff: 1]
[cegb_penalty_split: 0]
[cegb_penalty_feature_lazy: ]
[cegb_penalty_feature_coupled: ]
[path_smooth: 0]
[interaction_constraints: ]
[verbosity: 1]
[saved_feature_importance_type: 0]
[linear_tree: 0]
[max_bin: 255]
[max_bin_by_feature: ]
[min_data_in_bin: 3]
[bin_construct_sample_cnt: 200000]
[data_random_seed: 1]
[is_enable_sparse: 1]
[enable_bundle: 1]
[use_missing: 1]
[zero_as_missing: 0]
[feature_pre_filter: 1]
[pre_partition: 0]
[two_round: 0]
[header: 0]
[label_column: ]
[weight_column: ]
[group_column: ]
[ignore_column: ]
[categorical_feature: ]
[forcedbins_filename: ]
[precise_float_parser: 0]
[parser_config_file: ]
[objective_seed: 5]
[num_class: 1]
[is_unbalance: 0]
[scale_pos_weight: 1]
[sigmoid: 1]
[boost_from_average: 1]
[reg_sqrt: 0]
[alpha: 0.9]
[fair_c: 1]
[poisson_max_delta_step: 0.7]
[tweedie_variance_power: 1.5]
[lambdarank_truncation_level: 30]
[lambdarank_norm: 1]
[label_gain: ]
[eval_at: ]
[multi_error_top_k: 1]
[auc_mu_weights: ]
[num_machines: 1]
[local_listen_port: 12400]
[time_out: 120]
[machine_list_filename: ]
[machines: ]
[gpu_platform_id: 1]
[gpu_device_id: 0]
[gpu_use_dp: 0]
[num_gpu: 1]

end of parameters

pandas_categorical:null
