tree
version=v4
num_class=1
num_tree_per_iteration=1
label_index=0
max_feature_idx=11
objective=binary sigmoid:1
feature_names=Column_0 Column_1 Column_2 Column_3 Column_4 Column_5 Column_6 Column_7 Column_8 Column_9 Column_10 Column_11
feature_infos=[-120.95422000000001:22.828399999999998] [-28.231649999999998:37.467030000000001] [-39.69238:31.430634000000001] [-78.128680000000003:60.368029999999997] [-24.367495000000002:34.891303999999998] [-34.510035999999999:25.160515] [-20.721453:15.056516] [-3.1834194999999998:3.5539893999999999] [-0.70398337:1.1752931] [-87.379265000000004:65.940219999999997] [-40.932568000000003:44.451830000000001] [-28.124859000000001:26.331334999999999]
tree_sizes=556 552 555 553 557 550 556 554 556 557 555 556 554 557 558 559 551 556 557 556 560 557 554 555 555 557 552 554 555 560 552 557 558

Tree=0
num_leaves=4
num_cat=0
split_feature=2 5 5
split_gain=63.0283 30.3691 20.3435
threshold=1.6319907500000002 -4.0342872499999993 -1.9319652999999997
decision_type=2 2 2
left_child=1 -1 -3
right_child=-2 2 -4
leaf_value=-0.47581356104175154 -0.70926771395182264 0.049074463488705089 -0.25709627554983566
leaf_weight=341.47381994128227 339.7701016664505 382.3630585372448 501.86672610044479
leaf_count=1403 1396 1571 2062
internal_value=-0.328162 -0.222518 -0.1247
internal_weight=0 1225.7 884.23
internal_count=6432 5036 3633
is_linear=0
shrinkage=1


Tree=1
num_leaves=4
num_cat=0
split_feature=8 8 8
split_gain=26.0748 29.1822 24.0971
threshold=0.38220933000000007 0.28997107000000005 0.19989574000000002
decision_type=2 2 2
left_child=1 2 -1
right_child=-2 -3 -4
leaf_value=0.13804944860673207 -0.22486740332753227 0.28395229184780707 -0.22651187182370683
leaf_weight=352.97959464788437 401.72948005795479 412.239686653018 372.80475729703903
leaf_count=1486 1670 1716 1560
internal_value=0 0.0714751 -0.0492103
internal_weight=0 1138.02 725.784
internal_count=6432 4762 3046
is_linear=0
shrinkage=1


Tree=2
num_leaves=4
num_cat=0
split_feature=0 2 10
split_gain=25.6171 15.1951 15.534
threshold=-3.9723936999999996 -0.40999881499999996 -5.4965211499999986
decision_type=2 2 2
left_child=-1 -2 -3
right_child=1 2 -4
leaf_value=-0.26269485797572023 0.20263628311569257 0.12788786223685072 -0.16102136899520555
leaf_weight=305.39345526695251 467.80696332454681 346.88561807572842 401.52650417387486
leaf_count=1300 1938 1473 1721
internal_value=0 0.0612577 -0.0271133
internal_weight=0 1216.22 748.412
internal_count=6432 5132 3194
is_linear=0
shrinkage=1


Tree=3
num_leaves=4
num_cat=0
split_feature=3 4 8
split_gain=10.357 17.6483 16.8131
threshold=-0.93909132999999989 10.138261000000002 0.28314697000000005
decision_type=2 2 2
left_child=2 -2 -1
right_child=1 -3 -4
leaf_value=0.095605763350428211 0.20367368693001373 -0.1053193248976405 -0.21237529929225116
leaf_weight=297.87991935014725 456.02744743227959 310.83751134574413 437.72683767974377
leaf_count=1277 1950 1336 1869
internal_value=0 0.0784279 -0.0876601
internal_weight=0 766.865 735.607
internal_count=6432 3286 3146
is_linear=0
shrinkage=1


Tree=4
num_leaves=4
num_cat=0
split_feature=8 1 8
split_gain=16.3195 12.7068 6.37934
threshold=0.36987620500000001 5.3244772500000002 0.24227290500000001
decision_type=2 2 2
left_child=1 -1 -3
right_child=-2 2 -4
leaf_value=-0.24078374343750211 0.16398375052220643 -0.099713293709477305 0.083664942848587165
leaf_weight=304.21070343255997 423.76475214958191 346.11920268833637 419.78914287686348
leaf_count=1300 1886 1456 1790
internal_value=0 -0.0678803 0.000795068
internal_weight=0 1070.12 765.908
internal_count=6432 4546 3246
is_linear=0
shrinkage=1


Tree=5
num_leaves=4
num_cat=0
split_feature=1 4 4
split_gain=16.6139 11.8068 15.6616
threshold=8.2656520000000011 11.160446000000002 7.259393750000001
decision_type=2 2 2
left_child=1 2 -1
right_child=-2 -3 -4
leaf_value=0.13309070109045587 -0.19470138683433769 0.20422497275592782 -0.14994182712135581
leaf_weight=377.45580258965492 344.31437712907791 365.19487120211124 405.58707731962204
leaf_count=1614 1475 1597 1746
internal_value=0 0.0557405 -0.0135096
internal_weight=0 1148.24 783.043
internal_count=6432 4957 3360
is_linear=0
shrinkage=1


Tree=6
num_leaves=4
num_cat=0
split_feature=8 6 11
split_gain=9.44427 16.1829 6.4542
threshold=0.28181505500000004 -0.5505441499999999 -2.3232346499999994
decision_type=2 2 2
left_child=2 -2 -1
right_child=1 -3 -4
leaf_value=0.19298226417265013 0.046921119483674348 -0.23265417472286362 -0.0081065727283361703
leaf_weight=310.18940696120262 488.88858065754175 359.1334892064333 328.80169633030891
leaf_count=1345 2120 1539 1428
internal_value=0 -0.0714777 0.0895092
internal_weight=0 848.022 638.991
internal_count=6432 3659 2773
is_linear=0
shrinkage=1


Tree=7
num_leaves=4
num_cat=0
split_feature=6 8 3
split_gain=22.5188 8.75259 7.06283
threshold=-0.96631632499999986 0.28997107000000005 -4.4196931499999987
decision_type=2 2 2
left_child=2 -2 -1
right_child=1 -3 -4
leaf_value=-0.013239983439927241 0.012104155228138418 0.22662302559566144 -0.21296689400585789
leaf_weight=308.60406795144081 383.30072162300348 377.53469493985176 415.3521563410759
leaf_count=1339 1672 1647 1774
internal_value=0 0.118551 -0.127828
internal_weight=0 760.835 723.956
internal_count=6432 3319 3113
is_linear=0
shrinkage=1


Tree=8
num_leaves=4
num_cat=0
split_feature=6 0 8
split_gain=9.04389 11.7372 11.2179
threshold=-0.5505441499999999 0.36558516000000002 0.28181505500000004
decision_type=2 2 2
left_child=1 -1 -2
right_child=2 -3 -4
leaf_value=0.18847978259248571 0.047053627217497111 -0.054501113909898605 -0.20874798735139596
leaf_weight=410.78071733564138 330.25375466048717 385.24306991696358 356.49819695204496
leaf_count=1810 1418 1665 1539
internal_value=0 0.0708869 -0.0857349
internal_weight=0 796.024 686.752
internal_count=6432 3475 2957
is_linear=0
shrinkage=1


Tree=9
num_leaves=4
num_cat=0
split_feature=6 8 7
split_gain=8.22845 7.67034 6.98072
threshold=-0.77781551999999987 0.2642342800000001 -0.12176157999999999
decision_type=2 2 2
left_child=2 -2 -1
right_child=1 -3 -4
leaf_value=-0.18056337275367426 -0.050997492463874902 0.15688433746980501 0.013904168978582996
leaf_weight=342.98682241141796 297.11106309294701 440.86360403895378 399.69960442185402
leaf_count=1492 1266 1951 1723
internal_value=0 0.0731904 -0.0759047
internal_weight=0 737.975 742.686
internal_count=6432 3217 3215
is_linear=0
shrinkage=1


Tree=10
num_leaves=4
num_cat=0
split_feature=10 9 11
split_gain=7.68653 6.90644 3.01693
threshold=-2.1879795499999997 1.4347398000000002 -2.5511711999999993
decision_type=2 2 2
left_child=1 2 -1
right_child=-2 -3 -4
leaf_value=0.037224617126573968 -0.145035059197722 0.12959448130167134 -0.092857868642264793
leaf_weight=361.67971877753735 296.93236275017262 466.39879342913628 351.62222948670387
leaf_count=1557 1316 2023 1536
internal_value=0 0.0349709 -0.0268996
internal_weight=0 1179.7 713.302
internal_count=6432 5116 3093
is_linear=0
shrinkage=1


Tree=11
num_leaves=4
num_cat=0
split_feature=9 9 10
split_gain=9.35635 7.73168 3.45191
threshold=-0.8575811499999999 -11.028372999999998 -5.2822348999999997
decision_type=2 2 2
left_child=1 -1 -2
right_child=2 -3 -4
leaf_value=-0.047866622216325899 -0.01793165479084699 0.1536202077898319 -0.16071055941292553
leaf_weight=317.96874219179153 349.06941576302052 474.88720991462469 328.85053409636021
leaf_count=1404 1483 2087 1458
internal_value=0 0.0728155 -0.0871919
internal_weight=0 792.856 677.92
internal_count=6432 3491 2941
is_linear=0
shrinkage=1


Tree=12
num_leaves=4
num_cat=0
split_feature=4 7 8
split_gain=6.18801 18.882 5.33173
threshold=7.6359133000000012 -0.18895322999999997 0.28418356000000006
decision_type=2 2 2
left_child=-1 -2 -3
right_child=1 2 -4
leaf_value=-0.084282124052351984 0.25561056005144012 0.043826298501575829 -0.143038519013169
leaf_weight=555.90360847115517 298.85303304344416 300.48680838942528 310.43881697207689
leaf_count=2399 1334 1323 1376
internal_value=0 0.0496324 -0.0511281
internal_weight=0 909.779 610.926
internal_count=6432 4033 2699
is_linear=0
shrinkage=1


Tree=13
num_leaves=4
num_cat=0
split_feature=7 5 5
split_gain=7.86877 24.0837 8.91587
threshold=-0.13214991999999998 -2.2661953999999995 -2.6921796499999995
decision_type=2 2 2
left_child=1 -1 -2
right_child=2 -3 -4
leaf_value=-0.29116542296035974 0.16472117070440148 0.11265891408744409 -0.037503412939383959
leaf_weight=297.51800867915154 415.82093898206949 293.25594320893288 458.32442206889391
leaf_count=1327 1827 1274 2004
internal_value=0 -0.0907099 0.0586925
internal_weight=0 590.774 874.145
internal_count=6432 2601 3831
is_linear=0
shrinkage=1


Tree=14
num_leaves=4
num_cat=0
split_feature=5 11 11
split_gain=8.42279 9.03889 4.71047
threshold=-4.7625866499999994 -2.2127667499999997 -2.8028307999999993
decision_type=2 2 2
left_child=-1 2 -2
right_child=1 -3 -4
leaf_value=-0.15417336857240529 0.044267845110140744 0.13489239691187321 -0.12593077569883923
leaf_weight=291.73510957509279 319.02231419831514 514.39842115342617 331.67047502845526
leaf_count=1296 1396 2293 1447
internal_value=0 0.0358284 -0.0424856
internal_weight=0 1165.09 650.693
internal_count=6432 5136 2843
is_linear=0
shrinkage=1


Tree=15
num_leaves=4
num_cat=0
split_feature=0 10 5
split_gain=5.94268 9.94279 7.21222
threshold=-0.61238851999999988 -4.7557452999999992 -2.4014064999999998
decision_type=2 2 2
left_child=2 -2 -1
right_child=1 -3 -4
leaf_value=0.033671941699359081 -0.031588223916528588 0.19627089054608057 -0.17844169165569784
leaf_weight=318.37673736363649 499.76482111960649 310.47101772576571 322.85218890756369
leaf_count=1439 2161 1416 1416
internal_value=0 0.0557242 -0.0731251
internal_weight=0 810.236 641.229
internal_count=6432 3577 2855
is_linear=0
shrinkage=1


Tree=16
num_leaves=4
num_cat=0
split_feature=4 3 8
split_gain=4.95098 6.6168 5.09638
threshold=8.8346250000000008 0.72969174500000011 0.30724402500000009
decision_type=2 2 2
left_child=1 -1 -2
right_child=2 -3 -4
leaf_value=0.14987157584923427 -0.13297639235790895 -0.04796816820990972 0.030090967036962887
leaf_weight=374.9743687286973 407.64639956504107 307.8360038548708 361.72758123278618
leaf_count=1678 1831 1324 1599
internal_value=0 0.0606782 -0.0563089
internal_weight=0 682.81 769.374
internal_count=6432 3002 3430
is_linear=0
shrinkage=1


Tree=17
num_leaves=4
num_cat=0
split_feature=8 3 6
split_gain=3.99728 10.7683 8.58506
threshold=0.42594414000000008 -0.93909132999999989 -0.24209635499999996
decision_type=2 2 2
left_child=1 -1 -3
right_child=-2 2 -4
leaf_value=-0.075271923326098653 -0.10596078644784024 0.24127889848614512 0.0028562199219656333
leaf_weight=554.6893700286746 289.68586809933186 291.22742128372192 313.7069965004921
leaf_count=2477 1290 1293 1372
internal_value=0 0.0253621 0.117638
internal_weight=0 1159.62 604.934
internal_count=6432 5142 2665
is_linear=0
shrinkage=1


Tree=18
num_leaves=4
num_cat=0
split_feature=3 6 10
split_gain=7.98264 11.7953 7.6975
threshold=-10.232413999999999 -0.77781551999999987 -5.2822348999999997
decision_type=2 2 2
left_child=-1 -2 -3
right_child=1 2 -4
leaf_value=0.14773134598660617 -0.14577956000653641 0.17117945718945574 -0.053262863206850884
leaf_weight=289.07234904915094 540.35240162909031 300.37937685102224 311.02949811518192
leaf_count=1297 2430 1299 1406
internal_value=0 -0.0381328 0.0570035
internal_weight=0 1151.76 611.409
internal_count=6432 5135 2705
is_linear=0
shrinkage=1


Tree=19
num_leaves=4
num_cat=0
split_feature=6 6 7
split_gain=8.26459 7.30156 6.00257
threshold=-0.5505441499999999 2.1400651000000006 0.057728195000000003
decision_type=2 2 2
left_child=2 -2 -1
right_child=1 -3 -4
leaf_value=0.14001434620379383 -0.20063488467544058 0.0099407820238841451 -0.042043112806350015
leaf_weight=469.62596344202757 293.28891261667013 375.46655802428722 294.77394632995129
leaf_count=2178 1308 1649 1297
internal_value=0 -0.0824091 0.0698079
internal_weight=0 668.755 764.4
internal_count=6432 2957 3475
is_linear=0
shrinkage=1


Tree=20
num_leaves=4
num_cat=0
split_feature=7 11 5
split_gain=6.35744 8.60986 4.4563
threshold=-0.0028617476499999996 -2.4266041499999997 -1.5589654999999998
decision_type=2 2 2
left_child=2 -2 -1
right_child=1 -3 -4
leaf_value=-0.0046250032484546066 0.19417345071490139 -0.038143198165369499 -0.16096443281480893
leaf_weight=504.3412287607789 305.83726558089256 333.46646255999804 285.54818921536207
leaf_count=2311 1358 1485 1278
internal_value=0 0.072995 -0.0611423
internal_weight=0 639.304 789.889
internal_count=6432 2843 3589
is_linear=0
shrinkage=1


Tree=21
num_leaves=4
num_cat=0
split_feature=5 5 8
split_gain=6.9457 6.62151 3.97186
threshold=-2.2445574499999998 -4.1975031499999984 0.31614038000000005
decision_type=2 2 2
left_child=1 -1 -2
right_child=2 -3 -4
leaf_value=0.029416099976430202 0.14582785008705237 -0.15901138579859267 -0.0073381724530914745
leaf_weight=362.87042014300823 353.01411306858063 383.69322798773646 325.33468123525381
leaf_count=1656 1586 1730 1460
internal_value=0 -0.0674254 0.0723697
internal_weight=0 746.564 678.349
internal_count=6432 3386 3046
is_linear=0
shrinkage=1


Tree=22
num_leaves=4
num_cat=0
split_feature=8 5 7
split_gain=5.42373 5.43054 4.05982
threshold=0.28710900000000006 -2.2435769499999996 0.037042362500000002
decision_type=2 2 2
left_child=2 -2 -1
right_child=1 -3 -4
leaf_value=0.010737830328557291 0.142585422176255 -0.026452205505177507 -0.14516454778970928
leaf_weight=337.9515306763351 376.14106891676784 384.15818316489458 330.26744868606329
leaf_count=1552 1716 1725 1439
internal_value=0 0.0571754 -0.066317
internal_weight=0 760.299 668.219
internal_count=6432 3441 2991
is_linear=0
shrinkage=1


Tree=23
num_leaves=4
num_cat=0
split_feature=6 4 8
split_gain=5.66261 8.65016 6.97842
threshold=-3.5918068999999995 7.3860458000000007 0.28012757000000005
decision_type=2 2 2
left_child=-1 -2 -3
right_child=1 2 -4
leaf_value=-0.1224424877071885 -0.085929782324527929 0.20501381611500719 0.0078618986965843154
leaf_weight=301.06885375082493 400.74650424718857 328.20092744380236 396.36109852418303
leaf_count=1366 1767 1459 1840
internal_value=0 0.0319608 0.0971647
internal_weight=0 1125.31 724.562
internal_count=6432 5066 3299
is_linear=0
shrinkage=1


Tree=24
num_leaves=4
num_cat=0
split_feature=8 3 11
split_gain=5.44876 6.17705 8.51609
threshold=0.36987620500000001 -5.9293884999999991 -2.5188945499999993
decision_type=2 2 2
left_child=1 -1 -3
right_child=-2 2 -4
leaf_value=-0.16065907151126441 0.096412370836708672 -0.11908006696937007 0.10211242511828465
leaf_weight=300.33615124970675 408.9244169741869 297.8524627238512 418.80092550069094
leaf_count=1367 1886 1305 1874
internal_value=0 -0.0402711 0.0101813
internal_weight=0 1016.99 716.653
internal_count=6432 4546 3179
is_linear=0
shrinkage=1


Tree=25
num_leaves=4
num_cat=0
split_feature=3 5 5
split_gain=5.25561 7.18554 4.16316
threshold=0.83094322000000009 -2.1104158499999994 -2.1951722999999994
decision_type=2 2 2
left_child=2 -2 -1
right_child=1 -3 -4
leaf_value=0.11794860682883963 -0.16672606467535941 0.046786456889975042 -0.027940390309796059
leaf_weight=441.69866628572345 343.52310591191053 291.26195894181728 351.07707694172859
leaf_count=2032 1520 1286 1594
internal_value=0 -0.0687589 0.0533423
internal_weight=0 634.785 792.776
internal_count=6432 2806 3626
is_linear=0
shrinkage=1


Tree=26
num_leaves=4
num_cat=0
split_feature=4 7 8
split_gain=4.61619 5.18229 5.75505
threshold=12.092232500000001 0.030986961500000004 0.32206599500000005
decision_type=2 2 2
left_child=1 2 -1
right_child=-2 -3 -4
leaf_value=0.063703806375846828 -0.096343773421458334 0.1215670748408082 -0.12580910172517781
leaf_weight=352.11119214072824 373.06196862459183 406.5478483363986 294.063979819417
leaf_count=1644 1665 1792 1331
internal_value=0 0.033112 -0.0225405
internal_weight=0 1052.72 646.175
internal_count=6432 4767 2975
is_linear=0
shrinkage=1


Tree=27
num_leaves=4
num_cat=0
split_feature=8 5 3
split_gain=3.72332 2.67824 2.09188
threshold=0.28710900000000006 -2.2445574499999998 1.3697826000000004
decision_type=2 2 2
left_child=2 -2 -1
right_child=1 -3 -4
leaf_value=-0.10519339183006655 -0.014684783318789685 0.10442262321106301 0.0076587437753155106
leaf_weight=371.50736518204212 363.12334156781435 393.22359777987003 294.43214081227779
leaf_count=1682 1649 1792 1309
internal_value=0 0.047239 -0.055298
internal_weight=0 756.347 665.94
internal_count=6432 3441 2991
is_linear=0
shrinkage=1


Tree=28
num_leaves=4
num_cat=0
split_feature=2 1 5
split_gain=2.59898 4.52705 3.84392
threshold=1.4990195000000002 5.8679961500000006 -2.7970668499999998
decision_type=2 2 2
left_child=1 -1 -3
right_child=-2 2 -4
leaf_value=-0.11239423321574749 0.080649145165675576 -0.063880673891241371 0.082903377557092039
leaf_weight=375.23939301073551 309.27840315178037 303.01397778838873 433.85381190478802
leaf_count=1664 1521 1347 1900
internal_value=0 -0.0229866 0.022543
internal_weight=0 1112.11 736.868
internal_count=6432 4911 3247
is_linear=0
shrinkage=1


Tree=29
num_leaves=4
num_cat=0
split_feature=5 7 5
split_gain=7.32324 3.36013 2.18143
threshold=-3.0573678999999996 0.037042362500000002 -1.4099223999999999
decision_type=2 2 2
left_child=-1 2 -2
right_child=1 -3 -4
leaf_value=0.090523843828373696 0.048189073741195861 -0.14377322205805509 -0.074321859965018611
leaf_weight=545.05009624361992 291.47437800467014 296.09698162972927 289.89739982038736
leaf_count=2515 1312 1285 1320
internal_value=0 -0.0570626 -0.0129002
internal_weight=0 877.469 581.372
internal_count=6432 3917 2632
is_linear=0
shrinkage=1


Tree=30
num_leaves=4
num_cat=0
split_feature=2 9 10
split_gain=3.45935 3.58299 4.15666
threshold=-1.3657860499999999 7.0717025000000016 -4.1912541999999986
decision_type=2 2 2
left_child=-1 2 -2
right_child=1 -3 -4
leaf_value=0.096194461101520926 -0.043789252104818994 -0.11550090108177442 0.10564573020198639
leaf_weight=292.8364839181304 521.3323042653501 319.2574692517519 289.50758364796638
leaf_count=1297 2337 1458 1340
internal_value=0 -0.025766 0.00956599
internal_weight=0 1130.1 810.84
internal_count=6432 5135 3677
is_linear=0
shrinkage=1


Tree=31
num_leaves=4
num_cat=0
split_feature=7 5 8
split_gain=2.94862 3.95745 4.92213
threshold=0.24078186500000004 -2.7970668499999998 0.32206599500000005
decision_type=2 2 2
left_child=1 -1 -3
right_child=-2 2 -4
leaf_value=-0.10233259366038362 0.076262109249503177 0.10842330970325663 -0.068865995177692332
leaf_weight=423.15649880468845 369.45991786569357 324.31625016406178 302.81572637706995
leaf_count=1944 1638 1478 1372
internal_value=0 -0.0276048 0.0228177
internal_weight=0 1050.29 627.132
internal_count=6432 4794 2850
is_linear=0
shrinkage=1


Tree=32
num_leaves=4
num_cat=0
split_feature=7 5 6
split_gain=2.84383 4.98263 3.13227
threshold=-0.10608545499999998 -2.2435769499999996 -0.55916181499999984
decision_type=2 2 2
left_child=1 -1 -2
right_child=2 -3 -4
leaf_value=0.13772535840701061 -0.10477165810028991 -0.044492618176141238 0.019606793377914895
leaf_weight=317.2308279722929 383.83394669741392 284.77425358444452 428.52065370231867
leaf_count=1539 1687 1280 1926
internal_value=0 0.0515284 -0.0391615
internal_weight=0 602.005 812.355
internal_count=6432 2819 3613
is_linear=0
shrinkage=1


end of trees

feature_importances:
Column_8=20
Column_5=18
Column_6=10
Column_7=10
Column_3=8
Column_4=7
Column_10=6
Column_11=6
Column_2=4
Column_9=4
Column_0=3
Column_1=3

parameters:
[boosting: gbdt]
[objective: binary]
[metric: binary_logloss]
[tree_learner: serial]
[device_type: cpu]
[data: ]
[valid: ]
[num_iterations: 120]
[learning_rate: 1]
[num_leaves: 4]
[num_threads: 8]
[deterministic: 0]
[force_col_wise: 0]
[force_row_wise: 0]
[histogram_pool_size: -1]
[max_depth: -1]
[min_data_in_leaf: 1286]
[min_sum_hessian_in_leaf: 0.001]
[bagging_fraction: 1]
[pos_bagging_fraction: 1]
[neg_bagging_fraction: 1]
[bagging_freq: 0]
[bagging_seed: 3]
[feature_fraction: 1]
[feature_fraction_bynode: 1]
[feature_fraction_seed: 2]
[extra_trees: 0]
[extra_seed: 6]
[early_stopping_round: 0]
[first_metric_only: 0]
[max_delta_step: 0]
[lambda_l1: 0]
[lambda_l2: 0]
[linear_lambda: 0]
[min_gain_to_split: 0]
[drop_rate: 0.1]
[max_drop: 50]
[skip_drop: 0.5]
[xgboost_dart_mode: 0]
[uniform_drop: 0]
[drop_seed: 4]
[top_rate: 0.2]
[other_rate: 0.1]
[min_data_per_group: 100]
[max_cat_threshold: 32]
[cat_l2: 10]
[cat_smooth: 10]
[max_cat_to_onehot: 4]
[top_k: 20]
[monotone_constraints: ]
[monotone_constraints_method: basic]
[monotone_penalty: 0]
[feature_contri: ]
[forcedsplits_filename: ]
[refit_decay_rate: 0.9]
[cegb_tradeoff: 1]
[cegb_penalty_split: 0]
[cegb_penalty_feature_lazy: ]
[cegb_penalty_feature_coupled: ]
[path_smooth: 0]
[interaction_constraints: ]
[verbosity: 1]
[saved_feature_importance_type: 0]
[linear_tree: 0]
[max_bin: 255]
[max_bin_by_feature: ]
[min_data_in_bin: 3]
[bin_construct_sample_cnt: 200000]
[data_random_seed: 1]
[is_enable_sparse: 1]
[enable_bundle: 1]
[use_missing: 1]
[zero_as_missing: 0]
[feature_pre_filter: 1]
[pre_partition: 0]
[two_round: 0]
[header: 0]
[label_column: ]
[weight_column: ]
[group_column: ]
[ignore_column: ]
[categorical_feature: ]
[forcedbins_filename: ]
[precise_float_parser: 0]
[parser_config_file: ]
[objective_seed: 5]
[num_class: 1]
[is_unbalance: 0]
[scale_pos_weight: 1]
[sigmoid: 1]
[boost_from_average: 1]
[reg_sqrt: 0]
[alpha: 0.9]
[fair_c: 1]
[poisson_max_delta_step: 0.7]
[tweedie_variance_power: 1.5]
[lambdarank_truncation_level: 30]
[lambdarank_norm: 1]
[label_gain: ]
[eval_at: ]
[multi_error_top_k: 1]
[auc_mu_weights: ]
[num_machines: 1]
[local_listen_port: 12400]
[time_out: 120]
[machine_list_filename: ]
[machines: ]
[gpu_platform_id: 1]
[gpu_device_id: 0]
[gpu_use_dp: 0]
[num_gpu: 1]

end of parameters

pandas_categorical:null
